{"sizes":[235,20,20,1],"layers":[{"0":{},"1":{},"2":{},"3":{},"4":{},"5":{},"6":{},"7":{},"8":{},"9":{},"10":{},"11":{},"12":{},"13":{},"14":{},"15":{},"16":{},"17":{},"18":{},"19":{},"20":{},"21":{},"22":{},"23":{},"24":{},"25":{},"26":{},"27":{},"28":{},"29":{},"30":{},"31":{},"32":{},"33":{},"34":{},"35":{},"36":{},"37":{},"38":{},"39":{},"40":{},"41":{},"42":{},"43":{},"44":{},"45":{},"46":{},"47":{},"48":{},"49":{},"50":{},"51":{},"52":{},"53":{},"54":{},"55":{},"56":{},"57":{},"58":{},"59":{},"60":{},"61":{},"62":{},"63":{},"64":{},"65":{},"66":{},"67":{},"68":{},"69":{},"70":{},"71":{},"72":{},"73":{},"74":{},"75":{},"76":{},"77":{},"78":{},"79":{},"80":{},"81":{},"82":{},"83":{},"84":{},"85":{},"86":{},"87":{},"88":{},"89":{},"90":{},"91":{},"92":{},"93":{},"94":{},"95":{},"96":{},"97":{},"98":{},"99":{},"100":{},"101":{},"102":{},"103":{},"104":{},"105":{},"106":{},"107":{},"108":{},"109":{},"110":{},"111":{},"112":{},"113":{},"114":{},"115":{},"116":{},"117":{},"118":{},"119":{},"120":{},"121":{},"122":{},"123":{},"124":{},"125":{},"126":{},"127":{},"128":{},"129":{},"130":{},"131":{},"132":{},"133":{},"134":{},"135":{},"136":{},"137":{},"138":{},"139":{},"140":{},"141":{},"142":{},"143":{},"144":{},"145":{},"146":{},"147":{},"148":{},"149":{},"150":{},"151":{},"152":{},"153":{},"154":{},"155":{},"156":{},"157":{},"158":{},"159":{},"160":{},"161":{},"162":{},"163":{},"164":{},"165":{},"166":{},"167":{},"168":{},"169":{},"170":{},"171":{},"172":{},"173":{},"174":{},"175":{},"176":{},"177":{},"178":{},"179":{},"180":{},"181":{},"182":{},"183":{},"184":{},"185":{},"186":{},"187":{},"188":{},"189":{},"190":{},"191":{},"192":{},"193":{},"194":{},"195":{},"196":{},"197":{},"198":{},"199":{},"200":{},"201":{},"202":{},"203":{},"204":{},"205":{},"206":{},"207":{},"208":{},"209":{},"210":{},"211":{},"212":{},"213":{},"214":{},"215":{},"216":{},"217":{},"218":{},"219":{},"220":{},"221":{},"222":{},"223":{},"224":{},"225":{},"226":{},"227":{},"228":{},"229":{},"230":{},"231":{},"232":{},"233":{},"234":{}},{"0":{"bias":0.1767917424440384,"weights":{"0":-0.18536502122879028,"1":0.08474526554346085,"2":0.11546175181865692,"3":-0.20218539237976074,"4":0.002249273471534252,"5":0.07205837965011597,"6":0.06421981006860733,"7":0.03540685400366783,"8":-0.035024333745241165,"9":-0.09520106762647629,"10":0.09028249979019165,"11":-0.09986304491758347,"12":0.02592013031244278,"13":-0.039159636944532394,"14":0.11067838966846466,"15":-0.01376301795244217,"16":-0.20017577707767487,"17":-0.00811606552451849,"18":0.16827140748500824,"19":0.0730569064617157,"20":0.020364457741379738,"21":0.1307808756828308,"22":-0.02731397934257984,"23":0.0556614026427269,"24":-0.1331014484167099,"25":-0.008352301083505154,"26":0.13826541602611542,"27":-0.15212233364582062,"28":0.15056470036506653,"29":0.042580462992191315,"30":-0.08638337254524231,"31":-0.10953951627016068,"32":-0.21693046391010284,"33":-0.13459491729736328,"34":0.17306707799434662,"35":0.09508195519447327,"36":0.1224369928240776,"37":-0.13855449855327606,"38":-0.0926680937409401,"39":-0.21116113662719727,"40":0.12746934592723846,"41":-0.08413053303956985,"42":0.019213976338505745,"43":-0.1621033400297165,"44":0.04068375378847122,"45":0.002698031719774008,"46":0.033065974712371826,"47":-0.1242806613445282,"48":-0.1519320160150528,"49":0.04411714896559715,"50":0.16907918453216553,"51":0.11784679442644119,"52":-0.11155018210411072,"53":0.10461775958538055,"54":0.14133265614509583,"55":-0.04763311147689819,"56":-0.1540517359972,"57":0.0054512228816747665,"58":-0.012229962274432182,"59":-0.1055423840880394,"60":0.028585150837898254,"61":0.08438459038734436,"62":-0.1370895504951477,"63":0.14013297855854034,"64":-0.1658431440591812,"65":0.13860008120536804,"66":-0.20981107652187347,"67":-0.03975822776556015,"68":-0.20393869280815125,"69":-0.1630253940820694,"70":0.09936383366584778,"71":-0.04089593514800072,"72":-0.06057906523346901,"73":0.0352616123855114,"74":-0.10773704946041107,"75":0.1051274836063385,"76":-0.08159640431404114,"77":0.0948576107621193,"78":-0.21593767404556274,"79":0.002768211765214801,"80":0.09536625444889069,"81":0.11725465208292007,"82":-0.10150140523910522,"83":0.013753307983279228,"84":-0.0016088526463136077,"85":-0.09303057193756104,"86":-0.18650434911251068,"87":-0.1429523527622223,"88":0.0709509402513504,"89":0.10640433430671692,"90":0.12487772852182388,"91":-0.18603721261024475,"92":0.1434362828731537,"93":0.007740580476820469,"94":-0.2016410231590271,"95":0.03692140430212021,"96":0.05760907381772995,"97":-0.20155350863933563,"98":0.019761458039283752,"99":-0.16486363112926483,"100":-0.07048013061285019,"101":0.09952379763126373,"102":0.11487629264593124,"103":0.09641778469085693,"104":-0.13495305180549622,"105":0.10114970058202744,"106":-0.15572679042816162,"107":-0.04989975690841675,"108":-0.22031450271606445,"109":-0.20798620581626892,"110":0.12278470396995544,"111":0.06593333184719086,"112":-0.08347996324300766,"113":-0.09050054848194122,"114":-0.2193322628736496,"115":-0.08403054624795914,"116":-0.14955100417137146,"117":-0.09434514492750168,"118":0.006597060710191727,"119":-0.16384875774383545,"120":0.09133084118366241,"121":-0.024986479431390762,"122":0.17222096025943756,"123":0.11799107491970062,"124":-0.0750512182712555,"125":-0.013756605796515942,"126":0.1461266428232193,"127":-0.2025546133518219,"128":-0.07490676641464233,"129":0.09215207397937775,"130":-0.11902065575122833,"131":0.11220352351665497,"132":0.12010663002729416,"133":-0.0027956669218838215,"134":0.028767304494976997,"135":0.08161724358797073,"136":-0.032306116074323654,"137":-0.09053739160299301,"138":-0.02023031935095787,"139":-0.11238864809274673,"140":0.14827339351177216,"141":0.030733944848179817,"142":-0.1836787909269333,"143":-0.058350227773189545,"144":0.09753236919641495,"145":-0.10976888239383698,"146":-0.031447634100914,"147":-0.2130560576915741,"148":-0.1794918179512024,"149":0.17021282017230988,"150":-0.11423246562480927,"151":-0.09903554618358612,"152":0.024685291573405266,"153":0.07153376936912537,"154":-0.06575179845094681,"155":0.1645534187555313,"156":0.005119337700307369,"157":-0.14075811207294464,"158":0.15456251800060272,"159":-0.20598651468753815,"160":0.11070217192173004,"161":0.05830370634794235,"162":0.1170964315533638,"163":-0.15293294191360474,"164":0.12046811729669571,"165":0.15548564493656158,"166":0.07073628157377243,"167":0.1726597398519516,"168":-0.07481424510478973,"169":-0.0012260967632755637,"170":-0.14137423038482666,"171":-0.19167158007621765,"172":-0.06843908876180649,"173":-0.01942482776939869,"174":-0.08884209394454956,"175":0.14966970682144165,"176":0.16227366030216217,"177":-0.21715177595615387,"178":-0.11853498220443726,"179":-0.10752414911985397,"180":-0.05735859274864197,"181":0.1240381971001625,"182":0.03683866932988167,"183":-0.19233061373233795,"184":-0.09519689530134201,"185":0.1480918824672699,"186":0.0321497768163681,"187":0.1405591070652008,"188":0.15414877235889435,"189":-0.012311180122196674,"190":0.14726857841014862,"191":-0.027677245438098907,"192":-0.07852538675069809,"193":0.11044368892908096,"194":-0.19651049375534058,"195":-0.11753930151462555,"196":-0.19662617146968842,"197":0.09260214865207672,"198":-0.053332965821027756,"199":-0.11933855712413788,"200":-0.0613020695745945,"201":-0.1501329243183136,"202":0.03121321275830269,"203":0.030835239216685295,"204":0.10267481207847595,"205":0.09683914482593536,"206":0.159723162651062,"207":-0.21553605794906616,"208":0.08770041912794113,"209":0.023972779512405396,"210":-0.16741998493671417,"211":-0.19576485455036163,"212":0.15666940808296204,"213":-0.020089581608772278,"214":-0.13442100584506989,"215":-0.04690808057785034,"216":0.10180956870317459,"217":0.008007679134607315,"218":0.16925549507141113,"219":0.17773742973804474,"220":-0.17453749477863312,"221":0.12697073817253113,"222":-0.16779349744319916,"223":-0.197269469499588,"224":-0.04754934459924698,"225":-0.09818173199892044,"226":0.155138298869133,"227":-0.22080744802951813,"228":-0.1807715892791748,"229":-0.08224409818649292,"230":-0.1521766036748886,"231":0.1484392285346985,"232":0.05027340352535248,"233":-0.09700194746255875,"234":0.14697593450546265}},"1":{"bias":0.1904924213886261,"weights":{"0":-0.16111688315868378,"1":-0.08799700438976288,"2":-0.053435515612363815,"3":-0.07406977564096451,"4":-0.1425800919532776,"5":0.1659858226776123,"6":-0.1054374948143959,"7":-0.08313778042793274,"8":0.1868700087070465,"9":0.11941603571176529,"10":-0.00044187926687300205,"11":-0.1280694603919983,"12":-0.19627560675144196,"13":0.15815097093582153,"14":-0.06169981136918068,"15":0.026065988466143608,"16":-0.0679221972823143,"17":-0.08207054436206818,"18":0.09106028825044632,"19":-0.07998105138540268,"20":0.19028732180595398,"21":-0.014669324271380901,"22":-0.15564879775047302,"23":0.07931610941886902,"24":-0.14797505736351013,"25":0.01409711129963398,"26":0.07146582007408142,"27":0.09550628066062927,"28":0.014839173294603825,"29":-0.14769038558006287,"30":-0.17116829752922058,"31":0.020959090441465378,"32":-0.1002565547823906,"33":0.07889167219400406,"34":0.05800166353583336,"35":-0.12287348508834839,"36":0.021998073905706406,"37":0.04440885782241821,"38":0.004777112975716591,"39":-0.13228504359722137,"40":0.007407137658447027,"41":0.07902747392654419,"42":0.16373689472675323,"43":0.08261533081531525,"44":-0.0789467915892601,"45":0.17531920969486237,"46":0.13384287059307098,"47":0.05825111269950867,"48":0.14686636626720428,"49":-0.12365516275167465,"50":0.16850540041923523,"51":0.1309550255537033,"52":-0.12885044515132904,"53":-0.14593303203582764,"54":-0.13129808008670807,"55":0.13932345807552338,"56":-0.17098593711853027,"57":0.018207285553216934,"58":0.1548050493001938,"59":0.1066703274846077,"60":0.10337134450674057,"61":-0.17464607954025269,"62":0.0706571638584137,"63":-0.1422443389892578,"64":0.03177856653928757,"65":-0.14745058119297028,"66":-0.12089306116104126,"67":0.07156629860401154,"68":-0.1726813167333603,"69":0.010897520929574966,"70":0.14652937650680542,"71":0.07529502362012863,"72":0.17307889461517334,"73":-0.06260508298873901,"74":0.008056270889937878,"75":-0.12963780760765076,"76":0.06812412291765213,"77":-0.06410074234008789,"78":-0.036848004907369614,"79":0.14341051876544952,"80":0.19960683584213257,"81":0.09300755709409714,"82":-0.14651453495025635,"83":0.1276855617761612,"84":-0.1807193011045456,"85":-0.08871027082204819,"86":-0.005227233283221722,"87":-0.172322615981102,"88":0.10718409717082977,"89":-0.1559162586927414,"90":0.088239386677742,"91":0.004787000361829996,"92":0.18294695019721985,"93":0.15550895035266876,"94":-0.13484534621238708,"95":-0.17066238820552826,"96":-0.1447831094264984,"97":-0.14629824459552765,"98":0.13393919169902802,"99":-0.04559453949332237,"100":-0.127350315451622,"101":0.0910773053765297,"102":-0.026866288855671883,"103":0.1856670081615448,"104":0.031080765649676323,"105":-0.12222186475992203,"106":-0.01238864567130804,"107":-0.06358847767114639,"108":-0.04397432878613472,"109":0.1933548003435135,"110":0.07167507708072662,"111":0.04607956111431122,"112":0.16601592302322388,"113":-0.02949347160756588,"114":0.032630205154418945,"115":0.1764877587556839,"116":-0.0543973408639431,"117":-0.07764824479818344,"118":0.1522899568080902,"119":-0.14380116760730743,"120":0.031076323240995407,"121":-0.011589178815484047,"122":-0.16948525607585907,"123":-0.04191729798913002,"124":0.19012516736984253,"125":0.047620221972465515,"126":0.12347745150327682,"127":0.1025182381272316,"128":0.19212545454502106,"129":-0.17226891219615936,"130":0.17195086181163788,"131":-0.011299901641905308,"132":0.1376810520887375,"133":0.1801718771457672,"134":-0.0892619788646698,"135":-0.03672775998711586,"136":-0.184550479054451,"137":-0.03463108465075493,"138":-0.14479774236679077,"139":-0.1426430642604828,"140":0.15883348882198334,"141":-0.12443453818559647,"142":0.11836396902799606,"143":0.04424656555056572,"144":0.14853738248348236,"145":-0.00893496721982956,"146":0.15171405673027039,"147":0.04352397844195366,"148":-0.034691691398620605,"149":-0.1650523841381073,"150":-0.17670243978500366,"151":0.1593719869852066,"152":0.003748571965843439,"153":0.09935164451599121,"154":0.06688027828931808,"155":-0.11260152608156204,"156":-0.07939847558736801,"157":0.0884043499827385,"158":0.05145611986517906,"159":-0.14662356674671173,"160":-0.09751749038696289,"161":0.021565482020378113,"162":0.04576677083969116,"163":-0.025386983528733253,"164":-0.10625214874744415,"165":-0.13298504054546356,"166":-0.11904744058847427,"167":-0.057475876063108444,"168":-0.02189437672495842,"169":-0.0914350301027298,"170":-0.031646255403757095,"171":0.06956008821725845,"172":0.01332545280456543,"173":-0.03646545112133026,"174":0.1711418628692627,"175":0.16544829308986664,"176":-0.15746787190437317,"177":0.05673551559448242,"178":0.009436252526938915,"179":0.020012183114886284,"180":0.12737153470516205,"181":-0.13459737598896027,"182":-0.1303166002035141,"183":0.05466300621628761,"184":-0.06470603495836258,"185":0.16835540533065796,"186":0.16390620172023773,"187":-0.11017704755067825,"188":-0.00868682749569416,"189":0.1727079153060913,"190":0.07047200947999954,"191":-0.07299651950597763,"192":-0.07849572598934174,"193":0.013110954314470291,"194":-0.18862873315811157,"195":-0.11675400286912918,"196":0.19481942057609558,"197":-0.14127607643604279,"198":0.015373199246823788,"199":0.11957097053527832,"200":0.19094456732273102,"201":0.12898214161396027,"202":-0.10673103481531143,"203":0.11095832288265228,"204":-0.07382435351610184,"205":0.07909295707941055,"206":-0.03491385281085968,"207":0.13107964396476746,"208":-0.0922790914773941,"209":-0.10527580231428146,"210":0.048429202288389206,"211":-0.16994649171829224,"212":0.05758778378367424,"213":-0.14310923218727112,"214":0.015684090554714203,"215":0.09239780157804489,"216":-0.09462348371744156,"217":-0.04408460110425949,"218":0.11152016371488571,"219":-0.17226757109165192,"220":-0.1605158895254135,"221":-0.09875838458538055,"222":-0.09291611611843109,"223":0.18794295191764832,"224":0.05748753249645233,"225":0.11283194273710251,"226":-0.1908387839794159,"227":-0.09572456777095795,"228":0.0722757875919342,"229":0.19481608271598816,"230":-0.08002150803804398,"231":-0.10828062891960144,"232":-0.001125983544625342,"233":-0.03965604305267334,"234":0.021931780502200127}},"2":{"bias":0.09248289465904236,"weights":{"0":-0.1930418759584427,"1":-0.014804472215473652,"2":-0.038508713245391846,"3":-0.2045580893754959,"4":-0.13149292767047882,"5":-0.19400835037231445,"6":-0.2287263572216034,"7":0.06846337020397186,"8":0.05266920104622841,"9":-0.28291386365890503,"10":-0.06823801249265671,"11":-0.1471235454082489,"12":-0.1513097584247589,"13":-0.26779645681381226,"14":-0.04588085040450096,"15":-0.11197477579116821,"16":-0.32106813788414,"17":-0.1859527826309204,"18":-0.3276723325252533,"19":-0.10458459705114365,"20":-0.21717610955238342,"21":0.06782597303390503,"22":0.03804473206400871,"23":-0.20141294598579407,"24":-0.16809868812561035,"25":-0.31782352924346924,"26":-0.09334032982587814,"27":-0.3170740604400635,"28":-0.008813963271677494,"29":-0.06616373360157013,"30":-0.07791411876678467,"31":0.05327356234192848,"32":-0.04840266704559326,"33":-0.02494732290506363,"34":0.005154007114470005,"35":-0.3281779885292053,"36":-0.09015817940235138,"37":-0.2475312203168869,"38":0.008116183802485466,"39":-0.2054605484008789,"40":-0.18367531895637512,"41":-0.09138236939907074,"42":-0.26353272795677185,"43":0.040176864713430405,"44":-0.020443808287382126,"45":-0.14307329058647156,"46":-0.25330400466918945,"47":-0.024400323629379272,"48":-0.26287227869033813,"49":-0.26152634620666504,"50":-0.31249335408210754,"51":-0.26999133825302124,"52":0.05342191830277443,"53":-0.25815531611442566,"54":-0.19120311737060547,"55":-0.2863503098487854,"56":-0.0027775363996624947,"57":-0.10801491141319275,"58":-0.22674641013145447,"59":-0.2412818968296051,"60":-0.11308952420949936,"61":-0.15775257349014282,"62":-0.18200919032096863,"63":-0.026044312864542007,"64":-0.022374991327524185,"65":-0.09585890173912048,"66":-0.16845852136611938,"67":-0.18538206815719604,"68":-0.21193790435791016,"69":-0.17095071077346802,"70":-0.10723622888326645,"71":-0.1452338546514511,"72":-0.2739866077899933,"73":-0.014327810145914555,"74":-0.008939418010413647,"75":-0.1572883129119873,"76":-0.1777581423521042,"77":-0.28348204493522644,"78":-0.01656084507703781,"79":-0.31377890706062317,"80":-0.06644086539745331,"81":-0.16186146438121796,"82":-0.09091071784496307,"83":-0.2174896001815796,"84":0.015978483483195305,"85":-0.30063939094543457,"86":-0.22910182178020477,"87":-0.2693006098270416,"88":-0.10033724457025528,"89":-0.18701563775539398,"90":-0.03268420323729515,"91":-0.24339640140533447,"92":0.023286418989300728,"93":-0.22667992115020752,"94":-0.17427074909210205,"95":-0.07695482671260834,"96":-0.2418707311153412,"97":-0.3036178648471832,"98":-0.14337825775146484,"99":-0.06512245535850525,"100":-0.2124355435371399,"101":-0.018885374069213867,"102":-0.31064262986183167,"103":-0.15495464205741882,"104":0.033868566155433655,"105":-0.2935985326766968,"106":-0.10973891615867615,"107":0.011829578317701817,"108":-0.06463152170181274,"109":0.024540681391954422,"110":-0.046610936522483826,"111":0.04437858611345291,"112":0.00026293614064343274,"113":-0.05596523731946945,"114":-0.20426541566848755,"115":-0.12259567528963089,"116":0.06361771374940872,"117":0.004571115598082542,"118":-0.0206559207290411,"119":-0.22225667536258698,"120":-0.17067958414554596,"121":-0.16288462281227112,"122":-0.2978745698928833,"123":-0.16218319535255432,"124":-0.006768770981580019,"125":-0.2984534204006195,"126":-0.00690874271094799,"127":0.061544157564640045,"128":-0.1911396086215973,"129":-0.2113952487707138,"130":-0.08527486771345139,"131":0.00517401285469532,"132":-0.24950295686721802,"133":0.05522821098566055,"134":-0.1718543916940689,"135":-0.010743421502411366,"136":0.021150218322873116,"137":-0.14555232226848602,"138":-0.0051833586767315865,"139":0.06878265738487244,"140":0.05661654472351074,"141":-0.12687551975250244,"142":-0.06246625632047653,"143":0.05104455724358559,"144":-0.12444229423999786,"145":-0.05605287477374077,"146":-0.29996880888938904,"147":-0.19446134567260742,"148":-0.2632584273815155,"149":-0.3142085671424866,"150":-0.27543556690216064,"151":-0.026357438415288925,"152":-0.08505029231309891,"153":-0.22484919428825378,"154":-0.19071775674819946,"155":0.055845342576503754,"156":-0.3125152885913849,"157":-0.06527451425790787,"158":-0.18169043958187103,"159":0.06648307293653488,"160":-0.1642695963382721,"161":0.04332077130675316,"162":-0.14335395395755768,"163":-0.23698998987674713,"164":-0.1707964539527893,"165":-0.2919424772262573,"166":-0.04986828938126564,"167":-0.01388869620859623,"168":0.038195446133613586,"169":0.12054001539945602,"170":-0.2379261553287506,"171":0.03949220851063728,"172":-0.11948683112859726,"173":-0.13142701983451843,"174":-0.2562773823738098,"175":-0.12482667714357376,"176":-0.25769105553627014,"177":-0.1759406477212906,"178":-0.2133733183145523,"179":-0.24939467012882233,"180":-0.21427999436855316,"181":-0.2053862065076828,"182":-0.024310382083058357,"183":-0.27055174112319946,"184":-0.31745970249176025,"185":-0.11993107199668884,"186":-0.06741273403167725,"187":-0.03931436687707901,"188":-0.26101982593536377,"189":-0.16353167593479156,"190":-0.03153266757726669,"191":0.01777913235127926,"192":-0.06161142885684967,"193":-0.30989566445350647,"194":-0.22026659548282623,"195":-0.1409580558538437,"196":-0.14050860702991486,"197":-0.15278643369674683,"198":-0.1419169008731842,"199":0.06852465122938156,"200":-0.20789361000061035,"201":-0.18758049607276917,"202":-0.14441727101802826,"203":-0.17453435063362122,"204":-0.2974526286125183,"205":-0.04905218258500099,"206":-0.24343423545360565,"207":-0.2101292610168457,"208":-0.09599125385284424,"209":-0.25349563360214233,"210":-0.04127511754631996,"211":-0.045424286276102066,"212":-0.07810701429843903,"213":-0.05181159824132919,"214":-0.09516844898462296,"215":-0.18286435306072235,"216":0.05723404139280319,"217":-0.31811001896858215,"218":0.051603686064481735,"219":-0.25448888540267944,"220":-0.09615612775087357,"221":-0.02663443610072136,"222":-0.07085712999105453,"223":-0.11906338483095169,"224":0.04506733641028404,"225":0.052296608686447144,"226":-0.16333818435668945,"227":-0.39211663603782654,"228":0.043646011501550674,"229":-0.09290751814842224,"230":-0.31799665093421936,"231":0.019701186567544937,"232":-0.15770810842514038,"233":-0.3677854537963867,"234":-0.010120787657797337}},"3":{"bias":0.11073197424411774,"weights":{"0":0.23278863728046417,"1":0.05979407951235771,"2":0.10477069765329361,"3":0.19807890057563782,"4":0.11449267715215683,"5":0.015274450182914734,"6":0.24262012541294098,"7":-0.031890854239463806,"8":-0.015713371336460114,"9":0.01823633909225464,"10":0.016103658825159073,"11":0.17343421280384064,"12":0.1908959597349167,"13":0.29174402356147766,"14":0.2795952260494232,"15":-0.020555799826979637,"16":0.22095389664173126,"17":0.07458725571632385,"18":-0.029297413304448128,"19":0.22480154037475586,"20":0.2055482566356659,"21":0.1586008071899414,"22":-0.024840617552399635,"23":0.10855789482593536,"24":0.09839512407779694,"25":0.26204749941825867,"26":-0.02033686637878418,"27":0.0034776621032506227,"28":0.22203068435192108,"29":0.1352003663778305,"30":-0.01743791438639164,"31":0.21551145613193512,"32":0.24718058109283447,"33":0.158950075507164,"34":0.15706117451190948,"35":0.20031064748764038,"36":0.14941896498203278,"37":0.10376087576150894,"38":0.21636907756328583,"39":0.08604437112808228,"40":0.22884386777877808,"41":0.247633695602417,"42":0.020762506872415543,"43":0.08663320541381836,"44":0.17700399458408356,"45":0.23586873710155487,"46":-0.10127943754196167,"47":0.1329851597547531,"48":0.07744494080543518,"49":0.00015985890058800578,"50":0.25486600399017334,"51":-0.05708695948123932,"52":0.002825983799993992,"53":0.16647674143314362,"54":0.10476578772068024,"55":-0.05788898468017578,"56":0.0871860682964325,"57":0.2727314829826355,"58":0.14730562269687653,"59":0.27692994475364685,"60":0.26286831498146057,"61":0.2822686731815338,"62":0.20379987359046936,"63":0.26536673307418823,"64":0.20441611111164093,"65":0.23089365661144257,"66":-0.035007841885089874,"67":0.13517551124095917,"68":0.15887781977653503,"69":0.2734069526195526,"70":-0.015844212844967842,"71":-0.06429803371429443,"72":-0.0030985046178102493,"73":0.1687254011631012,"74":0.03223571553826332,"75":0.2884977161884308,"76":-0.0866510421037674,"77":-0.08315887302160263,"78":0.0970090702176094,"79":0.2496756762266159,"80":-0.039403606206178665,"81":0.12357589602470398,"82":0.1905124932527542,"83":-0.03811328485608101,"84":-0.07059147953987122,"85":0.1339097023010254,"86":-0.018709857016801834,"87":0.07418598979711533,"88":0.02218954637646675,"89":0.21691560745239258,"90":-0.08934887498617172,"91":-0.026581447571516037,"92":0.28771963715553284,"93":0.1609095185995102,"94":0.0996762216091156,"95":0.29974624514579773,"96":-0.016421446576714516,"97":0.1923222541809082,"98":-0.0495089590549469,"99":0.2477775514125824,"100":0.2933986783027649,"101":0.2147573083639145,"102":0.19874335825443268,"103":0.25016382336616516,"104":0.015074575319886208,"105":0.051893021911382675,"106":-0.025094684213399887,"107":0.05949965864419937,"108":-0.023395145311951637,"109":-0.06235884875059128,"110":0.25193873047828674,"111":0.10930781066417694,"112":0.2704537808895111,"113":0.2832576036453247,"114":-0.04208214208483696,"115":-0.07911811769008636,"116":0.06859146058559418,"117":0.16148950159549713,"118":0.026247462257742882,"119":0.11711600422859192,"120":0.22910182178020477,"121":0.1279367208480835,"122":-0.07330096513032913,"123":0.288816899061203,"124":0.17602033913135529,"125":0.06823448836803436,"126":0.2561798095703125,"127":0.28184032440185547,"128":0.24754159152507782,"129":0.013208839111030102,"130":0.13312511146068573,"131":0.28776106238365173,"132":-0.06742151081562042,"133":0.04508884996175766,"134":-0.04525057226419449,"135":0.16893251240253448,"136":-0.029807060956954956,"137":-0.02177141234278679,"138":-0.03771182522177696,"139":0.014911389909684658,"140":0.23848722875118256,"141":0.2051353007555008,"142":0.1255466192960739,"143":0.23137164115905762,"144":0.1409931629896164,"145":0.23814985156059265,"146":0.10575152933597565,"147":-0.11769182980060577,"148":-0.09040293097496033,"149":0.2354329526424408,"150":0.09885212033987045,"151":0.0021391145419329405,"152":0.25875064730644226,"153":0.17469003796577454,"154":0.169768825173378,"155":0.15221305191516876,"156":-0.08242778480052948,"157":0.17864999175071716,"158":0.08828246593475342,"159":0.008458691649138927,"160":0.20799429714679718,"161":0.11314013600349426,"162":-0.09711120277643204,"163":-0.03983120620250702,"164":0.22566893696784973,"165":-0.09898585826158524,"166":-0.06170084699988365,"167":-0.03415379673242569,"168":-0.014110056683421135,"169":-0.12292229384183884,"170":0.14995375275611877,"171":0.24001768231391907,"172":0.14724203944206238,"173":0.1112135499715805,"174":0.14610721170902252,"175":0.005595434457063675,"176":-0.06431426852941513,"177":0.2919984459877014,"178":0.25950849056243896,"179":0.12354691326618195,"180":0.28188857436180115,"181":-0.09108865261077881,"182":0.10896061360836029,"183":0.041339993476867676,"184":0.149384543299675,"185":-0.07105714082717896,"186":0.22292892634868622,"187":0.255746990442276,"188":0.09656510502099991,"189":0.13516110181808472,"190":0.18353156745433807,"191":0.15696008503437042,"192":0.21826156973838806,"193":-0.012308609671890736,"194":0.11610019207000732,"195":0.1775236874818802,"196":0.12399473041296005,"197":0.030149994418025017,"198":0.24087774753570557,"199":-0.05377844721078873,"200":0.13061092793941498,"201":-0.07280417531728745,"202":0.03960910066962242,"203":0.008851461112499237,"204":-0.05550461262464523,"205":-0.061156585812568665,"206":0.044659510254859924,"207":-0.0952867791056633,"208":-0.04025717452168465,"209":0.042488470673561096,"210":-0.08056323975324631,"211":0.2974574565887451,"212":0.24039426445960999,"213":-0.048661548644304276,"214":0.11502064764499664,"215":0.2009924054145813,"216":-0.09089291095733643,"217":0.1550006866455078,"218":0.27211248874664307,"219":0.007872660644352436,"220":0.2168281078338623,"221":0.14996713399887085,"222":0.1728077083826065,"223":-0.10044116526842117,"224":-0.07737772911787033,"225":-0.18179844319820404,"226":0.1192646324634552,"227":0.4428195655345917,"228":0.12410961836576462,"229":-0.09909538179636002,"230":0.24308060109615326,"231":0.1288899928331375,"232":-0.15395578742027283,"233":0.35232293605804443,"234":-0.18191654980182648}},"4":{"bias":-0.09180232882499695,"weights":{"0":-0.06682460010051727,"1":-0.07594842463731766,"2":-0.08547727018594742,"3":-0.16227003931999207,"4":0.1731637716293335,"5":0.005881631281226873,"6":-0.08353298157453537,"7":-0.16059912741184235,"8":0.1220192089676857,"9":0.08088484406471252,"10":-0.16137833893299103,"11":-0.07184763252735138,"12":-0.14929941296577454,"13":-0.13358435034751892,"14":0.03220400959253311,"15":0.08760388940572739,"16":0.1885068267583847,"17":-0.03881633281707764,"18":-0.0704805850982666,"19":0.14058031141757965,"20":0.03881179168820381,"21":-0.03297439590096474,"22":0.06915561109781265,"23":-0.17846538126468658,"24":-0.05159839242696762,"25":0.07474902272224426,"26":0.18027755618095398,"27":-0.10416863113641739,"28":-0.11747855693101883,"29":0.07741288095712662,"30":-0.05162020027637482,"31":-0.10042932629585266,"32":0.18264354765415192,"33":0.17636483907699585,"34":-0.10727054625749588,"35":-0.08500127494335175,"36":-0.01657515950500965,"37":0.11410214006900787,"38":-0.10320305079221725,"39":-0.0006260192603804171,"40":0.1962169110774994,"41":0.016552822664380074,"42":0.04160117730498314,"43":-0.08636882901191711,"44":0.09215231239795685,"45":0.11971476674079895,"46":-0.05086718872189522,"47":0.01188648771494627,"48":-0.02949327602982521,"49":0.12452775985002518,"50":-0.0189632810652256,"51":0.02098057232797146,"52":-0.13156773149967194,"53":-0.11388164013624191,"54":-0.12599843740463257,"55":0.018628636375069618,"56":0.11709646135568619,"57":-0.13871829211711884,"58":-0.18636879324913025,"59":-0.03441254794597626,"60":-0.14434432983398438,"61":0.10360880941152573,"62":-0.187257319688797,"63":-0.1502247303724289,"64":0.0005780089413747191,"65":0.16011226177215576,"66":-0.15105105936527252,"67":-0.15074138343334198,"68":0.18386398255825043,"69":-0.09535252302885056,"70":-0.0374608188867569,"71":0.1151728704571724,"72":-0.13109660148620605,"73":0.11041422933340073,"74":-0.07018905133008957,"75":-0.1972746104001999,"76":0.14459043741226196,"77":0.1521342247724533,"78":-0.10228515416383743,"79":0.17923815548419952,"80":-0.06402543932199478,"81":0.1488703489303589,"82":-0.07089315354824066,"83":-0.1502748429775238,"84":0.01093262154608965,"85":0.18413296341896057,"86":0.046859972178936005,"87":0.12714211642742157,"88":-0.017819222062826157,"89":-0.08904731273651123,"90":0.04727398604154587,"91":-0.05950026586651802,"92":0.10906800627708435,"93":-0.07423030585050583,"94":-0.16242046654224396,"95":-0.07421271502971649,"96":-0.06267644464969635,"97":0.12831246852874756,"98":0.17626447975635529,"99":-0.10172347724437714,"100":-0.09190105646848679,"101":0.027930570766329765,"102":0.1420157551765442,"103":-0.14564979076385498,"104":-0.13150891661643982,"105":0.12536023557186127,"106":-0.10477593541145325,"107":0.12868830561637878,"108":-0.1481820046901703,"109":-0.17577257752418518,"110":-0.18530939519405365,"111":-0.08756392449140549,"112":-0.04685709998011589,"113":-0.18333543837070465,"114":0.08179163932800293,"115":-0.04870113357901573,"116":0.19552534818649292,"117":-0.05976264551281929,"118":-0.05413543060421944,"119":-0.15792585909366608,"120":0.012759937904775143,"121":-0.07584510743618011,"122":0.1828591227531433,"123":0.1733815222978592,"124":0.1355416476726532,"125":-0.19412761926651,"126":-0.04884203150868416,"127":-0.10652793198823929,"128":-0.01485353708267212,"129":0.08489633351564407,"130":0.0620763823390007,"131":-0.17157374322414398,"132":0.036388009786605835,"133":-0.07660781592130661,"134":0.015818793326616287,"135":-0.06460794806480408,"136":-0.043595317751169205,"137":-0.009771782904863358,"138":0.012051255442202091,"139":-0.15008828043937683,"140":0.10797826200723648,"141":-0.045531682670116425,"142":-0.1503736525774002,"143":0.1793798804283142,"144":-0.15199744701385498,"145":-0.14630992710590363,"146":-0.104434534907341,"147":-0.02896955981850624,"148":-0.12507660686969757,"149":0.04643901437520981,"150":0.09545782953500748,"151":-0.11626344919204712,"152":0.009346543811261654,"153":0.021966034546494484,"154":-0.031886305660009384,"155":0.00951182097196579,"156":0.014720402657985687,"157":0.01987927034497261,"158":-0.0822814553976059,"159":0.09484317898750305,"160":-0.15489880740642548,"161":-0.17223545908927917,"162":-0.010356290265917778,"163":0.16826801002025604,"164":0.00679164519533515,"165":0.14500388503074646,"166":0.09753306955099106,"167":0.13527649641036987,"168":-0.14496150612831116,"169":0.12023290246725082,"170":0.06958984583616257,"171":-0.1756385862827301,"172":-0.050629593431949615,"173":0.15991462767124176,"174":0.1302219033241272,"175":-0.05926470831036568,"176":0.18213525414466858,"177":0.07009919732809067,"178":0.014813010580837727,"179":-0.046860307455062866,"180":-0.1716323345899582,"181":0.1392582654953003,"182":-0.14791609346866608,"183":-0.16109593212604523,"184":0.08223524689674377,"185":-0.041243214160203934,"186":-0.013887926936149597,"187":-0.0995953157544136,"188":-0.15588214993476868,"189":0.023907456547021866,"190":-0.15285490453243256,"191":0.19407369196414948,"192":0.0410013422369957,"193":0.16080336272716522,"194":0.01655658334493637,"195":-0.1837644875049591,"196":0.19060908257961273,"197":-0.08155988156795502,"198":-0.011786567978560925,"199":0.02810228057205677,"200":0.15262660384178162,"201":-0.18415001034736633,"202":0.1759711503982544,"203":-0.10122451186180115,"204":0.08525051921606064,"205":-0.18323203921318054,"206":0.05670154094696045,"207":-0.021707402542233467,"208":-0.17029370367527008,"209":0.05021414905786514,"210":-0.05225009471178055,"211":0.1646825075149536,"212":-0.006370964460074902,"213":0.03040507808327675,"214":0.18622711300849915,"215":-0.03608552739024162,"216":-0.1314048022031784,"217":0.034117553383111954,"218":-0.10176347196102142,"219":-0.08742141723632812,"220":-0.0704091265797615,"221":-0.023312436416745186,"222":0.026122288778424263,"223":0.11490759253501892,"224":-0.057416077703237534,"225":0.1993003785610199,"226":0.05373228341341019,"227":-0.037154410034418106,"228":-0.18119557201862335,"229":0.05585118755698204,"230":-0.020764924585819244,"231":-0.027917778119444847,"232":0.1271917223930359,"233":-0.031178515404462814,"234":0.08317908644676208}},"5":{"bias":-0.15264327824115753,"weights":{"0":0.023437241092324257,"1":0.0990433618426323,"2":-0.040582552552223206,"3":0.035557378083467484,"4":-0.1811894327402115,"5":-0.09158492088317871,"6":0.1430051624774933,"7":-0.10078223049640656,"8":0.01145781110972166,"9":0.13788750767707825,"10":0.14580462872982025,"11":0.08964382857084274,"12":-0.026729291304945946,"13":-0.17986521124839783,"14":-0.07253975421190262,"15":0.12748262286186218,"16":0.044117480516433716,"17":0.06489802896976471,"18":0.023407932370901108,"19":-0.11579793691635132,"20":-0.12694214284420013,"21":-0.05579133704304695,"22":-0.015330237336456776,"23":-0.16669319570064545,"24":-0.1025402694940567,"25":-0.17235739529132843,"26":0.15878960490226746,"27":-0.17844046652317047,"28":-0.15428794920444489,"29":-0.07598964869976044,"30":0.047519586980342865,"31":0.14342589676380157,"32":0.07607404887676239,"33":0.13045437633991241,"34":-0.14620812237262726,"35":-0.20936059951782227,"36":-0.18065747618675232,"37":0.17236588895320892,"38":-0.06231071054935455,"39":0.07492832094430923,"40":0.179012268781662,"41":0.03418068587779999,"42":0.08947247266769409,"43":-0.03031734749674797,"44":0.11957094818353653,"45":-0.0967475026845932,"46":-0.1820525974035263,"47":-0.08609557896852493,"48":-0.1938766986131668,"49":-0.1735392063856125,"50":0.14685292541980743,"51":-0.02144439145922661,"52":-0.03980281949043274,"53":0.14631013572216034,"54":0.1419409066438675,"55":0.15523546934127808,"56":0.002371053444221616,"57":-0.003988384269177914,"58":-0.10393497347831726,"59":-0.08412552624940872,"60":-0.11492180079221725,"61":-0.15385280549526215,"62":-0.1080835610628128,"63":-0.028185466304421425,"64":-0.0022627897560596466,"65":0.15281668305397034,"66":-0.01949555240571499,"67":0.0669293999671936,"68":0.17126816511154175,"69":0.1770813763141632,"70":0.07422987371683121,"71":0.17038631439208984,"72":-0.11704962700605392,"73":-0.11060566455125809,"74":-0.15687760710716248,"75":-0.15141378343105316,"76":-0.02412106841802597,"77":-0.15998388826847076,"78":0.04975775256752968,"79":0.17083516716957092,"80":-0.10874514281749725,"81":0.18233400583267212,"82":-0.15187738835811615,"83":-0.005633675493299961,"84":0.13001450896263123,"85":-0.20824934542179108,"86":0.13365291059017181,"87":-0.11518248915672302,"88":-0.1306818574666977,"89":0.17448759078979492,"90":-0.1473599523305893,"91":0.06432102620601654,"92":0.032997407019138336,"93":0.0019312095828354359,"94":0.08764395117759705,"95":-0.1489841490983963,"96":0.08346501737833023,"97":-0.1953294575214386,"98":0.0557611808180809,"99":-0.0673404335975647,"100":-0.20393824577331543,"101":0.013726500794291496,"102":0.15093140304088593,"103":-0.05994488298892975,"104":0.009890830144286156,"105":-0.16255950927734375,"106":-0.17147642374038696,"107":0.17133866250514984,"108":-0.16438184678554535,"109":-0.021764716133475304,"110":-0.06473618000745773,"111":-0.10980571806430817,"112":0.17839623987674713,"113":0.06648285686969757,"114":0.14153145253658295,"115":0.05588403716683388,"116":-0.02563272789120674,"117":-0.03656827658414841,"118":0.06790108233690262,"119":-0.09486853331327438,"120":0.18229104578495026,"121":-0.09961428493261337,"122":-0.19133245944976807,"123":-0.20044934749603271,"124":0.08586770296096802,"125":-0.15139319002628326,"126":-0.1119590476155281,"127":0.016491733491420746,"128":0.09240134805440903,"129":-0.021694688126444817,"130":-0.1314089298248291,"131":0.13747917115688324,"132":0.1397159844636917,"133":0.13181056082248688,"134":-0.1188475713133812,"135":0.045655377209186554,"136":0.10305049270391464,"137":0.1178978830575943,"138":-0.025729788467288017,"139":-0.09066120535135269,"140":0.16002900898456573,"141":-0.10922321677207947,"142":0.1825331449508667,"143":-0.02172783762216568,"144":-0.028131496161222458,"145":-0.15808793902397156,"146":0.1396593600511551,"147":-0.06679467111825943,"148":-0.07970473915338516,"149":0.08733943104743958,"150":-0.1297081559896469,"151":0.10962390154600143,"152":0.16866737604141235,"153":0.12485808879137039,"154":-0.1738276183605194,"155":0.0027231599669903517,"156":-0.09578676521778107,"157":0.15730634331703186,"158":-0.10204710811376572,"159":0.1850072741508484,"160":-0.12511730194091797,"161":-0.1667107194662094,"162":-0.01983156055212021,"163":-0.12986817955970764,"164":-0.04872668534517288,"165":0.04660554230213165,"166":-0.13590112328529358,"167":0.01753118447959423,"168":0.16199880838394165,"169":0.004030069336295128,"170":-0.14733853936195374,"171":-0.05177640914916992,"172":-0.15789705514907837,"173":0.12838828563690186,"174":-0.17888472974300385,"175":0.15788133442401886,"176":-0.04535216838121414,"177":-0.035369355231523514,"178":0.004117181524634361,"179":-0.1942407786846161,"180":-0.025170350447297096,"181":0.18279722332954407,"182":0.05222664773464203,"183":-0.1839231699705124,"184":0.06821084022521973,"185":0.12054792046546936,"186":-0.0262144822627306,"187":0.1744152307510376,"188":-0.1326013058423996,"189":0.09334307163953781,"190":0.17956188321113586,"191":-0.0161262396723032,"192":0.0846807211637497,"193":-0.1825496107339859,"194":0.07240460813045502,"195":0.08627917617559433,"196":-0.11844433844089508,"197":0.046134792268276215,"198":0.18175409734249115,"199":0.07421237230300903,"200":-0.008336865343153477,"201":-0.20152977108955383,"202":0.052922364324331284,"203":-0.16190992295742035,"204":0.1794172078371048,"205":-0.16352792084217072,"206":0.16464601457118988,"207":0.032814931124448776,"208":-0.1970275342464447,"209":-0.0013011343544349074,"210":0.19159211218357086,"211":0.005191450007259846,"212":0.08547703176736832,"213":-0.06312906742095947,"214":-0.06659962236881256,"215":0.09083261340856552,"216":-0.20044094324111938,"217":0.1833668351173401,"218":-0.06773313879966736,"219":-0.06994640827178955,"220":0.04860960692167282,"221":0.07556968927383423,"222":0.10106180608272552,"223":0.02105543203651905,"224":-0.12051481008529663,"225":-0.06611766666173935,"226":-0.0393458716571331,"227":-0.0449887253344059,"228":-0.03573133423924446,"229":0.0127446623519063,"230":0.11190115660429001,"231":-0.03299596160650253,"232":-0.188567653298378,"233":-0.017994513735175133,"234":0.12805113196372986}},"6":{"bias":-0.023186586797237396,"weights":{"0":-0.17895838618278503,"1":-0.003820133162662387,"2":0.022712556645274162,"3":-0.0027922443114221096,"4":0.024945532903075218,"5":-0.10901462286710739,"6":0.01363670639693737,"7":-0.08620527386665344,"8":0.0883544310927391,"9":-0.1389046460390091,"10":0.14504893124103546,"11":-0.13642290234565735,"12":-0.08852587640285492,"13":0.16020654141902924,"14":0.00042861507972702384,"15":-0.06972196698188782,"16":-0.14260153472423553,"17":0.043651703745126724,"18":-0.16959871351718903,"19":0.06109817326068878,"20":-0.05523766577243805,"21":0.0750105082988739,"22":-0.1854068487882614,"23":0.1389622688293457,"24":-0.005747492425143719,"25":0.1482732892036438,"26":-0.026164231821894646,"27":0.15439391136169434,"28":-0.14599020779132843,"29":-0.1711718738079071,"30":0.11744999140501022,"31":-0.08372872322797775,"32":0.15409961342811584,"33":-0.15120506286621094,"34":0.1577395498752594,"35":-0.04449201002717018,"36":0.06547388434410095,"37":-0.10147107392549515,"38":0.11887020617723465,"39":-0.15096773207187653,"40":-0.12987953424453735,"41":-0.07064605504274368,"42":0.16450989246368408,"43":0.07951141893863678,"44":-0.016556156799197197,"45":-0.1174972876906395,"46":-0.1282302290201187,"47":0.1681050956249237,"48":-0.1230003759264946,"49":0.15714974701404572,"50":0.14663565158843994,"51":0.18828104436397552,"52":-0.19017896056175232,"53":0.04949910566210747,"54":0.16903097927570343,"55":0.027756977826356888,"56":-0.19229990243911743,"57":-0.18738329410552979,"58":-0.09245702624320984,"59":-0.09763401001691818,"60":-0.18249674141407013,"61":0.18085746467113495,"62":-0.20019827783107758,"63":-0.010785769671201706,"64":-0.18459074199199677,"65":0.04162602499127388,"66":-0.06043583154678345,"67":-0.034941453486680984,"68":0.08772167563438416,"69":-0.06802722066640854,"70":-0.04934172332286835,"71":-0.09348876029253006,"72":0.13672634959220886,"73":-0.018391715362668037,"74":-0.1429978311061859,"75":-0.06271316856145859,"76":0.050919387489557266,"77":-0.18071655929088593,"78":-0.11310112476348877,"79":0.1537194550037384,"80":-0.15063971281051636,"81":-0.12382795661687851,"82":0.01805949956178665,"83":0.029425738379359245,"84":0.16603852808475494,"85":0.09007059037685394,"86":0.17723247408866882,"87":0.1742989867925644,"88":0.03686724603176117,"89":-0.09883083403110504,"90":-0.17411959171295166,"91":0.15654902160167694,"92":0.08936235308647156,"93":-0.15258775651454926,"94":0.13904698193073273,"95":-0.10109073668718338,"96":-0.03783372789621353,"97":-0.12027649581432343,"98":0.1065874993801117,"99":-0.09060084074735641,"100":-0.013926341198384762,"101":0.03564909100532532,"102":-0.16970571875572205,"103":0.02291705645620823,"104":-0.17597301304340363,"105":-0.03553551435470581,"106":-0.1596229523420334,"107":-0.09146437793970108,"108":-0.18998204171657562,"109":-0.0007444314542226493,"110":0.14860540628433228,"111":0.056414950639009476,"112":-0.18840709328651428,"113":-0.0624379888176918,"114":0.1666761338710785,"115":-0.013062745332717896,"116":-0.11460184305906296,"117":-0.009721600450575352,"118":0.09502692520618439,"119":-0.007447326090186834,"120":0.17812657356262207,"121":0.07695499807596207,"122":0.06614335626363754,"123":0.13400454819202423,"124":0.13834060728549957,"125":-0.14857512712478638,"126":0.07262929528951645,"127":0.09186197817325592,"128":0.06307350099086761,"129":-0.004762422759085894,"130":-0.0001642302522668615,"131":-0.14246463775634766,"132":0.12583911418914795,"133":0.13613362610340118,"134":0.1298518180847168,"135":0.08912979811429977,"136":0.16894875466823578,"137":-0.08094341307878494,"138":-0.12635937333106995,"139":-0.0070495870895683765,"140":-0.04505917802453041,"141":0.04621920734643936,"142":0.013096357695758343,"143":-0.045284390449523926,"144":0.020789045840501785,"145":0.1315058320760727,"146":0.1719888597726822,"147":0.07277727127075195,"148":0.050526004284620285,"149":0.04625236243009567,"150":0.04316084831953049,"151":0.08104964345693588,"152":-0.14604051411151886,"153":-0.1160188838839531,"154":-0.1819223016500473,"155":-0.18831071257591248,"156":0.182728573679924,"157":0.03920762613415718,"158":0.11990616470575333,"159":0.11829720437526703,"160":0.05736503005027771,"161":0.17555665969848633,"162":0.06735564768314362,"163":0.11861339956521988,"164":0.05612184479832649,"165":-0.19800826907157898,"166":0.15888124704360962,"167":0.04050140827894211,"168":-0.18308165669441223,"169":0.030536284670233727,"170":0.06391217559576035,"171":0.004414357244968414,"172":0.010419094003736973,"173":-0.1611991673707962,"174":-0.12161610275506973,"175":0.03177257627248764,"176":-0.18629948794841766,"177":-0.004197192378342152,"178":0.17845650017261505,"179":0.0917215496301651,"180":-0.15769928693771362,"181":0.07800090312957764,"182":0.12544451653957367,"183":0.02426069974899292,"184":-0.0863739550113678,"185":-0.07938539981842041,"186":0.18104188144207,"187":-0.021458808332681656,"188":-0.10753267258405685,"189":0.14127717912197113,"190":0.06309958547353745,"191":0.0020835245959460735,"192":-0.15846852958202362,"193":0.1918008178472519,"194":0.001896074041724205,"195":0.16440215706825256,"196":-0.16742821037769318,"197":-0.16155226528644562,"198":0.14301659166812897,"199":0.050654154270887375,"200":-0.13154913485050201,"201":0.18819254636764526,"202":-0.08829925209283829,"203":0.18266844749450684,"204":-0.03285064920783043,"205":-0.052278533577919006,"206":-0.1359427571296692,"207":-0.11193609982728958,"208":-0.17661304771900177,"209":-0.11311628669500351,"210":0.06591247022151947,"211":-0.18214944005012512,"212":-0.048541512340307236,"213":-0.1562403440475464,"214":-0.19474591314792633,"215":-0.026902133598923683,"216":-0.09126979857683182,"217":-0.12160774320363998,"218":0.08644676208496094,"219":-0.04276726767420769,"220":-0.008905656635761261,"221":0.00945811066776514,"222":-0.1865188181400299,"223":0.16718079149723053,"224":0.09922117739915848,"225":0.08895282447338104,"226":-0.13766790926456451,"227":-0.153187558054924,"228":0.017162730917334557,"229":-0.18511657416820526,"230":0.019629815593361855,"231":-0.038666073232889175,"232":-0.006235955283045769,"233":-0.02905089035630226,"234":-0.1744852513074875}},"7":{"bias":-0.12981481850147247,"weights":{"0":0.08197008073329926,"1":-0.11447320878505707,"2":0.00017223553732037544,"3":0.09448067843914032,"4":-0.11143957078456879,"5":0.06567642092704773,"6":-0.036005549132823944,"7":-0.12917309999465942,"8":-0.07698968797922134,"9":0.016435343772172928,"10":0.1481705605983734,"11":-0.11954402923583984,"12":0.09732647985219955,"13":0.06228708475828171,"14":0.00762069970369339,"15":0.012235790491104126,"16":0.1665951907634735,"17":-0.009208492934703827,"18":-0.023011017590761185,"19":-0.014206421561539173,"20":-0.09795708954334259,"21":-0.07146240025758743,"22":-0.051545899361371994,"23":0.024393519386649132,"24":-0.045291561633348465,"25":0.06996368616819382,"26":0.04187047854065895,"27":-0.060884635895490646,"28":0.14202605187892914,"29":0.003052246058359742,"30":0.15547460317611694,"31":-0.1708238571882248,"32":-0.12041893601417542,"33":-0.10923520475625992,"34":0.14754778146743774,"35":0.11048420518636703,"36":-0.007707027718424797,"37":0.16180934011936188,"38":0.11638684570789337,"39":0.04240284115076065,"40":-0.09083554148674011,"41":-0.05594247207045555,"42":0.13451357185840607,"43":0.09759247303009033,"44":0.1086181178689003,"45":-0.01944000832736492,"46":-0.19223137199878693,"47":0.14929816126823425,"48":0.034905582666397095,"49":-0.19659171998500824,"50":0.012705191969871521,"51":-0.15102629363536835,"52":0.007322215940803289,"53":0.03967314958572388,"54":0.07849817723035812,"55":-0.20136187970638275,"56":0.17495734989643097,"57":-0.17803382873535156,"58":0.1924438327550888,"59":-0.16678020358085632,"60":-0.1540570855140686,"61":-0.0981442853808403,"62":-0.14162081480026245,"63":-0.06700405478477478,"64":0.09817306697368622,"65":-0.04435255005955696,"66":-0.18038290739059448,"67":-0.17688249051570892,"68":-0.07687529921531677,"69":-0.03276672214269638,"70":-0.09614800661802292,"71":0.01745847798883915,"72":-0.03270888701081276,"73":-0.14719417691230774,"74":-0.11716113239526749,"75":0.06584687530994415,"76":-0.04693608358502388,"77":-0.20478345453739166,"78":0.006480487063527107,"79":-0.07932674884796143,"80":0.15833860635757446,"81":0.09161107987165451,"82":-0.1769397109746933,"83":0.09735279530286789,"84":0.14086580276489258,"85":-0.10992100834846497,"86":-0.12176719307899475,"87":-0.08218289166688919,"88":-0.1982438862323761,"89":0.01575273461639881,"90":-0.007140417117625475,"91":-0.07977063208818436,"92":0.0581786148250103,"93":-0.13846373558044434,"94":-0.00964618381112814,"95":-0.19827447831630707,"96":-0.09782140702009201,"97":0.07632463425397873,"98":0.005864876322448254,"99":-0.08298934251070023,"100":-0.10315585881471634,"101":-0.013545326888561249,"102":0.17598199844360352,"103":0.15991193056106567,"104":-0.1368381828069687,"105":0.09726526588201523,"106":-0.01810239441692829,"107":0.028223898261785507,"108":-0.17757563292980194,"109":0.115504689514637,"110":-0.07994459569454193,"111":-0.10894277691841125,"112":-0.12296069413423538,"113":0.19296875596046448,"114":-0.18542592227458954,"115":0.16573436558246613,"116":0.1323109120130539,"117":0.12437010556459427,"118":0.18838149309158325,"119":-0.09720421582460403,"120":-0.18365298211574554,"121":0.12487567961215973,"122":-0.166333869099617,"123":-0.15152797102928162,"124":0.0410325825214386,"125":-0.031183717772364616,"126":-0.0855490192770958,"127":0.17273977398872375,"128":0.09091790020465851,"129":0.12840306758880615,"130":0.02096276916563511,"131":-0.035465843975543976,"132":0.11170095205307007,"133":-0.09658375382423401,"134":-0.13403744995594025,"135":-0.1636669784784317,"136":-0.17467844486236572,"137":-0.19359958171844482,"138":0.018321329727768898,"139":-0.14132358133792877,"140":0.12222529947757721,"141":0.13292419910430908,"142":-0.12700173258781433,"143":0.0036405480932444334,"144":-0.19349178671836853,"145":-0.02779248356819153,"146":0.11397585272789001,"147":-0.09066332876682281,"148":0.1340925693511963,"149":0.1498355269432068,"150":0.14990955591201782,"151":-0.12946373224258423,"152":0.10514464229345322,"153":-0.021034909412264824,"154":-0.10171136260032654,"155":0.06776902824640274,"156":-0.027322234585881233,"157":0.016003094613552094,"158":-0.18467877805233002,"159":0.11287347227334976,"160":-0.18285049498081207,"161":-0.016192026436328888,"162":-0.1072191670536995,"163":0.11895035207271576,"164":-0.15600816905498505,"165":0.1384744793176651,"166":0.19346368312835693,"167":-0.19348634779453278,"168":-0.03194667026400566,"169":0.16775453090667725,"170":-0.09267843514680862,"171":-0.17498576641082764,"172":-0.1763230860233307,"173":-0.16433897614479065,"174":-0.16552872955799103,"175":0.05639920011162758,"176":-0.09456855058670044,"177":0.031259313225746155,"178":-0.07508371770381927,"179":0.06742312014102936,"180":-0.0012227072147652507,"181":-0.04763671010732651,"182":-0.059958212077617645,"183":0.02452482096850872,"184":0.05280503258109093,"185":-0.04301759600639343,"186":-0.12642648816108704,"187":-0.006856754422187805,"188":0.1770797073841095,"189":-0.002697787480428815,"190":0.0415433831512928,"191":0.0928909033536911,"192":-0.16919249296188354,"193":-0.04789232090115547,"194":-0.18732407689094543,"195":0.0037339343689382076,"196":-0.045325569808483124,"197":0.02523796632885933,"198":0.1608678549528122,"199":-0.02559443935751915,"200":-0.07160599529743195,"201":0.017823953181505203,"202":-0.05198235064744949,"203":-0.13324636220932007,"204":0.12817439436912537,"205":0.17431503534317017,"206":0.16467025876045227,"207":-0.10634884238243103,"208":-0.18541426956653595,"209":-0.0006263269460760057,"210":-0.034835223108530045,"211":-0.09560438245534897,"212":-0.02449468895792961,"213":-0.17655955255031586,"214":-0.15595415234565735,"215":0.1556541621685028,"216":-0.1746528148651123,"217":-0.014794952236115932,"218":-0.04110543057322502,"219":-0.03472459688782692,"220":0.18795767426490784,"221":-0.16110289096832275,"222":-0.009558579884469509,"223":-0.013160496950149536,"224":-0.08236438781023026,"225":0.0649002343416214,"226":0.07208201289176941,"227":0.13634727895259857,"228":0.12787753343582153,"229":-0.05298832431435585,"230":-0.10819301009178162,"231":0.021385477855801582,"232":-0.09594885259866714,"233":0.17482498288154602,"234":-0.0008885610732249916}},"8":{"bias":0.055350422859191895,"weights":{"0":0.07246746122837067,"1":0.0837150365114212,"2":0.2271314114332199,"3":-0.022525426000356674,"4":0.1757335513830185,"5":0.23411934077739716,"6":0.26304513216018677,"7":0.3033975660800934,"8":0.1601269543170929,"9":0.211835116147995,"10":0.1994185596704483,"11":-0.08360157161951065,"12":0.0804901048541069,"13":0.16388607025146484,"14":0.21250364184379578,"15":0.012262563221156597,"16":0.30758407711982727,"17":0.06929375231266022,"18":0.14243322610855103,"19":0.06019292771816254,"20":0.08693370968103409,"21":0.12787139415740967,"22":0.20925943553447723,"23":0.1628834456205368,"24":0.2486855834722519,"25":0.13140937685966492,"26":0.052949052304029465,"27":0.2108989804983139,"28":-0.04909442737698555,"29":-0.011417031288146973,"30":0.3142207860946655,"31":0.1398158222436905,"32":0.2942490875720978,"33":0.24367764592170715,"34":0.11146718263626099,"35":0.23072518408298492,"36":0.2697494924068451,"37":0.2399839460849762,"38":0.28404343128204346,"39":0.14165301620960236,"40":0.16941389441490173,"41":0.15749491751194,"42":0.17711156606674194,"43":-0.08165214955806732,"44":0.27750441431999207,"45":0.30040228366851807,"46":0.06223725527524948,"47":-0.05910738557577133,"48":0.29785817861557007,"49":0.1485191285610199,"50":-0.035774506628513336,"51":-0.022159438580274582,"52":0.0908784344792366,"53":-0.02852201834321022,"54":0.2836644947528839,"55":0.06033105030655861,"56":0.17723588645458221,"57":-0.04173612967133522,"58":0.016403432935476303,"59":-0.002056304132565856,"60":0.1767464578151703,"61":0.09187626838684082,"62":0.21676109731197357,"63":0.2087029367685318,"64":0.08566433191299438,"65":0.1951705366373062,"66":-0.09939306229352951,"67":0.14252208173274994,"68":0.20887693762779236,"69":0.15890412032604218,"70":0.047837309539318085,"71":0.14847739040851593,"72":0.2650392949581146,"73":0.16022446751594543,"74":0.027230342850089073,"75":0.1600653976202011,"76":0.0695168524980545,"77":0.0018386691808700562,"78":0.12567231059074402,"79":0.1472303569316864,"80":-0.07670024782419205,"81":-0.024789707735180855,"82":-0.018264373764395714,"83":-0.030309872701764107,"84":0.23969216644763947,"85":0.02554432488977909,"86":0.20358692109584808,"87":-0.06265542656183243,"88":0.006890237797051668,"89":-0.03284521773457527,"90":-0.08526495099067688,"91":0.16156697273254395,"92":0.13099943101406097,"93":0.06583955883979797,"94":0.06903333216905594,"95":0.04505179822444916,"96":-0.004386463202536106,"97":0.18282662332057953,"98":0.059597793966531754,"99":-0.07156085222959518,"100":0.131642684340477,"101":-0.07326485961675644,"102":0.1851155012845993,"103":0.25385287404060364,"104":0.2227732092142105,"105":0.24915078282356262,"106":0.27603957056999207,"107":0.029873626306653023,"108":0.11152403801679611,"109":0.2607209086418152,"110":0.2725050151348114,"111":0.06205921992659569,"112":0.06603612750768661,"113":0.20703023672103882,"114":0.3167657256126404,"115":-0.027273833751678467,"116":-0.03682307153940201,"117":0.20465125143527985,"118":0.2319563925266266,"119":-0.019963297992944717,"120":-0.03289249911904335,"121":0.09653927385807037,"122":0.0072159008122980595,"123":-0.07276223599910736,"124":0.04058586433529854,"125":-0.04312659800052643,"126":0.3026358485221863,"127":0.05069506913423538,"128":0.11421286314725876,"129":0.2858383357524872,"130":0.29316195845603943,"131":0.15407989919185638,"132":0.14029552042484283,"133":0.05026537925004959,"134":0.10171257704496384,"135":-0.0028228540904819965,"136":0.20753520727157593,"137":-0.04996052011847496,"138":-0.020932909101247787,"139":0.15058401226997375,"140":0.15677699446678162,"141":-0.04725693538784981,"142":0.0840834230184555,"143":0.2900647222995758,"144":-0.046695031225681305,"145":0.26946717500686646,"146":-0.00966654159128666,"147":0.1641867756843567,"148":-0.0003533306298777461,"149":0.2407030314207077,"150":0.07612171024084091,"151":0.24333715438842773,"152":0.12258084863424301,"153":0.020487554371356964,"154":0.14968952536582947,"155":0.17549969255924225,"156":0.22542239725589752,"157":0.17530441284179688,"158":0.24554356932640076,"159":0.01879546046257019,"160":0.09435728937387466,"161":0.016527846455574036,"162":-0.06232995167374611,"163":0.28861093521118164,"164":0.2130318284034729,"165":0.19335632026195526,"166":0.012890001758933067,"167":-0.009840941987931728,"168":0.24370191991329193,"169":-0.1516721546649933,"170":0.26052096486091614,"171":0.20019522309303284,"172":0.1600201278924942,"173":0.26653316617012024,"174":0.2608887255191803,"175":0.14142771065235138,"176":0.26075977087020874,"177":0.2943514287471771,"178":0.11978685110807419,"179":0.17030684649944305,"180":0.2858622372150421,"181":0.07886135578155518,"182":-0.0704541727900505,"183":0.30353844165802,"184":-0.05612173676490784,"185":-0.04929251968860626,"186":0.03461762145161629,"187":0.17737139761447906,"188":-0.01376350224018097,"189":0.06701522320508957,"190":0.33972275257110596,"191":0.24657705426216125,"192":-0.07664424926042557,"193":0.28601452708244324,"194":0.07055684179067612,"195":0.07865332067012787,"196":-0.03218645602464676,"197":0.14595915377140045,"198":0.2378619760274887,"199":0.24646271765232086,"200":0.13434375822544098,"201":-0.04936561360955238,"202":0.07910315692424774,"203":0.18624228239059448,"204":0.025045150890946388,"205":0.05101126804947853,"206":0.28571581840515137,"207":0.13004258275032043,"208":0.15590979158878326,"209":-0.06005377694964409,"210":0.02834891527891159,"211":0.2811781167984009,"212":0.08556006848812103,"213":0.1295565515756607,"214":0.2592473030090332,"215":0.15606728196144104,"216":0.2542038559913635,"217":0.141363263130188,"218":0.18458159267902374,"219":-0.05044792219996452,"220":-0.011214186437427998,"221":0.27245521545410156,"222":0.26496291160583496,"223":0.006450689863413572,"224":0.2562042474746704,"225":-0.007617179770022631,"226":-0.19397655129432678,"227":0.3543776571750641,"228":-0.0674489215016365,"229":-0.02435741014778614,"230":0.34925520420074463,"231":-0.09416157752275467,"232":-0.10845935344696045,"233":0.3371312916278839,"234":-0.10914874076843262}},"9":{"bias":-0.13409104943275452,"weights":{"0":0.1771424561738968,"1":0.04468521103262901,"2":-0.04294014722108841,"3":0.12474270164966583,"4":-0.14507097005844116,"5":-0.0410199873149395,"6":-0.10151361674070358,"7":-0.11170326918363571,"8":0.09566409140825272,"9":-0.07390683889389038,"10":-0.15865090489387512,"11":-0.1698351949453354,"12":0.12260479480028152,"13":-0.03211049735546112,"14":-0.08118905127048492,"15":-0.021544085815548897,"16":0.07194297760725021,"17":0.04179377481341362,"18":0.01634669303894043,"19":0.1187547817826271,"20":0.0950273722410202,"21":0.11506074666976929,"22":0.03853990137577057,"23":-0.09577924013137817,"24":0.18611593544483185,"25":0.1629670113325119,"26":-0.012213353998959064,"27":-0.11267385631799698,"28":0.04806526005268097,"29":0.06899509578943253,"30":0.15815237164497375,"31":0.03581302613019943,"32":-0.06915339082479477,"33":0.0616288036108017,"34":0.08071357011795044,"35":0.1050480380654335,"36":-0.1531878411769867,"37":-0.18173547089099884,"38":-0.15091140568256378,"39":-0.13828448951244354,"40":-0.012225540354847908,"41":-0.052900709211826324,"42":-0.08240219205617905,"43":0.005719144828617573,"44":0.06076432764530182,"45":-0.07148370891809464,"46":0.07684953510761261,"47":-0.13080622255802155,"48":-0.11027730256319046,"49":0.1447116732597351,"50":0.006235459353774786,"51":-0.08960673958063126,"52":-0.013158992864191532,"53":-0.1302233338356018,"54":-0.18411396443843842,"55":0.09502021968364716,"56":0.14011584222316742,"57":-0.06397179514169693,"58":-0.03990820795297623,"59":0.14361907541751862,"60":-0.12235498428344727,"61":0.09343907982110977,"62":0.01320321299135685,"63":-0.19211173057556152,"64":-0.06380259990692139,"65":-0.15266525745391846,"66":0.07715663313865662,"67":0.047018881887197495,"68":0.12848378717899323,"69":0.07420153170824051,"70":0.1044987365603447,"71":-0.08390843123197556,"72":-0.1438058614730835,"73":0.012016687542200089,"74":0.17395228147506714,"75":-0.025866467505693436,"76":-0.17989709973335266,"77":0.19114838540554047,"78":-0.021741602569818497,"79":-0.07504134625196457,"80":-0.13044318556785583,"81":-0.1649526208639145,"82":-0.05280235782265663,"83":-0.08723519742488861,"84":-0.06705770641565323,"85":0.018827948719263077,"86":-0.1467713564634323,"87":-0.14506588876247406,"88":0.14489446580410004,"89":-0.06999119371175766,"90":0.0837826356291771,"91":-0.010874860920011997,"92":0.05549873411655426,"93":-0.0877905935049057,"94":0.01365951169282198,"95":0.12947483360767365,"96":0.09020117670297623,"97":0.19621975719928741,"98":0.10225288569927216,"99":-0.02977413311600685,"100":0.06406385451555252,"101":-0.11650337278842926,"102":-0.1794751137495041,"103":0.048915378749370575,"104":-0.11501152068376541,"105":-0.06078525632619858,"106":-0.05068177729845047,"107":0.12542690336704254,"108":0.18170888721942902,"109":0.1633862853050232,"110":0.1138780415058136,"111":-0.12104658037424088,"112":0.15670615434646606,"113":-0.08131925016641617,"114":-0.1910020411014557,"115":0.1109800711274147,"116":0.11984262615442276,"117":0.02496088482439518,"118":-0.1970159113407135,"119":-0.14482109248638153,"120":-0.19488854706287384,"121":-0.11828483641147614,"122":-0.0565800778567791,"123":0.13207070529460907,"124":-0.0318307988345623,"125":-0.13010342419147491,"126":-0.010983563959598541,"127":-0.18379370868206024,"128":-0.08510221540927887,"129":-0.04943566769361496,"130":-0.13269108533859253,"131":-0.15571515262126923,"132":-0.14954368770122528,"133":0.0362003892660141,"134":-0.10587037354707718,"135":0.061486415565013885,"136":-0.002819643123075366,"137":0.15019460022449493,"138":-0.02038748934864998,"139":-0.03136499598622322,"140":-0.03075394406914711,"141":0.13201704621315002,"142":-0.1450973004102707,"143":-0.0925646647810936,"144":-0.1149318590760231,"145":-0.16963450610637665,"146":0.16072924435138702,"147":0.18272078037261963,"148":-0.16092604398727417,"149":0.08987756073474884,"150":-0.11107730865478516,"151":0.09050939977169037,"152":-0.19374655187129974,"153":0.19323070347309113,"154":-0.017898889258503914,"155":0.1642812043428421,"156":-0.10070871561765671,"157":-0.06547340005636215,"158":0.19313344359397888,"159":0.12433995306491852,"160":0.19543661177158356,"161":-0.03831390663981438,"162":0.07779329270124435,"163":0.03943266719579697,"164":0.039352819323539734,"165":-0.028898153454065323,"166":-0.05988888069987297,"167":-0.1597864329814911,"168":-0.028331123292446136,"169":0.14048133790493011,"170":-0.1861104816198349,"171":0.02831674925982952,"172":0.07902959734201431,"173":0.13710536062717438,"174":-0.1763753741979599,"175":0.14958935976028442,"176":0.1262093037366867,"177":0.166856586933136,"178":0.07741148769855499,"179":0.12675844132900238,"180":-0.1363454908132553,"181":-0.04459281638264656,"182":0.06581481546163559,"183":0.11545965075492859,"184":-0.1255645751953125,"185":-0.15262703597545624,"186":-0.12251733243465424,"187":-0.05596013739705086,"188":-0.18456187844276428,"189":-0.013791842386126518,"190":-0.09695439785718918,"191":-0.1923130303621292,"192":0.03794184699654579,"193":-0.17103657126426697,"194":0.08320367336273193,"195":-0.15251696109771729,"196":0.10628309845924377,"197":0.13025858998298645,"198":0.150997593998909,"199":-0.08129984885454178,"200":0.0975746437907219,"201":-0.09085780382156372,"202":-0.11504457145929337,"203":0.032360389828681946,"204":-0.04661313444375992,"205":-0.15693770349025726,"206":0.19061188399791718,"207":0.19475139677524567,"208":0.10063758492469788,"209":-0.16610541939735413,"210":0.09296363592147827,"211":0.11563019454479218,"212":0.006922704633325338,"213":0.1778104603290558,"214":-0.15574657917022705,"215":0.14760956168174744,"216":-0.018732065334916115,"217":-0.19447311758995056,"218":0.11253100633621216,"219":0.006587130483239889,"220":-0.15004435181617737,"221":-0.19643045961856842,"222":-0.10577975958585739,"223":-0.05329962447285652,"224":-0.03558335080742836,"225":0.10871657729148865,"226":-0.197291761636734,"227":0.02813120372593403,"228":-0.15112470090389252,"229":0.12666407227516174,"230":0.10589919239282608,"231":0.07872307300567627,"232":-0.06915049254894257,"233":-0.1420140266418457,"234":0.04550200700759888}},"10":{"bias":-0.0971258208155632,"weights":{"0":-0.17361485958099365,"1":-0.1321503221988678,"2":-0.2875837981700897,"3":-0.12522055208683014,"4":-0.159531369805336,"5":-0.014712076634168625,"6":-0.137793630361557,"7":-0.1091994121670723,"8":-0.22383920848369598,"9":-0.11294319480657578,"10":0.026867518201470375,"11":-0.29110899567604065,"12":-0.04664934426546097,"13":-0.011933453381061554,"14":-0.10812757909297943,"15":-0.27333927154541016,"16":-0.10025439411401749,"17":-0.26107141375541687,"18":-0.1509426385164261,"19":-0.05836491286754608,"20":0.022634202614426613,"21":0.04737526550889015,"22":-0.07603801786899567,"23":-0.04450155794620514,"24":-0.2606692910194397,"25":-0.26447585225105286,"26":-0.02537471242249012,"27":-0.17565687000751495,"28":-0.20967432856559753,"29":-0.19549110531806946,"30":-0.2126649022102356,"31":-0.03424370661377907,"32":-0.25248879194259644,"33":-0.11609682440757751,"34":-0.11190782487392426,"35":-0.11717808246612549,"36":0.03503170236945152,"37":-0.1552022397518158,"38":0.008048628456890583,"39":-0.1919722855091095,"40":-0.28254568576812744,"41":-0.051982682198286057,"42":-0.10026457905769348,"43":-0.09653734415769577,"44":0.021274158731102943,"45":-0.24052691459655762,"46":-0.24847756326198578,"47":0.011896739713847637,"48":-0.265746533870697,"49":-0.08248137682676315,"50":-0.23504921793937683,"51":0.031923193484544754,"52":-0.08480485528707504,"53":-0.28591597080230713,"54":0.06045020744204521,"55":-0.2881585955619812,"56":-0.15059369802474976,"57":0.05153350532054901,"58":-0.13740745186805725,"59":0.009126109071075916,"60":-0.2186366617679596,"61":-0.1259622871875763,"62":-0.028077784925699234,"63":-0.3305738866329193,"64":-0.11202756315469742,"65":-0.2643524408340454,"66":-0.04537923261523247,"67":-0.10133092850446701,"68":-0.09832187741994858,"69":-0.2746623456478119,"70":-0.016916966065764427,"71":-0.15215609967708588,"72":-0.22151735424995422,"73":-0.22121562063694,"74":-0.2248062789440155,"75":0.029543155804276466,"76":-0.1329086571931839,"77":-0.046254951506853104,"78":-0.046026721596717834,"79":-0.07025015354156494,"80":-0.13446474075317383,"81":0.0008421860984526575,"82":-0.3197021484375,"83":-0.24708305299282074,"84":-0.2592366337776184,"85":-0.2221544086933136,"86":-0.003658983623608947,"87":-0.017021864652633667,"88":-0.11710820347070694,"89":-0.23368915915489197,"90":-0.09385877847671509,"91":0.0037950058467686176,"92":-0.04563714936375618,"93":0.03853202983736992,"94":-0.07247747480869293,"95":-0.31621110439300537,"96":-0.2019616961479187,"97":-0.2738150358200073,"98":0.042159345000982285,"99":-0.11394259333610535,"100":-0.05617263913154602,"101":-0.09187937527894974,"102":-0.30973052978515625,"103":-0.00040684465784579515,"104":-0.033863380551338196,"105":-0.2900240421295166,"106":-0.2077915072441101,"107":-0.23749682307243347,"108":-0.2691672444343567,"109":-0.30386078357696533,"110":-0.2841191291809082,"111":0.03326120972633362,"112":-0.055920954793691635,"113":0.04896301031112671,"114":-0.28259459137916565,"115":-0.07571222633123398,"116":-0.2789061665534973,"117":-0.0753360316157341,"118":-0.24371594190597534,"119":0.055881500244140625,"120":0.03255850449204445,"121":-0.08475199341773987,"122":-0.15896892547607422,"123":-0.01538959238678217,"124":-0.23926858603954315,"125":0.030555201694369316,"126":-0.19176045060157776,"127":0.0315890908241272,"128":0.035078708082437515,"129":-0.22304321825504303,"130":0.016664978116750717,"131":0.010741214267909527,"132":-0.005524993874132633,"133":0.011655192822217941,"134":-0.27657151222229004,"135":0.032859139144420624,"136":-0.13111057877540588,"137":0.0037474394775927067,"138":-0.010620767250657082,"139":-0.12108536064624786,"140":-0.27581268548965454,"141":-0.11371549218893051,"142":0.05315829813480377,"143":0.017175618559122086,"144":0.0019509042613208294,"145":0.015122363343834877,"146":-0.2873539328575134,"147":-0.19917190074920654,"148":0.02167944610118866,"149":-0.04111725091934204,"150":-0.21653378009796143,"151":-0.20077119767665863,"152":-0.14106523990631104,"153":-0.0980074480175972,"154":-0.13675113022327423,"155":-0.1686379462480545,"156":-0.14073573052883148,"157":-0.07333902269601822,"158":-0.28197136521339417,"159":0.005251978524029255,"160":-0.004967226181179285,"161":-0.05409218370914459,"162":-0.30991068482398987,"163":-0.013663058169186115,"164":-0.02918258309364319,"165":-0.24885030090808868,"166":-0.3087776005268097,"167":-0.2690892517566681,"168":-0.16420497000217438,"169":0.11713758111000061,"170":-0.06985200196504593,"171":0.03445732221007347,"172":-0.21916083991527557,"173":0.01879323460161686,"174":-0.13096076250076294,"175":-0.07651811093091965,"176":-0.1475505828857422,"177":-0.11462163925170898,"178":-0.2601676285266876,"179":-0.3037084639072418,"180":-0.3147834539413452,"181":-0.3230341970920563,"182":0.035674627870321274,"183":-0.22680799663066864,"184":-0.10738247632980347,"185":-0.1883196383714676,"186":-0.2098497748374939,"187":-0.295989453792572,"188":-0.12224046885967255,"189":-0.19786623120307922,"190":-0.1748185157775879,"191":-0.13000810146331787,"192":-0.3301059603691101,"193":-0.14541947841644287,"194":-0.06606386601924896,"195":-0.2670626938343048,"196":0.029400993138551712,"197":-0.31998929381370544,"198":-0.11260263621807098,"199":-0.29006633162498474,"200":-0.24634906649589539,"201":-0.11522414535284042,"202":-0.09049810469150543,"203":-0.2731582820415497,"204":-0.2313918024301529,"205":-0.14837948977947235,"206":0.03971967101097107,"207":-0.2514764666557312,"208":0.02139894664287567,"209":0.04553355276584625,"210":-0.08346624672412872,"211":-0.32053133845329285,"212":-0.27324309945106506,"213":-0.14096961915493011,"214":-0.3140266537666321,"215":-0.18588843941688538,"216":-0.017431272193789482,"217":-0.10522192716598511,"218":-0.050664421170949936,"219":-0.11675997078418732,"220":-0.28584322333335876,"221":-0.05156081169843674,"222":-0.03335832804441452,"223":-0.1926741749048233,"224":-0.20306475460529327,"225":-0.07836031168699265,"226":0.1475256085395813,"227":-0.44295623898506165,"228":0.18400204181671143,"229":0.05391138792037964,"230":-0.44595667719841003,"231":0.08346699178218842,"232":0.17449736595153809,"233":-0.45913246273994446,"234":-0.11265326291322708}},"11":{"bias":-0.17357324063777924,"weights":{"0":-0.1953301578760147,"1":-0.08305273205041885,"2":-0.07526416331529617,"3":0.16658271849155426,"4":-0.0758897215127945,"5":0.16299942135810852,"6":0.022161364555358887,"7":0.13234084844589233,"8":0.030569717288017273,"9":-0.06464596092700958,"10":-0.1496264636516571,"11":-0.008731205947697163,"12":-0.17731192708015442,"13":-0.1471022665500641,"14":-0.183858260512352,"15":-0.12068694084882736,"16":0.1671716719865799,"17":0.09215620905160904,"18":-0.028088705614209175,"19":0.1818705052137375,"20":-0.14743496477603912,"21":0.10831400007009506,"22":0.03008963353931904,"23":-0.10244207829236984,"24":0.13951200246810913,"25":0.1559036821126938,"26":-0.014222230762243271,"27":0.05407656356692314,"28":0.04534824937582016,"29":0.156296506524086,"30":-0.09120262414216995,"31":-0.07313896715641022,"32":-0.13839972019195557,"33":-0.1107189878821373,"34":-0.04140317440032959,"35":0.011514252051711082,"36":-0.17078475654125214,"37":0.10739324241876602,"38":-0.12884150445461273,"39":-0.024873780086636543,"40":0.0860329419374466,"41":0.029380712658166885,"42":-0.018580760806798935,"43":0.10866222530603409,"44":0.08058951795101166,"45":-0.02131921425461769,"46":-0.06540127098560333,"47":-0.18181189894676208,"48":-0.05843435227870941,"49":0.056832205504179,"50":-0.057960230857133865,"51":0.07622358202934265,"52":-0.12997789680957794,"53":-0.05023171752691269,"54":0.05444516986608505,"55":-0.1470608413219452,"56":-0.09416152536869049,"57":0.003585116472095251,"58":0.1256195604801178,"59":-0.14587345719337463,"60":0.013706979341804981,"61":-0.0060409908182919025,"62":-0.10600409656763077,"63":-0.19812272489070892,"64":-0.12129878997802734,"65":-0.03617356717586517,"66":-0.0669969692826271,"67":0.12563684582710266,"68":0.023733511567115784,"69":-0.0551828071475029,"70":0.020235219970345497,"71":-0.06720645725727081,"72":0.07289975881576538,"73":-0.009583842009305954,"74":-0.014442837797105312,"75":-0.061870064586400986,"76":0.09779743105173111,"77":-0.028897041454911232,"78":0.1985466033220291,"79":-0.14723198115825653,"80":0.03565036505460739,"81":-0.08053519576787949,"82":-0.10796472430229187,"83":-0.17591673135757446,"84":-0.13137508928775787,"85":-0.07722613215446472,"86":-0.1746101975440979,"87":-0.03344273567199707,"88":0.12181657552719116,"89":0.16080321371555328,"90":0.08073489367961884,"91":-0.0365004688501358,"92":0.10376889258623123,"93":0.09051083028316498,"94":0.1490243673324585,"95":0.0016421640757471323,"96":0.009661625139415264,"97":0.012873985804617405,"98":-0.11947742104530334,"99":0.18748055398464203,"100":-0.19444048404693604,"101":-0.003464811947196722,"102":0.05651880428195,"103":0.13472159206867218,"104":-0.18914687633514404,"105":0.15457110106945038,"106":-0.016749341040849686,"107":-0.1040697917342186,"108":-0.12602555751800537,"109":-0.18013375997543335,"110":0.04933655634522438,"111":-0.028675056993961334,"112":0.004382112063467503,"113":0.045362792909145355,"114":0.015041528269648552,"115":0.1442907154560089,"116":-0.011772995814681053,"117":-0.08613570034503937,"118":0.1337231993675232,"119":-0.08155620843172073,"120":0.006839829497039318,"121":0.14786341786384583,"122":0.0911756306886673,"123":0.04814908280968666,"124":0.07273227721452713,"125":-0.03839865326881409,"126":-0.01842513307929039,"127":-0.11423654109239578,"128":0.010252514854073524,"129":-0.1526651382446289,"130":-0.02960056997835636,"131":0.09860283881425858,"132":0.05289939045906067,"133":0.13370031118392944,"134":-0.18974155187606812,"135":0.14123740792274475,"136":-0.06646555662155151,"137":0.1064111664891243,"138":0.03507723659276962,"139":0.1463666707277298,"140":-0.016332656145095825,"141":0.07788212597370148,"142":-0.05660732463002205,"143":-0.08231423050165176,"144":-0.09296096116304398,"145":0.1834399402141571,"146":-0.025025205686688423,"147":0.19322915375232697,"148":-0.11837225407361984,"149":-0.12329462170600891,"150":0.06929221749305725,"151":-0.07625386118888855,"152":-0.16843155026435852,"153":0.19504570960998535,"154":-0.19317090511322021,"155":-0.07833229005336761,"156":-0.014913570135831833,"157":0.16843228042125702,"158":0.0486418753862381,"159":-0.19530314207077026,"160":0.062287379056215286,"161":0.08619166910648346,"162":-0.09425461292266846,"163":0.08109011501073837,"164":-0.08782470971345901,"165":-0.026666756719350815,"166":-0.054094500839710236,"167":-0.12982960045337677,"168":-0.07060535997152328,"169":0.19620363414287567,"170":0.07691370695829391,"171":-0.008225923404097557,"172":-0.17618490755558014,"173":0.13943015038967133,"174":0.003522682236507535,"175":0.08717136085033417,"176":0.10717107355594635,"177":0.027096232399344444,"178":0.12680476903915405,"179":-0.1149865984916687,"180":-0.13604621589183807,"181":-0.13944481313228607,"182":0.12340142577886581,"183":-0.06147010624408722,"184":-0.16629339754581451,"185":0.10683035850524902,"186":0.18797001242637634,"187":-0.05644388124346733,"188":0.025662055239081383,"189":-0.12554757297039032,"190":0.04449798911809921,"191":0.05895298719406128,"192":-0.08084187656641006,"193":0.1355963945388794,"194":0.049700986593961716,"195":-0.03408787399530411,"196":-0.1046753004193306,"197":-0.12265457957983017,"198":-0.061872322112321854,"199":-0.05040173605084419,"200":-0.025037525221705437,"201":-0.181033194065094,"202":0.11410735547542572,"203":-0.08401063829660416,"204":-0.17310918867588043,"205":-0.05050878971815109,"206":-0.11543072760105133,"207":-0.11832019686698914,"208":-0.19726791977882385,"209":-0.1851116120815277,"210":0.020229509100317955,"211":-0.03826414793729782,"212":-0.16873906552791595,"213":-0.10200139880180359,"214":-0.10567053407430649,"215":0.0998331680893898,"216":0.012808656319975853,"217":-0.08359209448099136,"218":0.1650182157754898,"219":0.1761871576309204,"220":0.18277142941951752,"221":0.19014233350753784,"222":0.1392708569765091,"223":-0.19388459622859955,"224":-0.11338501423597336,"225":-0.13595667481422424,"226":0.09180791676044464,"227":-0.06092499941587448,"228":0.046519141644239426,"229":0.0058899628929793835,"230":0.155631422996521,"231":-0.18194301426410675,"232":-0.032888639718294144,"233":-0.1304255872964859,"234":-0.14861203730106354}},"12":{"bias":-0.047095224261283875,"weights":{"0":0.14615051448345184,"1":0.1424628645181656,"2":0.08639694005250931,"3":-0.21155686676502228,"4":0.16079428791999817,"5":-0.16395525634288788,"6":-0.21089613437652588,"7":0.009853113442659378,"8":-0.18590034544467926,"9":-0.008330699056386948,"10":-0.02895798161625862,"11":-0.13385745882987976,"12":0.034188538789749146,"13":-0.028674164786934853,"14":0.07969101518392563,"15":-0.15349026024341583,"16":-0.06068658456206322,"17":-0.059433870017528534,"18":0.12720873951911926,"19":-0.218849778175354,"20":0.17672644555568695,"21":0.14127491414546967,"22":-0.08871154487133026,"23":0.17913325130939484,"24":0.06261155009269714,"25":-0.1066586896777153,"26":-0.11369679123163223,"27":-0.0524015799164772,"28":-0.02553386427462101,"29":-0.12293002009391785,"30":-0.05984099581837654,"31":-0.1885797381401062,"32":-0.03498385474085808,"33":-0.20122644305229187,"34":0.06147029995918274,"35":-0.10103560984134674,"36":0.11051543056964874,"37":-0.15218974649906158,"38":0.09919491410255432,"39":-0.15174919366836548,"40":0.03657924383878708,"41":0.10115048289299011,"42":-0.1263333261013031,"43":-0.06870375573635101,"44":0.016900356858968735,"45":-0.06424327194690704,"46":0.08685126155614853,"47":-0.06695309281349182,"48":-0.10710656642913818,"49":-0.1449173241853714,"50":0.04961486533284187,"51":0.13233526051044464,"52":-0.1329563707113266,"53":-0.19393430650234222,"54":-0.10413416475057602,"55":-0.13700836896896362,"56":0.10197676718235016,"57":0.009505363181233406,"58":-0.0712449699640274,"59":0.13857515156269073,"60":0.16321390867233276,"61":-0.20200449228286743,"62":0.027030115947127342,"63":-0.0475141704082489,"64":-0.09954751282930374,"65":0.014084182679653168,"66":-0.007702002767473459,"67":-0.002788526937365532,"68":0.1434767246246338,"69":0.06966809183359146,"70":0.076191745698452,"71":-0.07363509386777878,"72":0.15321534872055054,"73":0.13940751552581787,"74":-0.15523427724838257,"75":-0.10992707312107086,"76":0.1730998456478119,"77":-0.187577486038208,"78":0.1142415851354599,"79":-0.11801322549581528,"80":-0.20767782628536224,"81":0.1614508330821991,"82":0.12032345682382584,"83":-0.10274802893400192,"84":-0.21141892671585083,"85":-0.1895429790019989,"86":0.0072406441904604435,"87":-0.17612195014953613,"88":0.04501175507903099,"89":-0.0981135219335556,"90":-0.0013674376532435417,"91":0.030476851388812065,"92":-0.030989794060587883,"93":0.10756875574588776,"94":0.07310259342193604,"95":0.06501619517803192,"96":-0.03165855258703232,"97":0.08887416869401932,"98":0.04996442422270775,"99":-0.21583640575408936,"100":-0.08244577795267105,"101":0.15559087693691254,"102":-0.030651995912194252,"103":0.06452327221632004,"104":0.05147388204932213,"105":0.047304995357990265,"106":0.03848003223538399,"107":-0.17797496914863586,"108":-0.20200715959072113,"109":-0.12637357413768768,"110":0.17153754830360413,"111":0.14064554870128632,"112":-0.1648125797510147,"113":0.035711392760276794,"114":0.018527325242757797,"115":0.0731436088681221,"116":-0.17430895566940308,"117":-0.1724587380886078,"118":0.1693478673696518,"119":0.08347834646701813,"120":-0.11398192495107651,"121":-0.04054928943514824,"122":0.05865254998207092,"123":-0.05856550112366676,"124":0.111284039914608,"125":-0.15485772490501404,"126":-0.024250579997897148,"127":-0.15402629971504211,"128":0.05142130330204964,"129":0.04482049494981766,"130":0.09357894957065582,"131":-0.13759884238243103,"132":-0.099761463701725,"133":0.12113385647535324,"134":0.06859123706817627,"135":-0.09920580685138702,"136":-0.1790778487920761,"137":0.15568594634532928,"138":0.11706916242837906,"139":-0.201554536819458,"140":-0.03050018660724163,"141":0.09291806071996689,"142":0.07042648643255234,"143":-0.013882776722311974,"144":-0.02643558196723461,"145":0.11242488771677017,"146":-0.01960691250860691,"147":-0.06321842968463898,"148":-0.10120336711406708,"149":-0.04196964576840401,"150":-0.17838013172149658,"151":0.17553767561912537,"152":-0.05578688159584999,"153":0.13602429628372192,"154":-0.045373380184173584,"155":-0.1005769670009613,"156":-0.036185912787914276,"157":-0.008795014582574368,"158":0.09135106205940247,"159":-0.010700274258852005,"160":0.005152735393494368,"161":0.08224429935216904,"162":0.06273283809423447,"163":-0.04176982492208481,"164":0.12141604721546173,"165":-0.03531572222709656,"166":-0.1433734893798828,"167":0.0074285040609538555,"168":-0.14816869795322418,"169":0.05141151323914528,"170":-0.0967741459608078,"171":-0.03430413827300072,"172":0.07063689827919006,"173":0.1362525224685669,"174":0.05247259885072708,"175":-0.15498918294906616,"176":0.054696716368198395,"177":0.04500369355082512,"178":0.137252077460289,"179":-0.037626221776008606,"180":0.12806633114814758,"181":-0.08081663399934769,"182":0.1418704241514206,"183":-0.01356055960059166,"184":0.07448393851518631,"185":-0.053928304463624954,"186":0.11053567379713058,"187":0.01415076944977045,"188":0.07977564632892609,"189":-0.18828478455543518,"190":-0.1389731764793396,"191":0.0019522178918123245,"192":0.04163679853081703,"193":0.11042654514312744,"194":0.14657793939113617,"195":0.1359829157590866,"196":0.009079555049538612,"197":-0.2192181646823883,"198":-0.014469901099801064,"199":-0.20974101126194,"200":0.006104602012783289,"201":0.10076887905597687,"202":-0.1760510504245758,"203":-0.08504250645637512,"204":-0.12306015938520432,"205":0.10338994860649109,"206":0.11244047433137894,"207":-0.10924224555492401,"208":0.13932780921459198,"209":-0.047605838626623154,"210":-0.10157092660665512,"211":0.021313605830073357,"212":-0.12443435937166214,"213":-0.19076749682426453,"214":0.1731255203485489,"215":0.10070710629224777,"216":-0.1636805683374405,"217":0.10235278308391571,"218":-0.14001378417015076,"219":0.1792035847902298,"220":0.09089601039886475,"221":-0.00804628524929285,"222":-0.053696706891059875,"223":-0.11448157578706741,"224":0.12114696949720383,"225":-0.02936924807727337,"226":0.10860159248113632,"227":-0.24800625443458557,"228":-0.14031042158603668,"229":-0.115567646920681,"230":0.06128939613699913,"231":-0.13569387793540955,"232":0.06204015389084816,"233":0.10408183187246323,"234":-0.13194933533668518}},"13":{"bias":0.05144236609339714,"weights":{"0":-0.01234915480017662,"1":-0.1185990422964096,"2":0.13512933254241943,"3":0.005634082946926355,"4":0.04377463459968567,"5":-0.19829529523849487,"6":0.11977198719978333,"7":-0.22732655704021454,"8":-0.11187255382537842,"9":0.035914864391088486,"10":-0.17050254344940186,"11":-0.2112196385860443,"12":-0.12728570401668549,"13":0.08462022989988327,"14":-0.11948584765195847,"15":0.055411823093891144,"16":-0.03339690342545509,"17":-0.030237900093197823,"18":0.07104776799678802,"19":0.02858397737145424,"20":0.07796210050582886,"21":-0.17396360635757446,"22":-0.09665486961603165,"23":0.10715945065021515,"24":0.025198716670274734,"25":-0.012114767916500568,"26":-0.03904358670115471,"27":-0.195744588971138,"28":0.10308892279863358,"29":0.12707258760929108,"30":-0.077384352684021,"31":-0.09103474766016006,"32":-0.0651782974600792,"33":0.0374007374048233,"34":0.07300934195518494,"35":-0.07847057282924652,"36":0.05934271588921547,"37":-0.16279831528663635,"38":0.11990522593259811,"39":0.06084175407886505,"40":-0.021939732134342194,"41":0.07395404577255249,"42":0.0779225081205368,"43":-0.07543603330850601,"44":0.08651933073997498,"45":0.09373310208320618,"46":0.14009979367256165,"47":0.16728563606739044,"48":0.06374102085828781,"49":-0.0838949978351593,"50":-0.21832340955734253,"51":-0.030049659311771393,"52":-0.08423008769750595,"53":0.03614519536495209,"54":0.016779771074652672,"55":0.09544412791728973,"56":-0.03087424673140049,"57":0.0011795097962021828,"58":0.1305975466966629,"59":-0.12784405052661896,"60":-0.13720954954624176,"61":0.11541794240474701,"62":-0.1715201884508133,"63":0.0859927088022232,"64":0.04656093195080757,"65":0.0487663671374321,"66":-0.08774260431528091,"67":-0.07258167117834091,"68":0.014150322414934635,"69":-0.13499559462070465,"70":0.06319680064916611,"71":-0.17335815727710724,"72":0.10391059517860413,"73":-0.1873958259820938,"74":-0.22754636406898499,"75":-0.027550559490919113,"76":0.12685343623161316,"77":-0.12377949059009552,"78":-0.08318471908569336,"79":0.028353413566946983,"80":-0.1730097383260727,"81":0.003617389127612114,"82":-0.18959073722362518,"83":-0.14061224460601807,"84":-0.030351044610142708,"85":-0.12705634534358978,"86":-0.1781790405511856,"87":-0.1816011220216751,"88":0.06664197891950607,"89":-0.20377039909362793,"90":0.050789590924978256,"91":-0.17304103076457977,"92":-0.20455501973628998,"93":0.11417004466056824,"94":0.009014404378831387,"95":-0.11610394716262817,"96":0.10762607306241989,"97":-0.11203782260417938,"98":-0.03062957338988781,"99":-0.08147178590297699,"100":-0.20985998213291168,"101":-0.18498718738555908,"102":-0.1827009916305542,"103":-0.06681360304355621,"104":0.14166097342967987,"105":0.03019517846405506,"106":-0.14819467067718506,"107":-0.05537683889269829,"108":0.09729710966348648,"109":-0.061176661401987076,"110":-0.016652211546897888,"111":-0.08231590688228607,"112":-0.04046336188912392,"113":0.02926005609333515,"114":0.12746955454349518,"115":-0.14387798309326172,"116":0.04785371571779251,"117":-0.012705842964351177,"118":-0.1638561189174652,"119":0.09512768685817719,"120":0.005761781707406044,"121":-0.23055803775787354,"122":-0.05921652540564537,"123":-0.008294637314975262,"124":-0.19023212790489197,"125":-0.22854545712471008,"126":-0.11566571891307831,"127":0.008687121793627739,"128":-0.04327646642923355,"129":0.017383215948939323,"130":0.14565002918243408,"131":-0.11140602827072144,"132":-0.1341795176267624,"133":0.07267887890338898,"134":0.11959266662597656,"135":-0.12935172021389008,"136":-0.09816671162843704,"137":0.10991998016834259,"138":-0.01105305552482605,"139":-0.044421229511499405,"140":0.03363805264234543,"141":-0.17679893970489502,"142":-0.14074891805648804,"143":0.051815133541822433,"144":-0.06404320150613785,"145":-0.0042078387923538685,"146":0.024878215044736862,"147":-0.23119769990444183,"148":-0.154652401804924,"149":0.12262170016765594,"150":-0.23036012053489685,"151":-0.15549920499324799,"152":-0.15730711817741394,"153":0.06575960665941238,"154":-0.20946303009986877,"155":0.15032146871089935,"156":-0.12609826028347015,"157":0.11888664215803146,"158":-0.12374886870384216,"159":-0.10000988095998764,"160":0.13833028078079224,"161":0.13324296474456787,"162":-0.005429592449218035,"163":-0.23340070247650146,"164":-0.022580944001674652,"165":-0.02628326788544655,"166":-0.044668372720479965,"167":-0.08704236894845963,"168":0.12361239641904831,"169":0.006346427369862795,"170":-0.1604059338569641,"171":0.09372131526470184,"172":-0.13325412571430206,"173":-0.14286643266677856,"174":-0.13445492088794708,"175":0.06895608454942703,"176":0.03436793386936188,"177":-0.20036716759204865,"178":-0.0213552787899971,"179":-0.14105795323848724,"180":0.06525280326604843,"181":-0.21594823896884918,"182":-0.16484972834587097,"183":0.11468105763196945,"184":-0.020112935453653336,"185":0.06523124128580093,"186":-0.05594344437122345,"187":0.04745238646864891,"188":0.06915926933288574,"189":-0.12503117322921753,"190":0.11024783551692963,"191":-0.20873390138149261,"192":-0.034914206713438034,"193":-0.12048208713531494,"194":0.05650375783443451,"195":-0.12931610643863678,"196":-0.01439166720956564,"197":-0.08636190742254257,"198":-0.08059129863977432,"199":0.14912717044353485,"200":0.08431408554315567,"201":-0.19312405586242676,"202":-0.06826121360063553,"203":-0.20354090631008148,"204":-0.11913500726222992,"205":-0.1351965367794037,"206":-0.08806586265563965,"207":-0.08330150693655014,"208":0.15748901665210724,"209":-0.09355366975069046,"210":-0.03518513962626457,"211":-0.14489810168743134,"212":-0.0903138592839241,"213":0.13569404184818268,"214":-0.07906761020421982,"215":-0.02580033242702484,"216":-0.13488264381885529,"217":0.15243932604789734,"218":-0.06448469310998917,"219":0.1560845822095871,"220":-0.05245433375239372,"221":-0.12182634323835373,"222":0.005823648534715176,"223":-0.00547744520008564,"224":0.06339747458696365,"225":-0.12710057199001312,"226":0.14462831616401672,"227":-0.33604100346565247,"228":-0.050532933324575424,"229":-0.1158076599240303,"230":0.019679797813296318,"231":0.16265931725502014,"232":0.12083964794874191,"233":-0.2411923110485077,"234":-0.13323301076889038}},"14":{"bias":-0.07813090831041336,"weights":{"0":-0.16911493241786957,"1":0.00842951238155365,"2":-0.03448905423283577,"3":0.08720246702432632,"4":-0.07193610072135925,"5":-0.07282459735870361,"6":0.17265604436397552,"7":-0.11566618084907532,"8":-0.1641768217086792,"9":-0.08451274782419205,"10":-0.1883545070886612,"11":0.06064127758145332,"12":0.020217876881361008,"13":-0.04163626581430435,"14":0.12521547079086304,"15":0.1412784457206726,"16":-0.15112638473510742,"17":-0.12751759588718414,"18":0.014835042878985405,"19":-0.028351645916700363,"20":0.1973293125629425,"21":0.06446322053670883,"22":-0.08990194648504257,"23":-0.19974426925182343,"24":0.12046246230602264,"25":0.02607838250696659,"26":-0.19575321674346924,"27":0.030623510479927063,"28":0.14979662001132965,"29":-0.13149553537368774,"30":0.12333548814058304,"31":-0.07012243568897247,"32":-0.07392715662717819,"33":0.06915319710969925,"34":0.004235356114804745,"35":0.10027234256267548,"36":0.034157223999500275,"37":0.0892605111002922,"38":-0.10845784097909927,"39":0.14313365519046783,"40":0.08629989624023438,"41":0.03364614397287369,"42":0.059262216091156006,"43":0.05837393179535866,"44":0.19659745693206787,"45":0.021713722497224808,"46":-0.14579711854457855,"47":0.1805640012025833,"48":-0.005469172261655331,"49":-0.041381798684597015,"50":0.16511085629463196,"51":0.07702311128377914,"52":0.09953157603740692,"53":-0.14474378526210785,"54":0.10413301736116409,"55":-0.01756948046386242,"56":-0.1912655085325241,"57":-0.125991091132164,"58":0.07728991657495499,"59":-0.04376010224223137,"60":-0.12006144970655441,"61":-0.09880080819129944,"62":-0.17273184657096863,"63":0.030818339437246323,"64":0.05912189558148384,"65":-0.04720504209399223,"66":0.027759261429309845,"67":0.12588605284690857,"68":-0.1326608806848526,"69":0.19566449522972107,"70":-0.10963926464319229,"71":0.09934050589799881,"72":-0.016778327524662018,"73":-0.18780551850795746,"74":-0.04436154291033745,"75":0.06300211697816849,"76":0.09095299243927002,"77":-0.18748538196086884,"78":-0.02512824535369873,"79":-0.18481846153736115,"80":0.05495423078536987,"81":-0.1352071613073349,"82":0.15972474217414856,"83":-0.07944703102111816,"84":-0.001497599994763732,"85":0.06687023490667343,"86":0.04220793396234512,"87":0.18160873651504517,"88":-0.11586589366197586,"89":0.16810406744480133,"90":0.00654365960508585,"91":0.021923357620835304,"92":0.14224252104759216,"93":0.1713566780090332,"94":-0.06660463660955429,"95":0.12877844274044037,"96":0.19622261822223663,"97":-0.0042833308689296246,"98":0.023790162056684494,"99":0.11780640482902527,"100":-0.1689242273569107,"101":0.13826334476470947,"102":-0.1991579681634903,"103":0.07991504669189453,"104":0.15658964216709137,"105":0.08716783672571182,"106":-0.03754982352256775,"107":0.01248051319271326,"108":0.10515081882476807,"109":-0.13234852254390717,"110":-0.06443442404270172,"111":-0.022316118702292442,"112":0.0440167561173439,"113":-0.18469884991645813,"114":-0.1979677379131317,"115":-0.005661835893988609,"116":0.1831047236919403,"117":0.13894933462142944,"118":0.05068207532167435,"119":0.1840972900390625,"120":0.0020659780129790306,"121":-0.14328241348266602,"122":-0.039459966123104095,"123":-0.011147900484502316,"124":-0.08507093042135239,"125":-0.007625516504049301,"126":0.12177784740924835,"127":0.1906089037656784,"128":0.164034903049469,"129":-0.042551565915346146,"130":-0.04746923968195915,"131":0.0021257931366562843,"132":0.09263955801725388,"133":-0.03852435573935509,"134":-0.09040576219558716,"135":0.039711274206638336,"136":-0.024281414225697517,"137":0.18838579952716827,"138":0.08499316871166229,"139":-0.19906289875507355,"140":-0.05304834246635437,"141":0.17993958294391632,"142":0.11416842043399811,"143":0.04808389022946358,"144":0.025136297568678856,"145":0.1062527447938919,"146":-0.11570107936859131,"147":-0.11129438877105713,"148":0.07567020505666733,"149":0.05077632516622543,"150":-0.037355124950408936,"151":-0.18941575288772583,"152":-0.1933974325656891,"153":-0.17547562718391418,"154":-0.11424393206834793,"155":-0.05031900480389595,"156":0.09613622725009918,"157":0.1383848786354065,"158":-0.16127082705497742,"159":0.0010617778170853853,"160":-0.16778531670570374,"161":-0.011995488777756691,"162":0.00006687168934149668,"163":-0.02062378078699112,"164":-0.18399643898010254,"165":0.09602674841880798,"166":-0.0189835112541914,"167":-0.15343494713306427,"168":0.05587327480316162,"169":-0.020675789564847946,"170":0.14582428336143494,"171":-0.14251203835010529,"172":-0.037837058305740356,"173":-0.023457705974578857,"174":0.0781066045165062,"175":0.17765524983406067,"176":-0.12920603156089783,"177":-0.09330381453037262,"178":0.1122543215751648,"179":0.10733849555253983,"180":-0.15154819190502167,"181":-0.037073951214551926,"182":0.004889128264039755,"183":0.12536123394966125,"184":-0.15751226246356964,"185":-0.15477655827999115,"186":-0.036279674619436264,"187":-0.13154959678649902,"188":0.17817722260951996,"189":-0.16356998682022095,"190":-0.005438218824565411,"191":0.1647946983575821,"192":0.1940896064043045,"193":-0.10944028943777084,"194":0.08973636478185654,"195":0.1541130691766739,"196":-0.1869507133960724,"197":0.05382270738482475,"198":0.05033070966601372,"199":0.15197554230690002,"200":0.0990421324968338,"201":0.01688845269382,"202":0.08836425840854645,"203":-0.031399697065353394,"204":-0.059509553015232086,"205":0.10513946413993835,"206":-0.08592123538255692,"207":0.18566280603408813,"208":-0.022349888458848,"209":0.1052919402718544,"210":-0.0633184164762497,"211":-0.18186572194099426,"212":0.08340846002101898,"213":-0.02733958512544632,"214":-0.07120826095342636,"215":-0.16524970531463623,"216":0.022292466834187508,"217":-0.03874342143535614,"218":-0.05835350975394249,"219":0.12419302761554718,"220":-0.08928259462118149,"221":-0.14946115016937256,"222":0.07920832186937332,"223":0.04143437370657921,"224":-0.13215264678001404,"225":0.0032215157989412546,"226":-0.14130321145057678,"227":-0.17407108843326569,"228":0.18763160705566406,"229":0.11537188291549683,"230":-0.1911204755306244,"231":0.17070752382278442,"232":-0.10487109422683716,"233":0.035321999341249466,"234":-0.15329612791538239}},"15":{"bias":0.15167324244976044,"weights":{"0":-0.175593301653862,"1":0.016585640609264374,"2":-0.19916854798793793,"3":0.11465079337358475,"4":0.08225178718566895,"5":-0.06691691279411316,"6":0.016789313405752182,"7":-0.0019703449215739965,"8":0.008566970005631447,"9":0.0522211529314518,"10":0.13972020149230957,"11":-0.19150055944919586,"12":-0.10970752686262131,"13":-0.18075425922870636,"14":0.028659088537096977,"15":-0.14343653619289398,"16":0.08424083143472672,"17":0.163005068898201,"18":0.1091851219534874,"19":-0.17278094589710236,"20":0.1515863537788391,"21":-0.044803690165281296,"22":-0.014906596392393112,"23":0.14898565411567688,"24":0.09249909967184067,"25":0.012059814296662807,"26":-0.02889138273894787,"27":0.025337768718600273,"28":-0.04364394024014473,"29":0.18294206261634827,"30":-0.058320190757513046,"31":-0.08797825127840042,"32":-0.08589057624340057,"33":-0.020056908950209618,"34":0.1570572406053543,"35":0.052436862140893936,"36":0.034116990864276886,"37":-0.0022929818369448185,"38":0.14063775539398193,"39":0.08082214742898941,"40":0.061417106539011,"41":-0.13587550818920135,"42":-0.01998917944729328,"43":0.0707644522190094,"44":0.14855711162090302,"45":0.1459197998046875,"46":0.13157956302165985,"47":0.0038471773732453585,"48":-0.1518995314836502,"49":-0.18094846606254578,"50":-0.10845527797937393,"51":0.07932152599096298,"52":-0.10126397013664246,"53":-0.08821509778499603,"54":-0.11386264860630035,"55":0.1167425811290741,"56":-0.03823390230536461,"57":-0.18951597809791565,"58":0.04407574236392975,"59":0.03486653417348862,"60":0.06061806157231331,"61":-0.15299078822135925,"62":-0.13966520130634308,"63":-0.12499996274709702,"64":-0.0768713504076004,"65":0.05405707284808159,"66":0.16819332540035248,"67":-0.02843041531741619,"68":-0.16380955278873444,"69":-0.13270682096481323,"70":0.053297244012355804,"71":-0.0910782739520073,"72":0.11543441563844681,"73":0.16330376267433167,"74":-0.09823471307754517,"75":-0.02774554304778576,"76":0.1969555914402008,"77":0.08112639933824539,"78":-0.030456827953457832,"79":-0.03745570778846741,"80":0.16525883972644806,"81":-0.01944640465080738,"82":-0.01867363229393959,"83":0.05192052572965622,"84":0.0807536393404007,"85":-0.10849102586507797,"86":0.03204988315701485,"87":-0.14812545478343964,"88":0.00289030559360981,"89":-0.12347673624753952,"90":0.08572017401456833,"91":-0.049806103110313416,"92":-0.16924992203712463,"93":-0.1461082547903061,"94":0.0800480917096138,"95":0.10342581570148468,"96":-0.060960423201322556,"97":0.045882657170295715,"98":0.008209748193621635,"99":0.15576516091823578,"100":0.019139666110277176,"101":0.10924984514713287,"102":-0.03852082043886185,"103":-0.19654498994350433,"104":0.11931179463863373,"105":-0.011077647097408772,"106":0.08973583579063416,"107":0.07536868751049042,"108":-0.11001444607973099,"109":0.19280430674552917,"110":-0.1869342178106308,"111":-0.03908968344330788,"112":-0.0932864174246788,"113":-0.1293150633573532,"114":0.16020259261131287,"115":-0.0004282545414753258,"116":-0.1242816224694252,"117":-0.09352681040763855,"118":0.01818753220140934,"119":0.08530258387327194,"120":0.06360527873039246,"121":0.14401699602603912,"122":-0.12639687955379486,"123":0.0954606831073761,"124":-0.1183924525976181,"125":-0.2016281634569168,"126":0.05321669206023216,"127":-0.0945642739534378,"128":0.1682550609111786,"129":-0.11916039884090424,"130":0.07243949174880981,"131":-0.07048863917589188,"132":-0.09934307634830475,"133":0.19537478685379028,"134":0.002141058910638094,"135":-0.03045944683253765,"136":-0.15140922367572784,"137":-0.08335517346858978,"138":-0.15134310722351074,"139":0.10937958210706711,"140":-0.08814988285303116,"141":0.1111309751868248,"142":-0.15596772730350494,"143":-0.019213909283280373,"144":0.03231390565633774,"145":-0.19749704003334045,"146":-0.037094030529260635,"147":0.006269352976232767,"148":0.11283660680055618,"149":-0.12287340313196182,"150":-0.15892140567302704,"151":-0.1962316632270813,"152":-0.09802986681461334,"153":-0.15137897431850433,"154":0.13326647877693176,"155":-0.08518172800540924,"156":-0.14129337668418884,"157":-0.17725056409835815,"158":0.01657525822520256,"159":0.1406669020652771,"160":0.15712445974349976,"161":-0.169772669672966,"162":-0.11940998584032059,"163":0.17348256707191467,"164":0.1547268033027649,"165":0.11656349152326584,"166":0.17111466825008392,"167":-0.17645737528800964,"168":0.10591280460357666,"169":0.17375946044921875,"170":-0.06491756439208984,"171":0.19189077615737915,"172":-0.0402134470641613,"173":0.06047243997454643,"174":-0.1436758190393448,"175":0.06652792543172836,"176":-0.014188684523105621,"177":-0.11025723069906235,"178":-0.20161978900432587,"179":0.1871335208415985,"180":-0.13065578043460846,"181":0.04979710653424263,"182":0.004330246709287167,"183":0.14918918907642365,"184":-0.09445232152938843,"185":0.11177944391965866,"186":-0.1392502337694168,"187":0.08048878610134125,"188":-0.13870705664157867,"189":-0.15908104181289673,"190":-0.10998591035604477,"191":0.09119834005832672,"192":-0.08012983947992325,"193":-0.11155000329017639,"194":-0.042549751698970795,"195":0.1266574263572693,"196":-0.1282622218132019,"197":-0.1814844310283661,"198":0.11513970047235489,"199":0.11011902242898941,"200":-0.15254876017570496,"201":0.008666731417179108,"202":0.02103428915143013,"203":0.1444384753704071,"204":0.14533574879169464,"205":-0.11447262018918991,"206":-0.07951278239488602,"207":0.05138315260410309,