{"sizes":[407,20,20,1],"layers":[{"0":{},"1":{},"2":{},"3":{},"4":{},"5":{},"6":{},"7":{},"8":{},"9":{},"10":{},"11":{},"12":{},"13":{},"14":{},"15":{},"16":{},"17":{},"18":{},"19":{},"20":{},"21":{},"22":{},"23":{},"24":{},"25":{},"26":{},"27":{},"28":{},"29":{},"30":{},"31":{},"32":{},"33":{},"34":{},"35":{},"36":{},"37":{},"38":{},"39":{},"40":{},"41":{},"42":{},"43":{},"44":{},"45":{},"46":{},"47":{},"48":{},"49":{},"50":{},"51":{},"52":{},"53":{},"54":{},"55":{},"56":{},"57":{},"58":{},"59":{},"60":{},"61":{},"62":{},"63":{},"64":{},"65":{},"66":{},"67":{},"68":{},"69":{},"70":{},"71":{},"72":{},"73":{},"74":{},"75":{},"76":{},"77":{},"78":{},"79":{},"80":{},"81":{},"82":{},"83":{},"84":{},"85":{},"86":{},"87":{},"88":{},"89":{},"90":{},"91":{},"92":{},"93":{},"94":{},"95":{},"96":{},"97":{},"98":{},"99":{},"100":{},"101":{},"102":{},"103":{},"104":{},"105":{},"106":{},"107":{},"108":{},"109":{},"110":{},"111":{},"112":{},"113":{},"114":{},"115":{},"116":{},"117":{},"118":{},"119":{},"120":{},"121":{},"122":{},"123":{},"124":{},"125":{},"126":{},"127":{},"128":{},"129":{},"130":{},"131":{},"132":{},"133":{},"134":{},"135":{},"136":{},"137":{},"138":{},"139":{},"140":{},"141":{},"142":{},"143":{},"144":{},"145":{},"146":{},"147":{},"148":{},"149":{},"150":{},"151":{},"152":{},"153":{},"154":{},"155":{},"156":{},"157":{},"158":{},"159":{},"160":{},"161":{},"162":{},"163":{},"164":{},"165":{},"166":{},"167":{},"168":{},"169":{},"170":{},"171":{},"172":{},"173":{},"174":{},"175":{},"176":{},"177":{},"178":{},"179":{},"180":{},"181":{},"182":{},"183":{},"184":{},"185":{},"186":{},"187":{},"188":{},"189":{},"190":{},"191":{},"192":{},"193":{},"194":{},"195":{},"196":{},"197":{},"198":{},"199":{},"200":{},"201":{},"202":{},"203":{},"204":{},"205":{},"206":{},"207":{},"208":{},"209":{},"210":{},"211":{},"212":{},"213":{},"214":{},"215":{},"216":{},"217":{},"218":{},"219":{},"220":{},"221":{},"222":{},"223":{},"224":{},"225":{},"226":{},"227":{},"228":{},"229":{},"230":{},"231":{},"232":{},"233":{},"234":{},"235":{},"236":{},"237":{},"238":{},"239":{},"240":{},"241":{},"242":{},"243":{},"244":{},"245":{},"246":{},"247":{},"248":{},"249":{},"250":{},"251":{},"252":{},"253":{},"254":{},"255":{},"256":{},"257":{},"258":{},"259":{},"260":{},"261":{},"262":{},"263":{},"264":{},"265":{},"266":{},"267":{},"268":{},"269":{},"270":{},"271":{},"272":{},"273":{},"274":{},"275":{},"276":{},"277":{},"278":{},"279":{},"280":{},"281":{},"282":{},"283":{},"284":{},"285":{},"286":{},"287":{},"288":{},"289":{},"290":{},"291":{},"292":{},"293":{},"294":{},"295":{},"296":{},"297":{},"298":{},"299":{},"300":{},"301":{},"302":{},"303":{},"304":{},"305":{},"306":{},"307":{},"308":{},"309":{},"310":{},"311":{},"312":{},"313":{},"314":{},"315":{},"316":{},"317":{},"318":{},"319":{},"320":{},"321":{},"322":{},"323":{},"324":{},"325":{},"326":{},"327":{},"328":{},"329":{},"330":{},"331":{},"332":{},"333":{},"334":{},"335":{},"336":{},"337":{},"338":{},"339":{},"340":{},"341":{},"342":{},"343":{},"344":{},"345":{},"346":{},"347":{},"348":{},"349":{},"350":{},"351":{},"352":{},"353":{},"354":{},"355":{},"356":{},"357":{},"358":{},"359":{},"360":{},"361":{},"362":{},"363":{},"364":{},"365":{},"366":{},"367":{},"368":{},"369":{},"370":{},"371":{},"372":{},"373":{},"374":{},"375":{},"376":{},"377":{},"378":{},"379":{},"380":{},"381":{},"382":{},"383":{},"384":{},"385":{},"386":{},"387":{},"388":{},"389":{},"390":{},"391":{},"392":{},"393":{},"394":{},"395":{},"396":{},"397":{},"398":{},"399":{},"400":{},"401":{},"402":{},"403":{},"404":{},"405":{},"406":{}},{"0":{"bias":0.17950457334518433,"weights":{"0":-0.12323278933763504,"1":0.06744346767663956,"2":-0.17510639131069183,"3":0.1535395383834839,"4":-0.017710527405142784,"5":-0.14539338648319244,"6":0.1194630041718483,"7":-0.1876707673072815,"8":-0.13823272287845612,"9":0.18328793346881866,"10":-0.17977890372276306,"11":-0.18038645386695862,"12":-0.10729047656059265,"13":-0.02154713124036789,"14":0.09675002098083496,"15":-0.0315212644636631,"16":-0.07989837229251862,"17":0.1597747504711151,"18":-0.18362213671207428,"19":-0.15386147797107697,"20":-0.09987027198076248,"21":0.023434963077306747,"22":-0.00043641647789627314,"23":0.1676558256149292,"24":0.1001458540558815,"25":0.19236572086811066,"26":0.036143139004707336,"27":0.12635067105293274,"28":-0.11667991429567337,"29":-0.17680063843727112,"30":0.09401915967464447,"31":0.12726661562919617,"32":0.0027942326851189137,"33":0.026651009917259216,"34":-0.004125515464693308,"35":0.15516984462738037,"36":-0.17037555575370789,"37":0.056399811059236526,"38":0.016204390674829483,"39":-0.057908251881599426,"40":0.14313393831253052,"41":0.19083768129348755,"42":-0.040747109800577164,"43":0.023738453164696693,"44":-0.04837612435221672,"45":-0.07825577259063721,"46":-0.0022623571567237377,"47":0.1837855726480484,"48":0.1958111971616745,"49":-0.11763841658830643,"50":0.1676015406847,"51":-0.18882359564304352,"52":0.19891685247421265,"53":-0.08548056334257126,"54":0.010581874288618565,"55":-0.1784496307373047,"56":0.0014920063549652696,"57":0.09657485038042068,"58":0.05585145577788353,"59":0.022901833057403564,"60":-0.11575661599636078,"61":0.08507341891527176,"62":-0.1083822250366211,"63":-0.021853433921933174,"64":-0.05794069170951843,"65":-0.06333243101835251,"66":-0.07760588079690933,"67":-0.021424751728773117,"68":-0.02732698991894722,"69":-0.15223991870880127,"70":-0.007793670520186424,"71":-0.11761220544576645,"72":-0.046580880880355835,"73":-0.09593573212623596,"74":0.052976708859205246,"75":-0.10350973159074783,"76":-0.07724809646606445,"77":-0.17418184876441956,"78":-0.13598710298538208,"79":-0.1174236387014389,"80":0.07408792525529861,"81":0.1822195202112198,"82":-0.055044908076524734,"83":-0.1177554503083229,"84":-0.08545035123825073,"85":-0.11810503900051117,"86":-0.049167532473802567,"87":0.08211144804954529,"88":0.1122470423579216,"89":0.15239904820919037,"90":0.11333965510129929,"91":-0.10040466487407684,"92":-0.146347314119339,"93":0.15640391409397125,"94":0.03876032307744026,"95":-0.11088010668754578,"96":0.18864476680755615,"97":-0.06884989142417908,"98":-0.0930081456899643,"99":0.1365555375814438,"100":-0.03494913503527641,"101":0.0924563929438591,"102":0.08760321885347366,"103":0.09661435335874557,"104":-0.1482715755701065,"105":-0.16163241863250732,"106":-0.10111624002456665,"107":0.057292766869068146,"108":0.00021995061251800507,"109":0.05609409883618355,"110":0.16482335329055786,"111":0.19399437308311462,"112":-0.11744021624326706,"113":0.1585255116224289,"114":-0.09384474158287048,"115":-0.04777916520833969,"116":-0.0313713401556015,"117":0.043683528900146484,"118":-0.016795579344034195,"119":-0.12657947838306427,"120":0.09833208471536636,"121":-0.08281426876783371,"122":-0.0138264000415802,"123":0.14006675779819489,"124":0.08877013623714447,"125":0.12008991092443466,"126":0.18376219272613525,"127":0.1306387484073639,"128":-0.05939953401684761,"129":-0.009546623565256596,"130":-0.11817003041505814,"131":0.16534802317619324,"132":0.06965761631727219,"133":0.18700821697711945,"134":-0.03684445098042488,"135":-0.10711455345153809,"136":-0.05118882283568382,"137":0.1293952912092209,"138":-0.158876433968544,"139":0.0006341871921904385,"140":-0.045304279774427414,"141":-0.09933486580848694,"142":0.021735897287726402,"143":-0.0403706319630146,"144":-0.14363807439804077,"145":-0.012689865194261074,"146":-0.10556906461715698,"147":0.10098129510879517,"148":-0.15992558002471924,"149":-0.06825420260429382,"150":0.011223874986171722,"151":0.07005204260349274,"152":-0.07457969337701797,"153":-0.12889723479747772,"154":-0.1268433779478073,"155":-0.14420296251773834,"156":0.156960591673851,"157":-0.15804466605186462,"158":0.1016821563243866,"159":0.00010021587513620034,"160":0.012736931443214417,"161":0.029453547671437263,"162":0.0480865053832531,"163":0.162667378783226,"164":0.17669513821601868,"165":0.13827846944332123,"166":0.0891973152756691,"167":0.14641891419887543,"168":0.18712623417377472,"169":-0.14608459174633026,"170":-0.060388173907995224,"171":0.04638824984431267,"172":-0.1940300166606903,"173":-0.00974603183567524,"174":0.1530974805355072,"175":-0.008479551412165165,"176":0.10412601381540298,"177":0.0341995507478714,"178":-0.058209046721458435,"179":-0.14157114923000336,"180":0.19106915593147278,"181":-0.10940947383642197,"182":0.1420433223247528,"183":0.04448781907558441,"184":-0.005135418847203255,"185":0.13174904882907867,"186":0.017847619950771332,"187":0.13869191706180573,"188":0.03143755719065666,"189":0.06869940459728241,"190":-0.09668958932161331,"191":0.16186457872390747,"192":-0.08797997981309891,"193":-0.17723944783210754,"194":-0.033861298114061356,"195":-0.10745653510093689,"196":0.015800578519701958,"197":-0.03746047616004944,"198":0.07903091609477997,"199":0.18230728805065155,"200":-0.12821748852729797,"201":-0.11128386855125427,"202":-0.017442673444747925,"203":-0.15180112421512604,"204":-0.051519669592380524,"205":0.13251648843288422,"206":0.1993306577205658,"207":0.060808390378952026,"208":0.09779492020606995,"209":-0.1865347921848297,"210":-0.11510682106018066,"211":-0.1108647957444191,"212":-0.10602617263793945,"213":-0.18374280631542206,"214":-0.08372867852449417,"215":-0.1026846393942833,"216":-0.09929830580949783,"217":-0.16851642727851868,"218":0.1344006508588791,"219":-0.0041061160154640675,"220":0.11118217557668686,"221":-0.143778458237648,"222":-0.05428849533200264,"223":0.039244286715984344,"224":-0.0606713593006134,"225":-0.13511593639850616,"226":-0.0220770426094532,"227":0.14951464533805847,"228":0.1349349170923233,"229":0.196663498878479,"230":-0.13790704309940338,"231":0.09707634896039963,"232":0.11420857906341553,"233":0.03280630707740784,"234":-0.02206489071249962,"235":0.14418122172355652,"236":0.17963576316833496,"237":0.1448889970779419,"238":-0.1871897131204605,"239":-0.06250019371509552,"240":-0.007018445059657097,"241":-0.05655697360634804,"242":0.07987409830093384,"243":0.19346368312835693,"244":0.03476420044898987,"245":0.08186255395412445,"246":0.1550895720720291,"247":-0.051253609359264374,"248":-0.18343237042427063,"249":-0.18650320172309875,"250":-0.06958089023828506,"251":0.023075852543115616,"252":0.07729208469390869,"253":-0.1477632075548172,"254":-0.08875232934951782,"255":0.10635273903608322,"256":-0.13985536992549896,"257":-0.05019810423254967,"258":-0.19170832633972168,"259":0.10409785807132721,"260":0.12387816607952118,"261":-0.16659699380397797,"262":0.11307618767023087,"263":-0.06288325041532516,"264":0.14261479675769806,"265":-0.19553689658641815,"266":-0.07508175075054169,"267":-0.08668874204158783,"268":0.14810943603515625,"269":-0.14989033341407776,"270":0.19177162647247314,"271":0.1527186781167984,"272":-0.0655558630824089,"273":-0.1756538599729538,"274":0.08284053206443787,"275":-0.13984881341457367,"276":0.1035584956407547,"277":-0.005372690502554178,"278":-0.11857620626688004,"279":-0.041397858411073685,"280":-0.1467699408531189,"281":0.05051666125655174,"282":-0.08520427346229553,"283":0.10228268057107925,"284":-0.15486310422420502,"285":0.11844854801893234,"286":-0.09124544262886047,"287":-0.025519536808133125,"288":0.12435349076986313,"289":0.09003114700317383,"290":-0.15143480896949768,"291":0.13122905790805817,"292":-0.1443038284778595,"293":0.12486162781715393,"294":-0.004264120478183031,"295":-0.024227675050497055,"296":0.15186165273189545,"297":0.017394395545125008,"298":0.056423600763082504,"299":0.06674222648143768,"300":-0.072076216340065,"301":-0.12319882959127426,"302":0.11422386020421982,"303":0.18339568376541138,"304":-0.18456247448921204,"305":0.15288026630878448,"306":-0.012797252275049686,"307":-0.0025685718283057213,"308":-0.07614324986934662,"309":-0.04104534909129143,"310":0.1881689876317978,"311":-0.18683739006519318,"312":-0.08236358314752579,"313":0.11987615376710892,"314":-0.11791744083166122,"315":-0.17321714758872986,"316":0.09169521927833557,"317":-0.14791344106197357,"318":-0.0288899764418602,"319":0.10752057284116745,"320":-0.13218270242214203,"321":-0.19511142373085022,"322":0.09987369924783707,"323":-0.04925737902522087,"324":0.07006391882896423,"325":-0.029095474630594254,"326":-0.11672643572092056,"327":-0.09833044558763504,"328":-0.014208466745913029,"329":-0.021289344877004623,"330":0.19822905957698822,"331":-0.15807214379310608,"332":0.036868199706077576,"333":0.14466682076454163,"334":0.03832092881202698,"335":0.10875029861927032,"336":-0.14422406256198883,"337":-0.1657835990190506,"338":0.09148679673671722,"339":0.1138811856508255,"340":-0.13860368728637695,"341":0.052661795169115067,"342":0.1458120197057724,"343":-0.11659543216228485,"344":-0.08447214961051941,"345":0.10462425649166107,"346":-0.11158914864063263,"347":-0.17820380628108978,"348":-0.04025669023394585,"349":-0.010161632671952248,"350":-0.06367786973714828,"351":-0.11311604082584381,"352":-0.11062303185462952,"353":0.030140310525894165,"354":-0.008959679864346981,"355":0.010473355650901794,"356":0.16697819530963898,"357":-0.15679632127285004,"358":0.05338897928595543,"359":-0.0021733646281063557,"360":0.04828139767050743,"361":0.013347500003874302,"362":0.09614060819149017,"363":0.1321057379245758,"364":-0.015050893649458885,"365":-0.002443346194922924,"366":0.01829150877892971,"367":-0.10211607068777084,"368":-0.17534008622169495,"369":0.05920453742146492,"370":0.11429126560688019,"371":0.17240384221076965,"372":0.0039832135662436485,"373":0.10071100294589996,"374":0.14013536274433136,"375":0.08608241379261017,"376":0.10944430530071259,"377":-0.19343627989292145,"378":0.17688706517219543,"379":-0.19703809916973114,"380":-0.11228909343481064,"381":0.13569411635398865,"382":-0.12207167595624924,"383":-0.11227624863386154,"384":-0.17977964878082275,"385":-0.16017891466617584,"386":0.18344782292842865,"387":0.11449453979730606,"388":0.19494034349918365,"389":-0.14251743257045746,"390":0.04625653475522995,"391":-0.1903737485408783,"392":-0.03140919655561447,"393":0.16780215501785278,"394":-0.0003169798292219639,"395":0.05939927697181702,"396":-0.08553129434585571,"397":0.1986020803451538,"398":-0.07800262421369553,"399":-0.12117559462785721,"400":-0.03590957820415497,"401":0.1706402450799942,"402":0.1379314512014389,"403":-0.12919414043426514,"404":-0.12007506936788559,"405":-0.15484429895877838,"406":0.09776578098535538}},"1":{"bias":-0.042502228170633316,"weights":{"0":-0.15980945527553558,"1":-0.1903160959482193,"2":-0.0005991874495521188,"3":-0.08108364790678024,"4":-0.10627210885286331,"5":-0.1411275565624237,"6":0.13092637062072754,"7":0.01873314566910267,"8":-0.12574391067028046,"9":0.07890520989894867,"10":0.1545465737581253,"11":0.01254433672875166,"12":0.15944904088974,"13":-0.010786617174744606,"14":0.1286681443452835,"15":0.19597004354000092,"16":-0.14105740189552307,"17":0.15328413248062134,"18":0.028887972235679626,"19":0.10106223076581955,"20":-0.07264699041843414,"21":-0.041526466608047485,"22":-0.05374978855252266,"23":-0.08406569063663483,"24":-0.13486380875110626,"25":0.11687462031841278,"26":-0.1748766303062439,"27":-0.060065463185310364,"28":-0.06183043494820595,"29":0.1984167993068695,"30":-0.12666523456573486,"31":-0.0003278068616054952,"32":-0.1613539606332779,"33":-0.03696959838271141,"34":0.18827252089977264,"35":0.09471547603607178,"36":0.17911064624786377,"37":0.12478114664554596,"38":0.1541593372821808,"39":-0.10667028278112411,"40":-0.10745827108621597,"41":0.1558533012866974,"42":-0.08571016043424606,"43":-0.18699394166469574,"44":0.19346599280834198,"45":0.0926370769739151,"46":-0.1948004513978958,"47":-0.022287610918283463,"48":-0.16270504891872406,"49":-0.047319233417510986,"50":-0.19320909678936005,"51":-0.077212855219841,"52":0.19318556785583496,"53":-0.12694664299488068,"54":0.08639882504940033,"55":0.1430463194847107,"56":-0.08685827255249023,"57":0.09654378145933151,"58":0.1031680554151535,"59":-0.03189348429441452,"60":-0.17430931329727173,"61":-0.040479566901922226,"62":-0.1909106969833374,"63":0.17683418095111847,"64":0.12123331427574158,"65":0.14387929439544678,"66":0.01712377369403839,"67":0.03866345062851906,"68":0.17142435908317566,"69":-0.09619224816560745,"70":-0.13764122128486633,"71":-0.0731712356209755,"72":-0.09128589928150177,"73":-0.1341490000486374,"74":0.013209458440542221,"75":-0.023683946579694748,"76":0.021111611276865005,"77":0.006882048211991787,"78":-0.1610269397497177,"79":0.017955070361495018,"80":0.14165395498275757,"81":0.03644585236907005,"82":0.0752163827419281,"83":-0.07869948446750641,"84":-0.12394995987415314,"85":-0.11900687217712402,"86":-0.0853731706738472,"87":-0.1543518304824829,"88":-0.19655437767505646,"89":-0.1375151127576828,"90":0.19568945467472076,"91":-0.08461759984493256,"92":-0.11535827070474625,"93":-0.11255083233118057,"94":-0.013163283467292786,"95":-0.05046003311872482,"96":-0.013694694265723228,"97":0.19485893845558167,"98":0.16157305240631104,"99":-0.18089938163757324,"100":-0.07831603288650513,"101":-0.07897449284791946,"102":0.0022394955158233643,"103":-0.13318510353565216,"104":-0.13916270434856415,"105":-0.08592084050178528,"106":0.09616782516241074,"107":-0.19055557250976562,"108":0.1766003668308258,"109":-0.18100076913833618,"110":0.08533583581447601,"111":-0.17976291477680206,"112":0.18656499683856964,"113":0.17080803215503693,"114":-0.16313214600086212,"115":0.07960958778858185,"116":-0.10966352373361588,"117":-0.20029523968696594,"118":-0.03928801789879799,"119":-0.17418046295642853,"120":0.1581171452999115,"121":0.00664188526570797,"122":-0.1661195456981659,"123":0.1359347701072693,"124":0.1113036572933197,"125":-0.16198383271694183,"126":-0.023796088993549347,"127":0.16316503286361694,"128":-0.06904539465904236,"129":-0.04461390897631645,"130":-0.08348610997200012,"131":-0.13712379336357117,"132":-0.1957550048828125,"133":-0.05139242112636566,"134":-0.00759826460853219,"135":0.014115112833678722,"136":-0.18297699093818665,"137":0.18610413372516632,"138":-0.13623547554016113,"139":0.001088994089514017,"140":0.0676526203751564,"141":-0.174887552857399,"142":0.15551093220710754,"143":0.06067695841193199,"144":-0.0532260537147522,"145":0.15976709127426147,"146":-0.1889367550611496,"147":0.06710083037614822,"148":-0.18807107210159302,"149":-0.13438370823860168,"150":0.189799964427948,"151":0.06884071230888367,"152":-0.017177065834403038,"153":0.14169201254844666,"154":-0.07609356194734573,"155":0.019782865419983864,"156":0.1156216412782669,"157":0.1329018473625183,"158":-0.0038660208228975534,"159":-0.10414480417966843,"160":-0.013910015113651752,"161":0.1672178953886032,"162":0.13237515091896057,"163":0.06833933293819427,"164":-0.11255775392055511,"165":0.15155671536922455,"166":0.10781915485858917,"167":-0.06068051606416702,"168":0.027015408501029015,"169":0.06751129776239395,"170":-0.1850103884935379,"171":-0.1432129144668579,"172":0.1456872671842575,"173":0.0035894832108169794,"174":-0.15597742795944214,"175":-0.061104048043489456,"176":0.06224268674850464,"177":-0.13026705384254456,"178":-0.038769759237766266,"179":-0.10951109975576401,"180":0.029966294765472412,"181":0.057922277599573135,"182":-0.1954939067363739,"183":0.09504237025976181,"184":-0.10752282291650772,"185":0.0017962194979190826,"186":-0.09900704026222229,"187":0.13247179985046387,"188":0.09634717553853989,"189":0.17270727455615997,"190":0.17284689843654633,"191":-0.012631899677217007,"192":-0.12356657534837723,"193":0.13238747417926788,"194":-0.01324724592268467,"195":-0.1432407647371292,"196":-0.05525968223810196,"197":0.09015350043773651,"198":-0.05318206548690796,"199":0.05883888900279999,"200":0.12044566869735718,"201":0.16643573343753815,"202":0.12061300128698349,"203":0.020846521481871605,"204":0.1494157314300537,"205":0.19081683456897736,"206":0.00497019337490201,"207":0.12535998225212097,"208":0.07083926349878311,"209":0.19593676924705505,"210":-0.12457844614982605,"211":0.010576490312814713,"212":-0.09637506306171417,"213":-0.08494531363248825,"214":-0.05969808250665665,"215":0.006433379836380482,"216":-0.13913007080554962,"217":-0.1337566375732422,"218":0.026522839441895485,"219":-0.10765954852104187,"220":-0.1752328723669052,"221":-0.11165041476488113,"222":-0.18368156254291534,"223":-0.06215402111411095,"224":-0.06289175152778625,"225":-0.17771010100841522,"226":-0.13889288902282715,"227":0.079818494617939,"228":0.0008848494035191834,"229":0.09101127088069916,"230":-0.1840752363204956,"231":-0.16617852449417114,"232":-0.16244222223758698,"233":0.05260754004120827,"234":-0.05648944899439812,"235":-0.013718703761696815,"236":-0.017394768074154854,"237":-0.003731501055881381,"238":-0.18881095945835114,"239":-0.12229438871145248,"240":-0.12148648500442505,"241":-0.036641769111156464,"242":-0.18800124526023865,"243":0.12287911027669907,"244":-0.05721602588891983,"245":-0.04240129515528679,"246":0.1081656739115715,"247":0.025903141126036644,"248":0.0836058035492897,"249":-0.15075373649597168,"250":-0.08321958035230637,"251":-0.11640504747629166,"252":-0.07988914847373962,"253":0.053979068994522095,"254":-0.013454077765345573,"255":0.12569595873355865,"256":-0.14745084941387177,"257":-0.17046210169792175,"258":0.1088104322552681,"259":0.1586955487728119,"260":-0.01917121186852455,"261":0.14332370460033417,"262":0.17597700655460358,"263":-0.07339759171009064,"264":-0.19820550084114075,"265":-0.016443848609924316,"266":-0.08657297492027283,"267":-0.13681504130363464,"268":0.12185484915971756,"269":0.190982848405838,"270":-0.10074155777692795,"271":0.007554834242910147,"272":0.031038325279951096,"273":-0.15383034944534302,"274":0.15042412281036377,"275":-0.12111950665712357,"276":-0.14365939795970917,"277":-0.13618145883083344,"278":-0.11365975439548492,"279":-0.1501777023077011,"280":0.10822755098342896,"281":-0.07817352563142776,"282":0.029811225831508636,"283":0.14103196561336517,"284":0.18602362275123596,"285":0.09726215153932571,"286":-0.09874748438596725,"287":-0.02114715613424778,"288":0.052079591900110245,"289":-0.02663853019475937,"290":0.038531508296728134,"291":0.07456857711076736,"292":-0.055974602699279785,"293":-0.004424817394465208,"294":-0.16403311491012573,"295":-0.022044474259018898,"296":-0.05503410845994949,"297":-0.062415219843387604,"298":0.16662001609802246,"299":-0.1752048283815384,"300":-0.15814322233200073,"301":-0.08379948884248734,"302":-0.017951874062418938,"303":-0.14488132297992706,"304":0.1100488230586052,"305":0.09438402205705643,"306":-0.0842977911233902,"307":0.13730266690254211,"308":0.1995900422334671,"309":-0.07084541767835617,"310":-0.14509741961956024,"311":0.02306937240064144,"312":0.04756755754351616,"313":0.09756017476320267,"314":0.09247905015945435,"315":0.14829489588737488,"316":-0.059254080057144165,"317":-0.07296305894851685,"318":-0.0742202028632164,"319":0.16343191266059875,"320":0.01746981032192707,"321":0.1929824948310852,"322":0.08154992014169693,"323":-0.19624459743499756,"324":0.06279882043600082,"325":-0.16801241040229797,"326":-0.06718793511390686,"327":0.03242030367255211,"328":-0.01747731864452362,"329":-0.11367963254451752,"330":-0.033224135637283325,"331":0.0483437180519104,"332":0.11710988730192184,"333":0.05249892920255661,"334":-0.0583922304213047,"335":-0.03899640962481499,"336":-0.11381585150957108,"337":-0.19080817699432373,"338":-0.10188054293394089,"339":-0.007178423926234245,"340":-0.07884848117828369,"341":-0.07945282757282257,"342":0.06476599723100662,"343":0.02972353622317314,"344":0.19434258341789246,"345":0.029399756342172623,"346":-0.1282179206609726,"347":-0.05927696079015732,"348":-0.1930607706308365,"349":-0.08119212090969086,"350":0.036547478288412094,"351":0.005491514224559069,"352":-0.1767626851797104,"353":0.04196779429912567,"354":-0.06165839359164238,"355":-0.18005581200122833,"356":-0.03678787127137184,"357":0.0869503915309906,"358":-0.09857472777366638,"359":0.1855200231075287,"360":0.1952216923236847,"361":0.15053260326385498,"362":0.06262541562318802,"363":0.04154830053448677,"364":-0.08106114715337753,"365":0.006247744895517826,"366":-0.1107114851474762,"367":0.07421965152025223,"368":0.10424747318029404,"369":-0.16164423525333405,"370":-0.036523252725601196,"371":0.1631087213754654,"372":0.18940000236034393,"373":-0.17343264818191528,"374":-0.08917583525180817,"375":0.00026398064801469445,"376":0.1536397635936737,"377":0.07228926569223404,"378":-0.18563103675842285,"379":-0.14290493726730347,"380":-0.18758389353752136,"381":0.07013163715600967,"382":-0.051800381392240524,"383":0.08772796392440796,"384":0.16409310698509216,"385":-0.05611203983426094,"386":-0.009949848987162113,"387":-0.15584079921245575,"388":0.04001057520508766,"389":-0.04088778421282768,"390":0.1644778996706009,"391":0.052292268723249435,"392":-0.07642047852277756,"393":0.09675958752632141,"394":-0.0532672181725502,"395":0.10775219649076462,"396":-0.14400799572467804,"397":0.006727982312440872,"398":0.14350712299346924,"399":-0.0031403980683535337,"400":0.13313046097755432,"401":-0.008213680237531662,"402":0.1739821583032608,"403":0.1325787752866745,"404":0.13499203324317932,"405":-0.06502772122621536,"406":-0.19584935903549194}},"2":{"bias":0.19281327724456787,"weights":{"0":-0.058399710804224014,"1":0.013716272078454494,"2":-0.05239464342594147,"3":-0.0651264414191246,"4":-0.09093941003084183,"5":0.14577260613441467,"6":-0.14759132266044617,"7":-0.18144962191581726,"8":-0.061448030173778534,"9":-0.014829102903604507,"10":-0.12700968980789185,"11":-0.16034092009067535,"12":-0.12341944128274918,"13":0.15875369310379028,"14":-0.17305858433246613,"15":0.14481261372566223,"16":0.19770322740077972,"17":-0.013643567450344563,"18":-0.07739204913377762,"19":-0.15143240988254547,"20":-0.06975243240594864,"21":0.1616804450750351,"22":0.16870655119419098,"23":0.19776654243469238,"24":-0.1662377417087555,"25":-0.13427996635437012,"26":-0.1838912069797516,"27":-0.06592724472284317,"28":-0.04386824741959572,"29":0.12035852670669556,"30":0.09808260947465897,"31":0.08183497190475464,"32":0.09113830327987671,"33":-0.1295233517885208,"34":-0.01905694045126438,"35":-0.058998532593250275,"36":0.09893341362476349,"37":0.1416049301624298,"38":0.10353396087884903,"39":0.16531473398208618,"40":0.022610899060964584,"41":-0.03119419701397419,"42":0.009708477184176445,"43":0.15875683724880219,"44":-0.14582428336143494,"45":0.16274741291999817,"46":0.11618328094482422,"47":-0.08865973353385925,"48":0.1898195445537567,"49":-0.13640983402729034,"50":-0.16663020849227905,"51":-0.13949312269687653,"52":0.034629035741090775,"53":-0.036119699478149414,"54":0.11193075031042099,"55":0.04857770353555679,"56":-0.04730306938290596,"57":-0.07636371999979019,"58":0.08195460587739944,"59":0.03443685546517372,"60":-0.00475313002243638,"61":-0.012213447131216526,"62":0.17339077591896057,"63":0.07036727666854858,"64":-0.0227791927754879,"65":-0.024991551414132118,"66":-0.15144596993923187,"67":-0.049613770097494125,"68":0.07088368386030197,"69":-0.1796920895576477,"70":0.15913911163806915,"71":0.09241162240505219,"72":0.031175268813967705,"73":0.18999561667442322,"74":0.007586770690977573,"75":-0.16710421442985535,"76":0.19495928287506104,"77":0.1157810240983963,"78":-0.1502360701560974,"79":0.16016298532485962,"80":-0.007289387285709381,"81":-0.12999498844146729,"82":-0.1754194051027298,"83":-0.09885112941265106,"84":0.16662290692329407,"85":-0.10423628985881805,"86":-0.04086180031299591,"87":0.0760185569524765,"88":-0.1121896430850029,"89":-0.08948608487844467,"90":0.15793867409229279,"91":0.1722916066646576,"92":-0.07443857938051224,"93":-0.15698261559009552,"94":-0.12244661152362823,"95":0.10130894184112549,"96":0.17865930497646332,"97":-0.050499096512794495,"98":0.09783364087343216,"99":-0.07000458240509033,"100":-0.03489270806312561,"101":0.14444363117218018,"102":0.09766057878732681,"103":-0.06882445514202118,"104":0.1280159056186676,"105":0.1697845607995987,"106":0.021177217364311218,"107":0.007840829901397228,"108":-0.11305314302444458,"109":-0.12520191073417664,"110":0.099227175116539,"111":-0.11006952077150345,"112":0.10213076323270798,"113":0.025833653286099434,"114":0.052110638469457626,"115":0.12542054057121277,"116":0.0842360258102417,"117":0.18505726754665375,"118":-0.027222029864788055,"119":0.17869211733341217,"120":0.1677514761686325,"121":-0.058799535036087036,"122":-0.05943379923701286,"123":-0.1445893496274948,"124":-0.038798920810222626,"125":-0.01575552672147751,"126":0.19125080108642578,"127":-0.09878572076559067,"128":-0.03110836260020733,"129":0.06649591773748398,"130":0.1540094017982483,"131":0.08222224563360214,"132":0.093392513692379,"133":0.019272206351161003,"134":-0.0069493455812335014,"135":0.11155124753713608,"136":-0.04491489753127098,"137":0.10533709824085236,"138":0.11963627487421036,"139":-0.1346898376941681,"140":-0.12686973810195923,"141":-0.003337644040584564,"142":-0.19900043308734894,"143":0.12467554211616516,"144":0.006408538203686476,"145":-0.144387885928154,"146":-0.015054091811180115,"147":-0.1742529720067978,"148":-0.10676488280296326,"149":-0.04304403439164162,"150":0.17267662286758423,"151":0.05924699455499649,"152":-0.10140059143304825,"153":0.02841987833380699,"154":0.1772802472114563,"155":-0.08785326778888702,"156":0.18071836233139038,"157":-0.1402193307876587,"158":-0.14774411916732788,"159":0.1952492743730545,"160":-0.025247173383831978,"161":-0.16528958082199097,"162":0.0031240908429026604,"163":0.1750129908323288,"164":0.028481636196374893,"165":0.11683955043554306,"166":0.08538208901882172,"167":0.09483896940946579,"168":-0.1096610501408577,"169":-0.12084290385246277,"170":-0.007134699262678623,"171":0.04348801076412201,"172":0.16704057157039642,"173":0.15829716622829437,"174":-0.14757578074932098,"175":0.1579105257987976,"176":0.06613235175609589,"177":0.005352389067411423,"178":-0.19588971138000488,"179":-0.09692023694515228,"180":-0.01416686549782753,"181":-0.16457518935203552,"182":-0.06488624960184097,"183":-0.1409764289855957,"184":0.0913575142621994,"185":0.030170487239956856,"186":-0.06886330991983414,"187":0.035904303193092346,"188":-0.047234825789928436,"189":0.09698557108640671,"190":-0.13394524157047272,"191":-0.10540705919265747,"192":-0.14277563989162445,"193":-0.19346243143081665,"194":0.00990321021527052,"195":-0.04345187544822693,"196":0.060915183275938034,"197":0.06303992867469788,"198":0.10300372540950775,"199":-0.06059001758694649,"200":0.03206343576312065,"201":0.07445252686738968,"202":0.17394909262657166,"203":-0.11988124996423721,"204":0.13733704388141632,"205":0.05979762226343155,"206":-0.13434407114982605,"207":-0.14084184169769287,"208":-0.10268984735012054,"209":0.009271343238651752,"210":-0.13615164160728455,"211":0.1903415024280548,"212":0.17226238548755646,"213":-0.058086711913347244,"214":-0.030609130859375,"215":-0.18628326058387756,"216":-0.09409219771623611,"217":0.1903960108757019,"218":0.1496497243642807,"219":0.12877778708934784,"220":0.10793007165193558,"221":0.053686317056417465,"222":0.11733044683933258,"223":-0.1833537518978119,"224":0.1382216513156891,"225":-0.18760620057582855,"226":0.045815207064151764,"227":-0.12065447866916656,"228":0.13785411417484283,"229":0.07848744094371796,"230":-0.062134530395269394,"231":0.13931748270988464,"232":-0.14356164634227753,"233":0.16061489284038544,"234":0.19658200442790985,"235":-0.16037516295909882,"236":0.041564296931028366,"237":0.005172967445105314,"238":-0.18709444999694824,"239":0.03692322224378586,"240":-0.051374081522226334,"241":0.14128418266773224,"242":-0.09623704850673676,"243":0.12409563362598419,"244":0.16016706824302673,"245":0.1397700160741806,"246":-0.11510518938302994,"247":0.010600323788821697,"248":0.15612895786762238,"249":0.16020168364048004,"250":-0.18369249999523163,"251":0.1776464879512787,"252":0.07259340584278107,"253":0.021287349984049797,"254":0.11769704520702362,"255":0.19474221765995026,"256":-0.19443243741989136,"257":0.00283438921906054,"258":-0.1161603331565857,"259":-0.11792795360088348,"260":-0.19413237273693085,"261":-0.19073249399662018,"262":-0.04495856165885925,"263":-0.14191395044326782,"264":-0.02639300748705864,"265":-0.15749874711036682,"266":0.1378442794084549,"267":0.012326652184128761,"268":-0.05569237843155861,"269":-0.006119988858699799,"270":0.09159981459379196,"271":-0.18399852514266968,"272":-0.07786569744348526,"273":0.07621105015277863,"274":0.024397525936365128,"275":0.06918686628341675,"276":0.12879008054733276,"277":0.07441055774688721,"278":-0.04461084306240082,"279":0.17373965680599213,"280":0.14661633968353271,"281":-0.1412150263786316,"282":0.13738182187080383,"283":0.15188045799732208,"284":-0.06629294157028198,"285":-0.03592214360833168,"286":0.0422661192715168,"287":0.10777144134044647,"288":0.0971938744187355,"289":-0.02219970151782036,"290":-0.12969839572906494,"291":0.12440170347690582,"292":-0.09463269263505936,"293":-0.10815908014774323,"294":-0.1238676905632019,"295":-0.16187570989131927,"296":0.17818360030651093,"297":-0.09253942221403122,"298":0.16175813972949982,"299":-0.11530615389347076,"300":0.04075189679861069,"301":0.1246253177523613,"302":0.11281340569257736,"303":0.13499897718429565,"304":0.07958053052425385,"305":-0.16452611982822418,"306":-0.014399280771613121,"307":-0.0325838141143322,"308":-0.09217625856399536,"309":-0.19128717482089996,"310":0.15406498312950134,"311":-0.09425817430019379,"312":0.00043632302549667656,"313":0.11504051089286804,"314":-0.1730753481388092,"315":0.09972832351922989,"316":0.16893979907035828,"317":0.08110630512237549,"318":0.1614820957183838,"319":0.15033859014511108,"320":0.12666158378124237,"321":0.040293533354997635,"322":-0.16750316321849823,"323":-0.010314273647964,"324":0.0346517451107502,"325":0.04337871074676514,"326":-0.14706210792064667,"327":0.045682817697525024,"328":0.0876716747879982,"329":0.15963253378868103,"330":-0.13173016905784607,"331":-0.12823140621185303,"332":0.19311687350273132,"333":0.10441049933433533,"334":-0.18174313008785248,"335":-0.08003024756908417,"336":0.0575416274368763,"337":0.08623702079057693,"338":-0.08311857283115387,"339":-0.15197379887104034,"340":0.12771233916282654,"341":-0.12056748569011688,"342":0.12108445912599564,"343":-0.03644200786948204,"344":0.000008004351911949925,"345":-0.0049353777430951595,"346":-0.1401677131652832,"347":0.19251540303230286,"348":0.029958462342619896,"349":0.08912260830402374,"350":0.04683463275432587,"351":0.19082413613796234,"352":-0.06578288227319717,"353":-0.1382996141910553,"354":0.09873856604099274,"355":-0.10911770164966583,"356":0.09504977613687515,"357":-0.07134491205215454,"358":0.052049797028303146,"359":-0.102706678211689,"360":0.18067489564418793,"361":-0.1789814829826355,"362":0.0013036056188866496,"363":-0.025501061230897903,"364":0.05555778741836548,"365":-0.1982349008321762,"366":0.12423212826251984,"367":-0.1462346464395523,"368":0.014170006848871708,"369":-0.17943638563156128,"370":-0.17476356029510498,"371":-0.15324898064136505,"372":0.1675463169813156,"373":0.020574770867824554,"374":-0.03756176307797432,"375":-0.055786874145269394,"376":-0.10121160000562668,"377":-0.05090639740228653,"378":-0.07299670577049255,"379":-0.19103823602199554,"380":0.014035660773515701,"381":0.19683949649333954,"382":0.13232386112213135,"383":0.10643018782138824,"384":-0.047086216509342194,"385":-0.18579450249671936,"386":0.01647511124610901,"387":-0.035539429634809494,"388":0.14555902779102325,"389":0.14529702067375183,"390":0.022772716358304024,"391":0.10474065691232681,"392":-0.07893314957618713,"393":0.10091014951467514,"394":0.10640247911214828,"395":0.023357225582003593,"396":0.07972397655248642,"397":0.14609350264072418,"398":-0.006773927249014378,"399":-0.024457015097141266,"400":-0.08237797766923904,"401":0.14156809449195862,"402":0.09820691496133804,"403":-0.14637459814548492,"404":0.07339321076869965,"405":0.028551248833537102,"406":0.06130946800112724}},"3":{"bias":0.025447320193052292,"weights":{"0":-0.19118937849998474,"1":0.1501353532075882,"2":0.06604983657598495,"3":-0.16976334154605865,"4":0.08439531922340393,"5":0.1876232624053955,"6":-0.009220610372722149,"7":0.19654476642608643,"8":-0.0617884062230587,"9":0.029070299118757248,"10":-0.15944254398345947,"11":-0.06919759511947632,"12":0.0035559276584535837,"13":-0.07109628617763519,"14":0.06232016906142235,"15":-0.16728681325912476,"16":0.16320349276065826,"17":-0.07080557197332382,"18":-0.18671166896820068,"19":-0.1183682233095169,"20":0.047218915075063705,"21":-0.023189641535282135,"22":-0.08317539095878601,"23":0.060821615159511566,"24":0.1893330216407776,"25":0.08304961025714874,"26":0.00783074926584959,"27":-0.012583906762301922,"28":0.09995786100625992,"29":0.07243473827838898,"30":0.05131502076983452,"31":-0.07771218568086624,"32":-0.09178600460290909,"33":0.03575805947184563,"34":-0.09712344408035278,"35":-0.19634948670864105,"36":0.09953947365283966,"37":-0.07263673096895218,"38":0.09818502515554428,"39":0.12004619091749191,"40":0.1369747519493103,"41":-0.052274588495492935,"42":-0.1591765135526657,"43":-0.1386319249868393,"44":-0.1340857893228531,"45":-0.1087169274687767,"46":-0.17388276755809784,"47":-0.14413894712924957,"48":0.09855035692453384,"49":0.1730346977710724,"50":0.06591666489839554,"51":0.1433769315481186,"52":-0.059588126838207245,"53":-0.07017293572425842,"54":0.14015835523605347,"55":0.09045787155628204,"56":0.1802758127450943,"57":0.12211377918720245,"58":-0.17183750867843628,"59":0.1583191603422165,"60":0.027247680351138115,"61":-0.09008419513702393,"62":-0.0568513497710228,"63":-0.09689100831747055,"64":-0.058703068643808365,"65":-0.1997164487838745,"66":-0.06303311884403229,"67":-0.1661880910396576,"68":-0.07144934684038162,"69":-0.09285441040992737,"70":-0.1481301188468933,"71":-0.06370051205158234,"72":-0.11112193763256073,"73":-0.150723397731781,"74":-0.05578558146953583,"75":-0.19732627272605896,"76":0.13166116178035736,"77":0.15100175142288208,"78":-0.15224380791187286,"79":0.06980883330106735,"80":-0.07078467309474945,"81":0.1741701066493988,"82":-0.12680505216121674,"83":0.046076711267232895,"84":0.017063960433006287,"85":0.12509913742542267,"86":-0.03342413529753685,"87":-0.07566875964403152,"88":0.18163776397705078,"89":-0.08738969266414642,"90":-0.09762401878833771,"91":-0.18546895682811737,"92":-0.0912189707159996,"93":-0.07477807998657227,"94":0.16682462394237518,"95":0.11443449556827545,"96":0.011756392195820808,"97":0.1167200580239296,"98":0.08150694519281387,"99":0.07213558256626129,"100":-0.1787504106760025,"101":-0.0648835152387619,"102":-0.19528721272945404,"103":0.13760331273078918,"104":0.16776219010353088,"105":0.01972777768969536,"106":0.17340046167373657,"107":0.0068559590727090836,"108":0.1427483856678009,"109":0.1997043490409851,"110":-0.1745966374874115,"111":0.11198676377534866,"112":0.1556394249200821,"113":-0.11942151933908463,"114":0.04915911331772804,"115":-0.15399284660816193,"116":0.15441524982452393,"117":0.06461047381162643,"118":-0.12927572429180145,"119":0.09690529853105545,"120":0.15610350668430328,"121":0.016835622489452362,"122":-0.08792369067668915,"123":0.04975246638059616,"124":0.05837018042802811,"125":-0.13814204931259155,"126":-0.19375121593475342,"127":0.04482200741767883,"128":0.16085003316402435,"129":0.0785989984869957,"130":0.033233530819416046,"131":-0.16283009946346283,"132":0.18375122547149658,"133":0.002040594583377242,"134":-0.11218145489692688,"135":0.1782340109348297,"136":0.14333510398864746,"137":-0.005894771311432123,"138":0.04188179969787598,"139":0.1578703075647354,"140":-0.026469461619853973,"141":0.0890175923705101,"142":0.11828868091106415,"143":-0.030939854681491852,"144":-0.0941825583577156,"145":0.01618603803217411,"146":-0.12858977913856506,"147":0.10491189360618591,"148":0.10736919939517975,"149":-0.09068702161312103,"150":0.0032659536227583885,"151":0.15572206676006317,"152":-0.17929936945438385,"153":-0.17091384530067444,"154":-0.19494600594043732,"155":0.09963027387857437,"156":-0.11385929584503174,"157":0.1997944563627243,"158":0.11686477810144424,"159":-0.12492111325263977,"160":-0.10692789405584335,"161":0.19818225502967834,"162":0.09010811150074005,"163":0.08913807570934296,"164":-0.1440412402153015,"165":-0.04221401363611221,"166":-0.04814879223704338,"167":-0.15367047488689423,"168":0.17685362696647644,"169":-0.11446119844913483,"170":0.18611492216587067,"171":-0.05225079506635666,"172":0.02746758796274662,"173":0.0948319137096405,"174":-0.1504393219947815,"175":0.023699454963207245,"176":0.1287800669670105,"177":-0.022397760301828384,"178":0.07615533471107483,"179":0.16265295445919037,"180":-0.02652849070727825,"181":0.05038590356707573,"182":-0.032038819044828415,"183":-0.10691826045513153,"184":-0.14985564351081848,"185":-0.11593258380889893,"186":-0.1531171351671219,"187":-0.03415658697485924,"188":-0.18167604506015778,"189":0.14664794504642487,"190":0.08973516523838043,"191":-0.03963477909564972,"192":-0.129867285490036,"193":0.07444217056035995,"194":0.19260528683662415,"195":-0.10367751121520996,"196":0.09874065220355988,"197":0.06940776109695435,"198":0.02295047603547573,"199":0.12335781753063202,"200":0.10531547665596008,"201":0.1037052571773529,"202":0.16206125915050507,"203":0.18822990357875824,"204":-0.11175952851772308,"205":0.11380118876695633,"206":0.04159841686487198,"207":0.1735808402299881,"208":0.03954407200217247,"209":0.02257809042930603,"210":0.1539258062839508,"211":-0.08898472785949707,"212":0.06380816549062729,"213":-0.015176531858742237,"214":0.163746178150177,"215":-0.18886207044124603,"216":-0.19592398405075073,"217":-0.12684780359268188,"218":-0.1827135980129242,"219":-0.1665988266468048,"220":-0.011477014049887657,"221":-0.142392098903656,"222":0.04227999970316887,"223":-0.007679462432861328,"224":-0.10193191468715668,"225":-0.0481269545853138,"226":0.14497104287147522,"227":0.0529499351978302,"228":0.11799941956996918,"229":-0.04004574939608574,"230":-0.0638684630393982,"231":-0.009334199130535126,"232":0.02559063769876957,"233":0.014977809973061085,"234":0.14371509850025177,"235":0.11960246413946152,"236":0.13557933270931244,"237":0.0310425516217947,"238":0.17316879332065582,"239":0.0839189812541008,"240":-0.052428316324949265,"241":-0.02231731452047825,"242":-0.12096438556909561,"243":-0.1455036997795105,"244":0.1980717033147812,"245":-0.12742477655410767,"246":-0.18732039630413055,"247":-0.0807420015335083,"248":-0.07240428030490875,"249":0.10094808042049408,"250":0.19954665005207062,"251":-0.11547251790761948,"252":0.09229759126901627,"253":0.16204851865768433,"254":-0.1413310021162033,"255":0.19677990674972534,"256":0.09387212246656418,"257":0.05940971523523331,"258":-0.05715583637356758,"259":0.1997738629579544,"260":-0.14219596982002258,"261":-0.0808042511343956,"262":0.014321405440568924,"263":0.1082347184419632,"264":0.07367852330207825,"265":0.15578952431678772,"266":-0.02375723049044609,"267":-0.19956620037555695,"268":0.176962211728096,"269":-0.1553330421447754,"270":-0.12012839317321777,"271":0.03686721250414848,"272":0.031958337873220444,"273":-0.17240199446678162,"274":0.09058036655187607,"275":-0.057119883596897125,"276":-0.00434114271774888,"277":-0.17532925307750702,"278":-0.19880931079387665,"279":0.1537448912858963,"280":0.020377522334456444,"281":0.03397718444466591,"282":0.017451884225010872,"283":0.10785990953445435,"284":0.19389642775058746,"285":-0.10866913944482803,"286":-0.135695219039917,"287":0.10038933157920837,"288":0.017832042649388313,"289":0.043377749621868134,"290":-0.0466279536485672,"291":0.03003968857228756,"292":0.05836119502782822,"293":0.036042287945747375,"294":0.15611419081687927,"295":0.032559242099523544,"296":-0.0811222717165947,"297":-0.008792363107204437,"298":0.13527563214302063,"299":0.12819062173366547,"300":-0.0012126218061894178,"301":-0.19658929109573364,"302":0.06131371855735779,"303":-0.15210005640983582,"304":-0.16036736965179443,"305":-0.024634381756186485,"306":0.12551982700824738,"307":-0.061673931777477264,"308":-0.06852184236049652,"309":-0.15917707979679108,"310":-0.03346416354179382,"311":0.13981875777244568,"312":-0.051058825105428696,"313":0.07901414483785629,"314":0.10816266387701035,"315":-0.055851832032203674,"316":-0.06309579312801361,"317":-0.16467009484767914,"318":0.1435679942369461,"319":0.09843454509973526,"320":0.10414929687976837,"321":0.048271410167217255,"322":0.09341153502464294,"323":0.19000482559204102,"324":-0.055239301174879074,"325":-0.08784092217683792,"326":0.16998262703418732,"327":-0.06959325075149536,"328":-0.12226248532533646,"329":-0.002778929891064763,"330":0.14666740596294403,"331":0.14277875423431396,"332":0.004838012158870697,"333":-0.1428719311952591,"334":0.15712271630764008,"335":0.12905463576316833,"336":0.0772169902920723,"337":0.09682182967662811,"338":0.12459257990121841,"339":0.18831460177898407,"340":-0.03702012449502945,"341":0.14924167096614838,"342":0.16987812519073486,"343":0.01748964563012123,"344":-0.1409541368484497,"345":-0.052459344267845154,"346":0.03487402945756912,"347":-0.02152310684323311,"348":-0.08610410988330841,"349":0.19095437228679657,"350":0.14830869436264038,"351":0.015218189917504787,"352":-0.08496630936861038,"353":-0.09523427486419678,"354":0.14979417622089386,"355":-0.18541987240314484,"356":-0.11696958541870117,"357":-0.14242352545261383,"358":0.060644425451755524,"359":-0.15914055705070496,"360":-0.06934405118227005,"361":0.014391139149665833,"362":-0.050405748188495636,"363":-0.1375649869441986,"364":-0.006935157813131809,"365":0.027267634868621826,"366":-0.0665489062666893,"367":-0.15000922977924347,"368":-0.140450119972229,"369":-0.17943330109119415,"370":-0.06400405615568161,"371":0.17780984938144684,"372":0.1491619050502777,"373":0.09946609288454056,"374":-0.10503026843070984,"375":0.1820189654827118,"376":0.010877524502575397,"377":0.020748138427734375,"378":0.13157707452774048,"379":-0.0972909927368164,"380":-0.1313379406929016,"381":-0.1290380358695984,"382":-0.051409799605607986,"383":-0.14718113839626312,"384":-0.055342987179756165,"385":-0.12057662010192871,"386":-0.03398382291197777,"387":-0.18804623186588287,"388":0.03909735381603241,"389":0.16364090144634247,"390":0.042486611753702164,"391":-0.025889001786708832,"392":-0.17743895947933197,"393":0.04860672727227211,"394":0.009584798477590084,"395":0.08851242810487747,"396":-0.19618216156959534,"397":-0.11952681094408035,"398":-0.050051454454660416,"399":0.13855160772800446,"400":0.12863953411579132,"401":0.033237919211387634,"402":0.04322158917784691,"403":0.10899001359939575,"404":0.04859740287065506,"405":0.10505484789609909,"406":-0.05864175409078598}},"4":{"bias":-0.049455393105745316,"weights":{"0":-0.030748942866921425,"1":0.09192316234111786,"2":-0.18191348016262054,"3":0.04367339611053467,"4":-0.09051090478897095,"5":-0.18256476521492004,"6":0.047446295619010925,"7":-0.17793042957782745,"8":-0.16514194011688232,"9":0.0673011988401413,"10":0.19172799587249756,"11":0.05551580339670181,"12":-0.08716649562120438,"13":0.10348156839609146,"14":-0.14934881031513214,"15":0.17736855149269104,"16":0.1345049887895584,"17":-0.07809930294752121,"18":0.01769077219069004,"19":0.09366166591644287,"20":-0.02240666188299656,"21":0.01241355761885643,"22":-0.07823127508163452,"23":0.0069887773133814335,"24":-0.004956402350217104,"25":0.08688899129629135,"26":0.1347193866968155,"27":-0.021078327670693398,"28":-0.008855718187987804,"29":-0.04253704100847244,"30":-0.07883007079362869,"31":0.05360814183950424,"32":-0.04751034080982208,"33":0.04434175044298172,"34":0.18675486743450165,"35":0.07227099686861038,"36":0.19655214250087738,"37":-0.01676979660987854,"38":-0.004674525000154972,"39":0.18457475304603577,"40":-0.19005945324897766,"41":-0.07073317468166351,"42":-0.0775177925825119,"43":0.15630458295345306,"44":0.007562967948615551,"45":0.08210262656211853,"46":-0.11646514385938644,"47":0.12940193712711334,"48":0.15905199944972992,"49":-0.1883126199245453,"50":0.10808776319026947,"51":-0.12067816406488419,"52":-0.016730792820453644,"53":0.00010889740224229172,"54":0.08185593038797379,"55":0.02273523062467575,"56":-0.19956393539905548,"57":0.054907456040382385,"58":0.09970951825380325,"59":-0.06982654333114624,"60":0.05530986934900284,"61":0.17885659635066986,"62":0.004703389015048742,"63":0.182123601436615,"64":-0.18561427295207977,"65":0.025774072855710983,"66":-0.12916773557662964,"67":-0.14201180636882782,"68":0.0170383732765913,"69":-0.06208107993006706,"70":-0.12687939405441284,"71":-0.06530211120843887,"72":0.16528639197349548,"73":0.011031880043447018,"74":-0.08183973282575607,"75":-0.1271953284740448,"76":0.13050465285778046,"77":0.02493787184357643,"78":0.024817384779453278,"79":0.08229018747806549,"80":0.05114910751581192,"81":0.04709317535161972,"82":0.012530192732810974,"83":0.10276680439710617,"84":-0.12402407824993134,"85":0.10078445822000504,"86":-0.14494450390338898,"87":-0.19434058666229248,"88":-0.13056708872318268,"89":-0.19495807588100433,"90":0.00974980928003788,"91":-0.1665542870759964,"92":-0.06680174171924591,"93":0.15420550107955933,"94":-0.12385180592536926,"95":-0.0776032954454422,"96":-0.08463820070028305,"97":0.0017213115934282541,"98":-0.11471357196569443,"99":0.032019563019275665,"100":-0.014032654464244843,"101":-0.13898144662380219,"102":-0.04641867056488991,"103":0.1876145452260971,"104":-0.12915624678134918,"105":0.16084998846054077,"106":0.05997571721673012,"107":-0.023470275104045868,"108":0.04109007492661476,"109":-0.04951435700058937,"110":-0.014765331521630287,"111":0.17862120270729065,"112":-0.0019789687357842922,"113":-0.09158261865377426,"114":0.12730936706066132,"115":-0.035888347774744034,"116":0.10243755578994751,"117":-0.005124385934323072,"118":-0.09888684749603271,"119":0.1721564531326294,"120":0.18787354230880737,"121":0.057096973061561584,"122":0.1041986495256424,"123":-0.1153332069516182,"124":0.059083957225084305,"125":-0.09530186653137207,"126":-0.12364807724952698,"127":-0.01286542508751154,"128":0.014309633523225784,"129":0.03385317325592041,"130":-0.17301984131336212,"131":-0.13922275602817535,"132":0.1312239021062851,"133":0.05226368457078934,"134":-0.11824954301118851,"135":0.013215539045631886,"136":0.015197651460766792,"137":0.06397053599357605,"138":-0.1436784714460373,"139":0.13318711519241333,"140":0.17260690033435822,"141":-0.04036468639969826,"142":0.0753568634390831,"143":-0.055168911814689636,"144":-0.0660841166973114,"145":-0.05150430649518967,"146":-0.007960721850395203,"147":-0.12199845910072327,"148":0.1839805245399475,"149":0.1790459007024765,"150":-0.13886800408363342,"151":-0.18565616011619568,"152":-0.1871597170829773,"153":0.14928650856018066,"154":-0.15446917712688446,"155":0.023230399936437607,"156":0.16821229457855225,"157":0.06840860843658447,"158":0.08874892443418503,"159":-0.11698660254478455,"160":0.058785051107406616,"161":-0.126129612326622,"162":-0.11945050954818726,"163":0.07700254768133163,"164":0.03026103414595127,"165":0.1715928316116333,"166":-0.08299141377210617,"167":0.006171594839543104,"168":-0.18826085329055786,"169":-0.11412584036588669,"170":-0.023749006912112236,"171":-0.12814116477966309,"172":0.14339876174926758,"173":-0.19432376325130463,"174":-0.019112884998321533,"175":-0.1829443722963333,"176":0.1948108971118927,"177":-0.1751486361026764,"178":-0.12525959312915802,"179":0.11378597468137741,"180":-0.1444534808397293,"181":0.022851577028632164,"182":-0.018973495811223984,"183":-0.08828074485063553,"184":0.08650217950344086,"185":-0.06459465622901917,"186":-0.0060352748259902,"187":-0.14604029059410095,"188":0.14195238053798676,"189":-0.1448983997106552,"190":0.022730721160769463,"191":0.11863788962364197,"192":-0.0017931812908500433,"193":-0.029581628739833832,"194":0.05794445425271988,"195":-0.1836465448141098,"196":0.015562387183308601,"197":0.185546413064003,"198":-0.18707193434238434,"199":-0.07163731008768082,"200":-0.15206623077392578,"201":-0.18965516984462738,"202":-0.01624429039657116,"203":0.05787471681833267,"204":-0.0728798359632492,"205":-0.03581799566745758,"206":0.04168350622057915,"207":-0.13718371093273163,"208":-0.11083311587572098,"209":0.1595858484506607,"210":0.0027844151481986046,"211":-0.10981018841266632,"212":0.19275976717472076,"213":-0.08705794811248779,"214":-0.14030784368515015,"215":0.04661654308438301,"216":-0.13296830654144287,"217":0.1799936592578888,"218":0.014150109142065048,"219":-0.1946638822555542,"220":-0.13657797873020172,"221":0.18147043883800507,"222":0.13635097444057465,"223":0.10949644446372986,"224":0.0030460518319159746,"225":0.18442896008491516,"226":-0.041385356336832047,"227":0.010327967815101147,"228":0.12565384805202484,"229":-0.03968600556254387,"230":0.1059897243976593,"231":0.12445208430290222,"232":-0.050280265510082245,"233":0.08156970888376236,"234":-0.11878470331430435,"235":-0.012060881592333317,"236":0.128545880317688,"237":0.06758400797843933,"238":0.03411899507045746,"239":0.04103131964802742,"240":0.18692940473556519,"241":0.09726036339998245,"242":0.1383790224790573,"243":0.1672290414571762,"244":-0.0991789922118187,"245":-0.1481783092021942,"246":0.055192530155181885,"247":0.1427859663963318,"248":-0.00944522675126791,"249":0.173747718334198,"250":0.1532231718301773,"251":0.012325223535299301,"252":-0.15979301929473877,"253":0.18991076946258545,"254":0.007578866556286812,"255":-0.16498258709907532,"256":-0.08576365560293198,"257":-0.16143913567066193,"258":0.120427705347538,"259":-0.1307937502861023,"260":-0.19820865988731384,"261":-0.1946290135383606,"262":-0.04066406935453415,"263":-0.13531829416751862,"264":-0.03918105736374855,"265":0.1955416053533554,"266":0.03133640065789223,"267":-0.007054380606859922,"268":0.0683288648724556,"269":0.031959548592567444,"270":0.04825154319405556,"271":-0.035688191652297974,"272":-0.11531435698270798,"273":-0.050062280148267746,"274":-0.01465087104588747,"275":0.0067232465371489525,"276":-0.13749413192272186,"277":0.10505238175392151,"278":-0.15193986892700195,"279":-0.07443484663963318,"280":0.0435250923037529,"281":0.11380617320537567,"282":0.1289033144712448,"283":0.08545257151126862,"284":-0.1185515969991684,"285":-0.020279722288250923,"286":0.040102068334817886,"287":-0.017874442040920258,"288":-0.1309259980916977,"289":-0.009236394427716732,"290":-0.06084819138050079,"291":-0.034145765006542206,"292":0.12384627759456635,"293":0.17070114612579346,"294":-0.02984968200325966,"295":0.051709823310375214,"296":-0.048302218317985535,"297":0.022314222529530525,"298":0.13257190585136414,"299":0.08879268914461136,"300":0.08687342703342438,"301":-0.1780860871076584,"302":-0.19953063130378723,"303":-0.13801971077919006,"304":-0.12671028077602386,"305":-0.13923120498657227,"306":0.14635729789733887,"307":0.06841906905174255,"308":0.09717116504907608,"309":0.12133854627609253,"310":0.09698494523763657,"311":-0.09541749209165573,"312":-0.1970180720090866,"313":-0.027379736304283142,"314":0.1863904744386673,"315":0.1761116236448288,"316":0.04234748333692551,"317":-0.09961369633674622,"318":0.11377059668302536,"319":0.1616261750459671,"320":0.07576429843902588,"321":0.011142386123538017,"322":0.16737213730812073,"323":0.06743332743644714,"324":-0.19552184641361237,"325":-0.19759391248226166,"326":0.17405782639980316,"327":0.062252748757600784,"328":0.036296624690294266,"329":0.02167561650276184,"330":-0.09012284874916077,"331":0.029627889394760132,"332":0.07613851875066757,"333":-0.18717488646507263,"334":-0.1694553941488266,"335":0.04475972801446915,"336":0.05546875298023224,"337":-0.009514114819467068,"338":-0.14479270577430725,"339":0.13692863285541534,"340":0.15928182005882263,"341":-0.1851523369550705,"342":0.14692328870296478,"343":0.11828427016735077,"344":-0.17293065786361694,"345":-0.14851535856723785,"346":-0.03784177824854851,"347":0.12199690192937851,"348":0.19611962139606476,"349":0.062125563621520996,"350":0.018976397812366486,"351":-0.05947992950677872,"352":-0.031735438853502274,"353":-0.06222311407327652,"354":0.1425269991159439,"355":-0.1356934905052185,"356":0.10167735069990158,"357":-0.0771971344947815,"358":-0.031104616820812225,"359":0.051005102694034576,"360":0.147357776761055,"361":0.05155360326170921,"362":0.15502241253852844,"363":0.0005200839950703084,"364":-0.16736681759357452,"365":-0.022059625014662743,"366":-0.024763580411672592,"367":-0.003969741985201836,"368":-0.07479387521743774,"369":-0.16369317471981049,"370":0.1828135848045349,"371":-0.15130330622196198,"372":0.04873378202319145,"373":-0.16917520761489868,"374":0.1353726089000702,"375":-0.12770994007587433,"376":0.08225005120038986,"377":-0.04064616560935974,"378":0.09682441502809525,"379":-0.11763657629489899,"380":-0.10687176138162613,"381":-0.10622981935739517,"382":-0.1511196494102478,"383":-0.1913585066795349,"384":-0.09587480127811432,"385":-0.036246757954359055,"386":0.03868312016129494,"387":-0.17719750106334686,"388":0.12340082228183746,"389":0.18471893668174744,"390":0.03516938537359238,"391":-0.1507043093442917,"392":0.03619761019945145,"393":0.19056160748004913,"394":-0.08734993636608124,"395":0.04940082132816315,"396":-0.14110267162322998,"397":0.17847488820552826,"398":-0.07931764423847198,"399":0.0429985411465168,"400":0.09581811726093292,"401":0.1524048149585724,"402":-0.06453833729028702,"403":0.054111845791339874,"404":0.16209061443805695,"405":0.155568465590477,"406":0.1614404171705246}},"5":{"bias":0.18404707312583923,"weights":{"0":-0.11315370351076126,"1":0.13225901126861572,"2":0.11545019596815109,"3":-0.04047529026865959,"4":-0.16939298808574677,"5":0.04783253371715546,"6":-0.143594428896904,"7":0.07645498216152191,"8":0.12482205778360367,"9":-0.044976312667131424,"10":0.1930641382932663,"11":-0.08873251080513,"12":0.1343691498041153,"13":0.17673175036907196,"14":-0.11976814270019531,"15":-0.0352933332324028,"16":0.12491648644208908,"17":-0.010284041054546833,"18":0.09592480957508087,"19":0.07283001393079758,"20":-0.04561690613627434,"21":0.032483331859111786,"22":-0.11291661113500595,"23":0.007425682619214058,"24":0.021571146324276924,"25":-0.007665661629289389,"26":-0.05379173532128334,"27":-0.029049795120954514,"28":-0.10680652409791946,"29":0.0649416521191597,"30":0.16201980412006378,"31":0.038249652832746506,"32":-0.1014542356133461,"33":-0.1008009985089302,"34":-0.06779977679252625,"35":0.010250945575535297,"36":-0.03181697055697441,"37":0.1431349217891693,"38":0.11283231526613235,"39":0.19407786428928375,"40":0.02044505439698696,"41":0.07940396666526794,"42":0.1921863853931427,"43":0.07863357663154602,"44":0.07265448570251465,"45":-0.18130140006542206,"46":0.1164265051484108,"47":-0.059640247374773026,"48":-0.004873954225331545,"49":-0.198154017329216,"50":-0.19772174954414368,"51":-0.07770735025405884,"52":-0.1181473433971405,"53":-0.16937729716300964,"54":0.1304772049188614,"55":0.13750562071800232,"56":0.09767655283212662,"57":0.15045882761478424,"58":-0.019188161939382553,"59":-0.028115900233387947,"60":0.1520688384771347,"61":-0.11634522676467896,"62":0.13698633015155792,"63":-0.17391899228096008,"64":-0.06348995119333267,"65":0.17798878252506256,"66":0.16949661076068878,"67":-0.0027543737087398767,"68":0.13749216496944427,"69":0.1709863543510437,"70":0.10534493625164032,"71":-0.1968422681093216,"72":0.11251714080572128,"73":0.04972926899790764,"74":-0.1605779528617859,"75":0.19673758745193481,"76":0.05661889538168907,"77":-0.13397252559661865,"78":-0.0022511461284011602,"79":-0.16412276029586792,"80":-0.18140165507793427,"81":0.1682548075914383,"82":0.015037975274026394,"83":0.19993989169597626,"84":0.18266674876213074,"85":-0.051517654210329056,"86":0.17063839733600616,"87":0.19361518323421478,"88":-0.1136796623468399,"89":0.06290390342473984,"90":-0.07781302183866501,"91":-0.04811941087245941,"92":-0.00948245171457529,"93":0.07380282878875732,"94":-0.19224029779434204,"95":0.1737639605998993,"96":-0.17086128890514374,"97":-0.1664271205663681,"98":-0.02758876420557499,"99":0.1605931520462036,"100":-0.019932366907596588,"101":-0.08977077901363373,"102":0.10275477916002274,"103":-0.04958004504442215,"104":0.042859505861997604,"105":-0.17270837724208832,"106":0.09830152988433838,"107":0.018589453771710396,"108":-0.16972798109054565,"109":0.044146206229925156,"110":0.126796156167984,"111":-0.07118542492389679,"112":-0.07000786066055298,"113":0.15423870086669922,"114":-0.1431475132703781,"115":-0.032969363033771515,"116":-0.05821699649095535,"117":0.008616909384727478,"118":0.14819523692131042,"119":0.17795734107494354,"120":-0.07177659124135971,"121":-0.13393813371658325,"122":0.1418534815311432,"123":-0.16708452999591827,"124":0.1829354166984558,"125":0.19051112234592438,"126":-0.0016101609217002988,"127":0.016232630237936974,"128":-0.06598597764968872,"129":0.1762860268354416,"130":-0.056434690952301025,"131":0.0646798238158226,"132":-0.16533441841602325,"133":0.1436033546924591,"134":-0.10140321403741837,"135":-0.17709651589393616,"136":-0.19153176248073578,"137":0.032475680112838745,"138":-0.061218198388814926,"139":0.09570375084877014,"140":0.033749595284461975,"141":-0.16979554295539856,"142":0.0014653184916824102,"143":0.09268749505281448,"144":0.03147028014063835,"145":-0.11894610524177551,"146":-0.015145200304687023,"147":0.0941256731748581,"148":-0.08035106956958771,"149":0.16089221835136414,"150":-0.17532889544963837,"151":-0.1035337895154953,"152":-0.16693110764026642,"153":-0.11393793672323227,"154":0.024454262107610703,"155":-0.026432758197188377,"156":0.17479825019836426,"157":0.12100253999233246,"158":-0.06385266780853271,"159":-0.1388617753982544,"160":0.17734871804714203,"161":-0.09314119815826416,"162":0.1143462061882019,"163":-0.1769031286239624,"164":0.07018731534481049,"165":0.062436867505311966,"166":-0.038399651646614075,"167":0.1831250786781311,"168":-0.19039209187030792,"169":-0.10172981023788452,"170":0.0017355313757434487,"171":-0.1100609302520752,"172":-0.07794306427240372,"173":0.0312485471367836,"174":-0.01014920324087143,"175":0.19843114912509918,"176":0.06809829920530319,"177":-0.045778170228004456,"178":0.044252198189496994,"179":0.13995563983917236,"180":0.03070332668721676,"181":0.06163627281785011,"182":-0.024820420891046524,"183":0.012087566778063774,"184":0.04336735978722572,"185":-0.13140568137168884,"186":-0.07506810873746872,"187":-0.151314839720726,"188":-0.19735701382160187,"189":-0.1390075385570526,"190":-0.09280309081077576,"191":-0.1806984841823578,"192":0.17598100006580353,"193":0.004197770729660988,"194":0.13666018843650818,"195":0.036143410950899124,"196":-0.17675147950649261,"197":-0.06778386235237122,"198":-0.056605469435453415,"199":-0.1827191710472107,"200":0.1824159026145935,"201":0.04550778120756149,"202":-0.07876645028591156,"203":0.1396132856607437,"204":0.1018446832895279,"205":-0.08958270400762558,"206":-0.08428026735782623,"207":-0.15321312844753265,"208":-0.14884048700332642,"209":0.19205975532531738,"210":-0.08746263384819031,"211":-0.02401810698211193,"212":-0.07014240324497223,"213":-0.17607693374156952,"214":-0.19577942788600922,"215":0.0818539708852768,"216":0.08855600655078888,"217":0.07475480437278748,"218":0.14116807281970978,"219":0.037485137581825256,"220":0.19684511423110962,"221":-0.07382316142320633,"222":-0.15511180460453033,"223":0.013767779804766178,"224":-0.07865628600120544,"225":0.16544222831726074,"226":0.09668989479541779,"227":0.17239564657211304,"228":0.1723393052816391,"229":-0.0669383704662323,"230":-0.18533390760421753,"231":0.16699625551700592,"232":0.07763338088989258,"233":-0.18178631365299225,"234":-0.19861018657684326,"235":-0.15416628122329712,"236":0.033253882080316544,"237":0.08684033155441284,"238":0.10326933115720749,"239":0.1753939837217331,"240":-0.12655548751354218,"241":-0.007555115502327681,"242":-0.011702625080943108,"243":0.08221090584993362,"244":-0.17895333468914032,"245":0.000050454204028937966,"246":0.01380443200469017,"247":-0.035028524696826935,"248":0.15805916488170624,"249":-0.08111534267663956,"250":0.0032269482035189867,"251":0.06747835129499435,"252":-0.09701201319694519,"253":0.06735643744468689,"254":-0.005468700546771288,"255":0.04986320436000824,"256":-0.1378486156463623,"257":0.16072902083396912,"258":0.10319457203149796,"259":-0.19940367341041565,"260":-0.11439365893602371,"261":-0.11648817360401154,"262":-0.03622102737426758,"263":0.09083406627178192,"264":0.074162058532238,"265":0.05165984481573105,"266":-0.09684989601373672,"267":0.027927640825510025,"268":0.12517639994621277,"269":0.11308572441339493,"270":0.01113094948232174,"271":-0.007267034612596035,"272":0.11077561974525452,"273":0.07536924630403519,"274":0.025510679930448532,"275":0.04353462532162666,"276":0.18392734229564667,"277":0.004755540285259485,"278":0.1661502718925476,"279":-0.1962370127439499,"280":0.0879887267947197,"281":0.11746858805418015,"282":-0.058111850172281265,"283":0.14087344706058502,"284":0.1776648759841919,"285":0.12414442747831345,"286":-0.1570715755224228,"287":0.14338795840740204,"288":-0.15077099204063416,"289":-0.01218549907207489,"290":-0.11084579676389694,"291":0.020341763272881508,"292":0.06873013079166412,"293":-0.19694466888904572,"294":0.1122255027294159,"295":-0.0848994255065918,"296":-0.15739426016807556,"297":-0.15299442410469055,"298":0.19868731498718262,"299":0.020791592076420784,"300":-0.009543610736727715,"301":-0.1792849600315094,"302":-0.05525096505880356,"303":-0.13658791780471802,"304":-0.044754717499017715,"305":-0.05518639087677002,"306":-0.13388797640800476,"307":-0.0181460902094841,"308":-0.09323735535144806,"309":-0.050863586366176605,"310":-0.1587110459804535,"311":0.18715718388557434,"312":0.07806725800037384,"313":0.18259702622890472,"314":0.17529302835464478,"315":-0.16739612817764282,"316":0.12818489968776703,"317":-0.010276996530592442,"318":0.060163117945194244,"319":-0.04181798920035362,"320":-0.19069495797157288,"321":0.037507012486457825,"322":-0.07256907224655151,"323":-0.013723148964345455,"324":0.019820816814899445,"325":0.058348678052425385,"326":-0.06662531942129135,"327":-0.09929759055376053,"328":0.04961790144443512,"329":0.14531461894512177,"330":0.16924358904361725,"331":0.16011156141757965,"332":0.16671596467494965,"333":-0.13807207345962524,"334":-0.10900697857141495,"335":0.003660943591967225,"336":-0.1914159655570984,"337":0.16726648807525635,"338":-0.06640703976154327,"339":-0.011560015380382538,"340":-0.17922982573509216,"341":0.008354040794074535,"342":-0.18770630657672882,"343":0.14503195881843567,"344":0.15718980133533478,"345":0.02455437183380127,"346":0.15434834361076355,"347":-0.04001003876328468,"348":0.06460707634687424,"349":-0.04640654847025871,"350":0.16030505299568176,"351":0.06868522614240646,"352":-0.18466362357139587,"353":-0.08139438182115555,"354":-0.019333627074956894,"355":-0.13920998573303223,"356":0.014291997067630291,"357":0.16334179043769836,"358":0.05911339446902275,"359":0.19805282354354858,"360":0.034602317959070206,"361":0.062232401221990585,"362":-0.14180760085582733,"363":-0.008405925706028938,"364":-0.10067300498485565,"365":0.018405327573418617,"366":-0.15267086029052734,"367":-0.010596812702715397,"368":0.13097451627254486,"369":0.010125012136995792,"370":-0.030593473464250565,"371":0.04058587923645973,"372":-0.07536464184522629,"373":0.02423485554754734,"374":0.07665374875068665,"375":-0.15857496857643127,"376":0.15271402895450592,"377":-0.061230018734931946,"378":-0.006588746327906847,"379":0.17067541182041168,"380":0.08949438482522964,"381":-0.07232405990362167,"382":-0.18879330158233643,"383":-0.03220168501138687,"384":-0.1927248239517212,"385":0.08506473898887634,"386":0.19680672883987427,"387":-0.16674917936325073,"388":0.15861831605434418,"389":0.02107909880578518,"390":0.11089853942394257,"391":0.18454918265342712,"392":-0.007295999210327864,"393":0.054039712995290756,"394":-0.13758620619773865,"395":0.08018571138381958,"396":0.09468889981508255,"397":-0.04994669556617737,"398":-0.18689845502376556,"399":0.14496685564517975,"400":-0.09795062243938446,"401":-0.015195801854133606,"402":0.004085198976099491,"403":0.008066873997449875,"404":-0.1857207715511322,"405":0.1299806386232376,"406":0.05277230963110924}},"6":{"bias":0.12880776822566986,"weights":{"0":-0.13068026304244995,"1":0.009671451523900032,"2":-0.1986262947320938,"3":0.14266760647296906,"4":-0.04261089116334915,"5":0.1673603504896164,"6":0.052448421716690063,"7":0.06771021336317062,"8":-0.1439650058746338,"9":-0.09432333707809448,"10":-0.1180599257349968,"11":0.07620371878147125,"12":-0.06316599994897842,"13":-0.16760604083538055,"14":-0.18990233540534973,"15":-0.13580375909805298,"16":-0.1959863305091858,"17":0.11410999298095703,"18":0.1991603970527649,"19":0.12545734643936157,"20":0.08764340728521347,"21":0.11730699986219406,"22":0.018594585359096527,"23":0.035181645303964615,"24":-0.029868368059396744,"25":0.16972996294498444,"26":-0.1575581282377243,"27":0.09447142481803894,"28":0.12705998122692108,"29":0.12175601720809937,"30":-0.18695005774497986,"31":0.14827463030815125,"32":-0.021233100444078445,"33":-0.199998676776886,"34":0.06180805712938309,"35":-0.11511020362377167,"36":-0.052761662751436234,"37":0.100517638027668,"38":-0.16230793297290802,"39":-0.13772925734519958,"40":-0.06057053804397583,"41":0.12077100574970245,"42":0.15516193211078644,"43":-0.12121056765317917,"44":0.1425522118806839,"45":0.18265849351882935,"46":-0.16049465537071228,"47":0.1899602860212326,"48":0.0363742932677269,"49":-0.02384205162525177,"50":-0.12322241812944412,"51":-0.09857747703790665,"52":-0.012055939994752407,"53":-0.04661637917160988,"54":0.0587037093937397,"55":-0.09836234897375107,"56":-0.04231332615017891,"57":0.11416108161211014,"58":0.1337890923023224,"59":-0.18562236428260803,"60":0.11252228170633316,"61":0.07402496039867401,"62":-0.12558577954769135,"63":-0.07759010046720505,"64":0.12538522481918335,"65":-0.009054046124219894,"66":-0.19595004618167877,"67":0.0352657288312912,"68":0.00873932708054781,"69":-0.051732227206230164,"70":0.024306226521730423,"71":0.13477632403373718,"72":0.16123151779174805,"73":-0.03628284111618996,"74":-0.011885269545018673,"75":-0.11259295046329498,"76":0.11959844082593918,"77":0.1901809573173523,"78":0.05136822164058685,"79":0.09652800858020782,"80":0.17393513023853302,"81":-0.07894130051136017,"82":0.08144945651292801,"83":-0.03209686279296875,"84":-0.10030478984117508,"85":-0.19336172938346863,"86":-0.10812781006097794,"87":0.04586966708302498,"88":0.07560627162456512,"89":-0.10899312794208527,"90":-0.04172314703464508,"91":0.17056336998939514,"92":-0.07175754010677338,"93":-0.17604923248291016,"94":-0.04462955892086029,"95":0.16041037440299988,"96":0.1639278084039688,"97":-0.15569235384464264,"98":0.05869777128100395,"99":0.0063929129391908646,"100":0.15852685272693634,"101":0.14242346584796906,"102":0.03637612611055374,"103":-0.10406181961297989,"104":0.14245076477527618,"105":-0.14013612270355225,"106":-0.04582671821117401,"107":-0.13894978165626526,"108":0.14273320138454437,"109":0.0695454552769661,"110":-0.11302706599235535,"111":-0.13621126115322113,"112":-0.16132812201976776,"113":-0.15597553551197052,"114":-0.07653437554836273,"115":-0.07304029166698456,"116":-0.1735326200723648,"117":-0.05202863737940788,"118":0.0073850639164447784,"119":-0.019611850380897522,"120":-0.11330867558717728,"121":0.1942490190267563,"122":0.17931364476680756,"123":-0.039319202303886414,"124":0.07818254083395004,"125":0.17410773038864136,"126":-0.16935144364833832,"127":0.0767463967204094,"128":-0.08394718170166016,"129":-0.12564927339553833,"130":-0.10001147538423538,"131":0.19718575477600098,"132":0.1519494503736496,"133":-0.058215782046318054,"134":0.13146497309207916,"135":0.08703635632991791,"136":0.08108072727918625,"137":0.19406723976135254,"138":0.053303468972444534,"139":0.11894769221544266,"140":0.09071481227874756,"141":0.17635707557201385,"142":0.0057899379171431065,"143":0.020856762304902077,"144":-0.1110578179359436,"145":-0.0015010018832981586,"146":0.14609195291996002,"147":-0.08859538286924362,"148":-0.09791972488164902,"149":-0.08706802129745483,"150":0.006867862772196531,"151":-0.05506233498454094,"152":0.10640650242567062,"153":-0.1451319307088852,"154":-0.04737119376659393,"155":-0.15284600853919983,"156":0.001682220259681344,"157":-0.09644979983568192,"158":-0.16549524664878845,"159":0.0912536159157753,"160":0.029142804443836212,"161":-0.0848466083407402,"162":-0.018245279788970947,"163":0.10192734748125076,"164":-0.17847391963005066,"165":0.02543056756258011,"166":0.19983603060245514,"167":0.05204900726675987,"168":0.19829851388931274,"169":-0.031233932822942734,"170":0.051638975739479065,"171":-0.1999448835849762,"172":-0.15742367506027222,"173":-0.08514109998941422,"174":-0.1507108211517334,"175":0.15308962762355804,"176":-0.008279825560748577,"177":0.15429285168647766,"178":-0.07636380195617676,"179":-0.15788811445236206,"180":0.18747101724147797,"181":-0.026704290881752968,"182":0.12415970116853714,"183":-0.07929878681898117,"184":-0.06304288655519485,"185":0.06352792680263519,"186":-0.07541532814502716,"187":0.17767615616321564,"188":-0.12179648876190186,"189":0.02101067826151848,"190":0.08216924220323563,"191":0.17137464880943298,"192":-0.19733113050460815,"193":-0.10227518528699875,"194":-0.12400335818529129,"195":-0.13737820088863373,"196":0.05336451157927513,"197":-0.029021164402365685,"198":0.07446188479661942,"199":-0.05958223342895508,"200":-0.053448885679244995,"201":0.1138080507516861,"202":0.06337191164493561,"203":0.060051798820495605,"204":-0.1627519726753235,"205":0.18411670625209808,"206":-0.06283452361822128,"207":0.08603472262620926,"208":-0.16947892308235168,"209":-0.042606085538864136,"210":-0.15311498939990997,"211":-0.054141685366630554,"212":-0.13792458176612854,"213":0.01453703548759222,"214":-0.08829545229673386,"215":0.03319774195551872,"216":0.04407172650098801,"217":-0.11993775516748428,"218":0.10972385853528976,"219":0.0396634116768837,"220":0.19634464383125305,"221":-0.14250849187374115,"222":0.17157524824142456,"223":0.17404840886592865,"224":-0.058915119618177414,"225":0.07611226290464401,"226":-0.1535559743642807,"227":0.09282800555229187,"228":-0.06142374128103256,"229":0.10151515901088715,"230":0.11734641343355179,"231":0.00020425296679604799,"232":0.18638338148593903,"233":0.08182577043771744,"234":-0.19874915480613708,"235":0.03179267421364784,"236":0.1420518159866333,"237":-0.09791642427444458,"238":0.10008717328310013,"239":-0.09227253496646881,"240":-0.020112138241529465,"241":0.17792406678199768,"242":-0.06913484632968903,"243":0.026788489893078804,"244":-0.1639772206544876,"245":-0.007426407188177109,"246":-0.12345122545957565,"247":-0.10990945994853973,"248":-0.15823887288570404,"249":0.019117673859000206,"250":0.01879739575088024,"251":0.09015456587076187,"252":0.19746340811252594,"253":-0.07985653728246689,"254":0.04576430469751358,"255":-0.059221744537353516,"256":0.03969191759824753,"257":-0.008290683850646019,"258":-0.17158856987953186,"259":-0.19188587367534637,"260":-0.07210361212491989,"261":0.17613442242145538,"262":0.02821321226656437,"263":0.026247212663292885,"264":0.06990791112184525,"265":-0.09808078408241272,"266":0.1560029536485672,"267":0.10668879002332687,"268":-0.060239218175411224,"269":0.1687401831150055,"270":-0.09834849089384079,"271":-0.14012333750724792,"272":-0.08879564702510834,"273":0.14266470074653625,"274":-0.13925492763519287,"275":0.06376766413450241,"276":0.1996387243270874,"277":0.17952419817447662,"278":-0.17583900690078735,"279":-0.04053298383951187,"280":0.14532053470611572,"281":0.05106669291853905,"282":-0.028898736461997032,"283":0.13637876510620117,"284":-0.13684803247451782,"285":0.02298787795007229,"286":-0.06113648787140846,"287":-0.05298726633191109,"288":0.028481265529990196,"289":-0.033148638904094696,"290":0.04799068719148636,"291":-0.15006330609321594,"292":-0.10809844732284546,"293":0.09560710936784744,"294":0.16199766099452972,"295":0.1063484475016594,"296":0.02245751954615116,"297":-0.08731186389923096,"298":-0.07834139466285706,"299":0.005161280743777752,"300":0.043195560574531555,"301":0.06506005674600601,"302":-0.139807790517807,"303":0.0585731565952301,"304":-0.1846051961183548,"305":-0.13333871960639954,"306":-0.09476291388273239,"307":0.1522405445575714,"308":0.01791529916226864,"309":0.05232405290007591,"310":-0.014397555962204933,"311":0.13191600143909454,"312":0.03232233226299286,"313":-0.08828651160001755,"314":0.16923078894615173,"315":0.13633233308792114,"316":-0.060684625059366226,"317":-0.12829206883907318,"318":-0.052920032292604446,"319":-0.047199051827192307,"320":0.12160142511129379,"321":0.014364708214998245,"322":-0.06461971253156662,"323":0.09063663333654404,"324":0.09588076174259186,"325":0.19690446555614471,"326":0.1192568987607956,"327":0.18356050550937653,"328":-0.18974152207374573,"329":-0.06322542577981949,"330":0.020437132567167282,"331":-0.09291233867406845,"332":-0.16594959795475006,"333":-0.11923421174287796,"334":-0.04873689264059067,"335":0.04512277990579605,"336":-0.15337902307510376,"337":0.015492924489080906,"338":-0.10369688272476196,"339":0.18843895196914673,"340":0.18325640261173248,"341":0.0453210175037384,"342":0.11517778038978577,"343":0.02945386804640293,"344":0.0585063174366951,"345":-0.18420295417308807,"346":-0.028954792767763138,"347":-0.039585065096616745,"348":-0.16722838580608368,"349":-0.1288677453994751,"350":0.07673805952072144,"351":0.12325379997491837,"352":-0.062025222927331924,"353":-0.0020420022774487734,"354":0.016464976593852043,"355":-0.05574837699532509,"356":-0.1449386328458786,"357":0.06279022246599197,"358":0.024105073884129524,"359":0.1386868953704834,"360":0.05506652966141701,"361":0.14636440575122833,"362":0.15398287773132324,"363":-0.021697649732232094,"364":0.06056569144129753,"365":-0.16529689729213715,"366":-0.19558946788311005,"367":0.183460995554924,"368":-0.060665056109428406,"369":-0.08760709315538406,"370":-0.048578955233097076,"371":0.048605237156152725,"372":0.019295452162623405,"373":-0.17389768362045288,"374":-0.06625908613204956,"375":-0.15526257455348969,"376":0.04632951319217682,"377":0.01494979951530695,"378":0.11958151310682297,"379":-0.07248149067163467,"380":0.07234808802604675,"381":-0.09986067563295364,"382":0.02671513520181179,"383":0.139568492770195,"384":0.16568993031978607,"385":-0.0646015927195549,"386":-0.0610508993268013,"387":0.10987747460603714,"388":-0.01645289547741413,"389":0.08156675845384598,"390":-0.15057557821273804,"391":-0.191198468208313,"392":0.01583673246204853,"393":0.016643188893795013,"394":0.12969845533370972,"395":-0.032731831073760986,"396":0.11044720560312271,"397":0.06588007509708405,"398":0.12505100667476654,"399":-0.15590696036815643,"400":-0.18934647738933563,"401":-0.17537866532802582,"402":0.006770920939743519,"403":-0.11926406621932983,"404":0.039618924260139465,"405":-0.017566969618201256,"406":-0.0544753298163414}},"7":{"bias":-0.08564936369657516,"weights":{"0":0.049278102815151215,"1":0.11549351364374161,"2":0.1215503066778183,"3":-0.11752428114414215,"4":0.16567309200763702,"5":-0.14588172733783722,"6":0.017163773998618126,"7":0.033703383058309555,"8":-0.14414972066879272,"9":-0.1918337047100067,"10":-0.06740453094244003,"11":0.18285945057868958,"12":0.13024906814098358,"13":0.03900259733200073,"14":0.1353762149810791,"15":-0.04350457713007927,"16":-0.04005252569913864,"17":0.029660578817129135,"18":0.07968880981206894,"19":-0.04245246574282646,"20":-0.083242267370224,"21":-0.1355516016483307,"22":0.0816044807434082,"23":0.1825590878725052,"24":0.13230106234550476,"25":-0.18403005599975586,"26":0.18918047845363617,"27":0.1282292604446411,"28":-0.09787051379680634,"29":-0.12171389162540436,"30":-0.060910213738679886,"31":-0.14887623488903046,"32":-0.06429583579301834,"33":-0.043190278112888336,"34":0.008963280357420444,"35":0.1455797255039215,"36":-0.023981861770153046,"37":-0.1999444216489792,"38":-0.08845929056406021,"39":0.01759730465710163,"40":-0.09434910118579865,"41":-0.08053534477949142,"42":0.022614022716879845,"43":-0.19687828421592712,"44":0.12412799894809723,"45":-0.15830786526203156,"46":-0.02750808373093605,"47":0.08639171719551086,"48":0.07778068631887436,"49":-0.1282520592212677,"50":0.17847447097301483,"51":0.11605868488550186,"52":-0.09601381421089172,"53":0.15995338559150696,"54":0.06584940105676651,"55":-0.005658263806253672,"56":0.14971692860126495,"57":0.007122688926756382,"58":0.005567113868892193,"59":0.18259048461914062,"60":0.13819153606891632,"61":-0.03540518134832382,"62":-0.047658953815698624,"63":0.037147123366594315,"64":0.004434849135577679,"65":-0.009787299670279026,"66":0.032820671796798706,"67":-0.14595577120780945,"68":0.1301657259464264,"69":-0.19199539721012115,"70":0.1444663107395172,"71":-0.13264743983745575,"72":0.025505458936095238,"73":-0.19764377176761627,"74":0.007623858749866486,"75":0.17147158086299896,"76":0.06914982199668884,"77":-0.15942242741584778,"78":-0.08142801374197006,"79":0.15405994653701782,"80":0.127818763256073,"81":0.0461873859167099,"82":-0.07648308575153351,"83":-0.16808068752288818,"84":-0.17100487649440765,"85":-0.0852041244506836,"86":0.11278270184993744,"87":-0.1837463080883026,"88":-0.07900604605674744,"89":-0.18779875338077545,"90":0.09824271500110626,"91":0.13892225921154022,"92":-0.1843976080417633,"93":0.021470146253705025,"94":0.0051325783133506775,"95":-0.19724822044372559,"96":0.056907374411821365,"97":0.06917116045951843,"98":-0.006659436039626598,"99":0.01906205341219902,"100":0.19668135046958923,"101":0.16116173565387726,"102":-0.16392531991004944,"103":0.06773054599761963,"104":-0.025389963760972023,"105":0.1682707667350769,"106":0.00202078721486032,"107":0.1925094872713089,"108":0.14643238484859467,"109":-0.022672811523079872,"110":0.05580462887883186,"111":-0.19434979557991028,"112":0.1827314794063568,"113":0.10213133692741394,"114":0.07023025304079056,"115":0.009192020632326603,"116":0.16000357270240784,"117":-0.04825782775878906,"118":-0.08197622746229172,"119":-0.1499360054731369,"120":0.15103740990161896,"121":-0.10338418185710907,"122":0.13321872055530548,"123":0.0677047148346901,"124":0.03705083206295967,"125":0.07942864298820496,"126":-0.06151064485311508,"127":-0.15554019808769226,"128":-0.00362468883395195,"129":0.08214548230171204,"130":0.05342606082558632,"131":0.01702173426747322,"132":0.17267923057079315,"133":0.0972154289484024,"134":-0.17052163183689117,"135":0.026998523622751236,"136":-0.02290644496679306,"137":0.004635893274098635,"138":0.01337474212050438,"139":-0.08209220319986343,"140":-0.020022347569465637,"141":0.1348273605108261,"142":0.19477027654647827,"143":0.0963299497961998,"144":0.04081219062209129,"145":-0.053328920155763626,"146":0.18430958688259125,"147":-0.024076707661151886,"148":0.00619725976139307,"149":0.15217648446559906,"150":0.03078036569058895,"151":0.042120177298784256,"152":0.03117983788251877,"153":-0.1861058622598648,"154":-0.04884280264377594,"155":-0.07175521552562714,"156":-0.09602425992488861,"157":-0.14826975762844086,"158":0.1413537561893463,"159":-0.10077692568302155,"160":0.09101854264736176,"161":-0.10245386511087418,"162":-0.08545347303152084,"163":-0.13484421372413635,"164":-0.12383172661066055,"165":-0.12330814450979233,"166":0.0442790687084198,"167":0.07579010725021362,"168":-0.05670381709933281,"169":-0.1933387666940689,"170":0.02435198426246643,"171":0.03584632650017738,"172":-0.18264222145080566,"173":-0.17264747619628906,"174":0.06440434604883194,"175":-0.060264527797698975,"176":-0.18290060758590698,"177":0.07491350173950195,"178":-0.09533674269914627,"179":-0.08633122593164444,"180":0.08682989329099655,"181":-0.14254775643348694,"182":-0.09421950578689575,"183":0.056624531745910645,"184":-0.11357174068689346,"185":0.15074659883975983,"186":-0.006721093785017729,"187":-0.08740652352571487,"188":0.06504698842763901,"189":0.0032775457948446274,"190":-0.06869538128376007,"191":0.09541215747594833,"192":0.12127714604139328,"193":-0.1551811844110489,"194":0.15500828623771667,"195":-0.043889205902814865,"196":0.14279696345329285,"197":-0.14758826792240143,"198":-0.09021396934986115,"199":0.020982511341571808,"200":-0.14142602682113647,"201":-0.12602286040782928,"202":0.17361286282539368,"203":-0.12339837849140167,"204":0.0033729667775332928,"205":-0.033568721264600754,"206":-0.1470986306667328,"207":-0.10411369800567627,"208":0.18833120167255402,"209":-0.13561974465847015,"210":0.11127535253763199,"211":0.07178172469139099,"212":-0.010307715274393559,"213":0.051136504858732224,"214":-0.08571498841047287,"215":0.17293880879878998,"216":-0.10007116943597794,"217":-0.07091114670038223,"218":0.03210265561938286,"219":0.14604079723358154,"220":0.19769074022769928,"221":-0.03809787333011627,"222":-0.0007950738072395325,"223":-0.15685954689979553,"224":-0.029044637456536293,"225":0.14403684437274933,"226":-0.012556502595543861,"227":-0.07663027197122574,"228":-0.025781702250242233,"229":0.12370437383651733,"230":0.05477277189493179,"231":0.0057181864976882935,"232":0.11763792484998703,"233":0.08373671025037766,"234":-0.11453720182180405,"235":0.08218728005886078,"236":0.1567152440547943,"237":-0.016056738793849945,"238":0.08584999293088913,"239":-0.03497346490621567,"240":0.08551259338855743,"241":-0.09742698818445206,"242":-0.10186368227005005,"243":-0.1994771957397461,"244":-0.11449296027421951,"245":-0.158422589302063,"246":-0.05518367514014244,"247":-0.03163813427090645,"248":0.03574283421039581,"249":-0.19327402114868164,"250":0.11087954789400101,"251":0.06438075006008148,"252":-0.06937678158283234,"253":0.0029364663641899824,"254":0.0012990335235372186,"255":0.08160616457462311,"256":0.11687856167554855,"257":-0.19408227503299713,"258":0.19520407915115356,"259":0.12214155495166779,"260":-0.08722618222236633,"261":-0.0929594412446022,"262":0.005825041327625513,"263":0.06659968197345734,"264":0.07731320708990097,"265":0.0022518413607031107,"266":-0.0032632669899612665,"267":-0.1663341522216797,"268":-0.16376426815986633,"269":0.06256283074617386,"270":-0.10796882212162018,"271":0.02804126776754856,"272":0.17296050488948822,"273":0.18722431361675262,"274":-0.06662081182003021,"275":0.10790396481752396,"276":0.1587200164794922,"277":-0.10999126732349396,"278":0.021951710805296898,"279":-0.08457903563976288,"280":0.060921747237443924,"281":-0.06003117188811302,"282":-0.129034161567688,"283":0.04332396015524864,"284":-0.027863740921020508,"285":-0.07119610160589218,"286":0.043249230831861496,"287":-0.11787182092666626,"288":-0.029444845393300056,"289":0.045468252152204514,"290":0.08738815784454346,"291":0.010594923980534077,"292":-0.04742267355322838,"293":-0.12089190632104874,"294":0.09432893991470337,"295":-0.03261703997850418,"296":-0.029357563704252243,"297":0.04742908105254173,"298":-0.1415710598230362,"299":0.19154246151447296,"300":0.1949809044599533,"301":0.021417973563075066,"302":-0.036670055240392685,"303":-0.15691699087619781,"304":0.010050027631223202,"305":0.1789184808731079,"306":-0.13253626227378845,"307":-0.05992792919278145,"308":-0.0350654236972332,"309":0.1911390870809555,"310":-0.1491563618183136,"311":0.049068618565797806,"312":0.07220425456762314,"313":0.05170457437634468,"314":0.11297597736120224,"315":0.15683232247829437,"316":-0.04327085241675377,"317":-0.015344856306910515,"318":-0.1464686393737793,"319":-0.14618046581745148,"320":0.16968929767608643,"321":0.1267988234758377,"322":0.014452622272074223,"323":0.07495752722024918,"324":-0.07886715978384018,"325":0.1194693073630333,"326":0.0478600449860096,"327":-0.028239767998456955,"328":-0.1965659111738205,"329":-0.0835600271821022,"330":0.17030252516269684,"331":-0.18964873254299164,"332":-0.016640346497297287,"333":-0.14814503490924835,"334":-0.08562184870243073,"335":0.03841258957982063,"336":0.1239360049366951,"337":-0.16801586747169495,"338":-0.15442927181720734,"339":0.04035995155572891,"340":-0.157894104719162,"341":0.10032733529806137,"342":0.02530665695667267,"343":-0.0696207731962204,"344":-0.10920359939336777,"345":-0.03197217360138893,"346":0.08569629490375519,"347":-0.18959948420524597,"348":-0.1752847582101822,"349":0.04056752100586891,"350":0.11071761697530746,"351":-0.1628779023885727,"352":0.1697981208562851,"353":0.05050916224718094,"354":0.09007496386766434,"355":0.01612139120697975,"356":0.04810338467359543,"357":0.013525739312171936,"358":0.02555042691528797,"359":-0.10912713408470154,"360":-0.01040814071893692,"361":-0.0638364776968956,"362":0.12669652700424194,"363":0.060707900673151016,"364":-0.08218801021575928,"365":-0.013087519444525242,"366":-0.19741609692573547,"367":0.06043209508061409,"368":-0.06588011234998703,"369":0.1573595404624939,"370":-0.06675120443105698,"371":-0.19731591641902924,"372":-0.07893775403499603,"373":-0.17182844877243042,"374":-0.10279982537031174,"375":0.12420329451560974,"376":-0.02841472066938877,"377":0.10405488312244415,"378":-0.1701669842004776,"379":0.10390608012676239,"380":0.19541044533252716,"381":-0.016836702823638916,"382":-0.026000970974564552,"383":-0.17605599761009216,"384":-0.15850484371185303,"385":-0.047712963074445724,"386":-0.16837546229362488,"387":-0.05870669707655907,"388":0.13830922544002533,"389":-0.05087656527757645,"390":0.10394254326820374,"391":0.06612754613161087,"392":0.055317554622888565,"393":0.14186836779117584,"394":-0.1329687088727951,"395":-0.12159787863492966,"396":-0.1395701915025711,"397":0.1851990669965744,"398":0.042981281876564026,"399":0.07737851142883301,"400":-0.022709505632519722,"401":0.0958256721496582,"402":-0.07330570369958878,"403":-0.1824549436569214,"404":0.022113338112831116,"405":0.1620519906282425,"406":-0.009426206350326538}},"8":{"bias":0.17313502728939056,"weights":{"0":0.08537396788597107,"1":0.11422383785247803,"2":-0.1372857391834259,"3":0.04929758235812187,"4":-0.017259741201996803,"5":0.14648251235485077,"6":-0.16513153910636902,"7":0.049568623304367065,"8":-0.0842149406671524,"9":-0.017251048237085342,"10":-0.13511934876441956,"11":-0.15827348828315735,"12":0.08980032056570053,"13":-0.03534046560525894,"14":-0.0386405885219574,"15":-0.16249620914459229,"16":0.10734481364488602,"17":0.16560927033424377,"18":0.16854536533355713,"19":-0.1694953441619873,"20":-0.11841236799955368,"21":-0.04673188924789429,"22":0.16854077577590942,"23":-0.15373358130455017,"24":-0.1999267190694809,"25":-0.1531771719455719,"26":-0.1840498447418213,"27":0.1023385152220726,"28":0.1266649216413498,"29":0.04088880866765976,"30":-0.04541713744401932,"31":-0.07711231708526611,"32":-0.10601568222045898,"33":0.054498136043548584,"34":-0.16399970650672913,"35":0.042995039373636246,"36":0.04608231037855148,"37":-0.18175239861011505,"38":-0.1665898710489273,"39":-0.11584675312042236,"40":0.18085654079914093,"41":0.1854676604270935,"42":-0.195847749710083,"43":-0.047660939395427704,"44":-0.004743713885545731,"45":0.16411997377872467,"46":0.17206433415412903,"47":-0.13396325707435608,"48":-0.019806232303380966,"49":-0.1889306902885437,"50":-0.14511588215827942,"51":0.1313023716211319,"52":-0.18790777027606964,"53":-0.0413740798830986,"54":0.16256429255008698,"55":0.05685805529356003,"56":-0.042520031332969666,"57":0.09049072116613388,"58":0.1334255486726761,"59":0.1972491443157196,"60":-0.1417578160762787,"61":-0.07384253293275833,"62":-0.18534989655017853,"63":-0.0590035617351532,"64":0.007243599742650986,"65":0.13794605433940887,"66":0.07459196448326111,"67":-0.061940502375364304,"68":0.1773575395345688,"69":-0.026026492938399315,"70":-0.08089519292116165,"71":-0.15731491148471832,"72":-0.0423932708799839,"73":-0.10239829123020172,"74":0.03918493911623955,"75":0.08938372880220413,"76":-0.03362104669213295,"77":-0.038267359137535095,"78":-0.1634751707315445,"79":0.02666913904249668,"80":0.15891098976135254,"81":-0.028884785249829292,"82":0.08989420533180237,"83":0.15925848484039307,"84":0.17619353532791138,"85":-0.15113405883312225,"86":-0.035051047801971436,"87":0.026864709332585335,"88":0.14272643625736237,"89":0.1865391582250595,"90":0.010967759415507317,"91":0.034515704959630966,"92":-0.1250622421503067,"93":-0.14249803125858307,"94":-0.1374858170747757,"95":0.13612279295921326,"96":0.14899581670761108,"97":0.0021232853177934885,"98":-0.00258235284127295,"99":0.09762145578861237,"100":0.19783133268356323,"101":0.038993723690509796,"102":0.1127723827958107,"103":-0.06688572466373444,"104":-0.19853651523590088,"105":0.1109362542629242,"106":0.14269143342971802,"107":0.1762406975030899,"108":-0.181244894862175,"109":-0.03669678419828415,"110":-0.14733627438545227,"111":0.12456097453832626,"112":-0.035876478999853134,"113":0.13941690325737,"114":-0.0711454451084137,"115":0.13853895664215088,"116":-0.18027985095977783,"117":-0.07633887231349945,"118":-0.02063244953751564,"119":-0.13835935294628143,"120":-0.1890241652727127,"121":-0.0159941166639328,"122":0.13089397549629211,"123":-0.12205983698368073,"124":0.17189371585845947,"125":-0.028111044317483902,"126":0.03323136270046234,"127":-0.017654623836278915,"128":-0.1945754587650299,"129":-0.1952076256275177,"130":-0.019143177196383476,"131":0.19664867222309113,"132":0.19089630246162415,"133":-0.10260702669620514,"134":-0.15807586908340454,"135":-0.042909931391477585,"136":0.038290608674287796,"137":0.15498317778110504,"138":0.029445607215166092,"139":-0.12726348638534546,"140":0.06304588913917542,"141":-0.08519116044044495,"142":0.1833680123090744,"143":-0.12708927690982819,"144":0.020058555528521538,"145":-0.04694352298974991,"146":0.01483147218823433,"147":-0.19177207350730896,"148":0.03289589658379555,"149":-0.06906042993068695,"150":-0.15466278791427612,"151":-0.08627345412969589,"152":0.15705594420433044,"153":0.1501607596874237,"154":0.1568155288696289,"155":0.07926176488399506,"156":-0.1868443638086319,"157":-0.0230365339666605,"158":0.13085749745368958,"159":0.03103257156908512,"160":0.02082468383014202,"161":0.017504146322607994,"162":0.05796826630830765,"163":-0.08143716305494308,"164":-0.11990707367658615,"165":0.009272982366383076,"166":-0.029328731819987297,"167":-0.1630324423313141,"168":-0.09242646396160126,"169":0.1080692782998085,"170":0.09857060015201569,"171":0.12406252324581146,"172":-0.08295992761850357,"173":-0.15783317387104034,"174":0.16519485414028168,"175":0.009056749753654003,"176":0.14260314404964447,"177":0.08656305819749832,"178":0.09323578327894211,"179":-0.13229358196258545,"180":-0.17878872156143188,"181":-0.14467336237430573,"182":0.175290048122406,"183":-0.09554902464151382,"184":0.07547898590564728,"185":0.15447171032428741,"186":0.12894733250141144,"187":-0.024524236097931862,"188":0.19394934177398682,"189":-0.05294713005423546,"190":0.08397333323955536,"191":0.14070937037467957,"192":0.07997211068868637,"193":0.0024706271942704916,"194":0.08930749446153641,"195":0.12526389956474304,"196":-0.08741148561239243,"197":0.12724465131759644,"198":-0.09016107767820358,"199":-0.10308292508125305,"200":-0.03192776441574097,"201":0.09203391522169113,"202":0.1443415880203247,"203":0.08958624303340912,"204":-0.19115863740444183,"205":0.12296593189239502,"206":-0.10023834556341171,"207":-0.18187540769577026,"208":0.1832592487335205,"209":-0.11887551099061966,"210":-0.14430728554725647,"211":-0.06899335980415344,"212":-0.013781748712062836,"213":0.18320336937904358,"214":0.02344902977347374,"215":-0.09807325899600983,"216":0.14574705064296722,"217":0.03511238098144531,"218":-0.1690910905599594,"219":-0.06172531098127365,"220":0.014789925888180733,"221":-0.11178889870643616,"222":0.0642303004860878,"223":-0.13053813576698303,"224":0.18850867450237274,"225":0.09514942020177841,"226":0.15894345939159393,"227":-0.043334949761629105,"228":0.1669888198375702,"229":-0.10054384917020798,"230":-0.021095186471939087,"231":-0.1260780692100525,"232":-0.023423563688993454,"233":0.16859868168830872,"234":-0.11946746706962585,"235":0.06384109705686569,"236":-0.15497605502605438,"237":-0.12240413576364517,"238":-0.02886972203850746,"239":-0.09225983917713165,"240":0.15179091691970825,"241":-0.14038501679897308,"242":-0.07978048175573349,"243":-0.0220324844121933,"244":-0.10421448200941086,"245":-0.13779161870479584,"246":-0.12140324711799622,"247":0.18643119931221008,"248":-0.14750196039676666,"249":0.01930324360728264,"250":0.19565026462078094,"251":0.007707838434726,"252":-0.16234295070171356,"253":-0.09244351089000702,"254":-0.12687735259532928,"255":0.05365051329135895,"256":0.10794216394424438,"257":0.04466750845313072,"258":0.18413949012756348,"259":0.16531793773174286,"260":-0.18436002731323242,"261":0.0922744944691658,"262":-0.1056610494852066,"263":0.020347557961940765,"264":0.044858817011117935,"265":0.019471144303679466,"266":0.0696832537651062,"267":-0.0031231113243848085,"268":-0.004978355951607227,"269":0.06557685881853104,"270":0.14486880600452423,"271":0.061806462705135345,"272":0.12228317558765411,"273":-0.08402735739946365,"274":-0.05418744683265686,"275":-0.13330814242362976,"276":0.14393992722034454,"277":0.01702556200325489,"278":-0.0937630832195282,"279":0.031283993273973465,"280":0.18891695141792297,"281":-0.16421779990196228,"282":0.013452639803290367,"283":-0.17290857434272766,"284":-0.04202603921294212,"285":0.05345679074525833,"286":-0.04387078061699867,"287":0.01429360918700695,"288":0.023407675325870514,"289":0.056648463010787964,"290":-0.17487315833568573,"291":0.18670690059661865,"292":-0.18983277678489685,"293":0.03357226774096489,"294":0.07209952920675278,"295":0.12491882592439651,"296":-0.17523407936096191,"297":0.08842041343450546,"298":0.13502250611782074,"299":0.1829192191362381,"300":-0.047718390822410583,"301":-0.015291443094611168,"302":0.06969138979911804,"303":-0.08154361695051193,"304":0.01212367508560419,"305":0.05454251170158386,"306":0.18233509361743927,"307":0.1266666203737259,"308":0.06346195936203003,"309":-0.04041965305805206,"310":-0.10609962791204453,"311":0.010143746621906757,"312":-0.13119220733642578,"313":0.1605047881603241,"314":-0.10605814307928085,"315":0.025477778166532516,"316":0.051565539091825485,"317":-0.10687155276536942,"318":-0.06192661449313164,"319":0.19763803482055664,"320":0.17478449642658234,"321":0.11639348417520523,"322":0.06017917022109032,"323":0.12960128486156464,"324":-0.17230261862277985,"325":0.14174842834472656,"326":0.07824515551328659,"327":-0.07076719403266907,"328":0.18512043356895447,"329":-0.13726484775543213,"330":-0.07416011393070221,"331":-0.13472537696361542,"332":0.07626566290855408,"333":-0.008883999660611153,"334":-0.10533015429973602,"335":-0.12485143542289734,"336":0.11952633410692215,"337":0.18379956483840942,"338":-0.07111038267612457,"339":0.12469101697206497,"340":0.07260656356811523,"341":0.18905013799667358,"342":0.1778564602136612,"343":0.022808237001299858,"344":0.09338568150997162,"345":0.012615927495062351,"346":-0.0658252015709877,"347":-0.14289572834968567,"348":0.1824527382850647,"349":0.1638573706150055,"350":0.1674724966287613,"351":-0.12050437182188034,"352":0.12623703479766846,"353":0.01638410985469818,"354":-0.1352992206811905,"355":-0.05233114957809448,"356":-0.017611254006624222,"357":0.06938198208808899,"358":-0.17376752197742462,"359":-0.12640933692455292,"360":-0.11464190483093262,"361":-0.041983895003795624,"362":0.08012082427740097,"363":-0.18655182421207428,"364":0.06607114523649216,"365":-0.030758947134017944,"366":0.12680858373641968,"367":0.1312592774629593,"368":0.09446107596158981,"369":0.14323759078979492,"370":-0.08702348172664642,"371":0.1781139075756073,"372":0.03459277004003525,"373":-0.18867142498493195,"374":-0.17108723521232605,"375":0.17461633682250977,"376":0.0653705969452858,"377":0.13312406837940216,"378":-0.08665680140256882,"379":0.18468543887138367,"380":-0.1366335153579712,"381":0.05593828856945038,"382":-0.006674338132143021,"383":0.1526966094970703,"384":0.02070465311408043,"385":0.18336604535579681,"386":0.0890234038233757,"387":-0.171036034822464,"388":-0.0031509536784142256,"389":-0.0380285270512104,"390":0.06254798173904419,"391":0.0023293618578463793,"392":-0.045151449739933014,"393":-0.12322059273719788,"394":0.16126489639282227,"395":-0.17985238134860992,"396":0.1395774483680725,"397":-0.15728622674942017,"398":-0.09598855674266815,"399":-0.009769597090780735,"400":0.0816236287355423,