{"sizes":[4,20,20,1],"layers":[{"0":{},"1":{},"2":{},"3":{}},{"0":{"bias":-0.024455534294247627,"weights":{"0":0.13882918655872345,"1":-0.021988917142152786,"2":0.1842847764492035,"3":-0.028592102229595184}},"1":{"bias":-0.11546141654253006,"weights":{"0":0.007592040114104748,"1":-0.09355660527944565,"2":-0.010387588292360306,"3":0.10914774984121323}},"2":{"bias":0.09371963888406754,"weights":{"0":-0.0176205076277256,"1":-0.05484846606850624,"2":-0.15201595425605774,"3":0.07910852879285812}},"3":{"bias":0.12263031303882599,"weights":{"0":-0.04789534583687782,"1":0.007087727542966604,"2":-0.050506461411714554,"3":-0.09406393021345139}},"4":{"bias":-0.18133136630058289,"weights":{"0":0.1100664883852005,"1":-0.17528903484344482,"2":-0.14435391128063202,"3":-0.0426269993185997}},"5":{"bias":0.026153603568673134,"weights":{"0":0.07846815139055252,"1":0.15043945610523224,"2":-0.0494547002017498,"3":-0.16857795417308807}},"6":{"bias":0.07318739593029022,"weights":{"0":0.06733856350183487,"1":-0.1516515016555786,"2":0.11115986853837967,"3":-0.15316203236579895}},"7":{"bias":-0.058686673641204834,"weights":{"0":-0.1650049388408661,"1":-0.11859110742807388,"2":-0.1649172306060791,"3":0.07091573625802994}},"8":{"bias":-0.11264441162347794,"weights":{"0":0.13755646347999573,"1":-0.056040581315755844,"2":-0.13987745344638824,"3":0.1959296315908432}},"9":{"bias":0.17884092032909393,"weights":{"0":-0.05087852478027344,"1":-0.11427873373031616,"2":0.19140669703483582,"3":-0.09392903000116348}},"10":{"bias":-0.0575631782412529,"weights":{"0":0.09777810424566269,"1":0.08682743459939957,"2":-0.028075357899069786,"3":0.18261291086673737}},"11":{"bias":0.14861956238746643,"weights":{"0":0.1899193525314331,"1":-0.11444022506475449,"2":-0.050122909247875214,"3":0.025340359658002853}},"12":{"bias":0.16634626686573029,"weights":{"0":0.10898224264383316,"1":-0.08552060276269913,"2":0.13234172761440277,"3":0.15574395656585693}},"13":{"bias":-0.1327734887599945,"weights":{"0":0.0003678870853036642,"1":0.04017776623368263,"2":0.00508404104039073,"3":-0.1345415711402893}},"14":{"bias":0.1858210265636444,"weights":{"0":0.10647840797901154,"1":0.17629976570606232,"2":0.11816919595003128,"3":0.1141229048371315}},"15":{"bias":0.1012752577662468,"weights":{"0":-0.0990404486656189,"1":0.19368430972099304,"2":0.1326371133327484,"3":0.12281494587659836}},"16":{"bias":0.0597175657749176,"weights":{"0":-0.10568955540657043,"1":0.049533478915691376,"2":-0.04421648755669594,"3":-0.19241872429847717}},"17":{"bias":-0.014620902016758919,"weights":{"0":0.13629397749900818,"1":0.09657397121191025,"2":-0.11355862021446228,"3":-0.1712837517261505}},"18":{"bias":0.10939321666955948,"weights":{"0":0.015774443745613098,"1":-0.10620197653770447,"2":-0.021362029016017914,"3":-0.19259102642536163}},"19":{"bias":-0.03931879997253418,"weights":{"0":-0.15329305827617645,"1":0.1130189448595047,"2":-0.13293278217315674,"3":0.0029172482900321484}}},{"0":{"bias":-0.3589320480823517,"weights":{"0":-0.5103026032447815,"1":-0.13195990025997162,"2":-0.1970362365245819,"3":0.016583122313022614,"4":0.06807064265012741,"5":0.16962763667106628,"6":-0.3839382827281952,"7":-0.09678522497415543,"8":0.052940890192985535,"9":-0.6453629732131958,"10":-0.1628458946943283,"11":0.15061825513839722,"12":-0.5945414304733276,"13":-0.2643604874610901,"14":-0.44290146231651306,"15":-0.37807705998420715,"16":-0.023675289005041122,"17":0.0725092813372612,"18":-0.03317173942923546,"19":-0.021096982061862946}},"1":{"bias":-0.4587225615978241,"weights":{"0":-0.4505031704902649,"1":0.13929779827594757,"2":-0.15896892547607422,"3":0.15357033908367157,"4":-0.080073282122612,"5":0.05364333093166351,"6":-0.36063241958618164,"7":0.15905402600765228,"8":0.18741942942142487,"9":-0.6773999333381653,"10":0.19477397203445435,"11":-0.04948432743549347,"12":-0.38479387760162354,"13":-0.5262072086334229,"14":-0.4145392179489136,"15":-0.3033980131149292,"16":0.1571088433265686,"17":0.1682245284318924,"18":0.17919796705245972,"19":-0.12193645536899567}},"2":{"bias":-0.31945857405662537,"weights":{"0":-0.4541608691215515,"1":0.013830774463713169,"2":0.17757029831409454,"3":0.11161159723997116,"4":-0.13356775045394897,"5":-0.16023848950862885,"6":-0.35874590277671814,"7":-0.04021688923239708,"8":0.011465927585959435,"9":-0.5935781598091125,"10":-0.1648169755935669,"11":-0.0853499174118042,"12":-0.35535335540771484,"13":-0.5266835689544678,"14":-0.5074235796928406,"15":-0.460643470287323,"16":-0.11981219798326492,"17":-0.0172137338668108,"18":0.16531378030776978,"19":-0.1357802301645279}},"3":{"bias":-0.5043440461158752,"weights":{"0":-0.5057442784309387,"1":-0.028210630640387535,"2":0.005534873344004154,"3":-0.10802021622657776,"4":0.1342954784631729,"5":0.003963731694966555,"6":-0.2353362739086151,"7":-0.10041113942861557,"8":-0.06378661841154099,"9":-0.5413931012153625,"10":-0.11870735138654709,"11":0.16629111766815186,"12":-0.37882301211357117,"13":-0.37579086422920227,"14":-0.5407393574714661,"15":-0.49964824318885803,"16":0.08279072493314743,"17":-0.19391438364982605,"18":0.18845544755458832,"19":0.02947351709008217}},"4":{"bias":-0.38947197794914246,"weights":{"0":-0.3367707133293152,"1":0.17910166084766388,"2":0.10534264892339706,"3":0.10393514484167099,"4":0.17404337227344513,"5":0.1410875916481018,"6":-0.366050660610199,"7":0.06986603885889053,"8":0.015066090039908886,"9":-0.5202648639678955,"10":0.19927796721458435,"11":-0.1329413652420044,"12":-0.3405604362487793,"13":-0.6223952174186707,"14":-0.5187159776687622,"15":-0.48448753356933594,"16":0.19694772362709045,"17":0.15949572622776031,"18":0.05785404518246651,"19":-0.030468052253127098}},"5":{"bias":-0.5849525928497314,"weights":{"0":-0.422844260931015,"1":0.0041585261933505535,"2":0.06889506429433823,"3":0.05906040593981743,"4":-0.14304488897323608,"5":-0.057316821068525314,"6":-0.29954731464385986,"7":0.16529914736747742,"8":0.06609569489955902,"9":-0.3455381691455841,"10":0.09663733839988708,"11":0.021441547200083733,"12":-0.5232886672019958,"13":-0.49560078978538513,"14":-0.6231265664100647,"15":-0.2817164361476898,"16":0.03753796964883804,"17":-0.1639271080493927,"18":-0.1671544313430786,"19":0.18679095804691315}},"6":{"bias":-0.13589917123317719,"weights":{"0":-0.4632941484451294,"1":-0.04968878999352455,"2":-0.18427573144435883,"3":0.19781725108623505,"4":0.005934308748692274,"5":-0.04886779189109802,"6":-0.509617269039154,"7":-0.1690952181816101,"8":-0.09093300998210907,"9":-0.5061671733856201,"10":0.16344118118286133,"11":0.12078947573900223,"12":-0.5635476112365723,"13":-0.5404289960861206,"14":-0.5564565062522888,"15":-0.30939772725105286,"16":-0.1596767157316208,"17":0.0030172390397638083,"18":0.12005298584699631,"19":0.1619637906551361}},"7":{"bias":-0.49266746640205383,"weights":{"0":-0.528605580329895,"1":-0.022593174129724503,"2":-0.1600079983472824,"3":0.15499745309352875,"4":0.032572947442531586,"5":0.12268079817295074,"6":-0.23330239951610565,"7":-0.1586105227470398,"8":-0.011931637302041054,"9":-0.5602168440818787,"10":0.14851908385753632,"11":-0.00912090577185154,"12":-0.3281775414943695,"13":-0.4790504276752472,"14":-0.4379117488861084,"15":-0.5188066959381104,"16":-0.0521434061229229,"17":0.12178333103656769,"18":-0.021429728716611862,"19":0.06598043441772461}},"8":{"bias":-0.24786274135112762,"weights":{"0":-0.6376383900642395,"1":0.06510699540376663,"2":-0.1406545341014862,"3":-0.16109168529510498,"4":-0.06348312646150589,"5":-0.11113066971302032,"6":-0.5559981465339661,"7":0.039246536791324615,"8":-0.1118803396821022,"9":-0.5671512484550476,"10":0.07068555057048798,"11":-0.11934052407741547,"12":-0.30705559253692627,"13":-0.39230218529701233,"14":-0.3023304045200348,"15":-0.5676220655441284,"16":-0.03030371107161045,"17":-0.024759037420153618,"18":0.008208352141082287,"19":-0.10728302597999573}},"9":{"bias":-0.4321327209472656,"weights":{"0":-0.3428281545639038,"1":-0.19244642555713654,"2":0.00616459222510457,"3":0.002878522267565131,"4":0.07841459661722183,"5":-0.11289810389280319,"6":-0.3936149477958679,"7":-0.05286727845668793,"8":0.11861204355955124,"9":-0.5374805331230164,"10":-0.15715113282203674,"11":0.09334252774715424,"12":-0.3902058005332947,"13":-0.5921202301979065,"14":-0.46210289001464844,"15":-0.4302453398704529,"16":-0.18499164283275604,"17":0.1575111746788025,"18":0.007051984313875437,"19":0.18883240222930908}},"10":{"bias":-0.33372411131858826,"weights":{"0":-0.642045259475708,"1":0.04794212430715561,"2":0.02449946478009224,"3":-0.03823120519518852,"4":-0.048985742032527924,"5":0.05416492745280266,"6":-0.48081067204475403,"7":-0.140352264046669,"8":0.09227313846349716,"9":-0.3560355007648468,"10":0.14619626104831696,"11":0.13355760276317596,"12":-0.3774702250957489,"13":-0.44675734639167786,"14":-0.5679320693016052,"15":-0.37418290972709656,"16":-0.05200302228331566,"17":0.05842132493853569,"18":-0.023037826642394066,"19":-0.14142172038555145}},"11":{"bias":-0.4183543920516968,"weights":{"0":-0.3307957649230957,"1":-0.13580064475536346,"2":0.038033340126276016,"3":0.003936342429369688,"4":-0.13073192536830902,"5":0.17235232889652252,"6":-0.6072753667831421,"7":-0.19309407472610474,"8":0.16980381309986115,"9":-0.619417667388916,"10":-0.12136202305555344,"11":0.02336890622973442,"12":-0.33898311853408813,"13":-0.2953839600086212,"14":-0.6135996580123901,"15":-0.3539196252822876,"16":-0.1624542474746704,"17":-0.053845927119255066,"18":-0.15239906311035156,"19":0.10563936084508896}},"12":{"bias":-0.25954023003578186,"weights":{"0":-0.3492128849029541,"1":0.013531213626265526,"2":0.030131740495562553,"3":-0.04803071543574333,"4":-0.09640499949455261,"5":0.17466573417186737,"6":-0.33622801303863525,"7":-0.11934255808591843,"8":-0.1913711428642273,"9":-0.4170163869857788,"10":0.03361567482352257,"11":0.16705560684204102,"12":-0.6304928660392761,"13":-0.3182310461997986,"14":-0.5939974784851074,"15":-0.6725330352783203,"16":0.15188492834568024,"17":0.19673405587673187,"18":-0.12198939919471741,"19":0.18206347525119781}},"13":{"bias":-0.458522230386734,"weights":{"0":-0.6038711667060852,"1":0.18179675936698914,"2":0.025109346956014633,"3":-0.07262419909238815,"4":-0.1441473811864853,"5":-0.15217171609401703,"6":-0.42700326442718506,"7":0.11736936122179031,"8":0.17551182210445404,"9":-0.4266655445098877,"10":-0.014805312268435955,"11":0.07171052694320679,"12":-0.2578100264072418,"13":-0.5369186401367188,"14":-0.5698394179344177,"15":-0.2999231815338135,"16":0.16063039004802704,"17":-0.035145070403814316,"18":-0.11549960821866989,"19":-0.036155302077531815}},"14":{"bias":-0.25101974606513977,"weights":{"0":-0.5705539584159851,"1":-0.20033279061317444,"2":-0.09071148186922073,"3":0.1312871128320694,"4":0.1744038313627243,"5":-0.18915890157222748,"6":-0.6782824397087097,"7":-0.14859066903591156,"8":-0.1967715322971344,"9":-0.44585302472114563,"10":-0.08128870278596878,"11":-0.01560183335095644,"12":-0.5890797972679138,"13":-0.32443782687187195,"14":-0.3627444803714752,"15":-0.35511693358421326,"16":0.1495027095079422,"17":0.05762701481580734,"18":0.08979177474975586,"19":-0.058219946920871735}},"15":{"bias":-0.30108630657196045,"weights":{"0":-0.2550186514854431,"1":-0.18487097322940826,"2":-0.16970595717430115,"3":-0.022286999970674515,"4":0.08374320715665817,"5":-0.16288892924785614,"6":-0.595134973526001,"7":-0.02903459034860134,"8":0.11161311715841293,"9":-0.5313194990158081,"10":-0.1387498378753662,"11":0.039090242236852646,"12":-0.45672863721847534,"13":-0.5555102825164795,"14":-0.2851627469062805,"15":-0.6006181836128235,"16":-0.01453983411192894,"17":-0.0894237831234932,"18":-0.06181291118264198,"19":-0.18916253745555878}},"16":{"bias":-0.377341091632843,"weights":{"0":-0.5596495270729065,"1":-0.08340255916118622,"2":-0.09723300486803055,"3":-0.03726048395037651,"4":-0.14089174568653107,"5":-0.07019459456205368,"6":-0.35782498121261597,"7":0.14991237223148346,"8":-0.11541575193405151,"9":-0.3225289583206177,"10":0.10079340636730194,"11":-0.17613686621189117,"12":-0.5258026719093323,"13":-0.35709458589553833,"14":-0.5113998055458069,"15":-0.5643822550773621,"16":-0.08038223534822464,"17":0.10554678738117218,"18":0.025270609185099602,"19":0.0009058615542016923}},"17":{"bias":-0.40649592876434326,"weights":{"0":-0.3591511845588684,"1":-0.03146788850426674,"2":-0.06265377998352051,"3":0.1961377114057541,"4":-0.1925792396068573,"5":0.15871864557266235,"6":-0.4257380962371826,"7":0.16086873412132263,"8":0.10803168267011642,"9":-0.4731252193450928,"10":-0.16733838617801666,"11":-0.08784164488315582,"12":-0.42059022188186646,"13":-0.5399569869041443,"14":-0.31841498613357544,"15":-0.6316943168640137,"16":-0.08809523284435272,"17":-0.18692539632320404,"18":-0.06059769168496132,"19":0.138517826795578}},"18":{"bias":-0.3753848671913147,"weights":{"0":-0.5061211585998535,"1":-0.18519227206707,"2":0.10415195673704147,"3":-0.0761798694729805,"4":-0.06606008112430573,"5":0.04633421078324318,"6":-0.6229429244995117,"7":0.1671661138534546,"8":0.047992855310440063,"9":-0.4743098318576813,"10":0.15748873353004456,"11":0.034949351102113724,"12":-0.4338928163051605,"13":-0.30887168645858765,"14":-0.35049083828926086,"15":-0.5057015419006348,"16":0.01752787083387375,"17":-0.05926471948623657,"18":0.13145287334918976,"19":0.14141596853733063}},"19":{"bias":-0.28440067172050476,"weights":{"0":-0.5476919412612915,"1":0.1562003195285797,"2":0.17193491756916046,"3":0.021259427070617676,"4":-0.1904982328414917,"5":0.07465418428182602,"6":-0.33579862117767334,"7":-0.031772151589393616,"8":-0.138679638504982,"9":-0.4456455111503601,"10":0.043337736278772354,"11":0.016541747376322746,"12":-0.4617403447628021,"13":-0.4635789692401886,"14":-0.5667473077774048,"15":-0.46981585025787354,"16":0.07091034948825836,"17":0.1532151848077774,"18":0.0340069942176342,"19":-0.03932415321469307}}},{"0":{"bias":0.1210126206278801,"weights":{"0":-0.00633153785020113,"1":-0.0029960530810058117,"2":0.0022693576756864786,"3":0.00967319868505001,"4":-0.002757592359557748,"5":-0.0015967682702466846,"6":-0.010203692130744457,"7":-0.000050524093239801005,"8":-0.008032175712287426,"9":0.005549093708395958,"10":0.009645560756325722,"11":0.008624659851193428,"12":0.00011942470882786438,"13":0.012140054255723953,"14":-0.00767242768779397,"15":0.004055793397128582,"16":0.007892793975770473,"17":0.0022708293981850147,"18":0.01010061614215374,"19":0.0041097188368439674}}}],"outputLookup":false,"inputLookup":false,"activation":"sigmoid","trainOpts":{"iterations":20000,"errorThresh":0.005,"log":true,"logPeriod":10,"learningRate":0.3,"momentum":0.1,"callbackPeriod":10}}