{"sizes":[229,20,20,1],"layers":[{"0":{},"1":{},"2":{},"3":{},"4":{},"5":{},"6":{},"7":{},"8":{},"9":{},"10":{},"11":{},"12":{},"13":{},"14":{},"15":{},"16":{},"17":{},"18":{},"19":{},"20":{},"21":{},"22":{},"23":{},"24":{},"25":{},"26":{},"27":{},"28":{},"29":{},"30":{},"31":{},"32":{},"33":{},"34":{},"35":{},"36":{},"37":{},"38":{},"39":{},"40":{},"41":{},"42":{},"43":{},"44":{},"45":{},"46":{},"47":{},"48":{},"49":{},"50":{},"51":{},"52":{},"53":{},"54":{},"55":{},"56":{},"57":{},"58":{},"59":{},"60":{},"61":{},"62":{},"63":{},"64":{},"65":{},"66":{},"67":{},"68":{},"69":{},"70":{},"71":{},"72":{},"73":{},"74":{},"75":{},"76":{},"77":{},"78":{},"79":{},"80":{},"81":{},"82":{},"83":{},"84":{},"85":{},"86":{},"87":{},"88":{},"89":{},"90":{},"91":{},"92":{},"93":{},"94":{},"95":{},"96":{},"97":{},"98":{},"99":{},"100":{},"101":{},"102":{},"103":{},"104":{},"105":{},"106":{},"107":{},"108":{},"109":{},"110":{},"111":{},"112":{},"113":{},"114":{},"115":{},"116":{},"117":{},"118":{},"119":{},"120":{},"121":{},"122":{},"123":{},"124":{},"125":{},"126":{},"127":{},"128":{},"129":{},"130":{},"131":{},"132":{},"133":{},"134":{},"135":{},"136":{},"137":{},"138":{},"139":{},"140":{},"141":{},"142":{},"143":{},"144":{},"145":{},"146":{},"147":{},"148":{},"149":{},"150":{},"151":{},"152":{},"153":{},"154":{},"155":{},"156":{},"157":{},"158":{},"159":{},"160":{},"161":{},"162":{},"163":{},"164":{},"165":{},"166":{},"167":{},"168":{},"169":{},"170":{},"171":{},"172":{},"173":{},"174":{},"175":{},"176":{},"177":{},"178":{},"179":{},"180":{},"181":{},"182":{},"183":{},"184":{},"185":{},"186":{},"187":{},"188":{},"189":{},"190":{},"191":{},"192":{},"193":{},"194":{},"195":{},"196":{},"197":{},"198":{},"199":{},"200":{},"201":{},"202":{},"203":{},"204":{},"205":{},"206":{},"207":{},"208":{},"209":{},"210":{},"211":{},"212":{},"213":{},"214":{},"215":{},"216":{},"217":{},"218":{},"219":{},"220":{},"221":{},"222":{},"223":{},"224":{},"225":{},"226":{},"227":{},"228":{}},{"0":{"bias":-0.1703343540430069,"weights":{"0":-0.0834212377667427,"1":0.1005813404917717,"2":-0.031207846477627754,"3":0.11786169558763504,"4":-0.0746600553393364,"5":0.07656097412109375,"6":-0.15349873900413513,"7":-0.12668780982494354,"8":-0.04118732735514641,"9":0.14808769524097443,"10":0.06024525314569473,"11":-0.012090383097529411,"12":0.11153298616409302,"13":-0.167819544672966,"14":-0.06733887642621994,"15":-0.159183070063591,"16":-0.052530720829963684,"17":-0.11594486981630325,"18":0.013582956977188587,"19":0.10912944376468658,"20":0.07437384873628616,"21":-0.025167040526866913,"22":0.02425895258784294,"23":0.17645464837551117,"24":-0.1870643049478531,"25":-0.02571098320186138,"26":0.09485585242509842,"27":0.10298873484134674,"28":0.18426485359668732,"29":0.10465854406356812,"30":-0.08920637518167496,"31":-0.057349614799022675,"32":0.0711810439825058,"33":0.13189010322093964,"34":-0.1450965255498886,"35":0.1486406773328781,"36":0.11884547024965286,"37":0.11925522983074188,"38":0.13917852938175201,"39":-0.15162146091461182,"40":0.023126183077692986,"41":0.020153891295194626,"42":0.053633999079465866,"43":0.18562844395637512,"44":-0.11811581999063492,"45":-0.06168524548411369,"46":-0.007971834391355515,"47":0.12350377440452576,"48":-0.05609232932329178,"49":0.12693530321121216,"50":-0.018044903874397278,"51":-0.11574754863977432,"52":0.008196443319320679,"53":-0.14546558260917664,"54":0.09665028005838394,"55":-0.17802774906158447,"56":-0.0004184751014690846,"57":-0.19590552151203156,"58":0.08228344470262527,"59":-0.1986011415719986,"60":0.008355318568646908,"61":0.10030839592218399,"62":-0.040184326469898224,"63":0.08590240031480789,"64":0.019492926076054573,"65":-0.12118399143218994,"66":-0.19250714778900146,"67":0.1762910783290863,"68":-0.022797927260398865,"69":-0.018851183354854584,"70":0.09365082532167435,"71":0.040230344980955124,"72":0.017466649413108826,"73":0.11837667971849442,"74":-0.12084554135799408,"75":-0.034425634890794754,"76":0.060520440340042114,"77":-0.12732720375061035,"78":0.06542354077100754,"79":0.1029142513871193,"80":0.13602040708065033,"81":-0.18670476973056793,"82":0.053185250610113144,"83":0.05439146235585213,"84":-0.0309592392295599,"85":0.06626241654157639,"86":-0.002379601588472724,"87":-0.020570261403918266,"88":0.10846260190010071,"89":0.028678501024842262,"90":0.00004794567576027475,"91":-0.16975542902946472,"92":-0.08594179153442383,"93":-0.04113416373729706,"94":0.000930291716940701,"95":0.1888466328382492,"96":-0.028383459895849228,"97":-0.1568027138710022,"98":0.12017827481031418,"99":-0.19839361310005188,"100":-0.08431794494390488,"101":0.12505149841308594,"102":0.05838623270392418,"103":0.028750509023666382,"104":0.07072262465953827,"105":-0.12337519228458405,"106":-0.016669614240527153,"107":0.11573326587677002,"108":-0.14985962212085724,"109":-0.18039166927337646,"110":-0.18199168145656586,"111":0.04065040498971939,"112":-0.09234738349914551,"113":0.012170297093689442,"114":-0.13548986613750458,"115":-0.1859472244977951,"116":-0.028997035697102547,"117":0.0888129472732544,"118":0.14792221784591675,"119":-0.02267744392156601,"120":0.11695479601621628,"121":0.02315375953912735,"122":0.1808619201183319,"123":-0.06642090529203415,"124":-0.08657955378293991,"125":0.15398187935352325,"126":-0.18644560873508453,"127":-0.049455676227808,"128":0.14483048021793365,"129":0.1759965866804123,"130":0.129730224609375,"131":-0.09904792904853821,"132":0.12325901538133621,"133":-0.09126143157482147,"134":-0.025840986520051956,"135":-0.1344168335199356,"136":-0.16031688451766968,"137":0.17404931783676147,"138":-0.19044055044651031,"139":-0.07273988425731659,"140":0.028814230114221573,"141":-0.16417339444160461,"142":0.018390508368611336,"143":0.05801624804735184,"144":-0.05961497128009796,"145":-0.11235306411981583,"146":0.018986999988555908,"147":-0.051696691662073135,"148":-0.0701708272099495,"149":-0.1979125589132309,"150":-0.10948959738016129,"151":-0.13334043323993683,"152":0.10971060395240784,"153":-0.20273590087890625,"154":-0.204679936170578,"155":0.016135012730956078,"156":-0.19332268834114075,"157":-0.167380690574646,"158":-0.009722520597279072,"159":0.09535587579011917,"160":0.16735845804214478,"161":-0.005919626913964748,"162":0.1431422233581543,"163":-0.10105154663324356,"164":-0.15956009924411774,"165":0.08195579051971436,"166":0.08254591375589371,"167":-0.04255712777376175,"168":-0.01885073632001877,"169":0.04012473300099373,"170":0.11358645558357239,"171":-0.035340264439582825,"172":-0.0692615881562233,"173":0.066325344145298,"174":-0.20675642788410187,"175":0.056565627455711365,"176":0.009279708378016949,"177":-0.10602559894323349,"178":0.04777001589536667,"179":-0.10323149710893631,"180":-0.18434470891952515,"181":-0.04402625188231468,"182":0.028034206479787827,"183":0.06282401829957962,"184":-0.061841823160648346,"185":0.054591257125139236,"186":-0.04445628449320793,"187":0.11467666923999786,"188":0.04471948370337486,"189":0.15801693499088287,"190":0.18201234936714172,"191":0.043021511286497116,"192":-0.13144224882125854,"193":0.11144107580184937,"194":0.14852143824100494,"195":0.1452094167470932,"196":-0.08398670703172684,"197":-0.13908235728740692,"198":-0.08973389863967896,"199":0.11035667359828949,"200":0.10587308555841446,"201":0.17790661752223969,"202":-0.08636459708213806,"203":-0.14203116297721863,"204":-0.13734841346740723,"205":-0.06142854690551758,"206":0.09400603175163269,"207":0.046998489648103714,"208":-0.1250637024641037,"209":-0.17373792827129364,"210":-0.17739002406597137,"211":0.08048370480537415,"212":-0.13683708012104034,"213":-0.0049819909036159515,"214":-0.13187958300113678,"215":-0.1720542013645172,"216":0.16969899833202362,"217":0.11292045563459396,"218":0.1825646311044693,"219":-0.1394069492816925,"220":0.07929904013872147,"221":0.008713182993233204,"222":-0.011228879913687706,"223":0.0520377941429615,"224":0.12047532200813293,"225":-0.036408018320798874,"226":0.060797397047281265,"227":-0.22975219786167145,"228":-0.01155576016753912}},"1":{"bias":0.005128310061991215,"weights":{"0":0.0948413759469986,"1":0.0705757588148117,"2":-0.11585810780525208,"3":-0.04099101945757866,"4":0.1062142550945282,"5":0.03221728652715683,"6":-0.1176191195845604,"7":0.03225914016366005,"8":-0.08994520455598831,"9":0.027581876143813133,"10":-0.18716298043727875,"11":0.09887360036373138,"12":-0.12282286584377289,"13":0.1584879457950592,"14":-0.13941887021064758,"15":0.14731566607952118,"16":0.06993135064840317,"17":-0.07565516978502274,"18":-0.033536817878484726,"19":-0.08258622884750366,"20":0.05158204212784767,"21":0.1696324646472931,"22":-0.21043363213539124,"23":0.00402813171967864,"24":0.1631121188402176,"25":-0.06739890575408936,"26":-0.17451822757720947,"27":0.005058364011347294,"28":0.14915895462036133,"29":-0.08741916716098785,"30":-0.08550155162811279,"31":0.14880886673927307,"32":-0.19742654263973236,"33":-0.016431115567684174,"34":-0.003880913369357586,"35":-0.15173055231571198,"36":-0.13390696048736572,"37":-0.19902878999710083,"38":0.1307980865240097,"39":0.16406512260437012,"40":0.17139631509780884,"41":-0.2025490403175354,"42":-0.1729438751935959,"43":-0.08533304184675217,"44":0.017998578026890755,"45":-0.18201112747192383,"46":-0.0850955918431282,"47":-0.11166799813508987,"48":-0.19846822321414948,"49":0.17478780448436737,"50":0.04176672548055649,"51":0.09330640733242035,"52":0.03313920274376869,"53":-0.14573627710342407,"54":-0.08585496246814728,"55":-0.18038491904735565,"56":-0.12438371032476425,"57":0.02437541075050831,"58":-0.13637693226337433,"59":0.1788174957036972,"60":0.16005483269691467,"61":-0.04198748245835304,"62":0.18173407018184662,"63":0.17598550021648407,"64":-0.17820462584495544,"65":0.09539122879505157,"66":-0.15575063228607178,"67":0.05749622359871864,"68":0.023227911442518234,"69":-0.21260561048984528,"70":-0.05290982872247696,"71":0.182261660695076,"72":-0.16574512422084808,"73":0.16774092614650726,"74":-0.15588293969631195,"75":-0.06730284541845322,"76":-0.017337365075945854,"77":0.07448916882276535,"78":-0.03698129579424858,"79":0.09296506643295288,"80":0.010486369952559471,"81":-0.11886125802993774,"82":0.14189046621322632,"83":0.1068614199757576,"84":0.12633177638053894,"85":0.06954361498355865,"86":-0.11015228182077408,"87":0.085467129945755,"88":0.1785270720720291,"89":0.17494846880435944,"90":0.06452862173318863,"91":-0.03333155810832977,"92":0.16125960648059845,"93":-0.09466028958559036,"94":-0.18587857484817505,"95":-0.06242340803146362,"96":0.030033854767680168,"97":-0.01699724607169628,"98":-0.1718859076499939,"99":-0.10887853056192398,"100":-0.023034030571579933,"101":0.08642201870679855,"102":-0.07289785146713257,"103":0.1483112871646881,"104":0.16281302273273468,"105":-0.050869327038526535,"106":-0.12536346912384033,"107":0.15259520709514618,"108":0.055006034672260284,"109":0.15491099655628204,"110":-0.14294637739658356,"111":0.057046402245759964,"112":-0.1603051722049713,"113":-0.031908221542835236,"114":0.025884639471769333,"115":-0.15564501285552979,"116":0.1753198504447937,"117":0.0758841410279274,"118":-0.07317754626274109,"119":-0.14357033371925354,"120":0.16703954339027405,"121":0.06580697745084763,"122":0.13363710045814514,"123":-0.06082114204764366,"124":-0.0715826079249382,"125":0.04568391293287277,"126":0.1222858652472496,"127":0.1841420978307724,"128":-0.16167177259922028,"129":0.1739109456539154,"130":0.17008256912231445,"131":-0.1245182678103447,"132":0.003984211944043636,"133":0.08205755054950714,"134":-0.21212008595466614,"135":-0.08598029613494873,"136":0.17453429102897644,"137":-0.18739670515060425,"138":0.1773238629102707,"139":0.12593242526054382,"140":-0.16261020302772522,"141":-0.041650161147117615,"142":-0.09868811815977097,"143":-0.028866352513432503,"144":0.06377441436052322,"145":-0.20702522993087769,"146":-0.1959538459777832,"147":0.15437249839305878,"148":-0.17035061120986938,"149":0.06259752810001373,"150":-0.16889938712120056,"151":-0.061296191066503525,"152":-0.11626703292131424,"153":-0.19918492436408997,"154":-0.020038343966007233,"155":0.026536809280514717,"156":-0.1575699746608734,"157":-0.20726288855075836,"158":-0.0718194991350174,"159":0.07403045892715454,"160":0.1303144246339798,"161":-0.18209677934646606,"162":0.003774102311581373,"163":0.03129537031054497,"164":-0.09597129374742508,"165":0.1717062145471573,"166":0.11820065230131149,"167":0.10482810437679291,"168":0.0742756649851799,"169":-0.10262927412986755,"170":-0.05435776710510254,"171":0.034066129475831985,"172":0.0686776265501976,"173":-0.005917067173868418,"174":-0.007192328106611967,"175":0.08577907085418701,"176":-0.010939192958176136,"177":-0.1250794231891632,"178":0.07732093334197998,"179":-0.14058563113212585,"180":0.016151083633303642,"181":-0.04776500165462494,"182":-0.07126715779304504,"183":-0.07256492227315903,"184":0.08474081009626389,"185":0.09212080389261246,"186":0.11207963526248932,"187":-0.006298858672380447,"188":0.003916470799595118,"189":-0.0826801285147667,"190":-0.05075860023498535,"191":-0.07831443101167679,"192":0.08506804704666138,"193":0.0034637791104614735,"194":-0.12970878183841705,"195":-0.162690207362175,"196":0.0020498293451964855,"197":0.12757514417171478,"198":-0.055911410599946976,"199":-0.166348397731781,"200":0.12534329295158386,"201":0.17228944599628448,"202":-0.09873732924461365,"203":0.16385158896446228,"204":0.16330020129680634,"205":-0.07273273169994354,"206":-0.022817302495241165,"207":0.1618204265832901,"208":-0.09183308482170105,"209":-0.13450925052165985,"210":0.14938987791538239,"211":-0.1689656525850296,"212":-0.18915502727031708,"213":-0.0356253907084465,"214":0.0674828439950943,"215":0.05209922790527344,"216":-0.05651918426156044,"217":-0.14182059466838837,"218":-0.01888446696102619,"219":-0.04649341106414795,"220":0.11508060246706009,"221":0.12393981963396072,"222":0.08932337164878845,"223":-0.09135787934064865,"224":0.04137258231639862,"225":-0.04466172680258751,"226":-0.18609631061553955,"227":0.04425240680575371,"228":0.0809912160038948}},"2":{"bias":-0.1816551238298416,"weights":{"0":0.08980292081832886,"1":0.07955989986658096,"2":-0.014697338454425335,"3":0.11460775136947632,"4":0.020535945892333984,"5":0.15961091220378876,"6":0.15173028409481049,"7":-0.10560593008995056,"8":0.19660283625125885,"9":0.11595546454191208,"10":-0.03213715925812721,"11":0.13596689701080322,"12":-0.15692764520645142,"13":0.05115237832069397,"14":-0.08869168907403946,"15":-0.021894589066505432,"16":0.04339190199971199,"17":0.18609276413917542,"18":0.15826572477817535,"19":0.040908586233854294,"20":-0.15693871676921844,"21":-0.09429671615362167,"22":-0.02098398469388485,"23":-0.08371315151453018,"24":-0.0188046395778656,"25":0.00830319058150053,"26":0.14029386639595032,"27":-0.055083319544792175,"28":0.16729535162448883,"29":0.19236625730991364,"30":0.14998392760753632,"31":-0.1845942884683609,"32":-0.1029246374964714,"33":0.14945363998413086,"34":-0.03984404727816582,"35":0.0802169069647789,"36":-0.09261275827884674,"37":0.039441321045160294,"38":-0.11856859177350998,"39":0.15696728229522705,"40":-0.046768516302108765,"41":-0.14943356812000275,"42":0.14487296342849731,"43":-0.018398644402623177,"44":0.006538584362715483,"45":0.0895809605717659,"46":-0.1099814921617508,"47":-0.15815342962741852,"48":-0.1449313908815384,"49":-0.025681979954242706,"50":-0.0636303648352623,"51":0.15511412918567657,"52":-0.044299013912677765,"53":-0.0015574408462271094,"54":0.016274288296699524,"55":-0.08968090265989304,"56":-0.14457036554813385,"57":-0.164221853017807,"58":-0.056952763348817825,"59":0.12212979793548584,"60":0.16280026733875275,"61":0.04930775985121727,"62":0.1688529998064041,"63":0.016731860116124153,"64":0.031489741057157516,"65":-0.12382220476865768,"66":-0.15892480313777924,"67":-0.18751612305641174,"68":-0.09854666143655777,"69":0.19762632250785828,"70":0.019707705825567245,"71":-0.18770377337932587,"72":0.004201489966362715,"73":-0.12434960156679153,"74":0.17840228974819183,"75":0.01569633185863495,"76":0.02190593257546425,"77":0.004702767822891474,"78":-0.1317557394504547,"79":0.09293049573898315,"80":-0.06719968467950821,"81":-0.1855928748846054,"82":-0.043836504220962524,"83":-0.19102905690670013,"84":-0.03778256103396416,"85":0.0804356262087822,"86":-0.11624054610729218,"87":0.19059139490127563,"88":0.030976083129644394,"89":0.10713044553995132,"90":-0.15410774946212769,"91":0.05313856527209282,"92":-0.07674511522054672,"93":0.017566852271556854,"94":0.13897378742694855,"95":0.12060729414224625,"96":-0.007711394224315882,"97":-0.05262032896280289,"98":-0.14636538922786713,"99":-0.023125795647501945,"100":0.0595720112323761,"101":0.18853284418582916,"102":0.11924850195646286,"103":-0.03493008390069008,"104":-0.12385339289903641,"105":-0.0050008404068648815,"106":0.16651663184165955,"107":-0.0814148485660553,"108":0.14613226056098938,"109":-0.007730216719210148,"110":-0.15508903563022614,"111":0.12820300459861755,"112":-0.1898331493139267,"113":0.06598170846700668,"114":-0.09284042567014694,"115":0.1958674192428589,"116":0.16656196117401123,"117":0.15331652760505676,"118":-0.1971525251865387,"119":-0.10275381058454514,"120":-0.009124529547989368,"121":-0.06448756158351898,"122":-0.06566235423088074,"123":-0.1666453629732132,"124":-0.14478063583374023,"125":-0.1876724362373352,"126":0.09362731873989105,"127":-0.054604869335889816,"128":-0.022104507312178612,"129":0.14876694977283478,"130":-0.05680999904870987,"131":-0.009181025438010693,"132":0.04763441160321236,"133":0.14844894409179688,"134":0.010746209882199764,"135":0.08405309915542603,"136":-0.11861700564622879,"137":-0.030416810885071754,"138":0.06833474338054657,"139":-0.10405796766281128,"140":0.08834530413150787,"141":0.04924028366804123,"142":0.025462258607149124,"143":-0.12923552095890045,"144":-0.04760144278407097,"145":-0.11281148344278336,"146":0.0036573009565472603,"147":-0.04088056832551956,"148":0.07025094330310822,"149":-0.04284481331706047,"150":-0.05878341570496559,"151":-0.05710874870419502,"152":-0.006849867291748524,"153":0.015702392905950546,"154":0.15989407896995544,"155":0.17172151803970337,"156":-0.16781693696975708,"157":0.15726803243160248,"158":-0.07435215264558792,"159":-0.1901601254940033,"160":0.10856432467699051,"161":0.005458001513034105,"162":0.18577314913272858,"163":0.0820840448141098,"164":-0.16730597615242004,"165":-0.0027316571213304996,"166":-0.02736932598054409,"167":0.08775244653224945,"168":0.00715309614315629,"169":0.020180974155664444,"170":-0.16517166793346405,"171":0.12468143552541733,"172":-0.12913520634174347,"173":0.1523587703704834,"174":0.09127853065729141,"175":-0.14112339913845062,"176":-0.07285504788160324,"177":-0.09599922597408295,"178":-0.09031486511230469,"179":0.1432081162929535,"180":-0.13138402998447418,"181":-0.06337814033031464,"182":-0.10433840751647949,"183":0.03317613899707794,"184":0.0022565852850675583,"185":-0.1626444309949875,"186":0.18964919447898865,"187":-0.0024160281755030155,"188":0.13587307929992676,"189":-0.007686523720622063,"190":-0.11407384276390076,"191":-0.047950439155101776,"192":0.14373506605625153,"193":0.1164025366306305,"194":0.13935063779354095,"195":0.08245828002691269,"196":0.04313468560576439,"197":0.19926127791404724,"198":-0.09536907821893692,"199":-0.010242093354463577,"200":0.046675629913806915,"201":0.014347230084240437,"202":-0.16908861696720123,"203":0.04924560710787773,"204":0.06209692358970642,"205":0.1640331894159317,"206":-0.03620179742574692,"207":0.10189773142337799,"208":-0.15865416824817657,"209":0.15725268423557281,"210":-0.18682946264743805,"211":-0.003239412559196353,"212":-0.15702258050441742,"213":-0.13127821683883667,"214":-0.18047453463077545,"215":-0.04513705521821976,"216":-0.19522836804389954,"217":-0.15362338721752167,"218":-0.12365136295557022,"219":0.1657593548297882,"220":0.1522887647151947,"221":-0.029818236827850342,"222":-0.1278371810913086,"223":-0.17029735445976257,"224":-0.15305563807487488,"225":-0.1554855853319168,"226":-0.14629940688610077,"227":0.04605674743652344,"228":0.11499115824699402}},"3":{"bias":-0.17491532862186432,"weights":{"0":0.1768573671579361,"1":0.17825189232826233,"2":0.025191329419612885,"3":0.05311527103185654,"4":-0.06877497583627701,"5":-0.032798148691654205,"6":0.135523721575737,"7":-0.014199921861290932,"8":0.10929786413908005,"9":-0.02171172760426998,"10":0.10321229696273804,"11":-0.09268882125616074,"12":-0.18033704161643982,"13":-0.1470169872045517,"14":0.052021224051713943,"15":0.14762939512729645,"16":-0.15430331230163574,"17":0.07600577920675278,"18":-0.07199990749359131,"19":0.14577428996562958,"20":-0.16145871579647064,"21":-0.02878865972161293,"22":0.08399087935686111,"23":0.09841848164796829,"24":0.08859828114509583,"25":-0.10175615549087524,"26":0.13262857496738434,"27":-0.0603846050798893,"28":-0.12885574996471405,"29":0.06420788168907166,"30":-0.013201713562011719,"31":0.14267726242542267,"32":0.09644033759832382,"33":-0.17836086452007294,"34":-0.17711184918880463,"35":-0.14402371644973755,"36":-0.06553275883197784,"37":0.11639226973056793,"38":0.06418351083993912,"39":0.18280458450317383,"40":-0.19723248481750488,"41":0.19512557983398438,"42":0.06158187985420227,"43":0.11628691107034683,"44":0.02844792976975441,"45":-0.0011533673387020826,"46":0.15431290864944458,"47":0.1730690896511078,"48":0.09133138507604599,"49":-0.03338130936026573,"50":0.1588769555091858,"51":0.15446093678474426,"52":-0.12348031997680664,"53":0.13238650560379028,"54":0.03465867415070534,"55":0.032166145741939545,"56":-0.1309897005558014,"57":0.1163056269288063,"58":0.10742561519145966,"59":-0.12762942910194397,"60":0.060660336166620255,"61":-0.08279794454574585,"62":-0.07593059539794922,"63":-0.19263751804828644,"64":-0.015242516063153744,"65":-0.12983979284763336,"66":-0.1351458728313446,"67":0.04804539307951927,"68":-0.06673294305801392,"69":0.05441763997077942,"70":-0.0033102023880928755,"71":-0.005683709867298603,"72":-0.1211114153265953,"73":-0.0460657961666584,"74":0.09120558202266693,"75":-0.12123733758926392,"76":0.1371317356824875,"77":-0.04241074249148369,"78":0.028363319113850594,"79":-0.16161459684371948,"80":0.1888904869556427,"81":-0.10069488734006882,"82":0.11775986105203629,"83":0.18135547637939453,"84":0.14772094786167145,"85":0.1328616887331009,"86":0.17722798883914948,"87":-0.13960470259189606,"88":-0.07101979851722717,"89":-0.05250832810997963,"90":-0.12079102545976639,"91":0.005016404669731855,"92":0.17758873105049133,"93":0.1861087679862976,"94":-0.17936743795871735,"95":0.17831607162952423,"96":-0.11107975244522095,"97":-0.08952756971120834,"98":-0.16063381731510162,"99":-0.1370735764503479,"100":0.19138476252555847,"101":0.02145383507013321,"102":0.18128326535224915,"103":-0.12986989319324493,"104":-0.09562545269727707,"105":-0.10170097649097443,"106":-0.17075055837631226,"107":-0.030909966677427292,"108":-0.11363827437162399,"109":0.008515816181898117,"110":0.11833581328392029,"111":0.16279391944408417,"112":-0.13950997591018677,"113":-0.021093007177114487,"114":-0.1852843165397644,"115":-0.0831703171133995,"116":-0.16015030443668365,"117":0.02400841750204563,"118":0.09369184821844101,"119":-0.08072906732559204,"120":0.09360580891370773,"121":-0.16485509276390076,"122":-0.03512711822986603,"123":0.14788873493671417,"124":-0.19627155363559723,"125":-0.16460655629634857,"126":0.19683021306991577,"127":-0.10021580010652542,"128":-0.10668392479419708,"129":0.1641489416360855,"130":0.01697968691587448,"131":0.11986807733774185,"132":-0.11428426206111908,"133":-0.019245469942688942,"134":-0.10081733018159866,"135":-0.05468246340751648,"136":-0.03902752697467804,"137":0.19297443330287933,"138":0.031842973083257675,"139":-0.011846229434013367,"140":-0.029249031096696854,"141":0.10315390676259995,"142":-0.07711145281791687,"143":0.1421806961297989,"144":-0.16419100761413574,"145":-0.011797616258263588,"146":-0.08882736414670944,"147":-0.07725249975919724,"148":0.18305574357509613,"149":0.10048805922269821,"150":-0.15601930022239685,"151":0.11577124148607254,"152":0.011699514463543892,"153":-0.14006897807121277,"154":-0.18070809543132782,"155":-0.09785700589418411,"156":0.06133485212922096,"157":-0.16837701201438904,"158":0.1790463775396347,"159":0.05235152319073677,"160":0.1985902488231659,"161":0.13436631858348846,"162":-0.04249173402786255,"163":-0.04955067113041878,"164":-0.005730984266847372,"165":-0.031102247536182404,"166":0.08849284052848816,"167":0.06959981471300125,"168":0.13138806819915771,"169":0.11890567094087601,"170":0.00700020557269454,"171":-0.19463348388671875,"172":0.15518991649150848,"173":0.15708428621292114,"174":-0.050767622888088226,"175":-0.19336426258087158,"176":-0.11686475574970245,"177":0.07567506283521652,"178":-0.12758302688598633,"179":-0.02513648197054863,"180":-0.18523035943508148,"181":-0.08645442128181458,"182":-0.12606105208396912,"183":0.13107798993587494,"184":0.019765332341194153,"185":-0.15754114091396332,"186":0.11456276476383209,"187":0.13154861330986023,"188":0.17750313878059387,"189":0.1397738754749298,"190":-0.17770206928253174,"191":-0.0635661855340004,"192":-0.05332289636135101,"193":0.18907751142978668,"194":0.007798317354172468,"195":0.05111690238118172,"196":-0.09817155450582504,"197":0.1958833932876587,"198":0.03863215446472168,"199":0.16324326395988464,"200":-0.006332602817565203,"201":-0.16793285310268402,"202":-0.08074129372835159,"203":-0.07402442395687103,"204":0.1855013221502304,"205":-0.034384384751319885,"206":-0.04020940884947777,"207":0.10711157321929932,"208":-0.1565113663673401,"209":-0.17514798045158386,"210":0.047812823206186295,"211":0.12021848559379578,"212":-0.02587934210896492,"213":-0.18387143313884735,"214":-0.17546412348747253,"215":0.1366506665945053,"216":0.01546027697622776,"217":0.003981489688158035,"218":-0.06336721032857895,"219":0.19697166979312897,"220":0.07722856849431992,"221":0.1673729121685028,"222":-0.08825639635324478,"223":0.0021723592653870583,"224":-0.134953573346138,"225":0.1387140452861786,"226":0.159384623169899,"227":0.07622500509023666,"228":-0.061151959002017975}},"4":{"bias":-0.12819801270961761,"weights":{"0":0.013765663839876652,"1":0.18983370065689087,"2":0.19306057691574097,"3":-0.04307049140334129,"4":0.009437053464353085,"5":-0.06550335884094238,"6":-0.07175004482269287,"7":0.18780657649040222,"8":0.18489885330200195,"9":0.03910030424594879,"10":-0.01982613280415535,"11":0.054412052035331726,"12":-0.05441868677735329,"13":-0.1336844265460968,"14":-0.0687037855386734,"15":-0.17071671783924103,"16":0.0008537276298739016,"17":-0.004127785563468933,"18":-0.019834747537970543,"19":-0.1732362061738968,"20":0.1955445110797882,"21":-0.10113295167684555,"22":-0.03719737380743027,"23":0.04032374545931816,"24":-0.09302640706300735,"25":-0.10229837894439697,"26":0.07268145680427551,"27":-0.09471156448125839,"28":-0.09941989928483963,"29":-0.10074962675571442,"30":0.1895861178636551,"31":-0.18065746128559113,"32":-0.08237065374851227,"33":-0.03512553870677948,"34":0.019110599532723427,"35":0.09736176580190659,"36":-0.17773225903511047,"37":0.15101221203804016,"38":-0.11767367273569107,"39":0.13780733942985535,"40":0.14042900502681732,"41":0.18904048204421997,"42":-0.18066120147705078,"43":-0.061296023428440094,"44":-0.16427648067474365,"45":0.05848660692572594,"46":0.15646490454673767,"47":-0.10263238102197647,"48":-0.04057949408888817,"49":0.14623893797397614,"50":-0.13067598640918732,"51":-0.028801329433918,"52":-0.17199960350990295,"53":-0.1825435310602188,"54":0.20748083293437958,"55":0.15068155527114868,"56":0.17710630595684052,"57":-0.08218462020158768,"58":0.08343358337879181,"59":0.061556193977594376,"60":0.20395152270793915,"61":0.004119709599763155,"62":0.18013741075992584,"63":-0.011410803534090519,"64":0.059757497161626816,"65":0.017962170764803886,"66":-0.14746683835983276,"67":-0.15190255641937256,"68":0.1422138512134552,"69":0.19585834443569183,"70":-0.05085064098238945,"71":0.1833011955022812,"72":0.10518103837966919,"73":-0.1585574597120285,"74":0.15792995691299438,"75":-0.05021544173359871,"76":0.011477776803076267,"77":-0.00179420062340796,"78":0.061557650566101074,"79":0.10554777830839157,"80":0.1299958974123001,"81":0.05666232109069824,"82":0.15633025765419006,"83":0.2053256779909134,"84":-0.008024448528885841,"85":-0.08784724026918411,"86":-0.11491052806377411,"87":0.17536886036396027,"88":0.04232751205563545,"89":-0.029358264058828354,"90":0.17306086421012878,"91":0.1017891988158226,"92":0.13628607988357544,"93":-0.05080975964665413,"94":-0.14544959366321564,"95":0.10682019591331482,"96":0.16554294526576996,"97":0.1987508237361908,"98":-0.14245320856571198,"99":0.17599470913410187,"100":0.08873869478702545,"101":0.20781990885734558,"102":-0.008319065906107426,"103":0.038984619081020355,"104":-0.1443624496459961,"105":-0.004217174835503101,"106":0.01632734015583992,"107":-0.18140815198421478,"108":0.18918612599372864,"109":-0.18468919396400452,"110":-0.15035276114940643,"111":-0.0006888703210279346,"112":0.11886544525623322,"113":-0.16843122243881226,"114":0.06135225296020508,"115":-0.1129843145608902,"116":0.03471655398607254,"117":0.024496929720044136,"118":-0.08082669228315353,"119":-0.08679109066724777,"120":-0.047456298023462296,"121":0.13240858912467957,"122":-0.10226651281118393,"123":-0.14534959197044373,"124":0.023191556334495544,"125":0.11815861612558365,"126":0.027173185721039772,"127":-0.0655333399772644,"128":-0.16172371804714203,"129":0.07557333260774612,"130":-0.13834528625011444,"131":0.1812353879213333,"132":-0.029756180942058563,"133":-0.09103197604417801,"134":0.1475241780281067,"135":-0.1702088564634323,"136":0.010217426344752312,"137":-0.11705292761325836,"138":-0.14612679183483124,"139":0.03903305158019066,"140":0.0984928160905838,"141":0.18907736241817474,"142":-0.1487063765525818,"143":0.009905118495225906,"144":0.16450709104537964,"145":-0.006659815553575754,"146":-0.15646396577358246,"147":-0.1278812289237976,"148":0.1402689665555954,"149":0.12267749011516571,"150":-0.1558232456445694,"151":-0.017533715814352036,"152":0.16928885877132416,"153":0.002106487052515149,"154":0.17895682156085968,"155":0.015838654711842537,"156":0.18962077796459198,"157":-0.14057303965091705,"158":0.004786370787769556,"159":0.06421227008104324,"160":-0.12151265889406204,"161":-0.07997147738933563,"162":0.1231156587600708,"163":0.11791794747114182,"164":-0.02202608436346054,"165":-0.05579165741801262,"166":0.16170768439769745,"167":-0.002834488870576024,"168":-0.16137337684631348,"169":-0.068566232919693,"170":0.19123715162277222,"171":0.14093245565891266,"172":0.09902877360582352,"173":0.01975320838391781,"174":0.20310549437999725,"175":0.06020298972725868,"176":-0.12263315916061401,"177":-0.03366975858807564,"178":0.014767014421522617,"179":0.002613446209579706,"180":-0.1609373241662979,"181":-0.18052339553833008,"182":0.1641659289598465,"183":-0.17112025618553162,"184":-0.001801626873202622,"185":-0.17650917172431946,"186":-0.14273905754089355,"187":0.04611453413963318,"188":0.01896071247756481,"189":0.197245791554451,"190":0.14325258135795593,"191":0.017313625663518906,"192":0.19024589657783508,"193":0.013688729144632816,"194":-0.1069287359714508,"195":0.05459174886345863,"196":-0.14747346937656403,"197":0.05901719629764557,"198":-0.1266142874956131,"199":0.06107190251350403,"200":-0.020184051245450974,"201":0.021833546459674835,"202":-0.14296288788318634,"203":-0.09841911494731903,"204":-0.15314322710037231,"205":0.007827624678611755,"206":0.19992156326770782,"207":-0.07296717166900635,"208":0.03469380736351013,"209":0.0487549714744091,"210":0.15626996755599976,"211":0.12705598771572113,"212":0.16539479792118073,"213":-0.03396378830075264,"214":-0.0890236496925354,"215":0.11366357654333115,"216":0.02031158283352852,"217":0.17926672101020813,"218":-0.14835551381111145,"219":-0.07820572704076767,"220":-0.021107830107212067,"221":-0.011542187072336674,"222":0.21183954179286957,"223":-0.08872251957654953,"224":-0.02083827555179596,"225":-0.1494481861591339,"226":0.10001207143068314,"227":0.17225219309329987,"228":-0.16093872487545013}},"5":{"bias":-0.14498059451580048,"weights":{"0":0.10511723160743713,"1":0.25159141421318054,"2":-0.07679090648889542,"3":0.13272753357887268,"4":-0.08591924607753754,"5":0.20341089367866516,"6":-0.10667238384485245,"7":0.11012935638427734,"8":-0.0017068356974050403,"9":-0.08307977020740509,"10":0.20553861558437347,"11":0.04580974206328392,"12":0.2029096782207489,"13":-0.11396116018295288,"14":0.0867614820599556,"15":0.14252837002277374,"16":0.22075797617435455,"17":0.10995493829250336,"18":0.12342604249715805,"19":0.18014834821224213,"20":0.12583348155021667,"21":0.0033989818766713142,"22":0.1517665535211563,"23":0.05526597052812576,"24":-0.003548185806721449,"25":0.13110938668251038,"26":0.08356554806232452,"27":0.004173419903963804,"28":0.041622914373874664,"29":0.04942259192466736,"30":0.28317466378211975,"31":0.0017833785386756063,"32":0.23215128481388092,"33":0.23261985182762146,"34":0.1455887258052826,"35":-0.09288094192743301,"36":-0.010217273607850075,"37":0.17474472522735596,"38":0.26674684882164,"39":0.06767451018095016,"40":0.276638388633728,"41":0.13983003795146942,"42":-0.04900868982076645,"43":0.2039714902639389,"44":0.1109483391046524,"45":0.2093542367219925,"46":0.14202557504177094,"47":0.008633877150714397,"48":0.11589528620243073,"49":-0.07136450707912445,"50":-0.035506393760442734,"51":0.09891486167907715,"52":0.20782801508903503,"53":0.1335987001657486,"54":0.27164706587791443,"55":0.2563205659389496,"56":0.17732685804367065,"57":-0.038085680454969406,"58":-0.0705074742436409,"59":-0.09675683081150055,"60":0.14772726595401764,"61":0.003284646663814783,"62":0.25651276111602783,"63":0.13853688538074493,"64":-0.09099237620830536,"65":-0.020860858261585236,"66":0.22607192397117615,"67":0.2512701451778412,"68":0.14600329101085663,"69":0.0497492179274559,"70":-0.09577463567256927,"71":0.20080111920833588,"72":0.19571374356746674,"73":0.01787552610039711,"74":0.06012681871652603,"75":0.21701277792453766,"76":0.2647538185119629,"77":0.28499579429626465,"78":-0.03103993646800518,"79":-0.08410494029521942,"80":0.2905729413032532,"81":0.23337222635746002,"82":0.15684814751148224,"83":-0.03922171890735626,"84":0.12010716646909714,"85":0.0724140927195549,"86":-0.061034586280584335,"87":0.011933699250221252,"88":-0.0639171153306961,"89":-0.0781070664525032,"90":-0.03979146108031273,"91":0.24494455754756927,"92":-0.09979787468910217,"93":0.19205328822135925,"94":0.2915343940258026,"95":0.1519521027803421,"96":0.03840922564268112,"97":-0.011845997534692287,"98":0.24791209399700165,"99":0.1550784409046173,"100":-0.0672142505645752,"101":-0.02115587331354618,"102":0.2881782352924347,"103":0.12360946834087372,"104":0.08325576782226562,"105":0.21833324432373047,"106":-0.0756501853466034,"107":-0.08672184497117996,"108":0.27667903900146484,"109":0.08365855365991592,"110":0.21834120154380798,"111":-0.025312695652246475,"112":0.05905164033174515,"113":0.27402523159980774,"114":0.1467067301273346,"115":0.12084516882896423,"116":0.24662324786186218,"117":0.26136869192123413,"118":-0.06814133375883102,"119":0.052629392594099045,"120":0.030766203999519348,"121":0.1920011043548584,"122":0.2583581805229187,"123":0.0534789152443409,"124":-0.026564674451947212,"125":0.10596591979265213,"126":-0.07489346712827682,"127":0.04537350311875343,"128":-0.06751014292240143,"129":0.27701595425605774,"130":-0.10025220364332199,"131":0.1010269969701767,"132":-0.05515264719724655,"133":0.037687335163354874,"134":0.11325039714574814,"135":0.0353894904255867,"136":0.15062032639980316,"137":0.10337945818901062,"138":0.22753851115703583,"139":0.24143821001052856,"140":-0.08098522573709488,"141":0.18559874594211578,"142":0.10578018426895142,"143":0.14616960287094116,"144":0.013564996421337128,"145":0.0739208236336708,"146":0.287384033203125,"147":0.13444708287715912,"148":0.03693497180938721,"149":-0.1118309274315834,"150":-0.059660982340574265,"151":-0.008233373053371906,"152":0.1474459022283554,"153":0.10020654648542404,"154":-0.006186120677739382,"155":0.11017131805419922,"156":0.168236643075943,"157":0.20929019153118134,"158":0.06191831827163696,"159":-0.07069730013608932,"160":0.24029949307441711,"161":-0.026027081534266472,"162":0.10449016839265823,"163":-0.0812768042087555,"164":-0.09380514919757843,"165":0.24686706066131592,"166":0.2502504289150238,"167":0.03745129331946373,"168":0.13694660365581512,"169":0.03126928210258484,"170":0.12781615555286407,"171":0.015309753827750683,"172":0.05579647421836853,"173":0.028853219002485275,"174":0.05472619831562042,"175":-0.0720524862408638,"176":0.19613142311573029,"177":0.22531762719154358,"178":0.24146749079227448,"179":-0.06583220511674881,"180":-0.014783143065869808,"181":0.20792074501514435,"182":0.08857625722885132,"183":0.24524416029453278,"184":0.1110055223107338,"185":0.26181119680404663,"186":0.11433924734592438,"187":-0.09287737309932709,"188":-0.0799693688750267,"189":-0.0029411676805466413,"190":0.25430530309677124,"191":0.19177380204200745,"192":0.22481203079223633,"193":0.10770199447870255,"194":0.13226833939552307,"195":-0.0390455462038517,"196":-0.018483974039554596,"197":0.20279166102409363,"198":0.08781396597623825,"199":-0.01247243769466877,"200":-0.04937492311000824,"201":0.0849824920296669,"202":-0.06265273690223694,"203":-0.07361210882663727,"204":0.2690974175930023,"205":0.2504177391529083,"206":0.21444839239120483,"207":0.24762645363807678,"208":0.26788273453712463,"209":0.12617826461791992,"210":0.18954813480377197,"211":0.21892397105693817,"212":0.14095832407474518,"213":0.22298119962215424,"214":-0.02679581753909588,"215":0.17305058240890503,"216":0.06294149905443192,"217":0.2664523124694824,"218":0.031904496252536774,"219":0.0946928933262825,"220":0.16918373107910156,"221":0.1537019908428192,"222":0.06806617975234985,"223":0.005489987321197987,"224":0.24197682738304138,"225":-0.013426012359559536,"226":0.18184535205364227,"227":0.3086053133010864,"228":0.19182641804218292}},"6":{"bias":-0.18241792917251587,"weights":{"0":-0.14782463014125824,"1":-0.016482526436448097,"2":0.09315817803144455,"3":-0.09392573684453964,"4":-0.04051842540502548,"5":-0.0011115651577711105,"6":-0.16059936583042145,"7":-0.07792047411203384,"8":-0.02707723341882229,"9":0.09754275530576706,"10":-0.07314440608024597,"11":-0.15088127553462982,"12":-0.08214716613292694,"13":0.143633171916008,"14":0.15579348802566528,"15":-0.02397075481712818,"16":-0.19683007895946503,"17":0.024244749918580055,"18":-0.13721106946468353,"19":-0.09298344701528549,"20":0.1020071730017662,"21":0.19848503172397614,"22":-0.053768254816532135,"23":-0.11337532848119736,"24":-0.11744693666696548,"25":-0.12002234905958176,"26":-0.14965111017227173,"27":-0.10345015674829483,"28":-0.15676374733448029,"29":0.1576063632965088,"30":0.032371021807193756,"31":0.07446178048849106,"32":-0.011848632246255875,"33":0.0830078050494194,"34":0.062062136828899384,"35":0.05811523273587227,"36":0.1490069180727005,"37":-0.13387387990951538,"38":-0.017606670036911964,"39":-0.11491506546735764,"40":-0.013751574791967869,"41":0.1868278682231903,"42":-0.14101259410381317,"43":-0.183187797665596,"44":0.012665105052292347,"45":-0.06326404213905334,"46":0.05892238765954971,"47":-0.17388075590133667,"48":-0.107498399913311,"49":0.05609982833266258,"50":-0.11532608419656754,"51":-0.11988827586174011,"52":0.006776048801839352,"53":-0.07168705016374588,"54":-0.09017135202884674,"55":0.05959567800164223,"56":-0.019762741401791573,"57":-0.0859924703836441,"58":-0.18775008618831635,"59":-0.1584654450416565,"60":-0.1222539022564888,"61":0.047427866607904434,"62":-0.08031295984983444,"63":0.17273429036140442,"64":0.009252620860934258,"65":-0.07381594926118851,"66":-0.13677452504634857,"67":-0.06669474393129349,"68":0.1545940488576889,"69":-0.027390379458665848,"70":-0.12056075036525726,"71":0.07688587158918381,"72":-0.07231003791093826,"73":0.01942344196140766,"74":-0.07184316962957382,"75":0.049649760127067566,"76":0.1762581765651703,"77":0.13505810499191284,"78":-0.09529944509267807,"79":-0.04751292243599892,"80":-0.1928943395614624,"81":0.16075970232486725,"82":0.11696301400661469,"83":-0.11450239270925522,"84":-0.1354282796382904,"85":-0.018252559006214142,"86":-0.17777925729751587,"87":0.07572940737009048,"88":0.08753227442502975,"89":0.09883109480142593,"90":-0.009842059575021267,"91":0.028263896703720093,"92":-0.01757127419114113,"93":0.1516607701778412,"94":-0.06346873939037323,"95":0.025669999420642853,"96":0.18951910734176636,"97":0.1654498130083084,"98":-0.15337194502353668,"99":0.168949693441391,"100":0.10764362663030624,"101":0.03174006938934326,"102":0.12438425421714783,"103":0.08700055629014969,"104":-0.18629775941371918,"105":0.07331810891628265,"106":0.0776619240641594,"107":0.019553733989596367,"108":-0.1760495901107788,"109":-0.06926468014717102,"110":-0.0472627691924572,"111":-0.04703040421009064,"112":-0.13861864805221558,"113":0.0882335752248764,"114":-0.11229517310857773,"115":0.18819884955883026,"116":0.12937581539154053,"117":0.000738963601179421,"118":0.10591619461774826,"119":0.044730257242918015,"120":-0.10687270015478134,"121":0.1210014820098877,"122":-0.13242828845977783,"123":0.056343480944633484,"124":-0.18244978785514832,"125":-0.0013756885891780257,"126":0.08615811914205551,"127":-0.032968051731586456,"128":-0.1856699138879776,"129":-0.12201807647943497,"130":0.14038632810115814,"131":-0.04698463901877403,"132":-0.11023619771003723,"133":0.029860105365514755,"134":0.15341424942016602,"135":-0.14660818874835968,"136":0.08782380074262619,"137":0.1657305806875229,"138":0.14489944279193878,"139":0.011548799462616444,"140":-0.0033617594745010138,"141":-0.10979142785072327,"142":-0.1575567126274109,"143":-0.18588200211524963,"144":0.10085473954677582,"145":-0.023647911846637726,"146":-0.0104194525629282,"147":-0.1905195564031601,"148":0.11160660535097122,"149":-0.1913813352584839,"150":-0.051068179309368134,"151":-0.1254514902830124,"152":0.12322226166725159,"153":-0.0755125880241394,"154":0.0618172213435173,"155":0.1482890248298645,"156":-0.11546332389116287,"157":0.09621480107307434,"158":0.006699664983898401,"159":-0.08550599962472916,"160":-0.09301754087209702,"161":0.007486805319786072,"162":-0.007391192484647036,"163":-0.046847499907016754,"164":0.06808359175920486,"165":0.12014865130186081,"166":-0.13404783606529236,"167":-0.09416086971759796,"168":-0.11131665110588074,"169":-0.061292629688978195,"170":0.19527991116046906,"171":0.045603860169649124,"172":-0.07402518391609192,"173":-0.04097287729382515,"174":0.09315134584903717,"175":-0.17824947834014893,"176":-0.1506163626909256,"177":0.05611652135848999,"178":0.03925074264407158,"179":0.14778883755207062,"180":0.024112535640597343,"181":0.03473510220646858,"182":-0.1563473790884018,"183":0.021783726289868355,"184":0.18066969513893127,"185":-0.015746621415019035,"186":-0.1549401432275772,"187":0.1506354957818985,"188":0.06537872552871704,"189":-0.12392375618219376,"190":-0.01394757628440857,"191":0.0967923104763031,"192":0.1338922381401062,"193":0.04946253076195717,"194":-0.11820002645254135,"195":-0.10857734829187393,"196":0.06040692329406738,"197":-0.10746964812278748,"198":-0.060052454471588135,"199":0.10341113805770874,"200":-0.052198681980371475,"201":-0.19019648432731628,"202":0.020323485136032104,"203":0.13077840209007263,"204":0.14015987515449524,"205":-0.17535433173179626,"206":0.17499719560146332,"207":-0.02002074383199215,"208":-0.013084905222058296,"209":-0.0441930815577507,"210":0.07049338519573212,"211":-0.046639781445264816,"212":-0.13425473868846893,"213":-0.01851295493543148,"214":-0.11454297602176666,"215":-0.10869357734918594,"216":-0.04550393298268318,"217":-0.1787681132555008,"218":0.004565023351460695,"219":-0.04894289746880531,"220":-0.15217262506484985,"221":-0.1660979688167572,"222":0.16117790341377258,"223":-0.18285953998565674,"224":-0.0016417006263509393,"225":0.021076727658510208,"226":0.08096384257078171,"227":0.06682144850492477,"228":-0.14184114336967468}},"7":{"bias":-0.001506433472968638,"weights":{"0":-0.13458865880966187,"1":0.005432130768895149,"2":0.08503608405590057,"3":-0.1150079071521759,"4":0.034467630088329315,"5":0.15396751463413239,"6":-0.08571560680866241,"7":0.0401962548494339,"8":-0.033262576907873154,"9":0.13337677717208862,"10":-0.1612604260444641,"11":-0.12058674544095993,"12":-0.1955190896987915,"13":0.1476210206747055,"14":0.03324311971664429,"15":0.03447050228714943,"16":0.19030657410621643,"17":-0.0998522937297821,"18":0.1410789042711258,"19":-0.058661241084337234,"20":-0.1987892985343933,"21":-0.014043870382010937,"22":-0.06272085011005402,"23":-0.17019741237163544,"24":-0.1570434719324112,"25":-0.18850556015968323,"26":-0.03672318533062935,"27":-0.05259042605757713,"28":0.15491393208503723,"29":0.10872040688991547,"30":-0.06259418278932571,"31":0.09027264267206192,"32":0.13490824401378632,"33":0.10144572705030441,"34":-0.15780381858348846,"35":-0.12557099759578705,"36":-0.016809184104204178,"37":0.10912168025970459,"38":0.12467868626117706,"39":-0.034780558198690414,"40":0.04375137388706207,"41":0.025523923337459564,"42":-0.1867343634366989,"43":0.15029937028884888,"44":0.04791341349482536,"45":0.1742950975894928,"46":-0.036389581859111786,"47":0.0791846290230751,"48":-0.046457305550575256,"49":0.15753744542598724,"50":-0.11509667336940765,"51":0.030570343136787415,"52":-0.06582420319318771,"53":-0.10339155048131943,"54":-0.007542230188846588,"55":0.07417988777160645,"56":-0.04753571376204491,"57":-0.14185091853141785,"58":0.13672760128974915,"59":-0.03130577504634857,"60":-0.010346776805818081,"61":0.11116721481084824,"62":-0.021651525050401688,"63":-0.053617946803569794,"64":-0.1695815473794937,"65":-0.09375683218240738,"66":0.006887523457407951,"67":0.08800959587097168,"68":-0.12787947058677673,"69":-0.07643944025039673,"70":-0.15854839980602264,"71":-0.1729675680398941,"72":0.11237571388483047,"73":-0.1651165634393692,"74":0.16143882274627686,"75":0.0443878099322319,"76":-0.03973013535141945,"77":0.13588133454322815,"78":0.13138331472873688,"79":-0.17877155542373657,"80":0.17249542474746704,"81":-0.018441595137119293,"82":0.04027041792869568,"83":0.051185350865125656,"84":0.12145361304283142,"85":0.032461442053318024,"86":0.19308583438396454,"87":-0.06049710512161255,"88":0.029900632798671722,"89":-0.09661895036697388,"90":0.06798949837684631,"91":0.00008954208897193894,"92":-0.09418921172618866,"93":-0.11483445018529892,"94":0.09461143612861633,"95":0.11219177395105362,"96":-0.02881012298166752,"97":0.04459725320339203,"98":-0.15600590407848358,"99":-0.030942708253860474,"100":-0.027784166857600212,"101":-0.1048431321978569,"102":0.06501363962888718,"103":-0.11806300282478333,"104":-0.09156882762908936,"105":-0.14192448556423187,"106":-0.2012406885623932,"107":-0.13676369190216064,"108":-0.05783670395612717,"109":0.03770720213651657,"110":0.02698286809027195,"111":-0.12290754914283752,"112":-0.0220938753336668,"113":0.011014887131750584,"114":-0.17945857346057892,"115":-0.023085391148924828,"116":0.07746302336454391,"117":0.016468260437250137,"118":0.08120555430650711,"119":-0.13330435752868652,"120":-0.16905568540096283,"121":0.031226469203829765,"122":0.09496500343084335,"123":-0.06451919674873352,"124":-0.11814505606889725,"125":-0.04694352671504021,"126":0.1244647353887558,"127":0.03841643035411835,"128":0.029550030827522278,"129":-0.19699504971504211,"130":0.05112891644239426,"131":0.10845982283353806,"132":-0.10400799661874771,"133":-0.14725740253925323,"134":-0.07293497771024704,"135":-0.027727989479899406,"136":0.1029442623257637,"137":0.1374533325433731,"138":-0.1711241453886032,"139":-0.13581298291683197,"140":0.08339133858680725,"141":-0.08031470328569412,"142":-0.19668224453926086,"143":0.05774335190653801,"144":0.039700254797935486,"145":-0.016344552859663963,"146":0.05179473012685776,"147":-0.024855397641658783,"148":0.1207423284649849,"149":0.09403807669878006,"150":-0.022179124876856804,"151":-0.03714918717741966,"152":0.12463546544313431,"153":0.07370409369468689,"154":0.14931747317314148,"155":-0.018428383395075798,"156":0.011409006081521511,"157":0.0925232544541359,"158":0.10821371525526047,"159":0.14647847414016724,"160":0.13016657531261444,"161":0.18189893662929535,"162":-0.03157409653067589,"163":-0.18085959553718567,"164":-0.1423591524362564,"165":0.04820644482970238,"166":0.11247275769710541,"167":0.14272591471672058,"168":-0.01988336443901062,"169":-0.0034387565683573484,"170":-0.17194756865501404,"171":0.14441920816898346,"172":0.07173512130975723,"173":-0.11923146992921829,"174":0.14186151325702667,"175":0.05801260843873024,"176":0.18683329224586487,"177":0.11097247153520584,"178":-0.04271663352847099,"179":0.0693565160036087,"180":0.062453046441078186,"181":-0.017883429303765297,"182":-0.17505556344985962,"183":0.09889103472232819,"184":0.18102343380451202,"185":0.06076861172914505,"186":0.003567430190742016,"187":0.10402114689350128,"188":-0.03841619938611984,"189":-0.005760828033089638,"190":-0.04528209939599037,"191":-0.029708489775657654,"192":-0.12236539274454117,"193":0.05946743115782738,"194":0.12684312462806702,"195":-0.0732526108622551,"196":-0.18604597449302673,"197":-0.1094851866364479,"198":0.08509660512208939,"199":0.04099196568131447,"200":0.10318785905838013,"201":0.06408165395259857,"202":-0.0885424092411995,"203":0.12488500773906708,"204":-0.20243103802204132,"205":0.06539016962051392,"206":-0.1518612504005432,"207":-0.010223611257970333,"208":-0.1821029931306839,"209":0.15447522699832916,"210":-0.028311757370829582,"211":0.05701319873332977,"212":0.02545277401804924,"213":-0.0529339574277401,"214":-0.05919426307082176,"215":-0.14141209423542023,"216":-0.14674021303653717,"217":0.1082090213894844,"218":0.022049671038985252,"219":0.12456782162189484,"220":0.037099022418260574,"221":-0.047141313552856445,"222":0.08463254570960999,"223":-0.019484978169202805,"224":0.013937631621956825,"225":-0.18585658073425293,"226":-0.14209383726119995,"227":-0.09561830013990402,"228":-0.0014272902626544237}},"8":{"bias":0.1394631564617157,"weights":{"0":-0.10702214390039444,"1":-0.04495042562484741,"2":0.19605685770511627,"3":0.01160251535475254,"4":0.10279250890016556,"5":-0.14013168215751648,"6":-0.11910516023635864,"7":-0.03435394540429115,"8":0.09948188066482544,"9":-0.12824641168117523,"10":-0.1591588407754898,"11":-0.13411186635494232,"12":-0.12416570633649826,"13":0.03357397019863129,"14":0.12062641978263855,"15":0.09990493953227997,"16":-0.005285794381052256,"17":0.09681007266044617,"18":0.15535059571266174,"19":-0.05136939138174057,"20":0.07546382397413254,"21":0.14812307059764862,"22":0.08929521590471268,"23":0.18874944746494293,"24":0.12329338490962982,"25":0.08063586056232452,"26":-0.14958330988883972,"27":0.1550370305776596,"28":-0.09361303597688675,"29":-0.1289554387331009,"30":-0.09609992802143097,"31":-0.11347895860671997,"32":0.17988227307796478,"33":0.1591217964887619,"34":-0.06820497661828995,"35":-0.10710058361291885,"36":-0.09585272520780563,"37":-0.08801253885030746,"38":0.04720795527100563,"39":0.04573553428053856,"40":0.10811911523342133,"41":0.12106650322675705,"42":-0.11499549448490143,"43":-0.16125276684761047,"44":0.13312241435050964,"45":-0.1642754077911377,"46":-0.0421198345720768,"47":-0.06133301183581352,"48":-0.008733276277780533,"49":0.021464262157678604,"50":0.011067699640989304,"51":0.08446178585290909,"52":-0.14837929606437683,"53":-0.1791161745786667,"54":0.1862776130437851,"55":0.11468041688203812,"56":0.09486935287714005,"57":-0.17995409667491913,"58":-0.018255289644002914,"59":-0.1220485270023346,"60":-0.16713719069957733,"61":0.18196485936641693,"62":-0.0462162084877491,"63":-0.1658821552991867,"64":-0.07653636485338211,"65":-0.19917383790016174,"66":0.1452186107635498,"67":0.10930439084768295,"68":-0.17734399437904358,"69":0.17002332210540771,"70":0.014766802079975605,"71":-0.04740258306264877,"72":-0.05819977819919586,"73":0.08994647860527039,"74":-0.10207895934581757,"75":-0.1991826295852661,"76":-0.04039139673113823,"77":-0.10003671050071716,"78":-0.040702495723962784,"79":0.17099016904830933,"80":0.025512605905532837,"81":0.0936804935336113,"82":-0.12156770378351212,"83":-0.1885407418012619,"84":-0.046735018491744995,"85":-0.14980825781822205,"86":-0.1826590895652771,"87":-0.1000305637717247,"88":-0.200008824467659,"89":-0.09048838913440704,"90":-0.07388772815465927,"91":-0.0010312929516658187,"92":0.024370290338993073,"93":-0.034134335815906525,"94":-0.07841688394546509,"95":-0.15413063764572144,"96":0.02698345109820366,"97":-0.0321405865252018,"98":-0.122719407081604,"99":0.05532420799136162,"100":-0.12144683301448822,"101":0.1730337291955948,"102":0.10942571610212326,"103":-0.09612390398979187,"104":0.00802265852689743,"105":0.008154586888849735,"106":0.11429222673177719,"107":-0.1840628683567047,"108":0.13769035041332245,"109":-0.12895119190216064,"110":-0.07881846278905869,"111":-0.06887669861316681,"112":-0.10346107929944992,"113":-0.1434331238269806,"114":0.03479485213756561,"115":-0.08155708014965057,"116":0.12929466366767883,"117":-0.16240963339805603,"118":-0.10841699689626694,"119":-0.16004569828510284,"120":-0.02304544672369957,"121":-0.06024970859289169,"122":-0.13590173423290253,"123":-0.1033373773097992,"124":0.001068945974111557,"125":-0.17837147414684296,"126":-0.18191048502922058,"127":-0.009105524979531765,"128":0.178035169839859,"129":-0.08280777931213379,"130":-0.1425834447145462,"131":-0.05685066804289818,"132":0.15582990646362305,"133":-0.06541179865598679,"134":-0.04656348377466202,"135":-0.07445170730352402,"136":0.003883857512846589,"137":-0.01683754473924637,"138":0.1107933297753334,"139":-0.0791819840669632,"140":0.03127634897828102,"141":0.0026921043172478676,"142":0.1596551090478897,"143":-0.08207996189594269,"144":0.10303196310997009,"145":0.053307369351387024,"146":0.13547079265117645,"147":-0.1569097936153412,"148":-0.036375001072883606,"149":0.06186802312731743,"150":0.08410247415304184,"151":0.13531911373138428,"152":-0.01724906638264656,"153":0.08201616257429123,"154":0.13368943333625793,"155":0.06331227719783783,"156":-0.0168381929397583,"157":0.18713711202144623,"158":0.1977374404668808,"159":-0.07867827266454697,"160":-0.14475001394748688,"161":0.15250028669834137,"162":-0.07956112921237946,"163":-0.1117035448551178,"164":0.10122659057378769,"165":-0.030773287639021873,"166":0.0729985311627388,"167":-0.048219937831163406,"168":-0.1827864795923233,"169":0.1519584208726883,"170":-0.07136397063732147,"171":-0.0017888860311359167,"172":0.10671396553516388,"173":0.07792426645755768,"174":0.14527776837348938,"175":0.1026892438530922,"176":0.07997947186231613,"177":0.0075652035884559155,"178":-0.1926933228969574,"179":0.15478861331939697,"180":0.08740553259849548,"181":-0.03226235881447792,"182":-0.07226954400539398,"183":0.07814671844244003,"184":-0.02308613993227482,"185":0.061382029205560684,"186":0.025921093299984932,"187":-0.048579141497612,"188":0.11564438045024872,"189":-0.18523570895195007,"190":-0.1570626050233841,"191":0.012968634255230427,"192":0.07441812753677368,"193":0.001666578114964068,"194":-0.022277111187577248,"195":0.11276639997959137,"196":0.10084093362092972,"197":0.06576575338840485,"198":-0.09157483279705048,"199":0.01457421574741602,"200":-0.07397252321243286,"201":0.10152982920408249,"202":-0.08246102929115295,"203":0.09538584202528,"204":0.016549738124012947,"205":0.15302202105522156,"206":-0.0492640919983387,"207":-0.10963402688503265,"208":0.0873328372836113,"209":0.08008936792612076,"210":-0.16855713725090027,"211":0.0664549469947815,"212":-0.15506447851657867,"213":0.10391844809055328,"214":-0.03826748952269554,"215":0.022794857621192932,"216":-0.07642009109258652,"217":-0.05600069463253021,"218":-0.13182269036769867,"219":0.11846067011356354,"220":0.1732807606458664,"221":0.08331842720508575,"222":0.04206136614084244,"223":0.19050036370754242,"224":0.05909290537238121,"225":-0.14147384464740753,"226":-0.09389713406562805,"227":-0.16208943724632263,"228":-0.16414695978164673}},"9":{"bias":-0.045642632991075516,"weights":{"0":-0.0892106145620346,"1":-0.09528665244579315,"2":-0.13236266374588013,"3":-0.06427689641714096,"4":-0.18396231532096863,"5":0.045331865549087524,"6":-0.031705234199762344,"7":0.009662117809057236,"8":0.11102218180894852,"9":0.1412705034017563,"10":-0.07818909734487534,"11":0.0694299042224884,"12":0.10111434012651443,"13":0.10458799451589584,"14":0.016559164971113205,"15":0.11111986637115479,"16":0.039726514369249344,"17":-0.0202309712767601,"18":0.03271270543336868,"19":-0.16407978534698486,"20":-0.04546636715531349,"21":-0.17938271164894104,"22":-0.17174667119979858,"23":-0.14897549152374268,"24":-0.14539720118045807,"25":-0.0320102833211422,"26":0.07101493328809738,"27":0.18485069274902344,"28":0.16826172173023224,"29":0.056041717529296875,"30":0.17249663174152374,"31":0.08966445922851562,"32":-0.001248607411980629,"33":0.016758764162659645,"34":-0.16172310709953308,"35":0.1193898543715477,"36":-0.03901905193924904,"37":-0.15445642173290253,"38":-0.04437083750963211,"39":-0.10235553979873657,"40":-0.06571358442306519,"41":0.07933837920427322,"42":-0.11159099638462067,"43":-0.19803079962730408,"44":0.06472326070070267,"45":-0.05513300001621246,"46":-0.1419934183359146,"47":0.11515821516513824,"48":-0.0401427261531353,"49":0.02223421446979046,"50":-0.15081056952476501,"51":0.05650823935866356,"52":0.12284483760595322,"53":0.1565881371498108,"54":0.18663376569747925,"55":0.014139151200652122,"56":-0.1061779260635376,"57":-0.010614902712404728,"58":-0.19088564813137054,"59":0.18420615792274475,"60":0.09490124136209488,"61":-0.031163310632109642,"62":-0.14281520247459412,"63":-0.09116610139608383,"64":0.07444477081298828,"65":-0.1090179905295372,"66":0.048153601586818695,"67":0.0558348186314106,"68":0.037412576377391815,"69":0.12460198998451233,"70":-0.07956182956695557,"71":0.11331304162740707,"72":0.15415719151496887,"73":-0.12497653812170029,"74":0.060939013957977295,"75":0.02461818978190422,"76":0.10564284771680832,"77":-0.027353603392839432,"78":0.07001261413097382,"79":-0.045614082366228104,"80":0.047208987176418304,"81":-0.028239781036973,"82":0.1219962015748024,"83":-0.006088130176067352,"84":-0.11215253919363022,"85":0.16945844888687134,"86":0.07607638090848923,"87":-0.05596980080008507,"88":0.1433468461036682,"89":0.07062946259975433,"90":-0.05694658309221268,"91":0.013808864168822765,"92":-0.1852869987487793,"93":-0.11274320632219315,"94":-0.07165398448705673,"95":0.1987023651599884,"96":0.11971315741539001,"97":0.16653001308441162,"98":0.07095152139663696,"99":0.15832844376564026,"100":-0.06180191785097122,"101":0.07396872341632843,"102":-0.19388413429260254,"103":0.14148135483264923,"104":0.05561066418886185,"105":-0.1303362250328064,"106":-0.17555533349514008,"107":-0.12936468422412872,"108":-0.1020243763923645,"109":-0.18816500902175903,"110":-0.026780663058161736,"111":-0.11458369344472885,"112":-0.043930646032094955,"113":-0.09455163031816483,"114":-0.09222591668367386,"115":-0.09416871517896652,"116":0.1475658267736435,"117":-0.04799976199865341,"118":-0.019792694598436356,"119":0.15062038600444794,"120":0.021308626979589462,"121":0.08127749711275101,"122":-0.11557986587285995,"123":-0.040405042469501495,"124":0.14493496716022491,"125":0.19379578530788422,"126":-0.08708099275827408,"127":-0.09818422049283981,"128":-0.1864602118730545,"129":-0.17164264619350433,"130":0.012037797830998898,"131":0.1285247504711151,"132":0.1507721096277237,"133":0.15536274015903473,"134":-0.036603473126888275,"135":0.01472284086048603,"136":0.13349752128124237,"137":0.15206480026245117,"138":-0.17300206422805786,"139":-0.18439212441444397,"140":-0.1107606589794159,"141":0.11508926749229431,"142":0.16047674417495728,"143":0.07846947759389877,"144":0.07932016998529434,"145":-0.013594809919595718,"146":-0.16284452378749847,"147":0.010318048298358917,"148":-0.11960840225219727,"149":0.11471343040466309,"150":-0.12774229049682617,"151":-0.10281512141227722,"152":-0.08919127285480499,"153":0.06379543244838715,"154":0.08191897720098495,"155":0.1935867965221405,"156":0.07895928621292114,"157":-0.16397227346897125,"158":0.14724095165729523,"159":-0.05726122483611107,"160":-0.0920930951833725,"161":0.13972438871860504,"162":-0.04868154600262642,"163":0.03612196072936058,"164":-0.11091898381710052,"165":0.15565446019172668,"166":0.020021876320242882,"167":0.15664921700954437,"168":-0.05050438642501831,"169":0.13118897378444672,"170":0.1389131098985672,"171":-0.16015402972698212,"172":-0.13569557666778564,"173":0.0035746823996305466,"174":-0.028025804087519646,"175":0.16909220814704895,"176":0.06783053278923035,"177":-0.16192395985126495,"178":-0.1858159750699997,"179":-0.17389331758022308,"180":0.0026549261528998613,"181":-0.08754314482212067,"182":-0.07610787451267242,"183":-0.05915837362408638,"184":0.00018725678091868758,"185":0.0032113983761519194,"186":0.0073755765333771706,"187":-0.19645008444786072,"188":0.010199311189353466,"189":-0.05383199453353882,"190":0.18758998811244965,"191":-0.09512710571289062,"192":0.04322916269302368,"193":-0.1881142109632492,"194":-0.09233039617538452,"195":0.07502763718366623,"196":0.15906639397144318,"197":-0.012624778784811497,"198":0.05341033637523651,"199":0.056526195257902145,"200":0.054201286286115646,"201":-0.1989675611257553,"202":-0.11072250455617905,"203":0.19333887100219727,"204":-0.02846318483352661,"205":-0.0794634148478508,"206":-0.19881440699100494,"207":0.04010866582393646,"208":0.10432218015193939,"209":0.06641340255737305,"210":0.10706018656492233,"211":-0.07375312596559525,"212":-0.03908958658576012,"213":0.02728460542857647,"214":-0.003610091982409358,"215":0.1852131336927414,"216":0.051308851689100266,"217":-0.18299371004104614,"218":-0.14938218891620636,"219":0.07007118314504623,"220":0.1137416809797287,"221":0.14378954470157623,"222":0.18749286234378815,"223":0.07603570073843002,"224":-0.17909564077854156,"225":-0.02798607386648655,"226":0.009365142323076725,"227":-0.1903000921010971,"228":0.0264862272888422}},"10":{"bias":0.0017331577837467194,"weights":{"0":-0.1593274474143982,"1":0.09627243876457214,"2":-0.14215026795864105,"3":-0.17552734911441803,"4":0.13154034316539764,"5":-0.190261572599411,"6":-0.1839113086462021,"7":-0.150223508477211,"8":0.06563010066747665,"9":-0.19606196880340576,"10":0.1623544692993164,"11":0.15747573971748352,"12":-0.18821769952774048,"13":0.1968686729669571,"14":-0.1951616108417511,"15":0.07787056267261505,"16":-0.020224861800670624,"17":0.15291297435760498,"18":-0.05836949124932289,"19":0.1300957053899765,"20":-0.11681061238050461,"21":0.045033253729343414,"22":0.1358245313167572,"23":0.12359148263931274,"24":-0.17065423727035522,"25":-0.17218685150146484,"26":0.13774651288986206,"27":-0.007915271446108818,"28":-0.06593351066112518,"29":-0.03615698218345642,"30":0.018986737355589867,"31":0.106776662170887,"32":-0.014010298997163773,"33":-0.05435393005609512,"34":0.12878310680389404,"35":-0.07549341022968292,"36":-0.11207804083824158,"37":-0.09543924778699875,"38":-0.07996893674135208,"39":0.19154495000839233,"40":0.03694652020931244,"41":0.15658442676067352,"42":0.09620478004217148,"43":0.1413998156785965,"44":-0.0010847807861864567,"45":0.1364896148443222,"46":-0.036070458590984344,"47":0.10842902958393097,"48":0.03385990485548973,"49":0.14501413702964783,"50":-0.137563094496727,"51":0.13885168731212616,"52":0.1200084388256073,"53":0.10855323076248169,"54":0.1532067209482193,"55":0.019495045766234398,"56":-0.10213229060173035,"57":-0.10893198847770691,"58":0.03391042724251747,"59":0.13359767198562622,"60":-0.18090380728244781,"61":-0.13654030859470367,"62":-0.1260775774717331,"63":0.10511776059865952,"64":0.000035495282645570114,"65":-0.19822494685649872,"66":-0.026526115834712982,"67":0.1610550880432129,"68":-0.10647188127040863,"69":-0.1845710277557373,"70":-0.029313677921891212,"71":-0.16145439445972443,"72":-0.029343456029891968,"73":0.09542371332645416,"74":0.12205834686756134,"75":0.08198393881320953,"76":0.1168021410703659,"77":-0.07694406062364578,"78":0.06880458444356918,"79":0.11320484429597855,"80":0.011471937410533428,"81":0.12178047746419907,"82":0.028368081897497177,"83":0.08325150609016418,"84":0.09705861657857895,"85":0.1779985874891281,"86":-0.015504075214266777,"87":-0.031623683869838715,"88":0.030002180486917496,"89":0.019406532868742943,"90":0.06944962590932846,"91":-0.09419400244951248,"92":-0.07364031672477722,"93":-0.02911486104130745,"94":0.1483345627784729,"95":-0.10612373799085617,"96":0.061544910073280334,"97":-0.05208046734333038,"98":-0.10001814365386963,"99":0.0014188153436407447,"100":-0.03306061029434204,"101":0.16667993366718292,"102":-0.13682407140731812,"103":-0.09020232409238815,"104":-0.15678611397743225,"105":0.1571776121854782,"106":0.14459583163261414,"107":-0.08085562288761139,"108":0.029207268729805946,"109":0.07571116089820862,"110":0.19549699127674103,"111":-0.015658371150493622,"112":0.06410643458366394,"113":-0.057076793164014816,"114":0.08062396198511124,"115":-0.10104230046272278,"116":0.08334895223379135,"117":0.17807820439338684,"118":-0.14241425693035126,"119":0.19591926038265228,"120":0.15867021679878235,"121":-0.17065858840942383,"122":0.07100959122180939,"123":0.13512301445007324,"124":-0.188682422041893,"125":0.05432810261845589,"126":-0.0029126652516424656,"127":0.007938452996313572,"128":-0.12829144299030304,"129":-0.13871212303638458,"130":-0.02511313557624817,"131":-0.11527763307094574,"132":0.1142866462469101,"133":0.13704852759838104,"134":0.058364253491163254,"135":-0.009651733562350273,"136":0.16198427975177765,"137":-0.08642926067113876,"138":-0.09132535010576248,"139":0.030389321967959404,"140":-0.03390936180949211,"141":0.017074178904294968,"142":-0.04223492369055748,"143":-0.18895207345485687,"144":-0.1345178633928299,"145":-0.13663434982299805,"146":-0.17349764704704285,"147":-0.07904088497161865,"148":-0.053584642708301544,"149":-0.15149584412574768,"150":0.1545744091272354,"151":0.014366721734404564,"152":0.15044786036014557,"153":0.08640749007463455,"154":0.001045733573846519,"155":-0.02736644260585308,"156":0.14289115369319916,"157":-0.11921075731515884,"158":0.07418815046548843,"159":-0.09499860554933548,"160":0.1393585503101349,"161":-0.1222466379404068,"162":-0.10056958347558975,"163":-0.18015417456626892,"164":0.17496754229068756,"165":-0.030277619138360023,"166":-0.025145813822746277,"167":0.0625510886311531,"168":-0.05122300237417221,"169":-0.1518275886774063,"170":-0.051787883043289185,"171":0.055296141654253006,"172":0.01697753183543682,"173":-0.18451359868049622,"174":0.04434121027588844,"175":-0.13867652416229248,"176":-0.13876818120479584,"177":-0.16900119185447693,"178":0.15019407868385315,"179":0.0849098414182663,"180":0.014958701096475124,"181":-0.013089299201965332,"182":-0.10045582801103592,"183":-0.17445698380470276,"184":-0.007843083702027798,"185":0.09674154222011566,"186":0.1311350017786026,"187":-0.1909767985343933,"188":0.0748990997672081,"189":0.04513586685061455,"190":0.03760354965925217,"191":0.11895449459552765,"192":-0.0658782497048378,"193":0.019951559603214264,"194":-0.16866549849510193,"195":-0.04673469066619873,"196":0.1135597825050354,"197":-0.19544541835784912,"198":-0.05941714718937874,"199":-0.018846886232495308,"200":-0.07832033932209015,"201":0.05308019369840622,"202":-0.17167386412620544,"203":-0.0022695919033139944,"204":-0.08431408554315567,"205":-0.0685376524925232,"206":-0.09690488874912262,"207":0.11671599745750427,"208":-0.15932069718837738,"209":-0.04004676640033722,"210":-0.0607878752052784,"211":-0.09684353321790695,"212":-0.18671083450317383,"213":0.1020897626876831,"214":0.0712798610329628,"215":0.08815158158540726,"216":0.0750085711479187,"217":-0.14460892975330353,"218":-0.08018657565116882,"219":0.0598904974758625,"220":-0.10738707333803177,"221":0.09993145614862442,"222":-0.11159778386354446,"223":0.0534961111843586,"224":-0.14720164239406586,"225":0.12856364250183105,"226":0.11772097647190094,"227":-0.043555017560720444,"228":-0.018132489174604416}},"11":{"bias":-0.09246434271335602,"weights":{"0":-0.053668227046728134,"1":-0.01651058904826641,"2":-0.1175721287727356,"3":0.1390431523323059,"4":-0.15405970811843872,"5":-0.025498507544398308,"6":0.01020073052495718,"7":0.02836276777088642,"8":0.1232285276055336,"9":-0.0009568413952365518,"10":0.045196834951639175,"11":0.01868605427443981,"12":-0.15194378793239594,"13":-0.0049879164434969425,"14":-0.12066652625799179,"15":-0.1913023740053177,"16":-0.05100264400243759,"17":-0.013388821855187416,"18":-0.0038284461479634047,"19":-0.1483588069677353,"20":0.10863523185253143,"21":0.15469005703926086,"22":0.15731412172317505,"23":-0.05600948631763458,"24":-0.15873177349567413,"25":-0.07184585928916931,"26":-0.16068796813488007,"27":-0.19451406598091125,"28":-0.17565599083900452,"29":0.07936135679483414,"30":-0.03664963319897652,"31":-0.15286391973495483,"32":-0.12495021522045135,"33":-0.05228036269545555,"34":-0.03721066191792488,"35":-0.03941414877772331,"36":0.0393449030816555,"37":-0.039779454469680786,"38":-0.1866418868303299,"39":0.020981889218091965,"40":0.10932701826095581,"41":0.07814725488424301,"42":-0.03258473798632622,"43":-0.04320238158106804,"44":0.06021483242511749,"45":0.0852370336651802,"46":-0.10265844315290451,"47":-0.10318537801504135,"48":-0.06811022758483887,"49":0.12410913407802582,"50":-0.10101018846035004,"51":0.16325277090072632,"52":0.039471279829740524,"53":0.08954288065433502,"54":0.006129600573331118,"55":0.13106650114059448,"56":0.1942087560892105,"57":-0.11484770476818085,"58":-0.007700508460402489,"59":0.14136150479316711,"60":0.10594752430915833,"61":-0.19314990937709808,"62":-0.13921017944812775,"63":-0.07484925538301468,"64":-0.01684807986021042,"65":-0.08403927087783813,"66":0.17473334074020386,"67":-0.089241623878479,"68":-0.014581089839339256,"69":0.15551690757274628,"70":0.07348597049713135,"71":0.03671924024820328,"72":0.05490374565124512,"73":-0.09597666561603546,"74":0.1449117660522461,"75":-0.16193540394306183,"76":0.02407550811767578,"77":-0.07381357997655869,"78":-0.06446515768766403,"79":-0.09175886958837509,"80":0.12699086964130402,"81":-0.06526924669742584,"82":0.0028149010613560677,"83":-0.13290619850158691,"84":-0.12250415980815887,"85":0.19088853895664215,"86":0.09269262105226517,"87":0.011825025081634521,"88":-0.11619199067354202,"89":0.18843424320220947,"90":-0.07328194379806519,"91":0.04164307564496994,"92":0.041966430842876434,"93":0.10886559635400772,"94":-0.03697000443935394,"95":0.06444016844034195,"96":-0.1999996453523636,"97":-0.011740727350115776,"98":-0.1941743940114975,"99":0.032838743180036545,"100":0.16826488077640533,"101":0.1657426357269287,"102":-0.19525697827339172,"103":0.08840885013341904,"104":0.16650457680225372,"105":0.12688089907169342,"106":-0.19061367213726044,"107":-0.146844744682312,"108":0.14055238664150238,"109":-0.053763844072818756,"110":0.12017550319433212,"111":0.08546639233827591,"112":0.11230635643005371,"113":-0.14093494415283203,"114":-0.07682394981384277,"115":0.12789513170719147,"116":0.11949342489242554,"117":0.10457345098257065,"118":0.052393633872270584,"119":-0.1197250708937645,"120":-0.16787958145141602,"121":-0.10740949958562851,"122":0.03659713640809059,"123":-0.02206062152981758,"124":0.1648552119731903,"125":-0.12172658741474152,"126":0.07359328866004944,"127":0.015777654945850372,"128":0.05556025728583336,"129":-0.158467635512352,"130":0.13540363311767578,"131":-0.10899745672941208,"132":-0.09788907319307327,"133":-0.12516948580741882,"134":-0.060733068734407425,"135":0.0976947620511055,"136":-0.09845289587974548,"137":0.04471029341220856,"138":0.18342728912830353,"139":0.08644700795412064,"140":-0.13145989179611206,"141":-0.17626680433750153,"142":0.121266670525074,"143":-0.10778293013572693,"144":0.032239001244306564,"145":-0.04329598322510719,"146":-0.0017112665809690952,"147":-0.141521155834198,"148":0.18845045566558838,"149":-0.18872058391571045,"150":-0.01213123369961977,"151":-0.10249949991703033,"152":-0.1314021646976471,"153":0.08103232830762863,"154":-0.15953505039215088,"155":-0.10148753970861435,"156":-0.1960522085428238,"157":-0.13851109147071838,"158":0.17695482075214386,"159":0.11135565489530563,"160":0.058080580085515976,"161":0.19327649474143982,"162":0.07174859941005707,"163":-0.17341549694538116,"164":0.029147977009415627,"165":-0.07824115455150604,"166":-0.01850326545536518,"167":0.012101375497877598,"168":-0.06496117264032364,"169":-0.13377659022808075,"170":0.112552709877491,"171":0.09805240482091904,"172":0.08964335173368454,"173":0.13893674314022064,"174":0.10565220564603806,"175":0.13705438375473022,"176":0.016411663964390755,"177":0.03259830176830292,"178":-0.003558936296030879,"179":-0.1722908616065979,"180":0.16485810279846191,"181":0.1506737917661667,"182":0.14571931958198547,"183":0.05359482765197754,"184":0.11238803714513779,"185":0.09716170281171799,"186":0.0918455570936203,"187":0.14873191714286804,"188":-0.008827179670333862,"189":0.175242081284523,"190":0.030739016830921173,"191":-0.18588440120220184,"192":-0.18097497522830963,"193":-0.17128458619117737,"194":-0.007373574655503035,"195":0.06222469359636307,"196":0.003392861457541585,"197":-0.16949084401130676,"198":-0.03162306919693947,"199":-0.13887876272201538,"200":-0.07609648257493973,"201":-0.06002943590283394,"202":0.07504522800445557,"203":0.14674077928066254,"204":0.10568834841251373,"205":0.09308528900146484,"206":0.08839448541402817,"207":0.0735926702618599,"208":0.05241751670837402,"209":-0.09666090458631516,"210":0.07255445420742035,"211":0.02896002307534218,"212":-0.05809452384710312,"213":0.11518985778093338,"214":-0.11144950240850449,"215":-0.19386273622512817,"216":-0.1746874302625656,"217":0.001228212146088481,"218":0.13187889754772186,"219":0.004874715581536293,"220":-0.12590856850147247,"221":0.1955370157957077,"222":-0.1987403929233551,"223":0.05385621264576912,"224":-0.1602374017238617,"225":0.1363430619239807,"226":-0.04864729195833206,"227":0.146860271692276,"228":0.09923189878463745}},"12":{"bias":-0.021376004442572594,"weights":{"0":0.12004724144935608,"1":-0.021295804530382156,"2":-0.1967160552740097,"3":-0.1589728742837906,"4":0.06313689798116684,"5":0.05924736335873604,"6":-0.1120583638548851,"7":0.11032397300004959,"8":0.1376325637102127,"9":-0.18049000203609467,"10":-0.17329569160938263,"11":-0.17738674581050873,"12":-0.169998437166214,"13":0.14161154627799988,"14":0.16481222212314606,"15":0.03899610787630081,"16":0.12354414165019989,"17":-0.11734900623559952,"18":-0.07769319415092468,"19":0.1103900596499443,"20":0.1171603798866272,"21":-0.14685872197151184,"22":-0.11980517953634262,"23":-0.052121229469776154,"24":0.0670672357082367,"25":-0.10515677183866501,"26":-0.1259496510028839,"27":-0.15122738480567932,"28":0.09062324464321136,"29":-0.055638160556554794,"30":0.1835477203130722,"31":0.10485967993736267,"32":-0.022500639781355858,"33":0.1624908149242401,"34":0.061973877251148224,"35":0.025851691141724586,"36":0.04877583682537079,"37":-0.0618300624191761,"38":-0.10942358523607254,"39":-0.05981781706213951,"40":0.029021859169006348,"41":0.14358152449131012,"42":0.11638239026069641,"43":0.03219686821103096,"44":-0.1536613255739212,"45":0.08781672269105911,"46":-0.010230221785604954,"47":0.033024922013282776,"48":-0.14275284111499786,"49":-0.12748503684997559,"50":0.1384485512971878,"51":0.06965235620737076,"52":0.17620685696601868,"53":-0.10106847435235977,"54":0.15693025290966034,"55":0.05503084138035774,"56":-0.20121976733207703,"57":-0.16043613851070404,"58":0.10167063772678375,"59":0.12850677967071533,"60":-0.15835508704185486,"61":0.13173046708106995,"62":-0.08114560693502426,"63":0.05037932097911835,"64":-0.16704516112804413,"65":0.17141112685203552,"66":0.08043269068002701,"67":-0.05627117305994034,"68":0.015666423365473747,"69":-0.10583485662937164,"70":0.056412309408187866,"71":0.10668733716011047,"72":0.037898749113082886,"73":0.10259255766868591,"74":-0.0041303145699203014,"75":0.024659018963575363,"76":0.02903696708381176,"77":-0.1391202211380005,"78":-0.0730665996670723,"79":-0.15068040788173676,"80":-0.16143564879894257,"81":-0.14406104385852814,"82":0.16940803825855255,"83":0.002679504221305251,"84":0.1806224286556244,"85":0.17260555922985077,"86":0.14555129408836365,"87":0.16463690996170044,"88":-0.0029876679182052612,"89":-0.030215179547667503,"90":0.1820516735315323,"91":-0.030371682718396187,"92":-0.005777640733867884,"93":0.19025063514709473,"94":-0.18411238491535187,"95":0.01289545651525259,"96":0.1568765491247177,"97":-0.1680639684200287,"98":-0.010870268568396568,"99":-0.028689106926321983,"100":-0.1770680844783783,"101":0.09169157594442368,"102":-0.01622352935373783,"103":0.09202700853347778,"104":0.19628995656967163,"105":0.19078581035137177,"106":-0.03714732080698013,"107":0.1551358550786972,"108":0.13532906770706177,"109":-0.18462300300598145,"110":-0.13486051559448242,"111":0.17230743169784546,"112":0.06796762347221375,"113":-0.1446368396282196,"114":0.11135852336883545,"115":0.1544400006532669,"116":-0.07512189447879791,"117":0.19571298360824585,"118":-0.15809276700019836,"119":-0.08117759972810745,"120":0.13909031450748444,"121":-0.023620493710041046,"122":-0.007669450715184212,"123":-0.05944868177175522,"124":-0.10698717832565308,"125":0.1380225270986557,"126":-0.10350438207387924,"127":-0.06995867192745209,"128":0.10784000903367996,"129":-0.0638970285654068,"130":0.043057121336460114,"131":-0.07090559601783752,"132":0.15199533104896545,"133":-0.11711778491735458,"134":0.12148549407720566,"135":-0.15305040776729584,"136":0.1904946267604828,"137":0.16360928118228912,"138":-0.10307025909423828,"139":-0.11639823019504547,"140":0.016528842970728874,"141":-0.1927221417427063,"142":0.16100993752479553,"143":-0.12418156862258911,"144":0.12270161509513855,"145":-0.06840252876281738,"146":0.15395043790340424,"147":-0.08594261854887009,"148":-0.03531363233923912,"149":-0.15182247757911682,"150":0.18396055698394775,"151":-0.17720426619052887,"152":-0.1986950784921646,"153":-0.13579829037189484,"154":0.16639171540737152,"155":0.04218854382634163,"156":-0.0030927052721381187,"157":-0.031671736389398575,"158":-0.011432175524532795,"159":0.1358751356601715,"160":-0.07977786660194397,"161":0.05458426848053932,"162":0.0019059042679145932,"163":-0.1450204998254776,"164":0.11012570559978485,"165":-0.1456969976425171,"166":-0.16388647258281708,"167":-0.11911389976739883,"168":0.0016521348152309656,"169":0.0998331755399704,"170":0.12847034633159637,"171":-0.05941518023610115,"172":-0.1872185915708542,"173":0.053667809814214706,"174":-0.17417386174201965,"175":-0.07677090167999268,"176":0.15933433175086975,"177":-0.13819175958633423,"178":-0.1441313475370407,"179":-0.074261873960495,"180":0.16371233761310577,"181":0.11897189915180206,"182":0.12453040480613708,"183":0.09095773100852966,"184":-0.07058423012495041,"185":-0.09923891723155975,"186":-0.05260232836008072,"187":-0.012823008000850677,"188":0.1908198893070221,"189":0.12893763184547424,"190":-0.07396509498357773,"191":0.037123698741197586,"192":-0.04714725911617279,"193":0.18990927934646606,"194":0.09060977399349213,"195":0.08920682221651077,"196":0.029963497072458267,"197":-0.12192565947771072,"198":-0.08697863668203354,"199":-0.13167543709278107,"200":0.05029386281967163,"201":0.18522484600543976,"202":0.1481177806854248,"203":-0.08710053563117981,"204":0.13818004727363586,"205":-0.19497348368167877,"206":-0.1568509042263031,"207":-0.07397831976413727,"208":-0.16879522800445557,"209":-0.046397581696510315,"210":-0.1742521971464157,"211":-0.1557832807302475,"212":0.13649813830852509,"213":0.08695781230926514,"214":0.1391480267047882,"215":0.11401882022619247,"216":0.1454000174999237,"217":-0.050222087651491165,"218":-0.09522975236177444,"219":-0.03210461139678955,"220":0.12015683948993683,"221":-0.006165582686662674,"222":0.09229730814695358,"223":0.03684595227241516,"224":-0.05656290799379349,"225":0.1929977685213089,"226":-0.055160511285066605,"227":-0.19644764065742493,"228":0.10419716686010361}},"13":{"bias":-0.007990514859557152,"weights":{"0":0.11364809423685074,"1":0.10353374481201172,"2":0.1295098066329956,"3":0.08927314728498459,"4":0.04599861428141594,"5":0.16980327665805817,"6":0.2137487530708313,"7":-0.05541552975773811,"8":-0.018126530572772026,"9":-0.04403509572148323,"10":-0.1374424248933792,"11":0.16008810698986053,"12":-0.134435772895813,"13":0.013106231577694416,"14":0.1015460193157196,"15":0.21036295592784882,"16":0.15066580474376678,"17":0.11859392374753952,"18":-0.09002197533845901,"19":0.03317094221711159,"20":0.14766888320446014,"21":0.033559951931238174,"22":0.14126050472259521,"23":-0.11811584234237671,"24":-0.05741475895047188,"25":0.15921249985694885,"26":-0.10566030442714691,"27":-0.1673824042081833,"28":-0.07296371459960938,"29":0.09208734333515167,"30":0.046782758086919785,"31":0.043425437062978745,"32":0.08602149784564972,"33":0.001799731981009245,"34":-0.03117036260664463,"35":-0.060710273683071136,"36":0.2103477269411087,"37":-0.15216977894306183,"38":0.15976126492023468,"39":-0.04838089644908905,"40":-0.1305876225233078,"41":-0.12176824361085892,"42":-0.06204800307750702,"43":-0.03547173738479614,"44":0.07357458025217056,"45":-0.04410816729068756,"46":-0.03542432188987732,"47":0.15797805786132812,"48":-0.174250528216362,"49":-0.11611085385084152,"50":-0.1351466029882431,"51":0.14547637104988098,"52":0.1382279098033905,"53":0.1872890144586563,"54":-0.16092969477176666,"55":0.09661164879798889,"56":-0.018720293417572975,"57":0.07832220196723938,"58":-0.16585814952850342,"59":0.01857748255133629,"60":-0.06739626824855804,"61":0.1967269480228424,"62":-0.09180080890655518,"63":-0.05548282340168953,"64":0.002248990349471569,"65":0.19466212391853333,"66":0.009169664233922958,"67":0.0729844868183136,"68":-0.003963317722082138,"69":0.04929257184267044,"70":0.030555885285139084,"71":0.1929354965686798,"72":0.04042264446616173,"73":0.15487362444400787,"74":0.1367185264825821,"75":0.1366727352142334,"76":0.0035532633773982525,"77":0.2056785672903061,"78":-0.1730339676141739,"79":-0.04944457858800888,"80":0.01860283873975277,"81":0.19460275769233704,"82":0.19397422671318054,"83":-0.010533764027059078,"84":0.025790244340896606,"85":0.10409576445817947,"86":0.08345974236726761,"87":0.11202099174261093,"88":-0.03470108285546303,"89":0.04409939795732498,"90":-0.030461980029940605,"91":-0.003617561422288418,"92":0.07517709583044052,"93":0.07971363514661789,"94":-0.03991016000509262,"95":-0.0807240679860115,"96":0.18386343121528625,"97":0.02460576593875885,"98":0.2169170379638672,"99":-0.08045444637537003,"100":-0.16856490075588226,"101":-0.007128134369850159,"102":-0.1401127427816391,"103":-0.14949023723602295,"104":-0.02612798660993576,"105":0.09170836210250854,"106":-0.15223276615142822,"107":-0.08093778043985367,"108":0.035223718732595444,"109":0.16701576113700867,"110":0.0980440303683281,"111":0.19810140132904053,"112":-0.09229283779859543,"113":0.04782184958457947,"114":0.20209114253520966,"115":0.03343839943408966,"116":0.12533757090568542,"117":0.16289417445659637,"118":0.1622246950864792,"119":0.20249022543430328,"120":0.19380858540534973,"121":-0.04142754152417183,"122":-0.054931625723838806,"123":0.1284155696630478,"124":-0.010375852696597576,"125":0.06320063769817352,"126":0.16698957979679108,"127":-0.0476372055709362,"128":-0.08528541773557663,"129":-0.06642453372478485,"130":0.12224872410297394,"131":-0.03222667798399925,"132":0.03802141919732094,"133":-0.118630051612854,"134":-0.15188083052635193,"135":0.02211742289364338,"136":0.03552225977182388,"137":-0.08726491779088974,"138":-0.037416182458400726,"139":0.17524583637714386,"140":0.12247109413146973,"141":0.17678572237491608,"142":0.022530222311615944,"143":0.033234577625989914,"144":0.09918344020843506,"145":-0.11633477360010147,"146":-0.13572219014167786,"147":-0.12879586219787598,"148":-0.13847622275352478,"149":0.16043372452259064,"150":0.18298561871051788,"151":-0.08416669815778732,"152":-0.07298209518194199,"153":0.132212832570076,"154":-0.0611831434071064,"155":0.14307403564453125,"156":-0.15006963908672333,"157":0.0870908573269844,"158":0.10070628672838211,"159":0.09601770341396332,"160":-0.08705965429544449,"161":-0.16333074867725372,"162":-0.13434000313282013,"163":0.18720629811286926,"164":0.06261109560728073,"165":0.05882270634174347,"166":-0.15769824385643005,"167":-0.17417238652706146,"168":-0.12508733570575714,"169":-0.029522700235247612,"170":0.12013042718172073,"171":0.20475110411643982,"172":-0.12079809606075287,"173":-0.16021515429019928,"174":0.11504100263118744,"175":-0.15552926063537598,"176":0.21479733288288116,"177":-0.123489148914814,"178":-0.10054085403680801,"179":-0.0023372555151581764,"180":0.16237318515777588,"181":0.14447587728500366,"182":-0.1349307894706726,"183":-0.07301776111125946,"184":-0.12527614831924438,"185":-0.05074838176369667,"186":0.16934499144554138,"187":0.12964458763599396,"188":0.04638155549764633,"189":0.20739538967609406,"190":0.09497322887182236,"191":-0.15329332649707794,"192":-0.07352066785097122,"193":-0.033913444727659225,"194":-0.1269989162683487,"195":-0.1006721556186676,"196":-0.08444350212812424,"197":-0.16855488717556,"198":0.18466515839099884,"199":-0.05192424729466438,"200":-0.17333132028579712,"201":-0.06408572196960449,"202":0.05496109649538994,"203":0.0034431610256433487,"204":-0.008081071078777313,"205":0.043154217302799225,"206":0.018300535157322884,"207":-0.14784148335456848,"208":-0.11074784398078918,"209":0.14329154789447784,"210":0.01165124773979187,"211":0.003000173717737198,"212":0.05579284206032753,"213":-0.0025317331310361624,"214":-0.1623552143573761,"215":0.13567276298999786,"216":0.008670927956700325,"217":0.06953784823417664,"218":0.11807268857955933,"219":-0.09161151200532913,"220":0.08813630044460297,"221":-0.08602061867713928,"222":0.17693190276622772,"223":-0.1606287807226181,"224":-0.15718092024326324,"225":-0.12953738868236542,"226":0.12314162403345108,"227":0.26272815465927124,"228":-0.11289975792169571}},"14":{"bias":-0.16608431935310364,"weights":{"0":-0.18491342663764954,"1":0.0038558868691325188,"2":0.13049425184726715,"3":-0.027557184919714928,"4":0.08279459923505783,"5":-0.10260850191116333,"6":-0.1663566380739212,"7":-0.04144422337412834,"8":-0.07356472313404083,"9":0.1583130657672882,"10":0.12655964493751526,"11":0.1508895456790924,"12":0.02396886982023716,"13":-0.030268803238868713,"14":-0.05096479505300522,"15":-0.18987280130386353,"16":-0.06068247929215431,"17":0.06463530659675598,"18":0.007876578718423843,"19":0.10195467621088028,"20":-0.07229086011648178,"21":0.12774531543254852,"22":-0.2049223929643631,"23":0.0002634258707985282,"24":-0.03049936331808567,"25":-0.17706261575222015,"26":0.17017579078674316,"27":0.11148359626531601,"28":-0.16048894822597504,"29":-0.1929187923669815,"30":-0.17816895246505737,"31":-0.20002013444900513,"32":0.14242643117904663,"33":-0.035981934517621994,"34":-0.08706095069646835,"35":-0.09861595183610916,"36":0.1245839074254036,"37":0.03865938261151314,"38":-0.10974589735269547,"39":-0.026932943612337112,"40":-0.13201332092285156,"41":0.17516721785068512,"42":-0.053415846079587936,"43":-0.045351047068834305,"44":-0.026806877925992012,"45":0.1345893144607544,"46":-0.11301897466182709,"47":-0.078306645154953,"48":0.07781852036714554,"49":0.11717904359102249,"50":-0.10539558529853821,"51":0.03696303069591522,"52":-0.11744681000709534,"53":-0.20933398604393005,"54":-0.15650370717048645,"55":-0.13573451340198517,"56":-0.011319459415972233,"57":-0.20566363632678986,"58":0.00038619869155809283,"59":-0.052251581102609634,"60":0.14159026741981506,"61":-0.20194151997566223,"62":-0.04760034382343292,"63":0.06605534255504608,"64":0.18468455970287323,"65":0.1734430342912674,"66":0.040149956941604614,"67":-0.06598708033561707,"68":-0.008629282005131245,"69":-0.1624574065208435,"70":0.028696393594145775,"71":-0.12549568712711334,"72":-0.0011040805839002132,"73":-0.1173776313662529,"74":0.0632944256067276,"75":0.14702564477920532,"76":0.10532081872224808,"77":-0.03598402440547943,"78":-0.17897677421569824,"79":0.13909730315208435,"80":0.08948808908462524,"81":-0.1312161237001419,"82":0.07414139807224274,"83":0.17270316183567047,"84":0.11663451790809631,"85":-0.007981853559613228,"86":-0.20234894752502441,"87":0.01000936422497034,"88":0.06829938292503357,"89":-0.003465537913143635,"90":0.05855255573987961,"91":0.04459886997938156,"92":0.09287819266319275,"93":0.17490704357624054,"94":-0.1553635597229004,"95":-0.15743818879127502,"96":0.0849938690662384,"97":-0.0465594045817852,"98":-0.015381303615868092,"99":0.08313558995723724,"100":0.1318945735692978,"101":0.10243145376443863,"102":-0.07851343601942062,"103":0.0970403179526329,"104":0.053092263638973236,"105":-0.1493387073278427,"106":-0.11655274033546448,"107":0.1751430332660675,"108":-0.15939010679721832,"109":0.07395672053098679,"110":-0.10652642697095871,"111":-0.20840173959732056,"112":-0.057063791900873184,"113":0.09608446806669235,"114":0.09580778330564499,"115":-0.04762015491724014,"116":0.0937729999423027,"117":-0.14482134580612183,"118":0.1234874576330185,"119":0.10024520009756088,"120":-0.07277252525091171,"121":-0.12774142622947693,"122":0.10252413898706436,"123":0.1794283241033554,"124":-0.07045989483594894,"125":-0.013128994964063168,"126":0.06980886310338974,"127":-0.030729742720723152,"128":-0.0669151097536087,"129":-0.058259449899196625,"130":-0.13185562193393707,"131":-0.05583954229950905,"132":-0.02973303012549877,"133":0.11056847870349884,"134":0.12702235579490662,"135":-0.20742563903331757,"136":0.09723789989948273,"137":0.0583479218184948,"138":0.12922194600105286,"139":0.047532279044389725,"140":-0.18933120369911194,"141":0.13918021321296692,"142":-0.19001320004463196,"143":0.17460355162620544,"144":-0.19986435770988464,"145":-0.1261129379272461,"146":0.015202908776700497,"147":-0.04050238057971001,"148":-0.12173561006784439,"149":0.04869939386844635,"150":0.0631827786564827,"151":-0.045372333377599716,"152":0.10243344306945801,"153":-0.02816849574446678,"154":-0.08335937559604645,"155":-0.05494847148656845,"156":-0.05503370240330696,"157":0.09879214316606522,"158":0.045229483395814896,"159":0.06506384909152985,"160":-0.0785137414932251,"161":0.03574496507644653,"162":0.06819333136081696,"163":-0.19813604652881622,"164":-0.04700484126806259,"165":0.1433105170726776,"166":0.07741197198629379,"167":0.1020827442407608,"168":0.18347829580307007,"169":0.02854415960609913,"170":-0.19502457976341248,"171":0.12843967974185944,"172":0.105535127222538,"173":-0.08775980770587921,"174":-0.11565187573432922,"175":-0.017286010086536407,"176":0.07515305280685425,"177":0.09656263887882233,"178":0.05590016394853592,"179":0.07083262503147125,"180":-0.05810217559337616,"181":-0.09030637890100479,"182":-0.10849519819021225,"183":0.07501460611820221,"184":-0.013187927193939686,"185":0.010226833634078503,"186":0.051957130432128906,"187":0.08395843952894211,"188":-0.12781105935573578,"189":-0.06874287128448486,"190":0.05023721233010292,"191":0.1869731843471527,"192":-0.16075365245342255,"193":0.16330941021442413,"194":-0.1137758269906044,"195":-0.13592763245105743,"196":0.14359056949615479,"197":0.01887117512524128,"198":-0.17639142274856567,"199":0.15116524696350098,"200":0.1113448292016983,"201":0.12486345320940018,"202":-0.03712078183889389,"203":0.18900753557682037,"204":-0.17691417038440704,"205":0.17612731456756592,"206":-0.02113565430045128,"207":0.1307040899991989,"208":-0.11458034068346024,"209":-0.05572417378425598,"210":-0.14379924535751343,"211":-0.13917559385299683,"212":-0.051610853523015976,"213":0.18193110823631287,"214":0.17855629324913025,"215":0.08068644255399704,"216":-0.09196010231971741,"217":0.17915233969688416,"218":0.16848263144493103,"219":-0.12068486213684082,"220":0.14430683851242065,"221":0.17321403324604034,"222":0.09362770617008209,"223":-0.05779934674501419,"224":-0.07872001826763153,"225":-0.01986325904726982,"226":-0.06619876623153687,"227":-0.10212386399507523,"228":0.1402413249015808}},"15":{"bias":-0.09057513624429703,"weights":{"0":0.057246655225753784,"1":-0.09064319729804993,"2":0.004098048433661461,"3":-0.12480966746807098,"4":-0.19782176613807678,"5":-0.18608570098876953,"6":0.1513979434967041,"7":-0.059769801795482635,"8":0.1254226267337799,"9":-0.05472797155380249,"10":0.049994949251413345,"11":0.1756925880908966,"12":0.007032919675111771,"13":0.1901170164346695,"14":-0.06587739288806915,"15":0.06398136913776398,"16":0.05437420681118965,"17":-0.07620906084775925,"18":-0.12686966359615326,"19":0.1477520912885666,"20":0.11993508040904999,"21":-0.19020815193653107,"22":0.14053648710250854,"23":-0.07187701761722565,"24":0.16079045832157135,"25":-0.11733536422252655,"26":-0.06426408141851425,"27":0.02178306318819523,"28":0.011718121357262135,"29":-0.021016709506511688,"30":0.08275213092565536,"31":0.1219126358628273,"32":-0.12117787450551987,"33":0.08991608023643494,"34":-0.09808513522148132,"35":0.11938276141881943,"36":-0.12912783026695251,"37":0.17540811002254486,"38":-0.008092748001217842,"39":-0.0357336588203907,"40":0.12898363173007965,"41":0.10447487235069275,"42":-0.01266984548419714,"43":0.19292910397052765,"44":0.12214762717485428,"45":-0.03813009336590767,"46":0.12597882747650146,"47":0.09002578258514404,"48":0.15107476711273193,"49":-0.15234753489494324,"50":-0.07984596490859985,"51":-0.06690573692321777,"52":-0.02523556351661682,"53":0.10579898953437805,"54":-0.138710156083107,"55":0.041600748896598816,"56":0.007576642092317343,"57":-0.016375349834561348,"58":0.17785780131816864,"59":0.04642492160201073,"60":-0.10790912806987762,"61":-0.14637066423892975,"62":0.11780479550361633,"63":-0.14450719952583313,"64":-0.09878247231245041,"65":0.05405959114432335,"66":-0.06143723800778389,"67":0.04774584248661995,"68":-0.13527491688728333,"69":0.1109737828373909,"70":-0.09515901654958725,"71":0.09879308193922043,"72":-0.1798454225063324,"73":0.06994885951280594,"74":-0.12203864008188248,"75":-0.19373522698879242,"76":0.027849363163113594,"77":0.19908736646175385,"78":-0.09157095104455948,"79":0.14903263747692108,"80":-0.03740219399333,"81":-0.01434285007417202,"82":0.1184382513165474,"83":-0.1214340478181839,"84":-0.017889883369207382,"85":-0.018661562353372574,"86":0.14878804981708527,"87":0.0800701230764389,"88":0.0873258113861084,"89":-0.16613557934761047,"90":0.023765305057168007,"91":-0.03749347850680351,"92":0.15021821856498718,"93":0.06574143469333649,"94":0.06791722029447556,"95":-0.046585507690906525,"96":-0.06222319230437279,"97":-0.19136998057365417,"98":0.131720170378685,"99":-0.027546124532818794,"100":-0.15940161049365997,"101":0.19886790215969086,"102":-0.1517907679080963,"103":0.16309820115566254,"104":0.19042861461639404,"105":0.19740518927574158,"106":0.00932877603918314,"107":0.11288423091173172,"108":0.04935457557439804,"109":0.0557563379406929,"110":-0.18910975754261017,"111":0.16933219134807587,"112":-0.025799937546253204,"113":0.06418590992689133,"114":-0.031310636550188065,"115":-0.007190818898379803,"116":-0.18842709064483643,"117":-0.026669947430491447,"118":-0.13408251106739044,"119":-0.09642942994832993,"120":-0.16997070610523224,"121":-0.19382734596729279,"122":0.0020586084574460983,"123":-0.030519047752022743,"124":0.06374385952949524,"125":-0.14171721041202545,"126":-0.19206354022026062,"127":-0.1685681939125061,"128":-0.10057007521390915,"129":-0.11016511172056198,"130":-0.12213446199893951,"131":0.09567568451166153,"132":-0.12773485481739044,"133":-0.162790447473526,"134":0.120671346783638,"135":0.1870851069688797,"136":0.15657050907611847,"137":-0.1869518905878067,"138":-0.09481944143772125,"139":-0.03510385379195213,"140":0.14606675505638123,"141":-0.1610569953918457,"142":-0.09248324483633041,"143":-0.0580301471054554,"144":0.16707703471183777,"145":-0.07104391604661942,"146":-0.023783205077052116,"147":-0.01710200123488903,"148":-0.19570302963256836,"149":0.17649927735328674,"150":-0.10215310752391815,"151":-0.1693648099899292,"152":0.08473291993141174,"153":-0.0841510146856308,"154":0.060225710272789,"155":0.1653027981519699,"156":-0.07222944498062134,"157":0.17952921986579895,"158":0.04573828727006912,"159":-0.010943840257823467,"160":0.014397315680980682,"161":-0.10350868105888367,"162":0.20099352300167084,"163":0.1422145664691925,"164":0.06847305595874786,"165":0.0687507763504982,"166":-0.046875450760126114,"167":-0.1664014458656311,"168":0.15182076394557953,"169":-0.1270391345024109,"170":-0.03857453539967537,"171":-0.15459053218364716,"172":-0.053108036518096924,"173":0.15029680728912354,"174":0.062228526920080185,"175":0.03753245994448662,"176":0.10607828944921494,"177":-0.13037972152233124,"178":-0.18658234179019928,"179":0.005721568129956722,"180":-0.07153160125017166,"181":0.09870355576276779,"182":0.03451837599277496,"183":-0.17723286151885986,"184":-0.005985518917441368,"185":-0.05900711938738823,"186":0.018202634528279305,"187":-0.18929123878479004,"188":0.04033532366156578,"189":-0.04398506507277489,"190":-0.03772435337305069,"191":0.0643530860543251,"192":-0.11038888245820999,"193":0.13804104924201965,"194":-0.1067880317568779,"195":-0.032306406646966934,"196":-0.007951706647872925,"197":0.15426801145076752,"198":0.03655229136347771,"199":-0.14540806412696838,"200":0.05374603718519211,"201":0.021509507670998573,"202":-0.005603172350674868,"203":0.06177016347646713,"204":-0.17100244760513306,"205":0.20094627141952515,"206":0.17052499949932098,"207":-0.0447172075510025,"208":0.1245674192905426,"209":0.16917312145233154,"210":-0.14449778199195862,"211":0.05467085912823677,"212":0.17746120691299438,"213":-0.19632141292095184,"214":-0.0904257744550705,"215":-0.11822368204593658,"216":0.04453055188059807,"217":-0.17831958830356598,"218":-0.13802973926067352,"219":-0.015090851113200188,"220":0.1994113028049469,"221":-0.07514412701129913,"222":0.16560086607933044,"223":-0.12019918859004974,"224":-0.18702064454555511,"225":0.013622846454381943,"226":0.06900626420974731,"227":0.02691103145480156,"228":0.06185212731361389}},"16":{"bias":0.05587627366185188,"weights":{"0":-0.034283123910427094,"1":-0.19710107147693634,"2":-0.05830635502934456,"3":0.13775870203971863,"4":0.14106526970863342,"5":-0.16311852633953094,"6":-0.11954885721206665,"7":0.03194735199213028,"8":-0.13261765241622925,"9":-0.15321476757526398,"10":0.08694679290056229,"11":-0.12977690994739532,"12":0.04389810189604759,"13":0.17113280296325684,"14":0.026546092703938484,"15":-0.1637016236782074,"16":-0.0461738146841526,"17":0.005372664891183376,"18":0.05204663425683975,"19":-0.026528548449277878,"20":-0.006505017168819904,"21":-0.13515307009220123,"22":0.07440069317817688,"23":0.039533037692308426,"24":0.06756071001291275,"25":0.12298586964607239,"26":-0.15468847751617432,"27":0.18794500827789307,"28":-0.19073551893234253,"29":-0.04758096858859062,"30":-0.1388583779335022,"31":0.14591653645038605,"32":-0.16560548543930054,"33":0.1810322254896164,"34":-0.14909563958644867,"35":-0.01688806153833866,"36":-0.1308242231607437,"37":-0.030866257846355438,"38":0.09447664022445679,"39":-0.02994406223297119,"40":0.09012822806835175,"41":0.023184390738606453,"42":-0.05241166055202484,"43":-0.07551518827676773,"44":-0.17955352365970612,"45":0.032873377203941345,"46":0.17762476205825806,"47":-0.05926988273859024,"48":0.06590288877487183,"49":0.19346430897712708,"50":-0.15870347619056702,"51":-0.10314859449863434,"52":0.0939016193151474,"53":0.0021930369548499584,"54":0.022742971777915955,"55":0.17995992302894592,"56":0.042195893824100494,"57":0.026718946173787117,"58":0.18689820170402527,"59":-0.029668079689145088,"60":0.14354674518108368,"61":0.02435862086713314,"62":-0.0965593084692955,"63":-0.06237229332327843,"64":-0.12149452418088913,"65":-0.02601812221109867,"66":0.19272315502166748,"67":0.0002888106391765177,"68":-0.11235448718070984,"69":-0.1840248703956604,"70":-0.015137020498514175,"71":-0.06513594090938568,"72":0.10968925803899765,