{"sizes":[4,20,20,1],"layers":[{"0":{},"1":{},"2":{},"3":{}},{"0":{"bias":-0.15538355708122253,"weights":{"0":0.1626138687133789,"1":0.08712446689605713,"2":0.009450172074139118,"3":0.15833830833435059}},"1":{"bias":0.07486665993928909,"weights":{"0":0.17381013929843903,"1":-0.034831639379262924,"2":-0.13975557684898376,"3":-0.03963319584727287}},"2":{"bias":-0.03991930931806564,"weights":{"0":-0.0273126270622015,"1":0.17734241485595703,"2":0.1847410947084427,"3":-0.05203716456890106}},"3":{"bias":-0.17195405066013336,"weights":{"0":-0.10474255681037903,"1":-0.1869751214981079,"2":-0.08160670101642609,"3":0.07921469211578369}},"4":{"bias":-0.15484383702278137,"weights":{"0":0.0688936859369278,"1":0.06531207263469696,"2":0.08116646856069565,"3":-0.10790172964334488}},"5":{"bias":0.15458551049232483,"weights":{"0":-0.15126517415046692,"1":-0.10475914925336838,"2":0.08631915599107742,"3":-0.10276800394058228}},"6":{"bias":0.09998669475317001,"weights":{"0":0.04497503861784935,"1":-0.07358585298061371,"2":0.1271435171365738,"3":0.11178313940763474}},"7":{"bias":0.05345886945724487,"weights":{"0":-0.11183065176010132,"1":-0.13933363556861877,"2":-0.027684664353728294,"3":0.1367185264825821}},"8":{"bias":0.11114367842674255,"weights":{"0":0.02933378890156746,"1":0.01252676546573639,"2":-0.17275147140026093,"3":0.008129693567752838}},"9":{"bias":-0.019441600888967514,"weights":{"0":-0.04188477620482445,"1":-0.18435290455818176,"2":-0.002358783734962344,"3":-0.10010923445224762}},"10":{"bias":0.1910536140203476,"weights":{"0":0.13484781980514526,"1":-0.18310964107513428,"2":-0.06809821724891663,"3":0.13834382593631744}},"11":{"bias":0.0990256667137146,"weights":{"0":-0.16248586773872375,"1":0.0424458272755146,"2":-0.06321816891431808,"3":-0.0009549002279527485}},"12":{"bias":0.09737692028284073,"weights":{"0":0.03165276348590851,"1":-0.1225106343626976,"2":0.15911686420440674,"3":-0.044714294373989105}},"13":{"bias":0.16484735906124115,"weights":{"0":-0.15905632078647614,"1":0.1449662297964096,"2":0.11419635266065598,"3":-0.19256918132305145}},"14":{"bias":-0.10835827887058258,"weights":{"0":-0.00902010127902031,"1":0.08338683843612671,"2":0.029825102537870407,"3":0.10394930839538574}},"15":{"bias":-0.014904266223311424,"weights":{"0":-0.02394355647265911,"1":-0.02291642501950264,"2":0.02518174983561039,"3":-0.1321302354335785}},"16":{"bias":0.05840090289711952,"weights":{"0":-0.199090838432312,"1":0.16747373342514038,"2":0.07255533337593079,"3":-0.10683000832796097}},"17":{"bias":-0.16369657218456268,"weights":{"0":-0.11377089470624924,"1":0.11587909609079361,"2":-0.18596065044403076,"3":0.0023805974051356316}},"18":{"bias":0.12294077128171921,"weights":{"0":-0.12614578008651733,"1":-0.15746286511421204,"2":0.14392724633216858,"3":0.09233113378286362}},"19":{"bias":0.0517059750854969,"weights":{"0":-0.06358406692743301,"1":0.09132544696331024,"2":0.020595042034983635,"3":-0.1658942550420761}}},{"0":{"bias":0.172793447971344,"weights":{"0":0.15709388256072998,"1":-0.02100628986954689,"2":0.13119664788246155,"3":0.1567227691411972,"4":-0.028273332864046097,"5":-0.09066403657197952,"6":-0.17662224173545837,"7":-0.01845281571149826,"8":-0.11522281914949417,"9":0.05730053409934044,"10":0.013739186339080334,"11":0.00607950147241354,"12":-0.16120660305023193,"13":0.03251940757036209,"14":0.19858217239379883,"15":0.030319951474666595,"16":-0.017785411328077316,"17":0.08584389835596085,"18":0.09730552136898041,"19":0.160598486661911}},"1":{"bias":0.16924569010734558,"weights":{"0":-0.08412101119756699,"1":0.11465902626514435,"2":0.0013581523671746254,"3":0.19122880697250366,"4":-0.14983780682086945,"5":0.09778106957674026,"6":0.0814710259437561,"7":-0.09775527566671371,"8":-0.05566541105508804,"9":0.07516798377037048,"10":0.14080683887004852,"11":-0.04100064933300018,"12":0.0149986008182168,"13":-0.04411453753709793,"14":-0.14379021525382996,"15":0.11560017615556717,"16":-0.06282566487789154,"17":0.14540044963359833,"18":0.149377703666687,"19":-0.08002695441246033}},"2":{"bias":-0.19324667751789093,"weights":{"0":-0.14423106610774994,"1":0.12264595180749893,"2":0.025693245232105255,"3":-0.07618958503007889,"4":0.06597299873828888,"5":0.0170170646160841,"6":-0.03851562365889549,"7":-0.012581093236804008,"8":0.08964883536100388,"9":0.0555666983127594,"10":-0.03418920189142227,"11":0.03709578514099121,"12":-0.15455028414726257,"13":0.10355912894010544,"14":0.057156432420015335,"15":0.07838132232427597,"16":0.151513934135437,"17":-0.031225619837641716,"18":0.16031280159950256,"19":0.16053834557533264}},"3":{"bias":0.15946778655052185,"weights":{"0":-0.06948928534984589,"1":0.09016657620668411,"2":0.12469501793384552,"3":0.12747015058994293,"4":-0.16419343650341034,"5":0.16923314332962036,"6":0.05613713338971138,"7":-0.19444133341312408,"8":0.15611325204372406,"9":0.1047733724117279,"10":0.010507055558264256,"11":-0.06566717475652695,"12":-0.04866180196404457,"13":0.1894822120666504,"14":-0.015221556648612022,"15":0.11481349915266037,"16":-0.08382583409547806,"17":0.09016209840774536,"18":0.1687512993812561,"19":-0.07884416729211807}},"4":{"bias":0.04702702909708023,"weights":{"0":-0.06346587091684341,"1":0.011625507846474648,"2":-0.007953956723213196,"3":0.012174101546406746,"4":-0.03214060515165329,"5":-0.04478975385427475,"6":-0.19374389946460724,"7":-0.054306235164403915,"8":-0.17406877875328064,"9":0.14063800871372223,"10":-0.12241843342781067,"11":0.057705704122781754,"12":-0.004117713775485754,"13":-0.06899064034223557,"14":0.015555421821773052,"15":-0.13277725875377655,"16":-0.07241909205913544,"17":-0.12269344180822372,"18":0.08697133511304855,"19":-0.15040649473667145}},"5":{"bias":-0.04160764068365097,"weights":{"0":-0.1028151884675026,"1":0.1913173645734787,"2":0.0003628186823334545,"3":0.0649433508515358,"4":0.10720662772655487,"5":-0.056081920862197876,"6":-0.0450214184820652,"7":-0.0680297315120697,"8":-0.17252440750598907,"9":-0.040628496557474136,"10":0.012172508984804153,"11":0.0032978360541164875,"12":-0.0985017716884613,"13":0.07997825741767883,"14":-0.1560218632221222,"15":-0.12296789884567261,"16":-0.056834910064935684,"17":0.042248595505952835,"18":-0.17695264518260956,"19":0.1521189957857132}},"6":{"bias":0.19049054384231567,"weights":{"0":-0.17750966548919678,"1":0.11332209408283234,"2":0.07222878187894821,"3":0.10415016114711761,"4":-0.17011594772338867,"5":-0.07730501145124435,"6":-0.08798907697200775,"7":0.16346058249473572,"8":0.09917397797107697,"9":-0.1357732117176056,"10":-0.19940093159675598,"11":0.10801564157009125,"12":-0.045850519090890884,"13":-0.1192571297287941,"14":0.05180751904845238,"15":0.03324982896447182,"16":-0.020536940544843674,"17":0.15411671996116638,"18":0.1221369132399559,"19":0.11961222440004349}},"7":{"bias":-0.0682293251156807,"weights":{"0":0.1932995766401291,"1":-0.07482370734214783,"2":0.019170088693499565,"3":0.17588454484939575,"4":0.05855196341872215,"5":-0.1519067883491516,"6":-0.12919321656227112,"7":0.16009216010570526,"8":-0.0963512659072876,"9":0.03135412186384201,"10":0.15608881413936615,"11":-0.17839962244033813,"12":-0.023686761036515236,"13":-0.06460217386484146,"14":0.21227413415908813,"15":-0.052465055137872696,"16":0.09384150803089142,"17":-0.09318023175001144,"18":0.0072332462295889854,"19":0.20322397351264954}},"8":{"bias":0.03882274031639099,"weights":{"0":0.05690339207649231,"1":-0.13892194628715515,"2":-0.07311084866523743,"3":0.01661863550543785,"4":0.06575119495391846,"5":-0.15928533673286438,"6":-0.06585127860307693,"7":0.07590615749359131,"8":-0.16421610116958618,"9":0.1315194070339203,"10":-0.024690184742212296,"11":0.1428695023059845,"12":-0.10499529540538788,"13":0.023841097950935364,"14":-0.06895798444747925,"15":0.050437089055776596,"16":-0.02401655539870262,"17":0.05156346410512924,"18":0.09015348553657532,"19":0.17308096587657928}},"9":{"bias":-0.0036636171862483025,"weights":{"0":0.1890169233083725,"1":0.015087056905031204,"2":0.06551383435726166,"3":-0.09678126126527786,"4":-0.15427987277507782,"5":-0.013097167946398258,"6":-0.01959124766290188,"7":-0.006246686447411776,"8":0.021645285189151764,"9":0.09281444549560547,"10":-0.12033386528491974,"11":-0.0380333811044693,"12":-0.1475379317998886,"13":0.15802863240242004,"14":-0.1062149927020073,"15":0.17478245496749878,"16":0.18965290486812592,"17":-0.09169274568557739,"18":0.01660362258553505,"19":-0.023941287770867348}},"10":{"bias":0.0001597135269548744,"weights":{"0":0.037902750074863434,"1":-0.05688003823161125,"2":0.13241609930992126,"3":0.11226736754179001,"4":-0.054995253682136536,"5":0.07479658722877502,"6":0.10233838856220245,"7":-0.18126001954078674,"8":0.13704174757003784,"9":0.04766753315925598,"10":-0.1264398694038391,"11":0.024280978366732597,"12":0.1566057652235031,"13":0.0778350979089737,"14":-0.0027142432518303394,"15":-0.1352100372314453,"16":-0.1040397360920906,"17":0.06881465762853622,"18":-0.01931580901145935,"19":-0.19121675193309784}},"11":{"bias":0.1909172534942627,"weights":{"0":-0.007513333112001419,"1":0.08420003205537796,"2":0.19562140107154846,"3":-0.12035126239061356,"4":-0.05398120358586311,"5":-0.08889620006084442,"6":0.0034901013132184744,"7":-0.07195029407739639,"8":0.09869346022605896,"9":-0.06750991195440292,"10":-0.1771378368139267,"11":-0.02996792085468769,"12":0.19383001327514648,"13":0.10412734746932983,"14":-0.1086527556180954,"15":-0.1097501888871193,"16":-0.12445983290672302,"17":0.17881493270397186,"18":0.17404904961585999,"19":-0.09172403067350388}},"12":{"bias":-0.044353559613227844,"weights":{"0":0.20698769390583038,"1":0.16588887572288513,"2":0.1436084359884262,"3":0.16971512138843536,"4":0.13636256754398346,"5":-0.14182768762111664,"6":-0.05663343146443367,"7":-0.047825805842876434,"8":0.04648539796471596,"9":-0.19823777675628662,"10":-0.15831774473190308,"11":-0.12386257201433182,"12":0.0459052175283432,"13":-0.1635199934244156,"14":0.07296016067266464,"15":0.1461501270532608,"16":0.03761337324976921,"17":-0.018568692728877068,"18":0.1298535019159317,"19":0.15327492356300354}},"13":{"bias":-0.12063273042440414,"weights":{"0":-0.13081444799900055,"1":0.09475496411323547,"2":-0.19353042542934418,"3":-0.09067931026220322,"4":-0.0367421992123127,"5":0.032971467822790146,"6":-0.15265417098999023,"7":-0.17576554417610168,"8":-0.08067170530557632,"9":-0.1246098205447197,"10":-0.08561009913682938,"11":-0.1746234893798828,"12":-0.0928782969713211,"13":0.10038899630308151,"14":-0.1877870261669159,"15":-0.1827574074268341,"16":-0.16821341216564178,"17":-0.0562286451458931,"18":-0.08621390908956528,"19":0.04009540379047394}},"14":{"bias":-0.14665839076042175,"weights":{"0":-0.052932556718587875,"1":0.08933830261230469,"2":0.0988491028547287,"3":-0.008720515295863152,"4":-0.15636546909809113,"5":-0.14168210327625275,"6":0.0778571367263794,"7":0.04076390340924263,"8":-0.05684087425470352,"9":-0.06546108424663544,"10":-0.13502733409404755,"11":0.13559308648109436,"12":-0.1552751511335373,"13":0.09617041796445847,"14":0.10274625569581985,"15":0.14901529252529144,"16":-0.19482910633087158,"17":0.04136178642511368,"18":-0.07086629420518875,"19":0.19973580539226532}},"15":{"bias":0.06971079856157303,"weights":{"0":-0.0055638691410422325,"1":-0.06119666248559952,"2":0.011616677045822144,"3":0.06619536876678467,"4":0.1515577882528305,"5":0.17836035788059235,"6":-0.16338585317134857,"7":-0.02826288715004921,"8":0.009593386203050613,"9":-0.022648751735687256,"10":0.018784837797284126,"11":0.14806824922561646,"12":0.04386977478861809,"13":0.09877176582813263,"14":-0.05563710257411003,"15":0.20055927336215973,"16":0.10603687167167664,"17":-0.08412515372037888,"18":0.18535247445106506,"19":0.1300361305475235}},"16":{"bias":-0.03434625640511513,"weights":{"0":-0.17802171409130096,"1":0.1949702799320221,"2":-0.057267263531684875,"3":-0.10785370320081711,"4":-0.023195957764983177,"5":-0.16036467254161835,"6":0.17002807557582855,"7":-0.026967080309987068,"8":0.027682103216648102,"9":-0.08604739606380463,"10":0.18181940913200378,"11":-0.18496647477149963,"12":0.027495699003338814,"13":-0.0997362807393074,"14":0.03943246975541115,"15":-0.021890392526984215,"16":0.10374433547258377,"17":0.12084963172674179,"18":-0.039167989045381546,"19":0.1670461893081665}},"17":{"bias":0.08967188745737076,"weights":{"0":-0.011475464329123497,"1":-0.07241281867027283,"2":0.16770972311496735,"3":0.0966397225856781,"4":0.17171533405780792,"5":-0.1784479320049286,"6":-0.12609201669692993,"7":0.18720167875289917,"8":-0.01865614578127861,"9":-0.04169468581676483,"10":-0.16727101802825928,"11":0.04290984943509102,"12":-0.014348517172038555,"13":0.02266622707247734,"14":0.0941455140709877,"15":-0.06558511406183243,"16":0.138067364692688,"17":-0.0846441388130188,"18":0.018413182348012924,"19":0.12463849782943726}},"18":{"bias":-0.1564728170633316,"weights":{"0":0.198225736618042,"1":0.009973747655749321,"2":0.0249372199177742,"3":-0.03922431170940399,"4":0.18257780373096466,"5":0.0936153382062912,"6":0.12352009862661362,"7":0.1779402494430542,"8":0.07092420756816864,"9":-0.18825912475585938,"10":0.1127120777964592,"11":-0.04940164461731911,"12":-0.0705564096570015,"13":0.12958642840385437,"14":-0.16295908391475677,"15":0.018194014206528664,"16":-0.04875356703996658,"17":-0.07257416099309921,"18":-0.10823909193277359,"19":0.13067372143268585}},"19":{"bias":-0.11326174437999725,"weights":{"0":-0.18404951691627502,"1":0.012531125918030739,"2":0.05813538283109665,"3":-0.17945915460586548,"4":-0.15229187905788422,"5":0.02543824538588524,"6":0.023599300533533096,"7":-0.013188903219997883,"8":0.19157257676124573,"9":0.0033232381101697683,"10":0.1123800128698349,"11":0.17518208920955658,"12":0.15532010793685913,"13":-0.1894010305404663,"14":0.02739623747766018,"15":-0.020871780812740326,"16":0.061852626502513885,"17":0.04633772745728493,"18":-0.01422087661921978,"19":0.15870654582977295}}},{"0":{"bias":-0.5669426918029785,"weights":{"0":-0.27321553230285645,"1":-0.15013599395751953,"2":-0.16345132887363434,"3":-0.42009660601615906,"4":-0.0048707760870456696,"5":-0.22597505152225494,"6":-0.05944783613085747,"7":-0.4028690457344055,"8":-0.2846774160861969,"9":-0.29586052894592285,"10":-0.050575658679008484,"11":-0.16353335976600647,"12":-0.24980594217777252,"13":-0.11855475604534149,"14":-0.10546598583459854,"15":-0.3744314908981323,"16":-0.05088794231414795,"17":-0.18024590611457825,"18":-0.36420148611068726,"19":-0.08532632142305374}}}],"outputLookup":false,"inputLookup":false,"activation":"sigmoid","trainOpts":{"iterations":20000,"errorThresh":0.005,"log":true,"logPeriod":10,"learningRate":0.3,"momentum":0.1,"callbackPeriod":10}}