{"sizes":[229,20,20,1],"layers":[{"0":{},"1":{},"2":{},"3":{},"4":{},"5":{},"6":{},"7":{},"8":{},"9":{},"10":{},"11":{},"12":{},"13":{},"14":{},"15":{},"16":{},"17":{},"18":{},"19":{},"20":{},"21":{},"22":{},"23":{},"24":{},"25":{},"26":{},"27":{},"28":{},"29":{},"30":{},"31":{},"32":{},"33":{},"34":{},"35":{},"36":{},"37":{},"38":{},"39":{},"40":{},"41":{},"42":{},"43":{},"44":{},"45":{},"46":{},"47":{},"48":{},"49":{},"50":{},"51":{},"52":{},"53":{},"54":{},"55":{},"56":{},"57":{},"58":{},"59":{},"60":{},"61":{},"62":{},"63":{},"64":{},"65":{},"66":{},"67":{},"68":{},"69":{},"70":{},"71":{},"72":{},"73":{},"74":{},"75":{},"76":{},"77":{},"78":{},"79":{},"80":{},"81":{},"82":{},"83":{},"84":{},"85":{},"86":{},"87":{},"88":{},"89":{},"90":{},"91":{},"92":{},"93":{},"94":{},"95":{},"96":{},"97":{},"98":{},"99":{},"100":{},"101":{},"102":{},"103":{},"104":{},"105":{},"106":{},"107":{},"108":{},"109":{},"110":{},"111":{},"112":{},"113":{},"114":{},"115":{},"116":{},"117":{},"118":{},"119":{},"120":{},"121":{},"122":{},"123":{},"124":{},"125":{},"126":{},"127":{},"128":{},"129":{},"130":{},"131":{},"132":{},"133":{},"134":{},"135":{},"136":{},"137":{},"138":{},"139":{},"140":{},"141":{},"142":{},"143":{},"144":{},"145":{},"146":{},"147":{},"148":{},"149":{},"150":{},"151":{},"152":{},"153":{},"154":{},"155":{},"156":{},"157":{},"158":{},"159":{},"160":{},"161":{},"162":{},"163":{},"164":{},"165":{},"166":{},"167":{},"168":{},"169":{},"170":{},"171":{},"172":{},"173":{},"174":{},"175":{},"176":{},"177":{},"178":{},"179":{},"180":{},"181":{},"182":{},"183":{},"184":{},"185":{},"186":{},"187":{},"188":{},"189":{},"190":{},"191":{},"192":{},"193":{},"194":{},"195":{},"196":{},"197":{},"198":{},"199":{},"200":{},"201":{},"202":{},"203":{},"204":{},"205":{},"206":{},"207":{},"208":{},"209":{},"210":{},"211":{},"212":{},"213":{},"214":{},"215":{},"216":{},"217":{},"218":{},"219":{},"220":{},"221":{},"222":{},"223":{},"224":{},"225":{},"226":{},"227":{},"228":{}},{"0":{"bias":-0.03148891404271126,"weights":{"0":-0.09181400388479233,"1":0.11460795253515244,"2":-0.0706188976764679,"3":-0.08817709982395172,"4":0.0743071436882019,"5":-0.13005515933036804,"6":-0.1570301502943039,"7":-0.1971992403268814,"8":-0.009840033948421478,"9":-0.19885192811489105,"10":0.1919303834438324,"11":-0.17162388563156128,"12":-0.1312023550271988,"13":-0.16485899686813354,"14":-0.14417524635791779,"15":0.17420539259910583,"16":-0.15320968627929688,"17":0.05935446545481682,"18":-0.009021705947816372,"19":-0.1504954695701599,"20":-0.05883819982409477,"21":-0.1210351511836052,"22":-0.09034204483032227,"23":-0.01299350056797266,"24":-0.1786496490240097,"25":-0.12220781296491623,"26":-0.027187304571270943,"27":-0.10334472358226776,"28":-0.008533792570233345,"29":-0.16942623257637024,"30":-0.09582676738500595,"31":-0.18804049491882324,"32":0.09697580337524414,"33":-0.0026826479006558657,"34":0.18223142623901367,"35":0.022136256098747253,"36":-0.08816748857498169,"37":-0.0400933213531971,"38":0.040999241173267365,"39":0.1392495036125183,"40":0.053125739097595215,"41":0.16858364641666412,"42":-0.17790836095809937,"43":0.016672637313604355,"44":-0.10907729715108871,"45":0.0021188142709434032,"46":-0.04966617375612259,"47":-0.19428279995918274,"48":-0.19975562393665314,"49":-0.13263791799545288,"50":-0.049157969653606415,"51":0.035423289984464645,"52":-0.13779403269290924,"53":0.1960219293832779,"54":-0.09714648127555847,"55":-0.06671948730945587,"56":0.10077741742134094,"57":0.07311364263296127,"58":0.09438709169626236,"59":0.07584316283464432,"60":0.16534729301929474,"61":-0.13042214512825012,"62":-0.19587501883506775,"63":0.08810047060251236,"64":-0.02427278459072113,"65":-0.19764921069145203,"66":0.19555501639842987,"67":0.10033231973648071,"68":-0.09746343642473221,"69":-0.05611741170287132,"70":-0.02157595008611679,"71":-0.18236634135246277,"72":-0.10752919316291809,"73":0.16041043400764465,"74":-0.07100988924503326,"75":-0.03238711506128311,"76":0.12883079051971436,"77":0.012985382229089737,"78":0.09783138334751129,"79":-0.005224023479968309,"80":0.021482432261109352,"81":0.11150151491165161,"82":0.007269542198628187,"83":0.052991822361946106,"84":-0.08101990818977356,"85":0.023178767412900925,"86":-0.1242552325129509,"87":-0.0892740860581398,"88":0.016415096819400787,"89":0.1464221030473709,"90":-0.002479535061866045,"91":0.07957286387681961,"92":0.12131167948246002,"93":-0.11072911322116852,"94":-0.0715157687664032,"95":-0.12458553910255432,"96":-0.12137096375226974,"97":-0.05808166787028313,"98":0.020906779915094376,"99":0.00026424575480632484,"100":0.1640622317790985,"101":0.1834779679775238,"102":0.08114448189735413,"103":-0.16391980648040771,"104":0.10994380712509155,"105":0.1263963133096695,"106":0.02480323426425457,"107":-0.16479827463626862,"108":-0.18172350525856018,"109":0.041795410215854645,"110":0.0020250314846634865,"111":0.05935445427894592,"112":0.04723089188337326,"113":0.1354069858789444,"114":0.16894321143627167,"115":-0.16130474209785461,"116":-0.05228295177221298,"117":0.06883970648050308,"118":-0.15943114459514618,"119":-0.06927789002656937,"120":-0.1724107712507248,"121":-0.04163164272904396,"122":-0.1914600133895874,"123":0.13519056141376495,"124":0.17764605581760406,"125":-0.007366110570728779,"126":0.06172006577253342,"127":-0.007009302731603384,"128":-0.08052007853984833,"129":0.03646772727370262,"130":0.19518683850765228,"131":-0.16237741708755493,"132":0.056346915662288666,"133":0.1647956222295761,"134":-0.03464185819029808,"135":-0.051647864282131195,"136":-0.1723499745130539,"137":-0.09399711340665817,"138":-0.1448514312505722,"139":0.0754522830247879,"140":-0.18455086648464203,"141":-0.025304174050688744,"142":0.0009490117663517594,"143":-0.07083259522914886,"144":0.1727449595928192,"145":-0.07964729517698288,"146":0.006207052618265152,"147":-0.09693845361471176,"148":-0.11929244548082352,"149":0.04784422367811203,"150":0.04838242381811142,"151":-0.07412859052419662,"152":-0.07461312413215637,"153":-0.126241534948349,"154":-0.16153782606124878,"155":0.07367940992116928,"156":0.07578334212303162,"157":-0.18608812987804413,"158":-0.16035206615924835,"159":-0.1936831772327423,"160":-0.03565061464905739,"161":-0.11749905347824097,"162":-0.09784314781427383,"163":-0.07725657522678375,"164":0.09637125581502914,"165":0.09417878091335297,"166":0.15108728408813477,"167":-0.17264756560325623,"168":-0.06948905438184738,"169":-0.0031254140194505453,"170":-0.07620058953762054,"171":0.17557856440544128,"172":0.14425578713417053,"173":-0.1410442590713501,"174":0.08993752300739288,"175":-0.045889582484960556,"176":-0.014805627055466175,"177":-0.04105440899729729,"178":-0.18339666724205017,"179":-0.09297558665275574,"180":-0.10138986259698868,"181":0.18113161623477936,"182":0.1519766002893448,"183":0.10065355151891708,"184":-0.034826405346393585,"185":0.11576028168201447,"186":0.11544293165206909,"187":-0.0990808829665184,"188":-0.00866861455142498,"189":0.16442334651947021,"190":-0.16645418107509613,"191":0.1810566782951355,"192":-0.09972818195819855,"193":-0.10390717536211014,"194":0.10959604382514954,"195":-0.14367260038852692,"196":0.18814735114574432,"197":0.0951942428946495,"198":0.12651577591896057,"199":-0.17719542980194092,"200":-0.1536274254322052,"201":-0.18902796506881714,"202":-0.057527899742126465,"203":-0.1965893805027008,"204":-0.0745350643992424,"205":0.10672013461589813,"206":0.0627153068780899,"207":0.03748762980103493,"208":0.09402402490377426,"209":0.04244048893451691,"210":-0.012361877597868443,"211":0.1771036833524704,"212":-0.14735348522663116,"213":0.12977470457553864,"214":0.032701388001441956,"215":0.0008120933780446649,"216":0.12788788974285126,"217":0.04988272115588188,"218":-0.1309497058391571,"219":-0.10659418255090714,"220":-0.1634262651205063,"221":0.06186451390385628,"222":-0.02161029726266861,"223":-0.058057863265275955,"224":-0.07436158508062363,"225":-0.01203281432390213,"226":0.14419400691986084,"227":0.13832692801952362,"228":0.14871974289417267}},"1":{"bias":0.025327352806925774,"weights":{"0":-0.09562505781650543,"1":-0.055109646171331406,"2":0.1459217518568039,"3":-0.19195570051670074,"4":0.19210156798362732,"5":-0.05441568046808243,"6":0.19093477725982666,"7":-0.06313818693161011,"8":-0.17104418575763702,"9":0.1321006715297699,"10":0.020592575892806053,"11":0.1943327635526657,"12":0.17494307458400726,"13":-0.03277880698442459,"14":0.061723075807094574,"15":-0.012904775328934193,"16":0.18978089094161987,"17":0.07290490716695786,"18":0.04125192016363144,"19":-0.1871732473373413,"20":-0.0788254663348198,"21":-0.13168303668498993,"22":-0.16196954250335693,"23":0.10670381784439087,"24":-0.10863964259624481,"25":0.18030725419521332,"26":0.13469059765338898,"27":-0.17269989848136902,"28":0.19105899333953857,"29":0.004240191541612148,"30":0.06632579863071442,"31":0.16786062717437744,"32":0.14467744529247284,"33":-0.14965613186359406,"34":-0.18293054401874542,"35":-0.1756240576505661,"36":0.0702110305428505,"37":-0.1433602124452591,"38":-0.08033481240272522,"39":-0.09772966802120209,"40":-0.1873704046010971,"41":-0.05583302304148674,"42":0.06060795113444328,"43":0.16620740294456482,"44":0.15499818325042725,"45":-0.07380729168653488,"46":0.15367060899734497,"47":0.08999009430408478,"48":0.08405325561761856,"49":0.05615316703915596,"50":-0.15622955560684204,"51":0.19047753512859344,"52":0.07789483666419983,"53":-0.13624371588230133,"54":-0.10138198733329773,"55":-0.1892850399017334,"56":-0.0966239720582962,"57":0.05511107295751572,"58":-0.1416894495487213,"59":-0.19682754576206207,"60":0.12377763539552689,"61":0.021986374631524086,"62":-0.09259236603975296,"63":0.10996551066637039,"64":0.19964414834976196,"65":0.046774983406066895,"66":-0.09656352549791336,"67":0.19048352539539337,"68":0.15222090482711792,"69":-0.035194281488657,"70":-0.13282763957977295,"71":0.02873573824763298,"72":-0.12677788734436035,"73":0.05762052163481712,"74":-0.04621216282248497,"75":0.12881912291049957,"76":0.026713863015174866,"77":0.12453756481409073,"78":0.023516904562711716,"79":0.09289274364709854,"80":0.0053227003663778305,"81":-0.11506392806768417,"82":-0.1785472333431244,"83":-0.1317516565322876,"84":0.00039455038495361805,"85":-0.049067504703998566,"86":-0.16076917946338654,"87":0.09951601177453995,"88":-0.03835553303360939,"89":0.13766345381736755,"90":-0.19106009602546692,"91":0.034512437880039215,"92":0.024537894874811172,"93":-0.0723133385181427,"94":0.19358861446380615,"95":-0.06158836930990219,"96":-0.1512724608182907,"97":-0.19375045597553253,"98":0.03985854238271713,"99":0.0962519720196724,"100":-0.13283661007881165,"101":-0.09200753271579742,"102":-0.09778136759996414,"103":0.02122841402888298,"104":-0.03989698365330696,"105":0.03418579697608948,"106":0.028752675279974937,"107":0.14047139883041382,"108":-0.1978740692138672,"109":0.06189529225230217,"110":0.049014799296855927,"111":-0.1641680747270584,"112":-0.058918606489896774,"113":-0.0216854028403759,"114":-0.1590949147939682,"115":0.13548874855041504,"116":0.06446990370750427,"117":-0.15469954907894135,"118":-0.1598956435918808,"119":0.03763420507311821,"120":0.15699933469295502,"121":0.11861436069011688,"122":-0.1190871149301529,"123":-0.19862058758735657,"124":-0.07665770500898361,"125":0.06886517256498337,"126":-0.06572327762842178,"127":-0.12224757671356201,"128":0.14330781996250153,"129":-0.19636791944503784,"130":0.11359784007072449,"131":-0.10779143124818802,"132":-0.0778287872672081,"133":-0.0856194868683815,"134":0.05892525985836983,"135":0.06337656080722809,"136":-0.17272359132766724,"137":-0.15389494597911835,"138":0.16094592213630676,"139":-0.13117806613445282,"140":0.19318774342536926,"141":0.04953780397772789,"142":-0.10432061553001404,"143":0.09540976583957672,"144":-0.18033064901828766,"145":0.10761167854070663,"146":0.10790305584669113,"147":-0.1154196634888649,"148":0.020562544465065002,"149":-0.04474598541855812,"150":-0.09028910100460052,"151":-0.10167760401964188,"152":0.05977247655391693,"153":-0.10549546033143997,"154":0.13427796959877014,"155":0.1899360865354538,"156":-0.0351782962679863,"157":-0.12595419585704803,"158":-0.18647202849388123,"159":-0.1609276980161667,"160":0.14376932382583618,"161":0.06762142479419708,"162":-0.18940824270248413,"163":-0.1576450616121292,"164":0.08013470470905304,"165":-0.1749240905046463,"166":0.11949466168880463,"167":0.01380003709346056,"168":-0.051087163388729095,"169":0.0932004451751709,"170":0.07400670647621155,"171":-0.16043096780776978,"172":0.18481868505477905,"173":0.08921179920434952,"174":-0.05402553826570511,"175":0.10154953598976135,"176":-0.1556987464427948,"177":0.0320565328001976,"178":0.1863362044095993,"179":-0.17797337472438812,"180":-0.1570395529270172,"181":-0.1836289018392563,"182":-0.1820000261068344,"183":0.034495994448661804,"184":0.12301281839609146,"185":-0.13413956761360168,"186":-0.10013337433338165,"187":-0.18395882844924927,"188":0.07434677332639694,"189":-0.10010996460914612,"190":0.0910288468003273,"191":0.06566087156534195,"192":0.08580721169710159,"193":0.12114566564559937,"194":0.08583187311887741,"195":0.10472211241722107,"196":-0.158327117562294,"197":-0.1852956861257553,"198":-0.061236556619405746,"199":0.14875160157680511,"200":0.1776403933763504,"201":0.09984951466321945,"202":-0.16267848014831543,"203":0.1907205581665039,"204":-0.07657120376825333,"205":-0.04453330859541893,"206":0.055419161915779114,"207":-0.020355354994535446,"208":0.0915682390332222,"209":-0.16794505715370178,"210":-0.02739730104804039,"211":0.1700882464647293,"212":-0.14406241476535797,"213":0.13486072421073914,"214":0.03774848207831383,"215":-0.12559902667999268,"216":-0.0924445316195488,"217":0.02428763546049595,"218":0.17898723483085632,"219":-0.037711478769779205,"220":-0.018813516944646835,"221":0.14101329445838928,"222":-0.10205798596143723,"223":-0.18534986674785614,"224":-0.10492813587188721,"225":-0.14251059293746948,"226":-0.04696013778448105,"227":-0.09691663086414337,"228":0.00383536028675735}},"2":{"bias":0.07554242759943008,"weights":{"0":-0.0070136478170752525,"1":-0.19754087924957275,"2":-0.05614154413342476,"3":0.12001477181911469,"4":-0.160739004611969,"5":-0.046057961881160736,"6":-0.05111384764313698,"7":-0.04983336105942726,"8":0.04914424195885658,"9":-0.03360217064619064,"10":0.10578172653913498,"11":0.06299988180398941,"12":-0.15738072991371155,"13":0.19844461977481842,"14":0.012307349592447281,"15":-0.15572690963745117,"16":-0.15951208770275116,"17":-0.05928473919630051,"18":0.16709165275096893,"19":-0.11825960874557495,"20":-0.1432977169752121,"21":-0.09203225374221802,"22":-0.15673863887786865,"23":0.09646719694137573,"24":-0.13435164093971252,"25":-0.14158309996128082,"26":0.12467096745967865,"27":0.02323457971215248,"28":-0.011258970014750957,"29":0.12749455869197845,"30":0.09715929627418518,"31":-0.024448396638035774,"32":0.19295622408390045,"33":0.05990143492817879,"34":-0.02372852899134159,"35":0.1136685162782669,"36":0.07802752405405045,"37":0.15600541234016418,"38":-0.04381885379552841,"39":0.004400178790092468,"40":-0.14890268445014954,"41":0.11554712802171707,"42":0.07632043957710266,"43":0.11173710227012634,"44":0.17630499601364136,"45":-0.16510049998760223,"46":0.18986816704273224,"47":-0.06222091615200043,"48":0.1468553990125656,"49":-0.10935620218515396,"50":0.00911827851086855,"51":-0.028273900970816612,"52":-0.18232901394367218,"53":-0.18822355568408966,"54":-0.1528826355934143,"55":0.1268075406551361,"56":-0.18970586359500885,"57":0.11335401982069016,"58":-0.026333894580602646,"59":-0.009582053869962692,"60":-0.14448696374893188,"61":-0.03889600187540054,"62":-0.16933795809745789,"63":-0.037974949926137924,"64":0.02349785342812538,"65":0.07010979950428009,"66":-0.13427512347698212,"67":0.06416764110326767,"68":-0.07136194407939911,"69":0.030813327059149742,"70":0.15216051042079926,"71":0.08516818284988403,"72":0.10919312387704849,"73":0.19603821635246277,"74":0.14159005880355835,"75":0.17737367749214172,"76":-0.13839218020439148,"77":0.0868447870016098,"78":-0.08060336858034134,"79":0.09890434145927429,"80":0.1353035718202591,"81":-0.11951718479394913,"82":-0.10971621423959732,"83":-0.030641181394457817,"84":0.151669442653656,"85":-0.09876236319541931,"86":-0.09972382336854935,"87":0.06085768714547157,"88":-0.17365612089633942,"89":0.10356340557336807,"90":0.05658547580242157,"91":0.09619668126106262,"92":-0.11803176254034042,"93":-0.18097339570522308,"94":0.006621343549340963,"95":0.14506931602954865,"96":0.16978655755519867,"97":-0.032297756522893906,"98":-0.08873020112514496,"99":-0.064895860850811,"100":-0.05047789588570595,"101":0.1581203192472458,"102":-0.020917784422636032,"103":-0.01409362256526947,"104":-0.14515924453735352,"105":-0.1445624977350235,"106":0.16489049792289734,"107":0.09097522497177124,"108":-0.062165647745132446,"109":-0.027753150090575218,"110":-0.19787819683551788,"111":0.020201802253723145,"112":-0.04033978283405304,"113":-0.06131334975361824,"114":0.06875757873058319,"115":0.08546634763479233,"116":0.15892279148101807,"117":0.04833192378282547,"118":0.0794941782951355,"119":0.1714985966682434,"120":0.07346616685390472,"121":0.09863442182540894,"122":0.0745675265789032,"123":0.14514027535915375,"124":0.17533642053604126,"125":0.026866387575864792,"126":0.13212664425373077,"127":-0.13880018889904022,"128":0.0476987399160862,"129":-0.1568090319633484,"130":0.1253262162208557,"131":-0.09202360361814499,"132":-0.16053390502929688,"133":0.17499326169490814,"134":-0.0334964282810688,"135":0.025195671245455742,"136":-0.12778422236442566,"137":0.028600716963410378,"138":0.045483704656362534,"139":0.14939697086811066,"140":-0.08239143341779709,"141":0.17937664687633514,"142":-0.013442442752420902,"143":0.17598509788513184,"144":-0.14080391824245453,"145":-0.19902808964252472,"146":0.06649615615606308,"147":-0.18062429130077362,"148":0.022901112213730812,"149":0.13981077075004578,"150":0.03618224337697029,"151":-0.02528344839811325,"152":-0.11320046335458755,"153":0.1833982914686203,"154":-0.004705874249339104,"155":0.06270182132720947,"156":0.02072867751121521,"157":-0.11048639565706253,"158":0.17950132489204407,"159":0.048181161284446716,"160":-0.03522772341966629,"161":0.04317835345864296,"162":0.018907301127910614,"163":-0.1890868991613388,"164":-0.05080006271600723,"165":0.12144728749990463,"166":-0.08561556041240692,"167":0.07305768877267838,"168":0.18510369956493378,"169":-0.1091572493314743,"170":-0.11842553317546844,"171":0.04562848433852196,"172":0.08070770651102066,"173":0.17605352401733398,"174":-0.12627236545085907,"175":-0.05035560205578804,"176":-0.11480066180229187,"177":0.18234089016914368,"178":-0.1418139934539795,"179":-0.13776394724845886,"180":-0.10223044455051422,"181":-0.1502334624528885,"182":-0.1928306668996811,"183":-0.1640152633190155,"184":-0.17871668934822083,"185":-0.13876740634441376,"186":-0.15929725766181946,"187":0.14427092671394348,"188":0.1514127105474472,"189":-0.05596454069018364,"190":-0.06724847853183746,"191":0.04035843536257744,"192":0.15043488144874573,"193":-0.006420017220079899,"194":-0.1933697760105133,"195":-0.17685580253601074,"196":-0.17361971735954285,"197":0.00938186515122652,"198":0.1377982199192047,"199":0.16859294474124908,"200":0.02720014378428459,"201":-0.11072815954685211,"202":0.16231408715248108,"203":0.11328060925006866,"204":0.06372401118278503,"205":0.09966199100017548,"206":0.0016793268732726574,"207":-0.12468575686216354,"208":-0.17481482028961182,"209":0.12995287775993347,"210":-0.14424878358840942,"211":0.08420751243829727,"212":-0.11362472176551819,"213":-0.07251294702291489,"214":0.05462554469704628,"215":0.018481431528925896,"216":0.11364530771970749,"217":0.03974489867687225,"218":0.16407234966754913,"219":-0.08146239817142487,"220":-0.12461591511964798,"221":0.12940900027751923,"222":-0.08569115400314331,"223":-0.03668349236249924,"224":-0.11751051992177963,"225":0.16012614965438843,"226":-0.1942969709634781,"227":-0.04228696972131729,"228":-0.022803351283073425}},"3":{"bias":-0.05680384486913681,"weights":{"0":0.21475546061992645,"1":-0.13113823533058167,"2":0.054020535200834274,"3":0.026729023084044456,"4":-0.11850269883871078,"5":0.016657359898090363,"6":0.09526760131120682,"7":0.15302978456020355,"8":0.20492388308048248,"9":0.11279971897602081,"10":0.11200573295354843,"11":0.018308332189917564,"12":0.13420487940311432,"13":0.04953598603606224,"14":0.05998062714934349,"15":0.05405338853597641,"16":0.06557786464691162,"17":0.1740342676639557,"18":-0.13638004660606384,"19":0.06944292783737183,"20":-0.05003787949681282,"21":-0.11098015308380127,"22":0.08029507100582123,"23":0.09047971665859222,"24":-0.0013444649521261454,"25":0.11329260468482971,"26":-0.09897985309362411,"27":0.02212739735841751,"28":0.09567444026470184,"29":0.02919709123671055,"30":-0.15010398626327515,"31":0.151055246591568,"32":0.06757867336273193,"33":-0.1291092336177826,"34":0.09553341567516327,"35":0.008678292855620384,"36":-0.009179285727441311,"37":0.11182442307472229,"38":-0.1298307627439499,"39":0.18251152336597443,"40":0.11761154234409332,"41":0.04631366208195686,"42":0.026609718799591064,"43":0.22153480350971222,"44":0.07871712744235992,"45":0.21521492302417755,"46":0.08492986112833023,"47":0.07741829007863998,"48":0.13986217975616455,"49":0.12780559062957764,"50":0.07498975843191147,"51":0.02777477167546749,"52":-0.12851837277412415,"53":0.17589649558067322,"54":0.12329806387424469,"55":-0.16348958015441895,"56":0.14930395781993866,"57":0.0926276445388794,"58":-0.12418456375598907,"59":0.22226199507713318,"60":-0.02694089151918888,"61":0.1885988861322403,"62":0.20724602043628693,"63":0.08284483850002289,"64":-0.1506495475769043,"65":0.08724001049995422,"66":0.04563155770301819,"67":0.031129583716392517,"68":0.0006414651870727539,"69":-0.1564827263355255,"70":0.2190709114074707,"71":0.17960140109062195,"72":0.11408617347478867,"73":-0.011984232813119888,"74":-0.12927336990833282,"75":0.017794741317629814,"76":0.10256917774677277,"77":-0.08702851086854935,"78":0.2244803011417389,"79":0.01813855953514576,"80":-0.06952311098575592,"81":0.14056965708732605,"82":-0.006348231807351112,"83":0.07219595462083817,"84":-0.08750004321336746,"85":0.0013508404372259974,"86":0.09535815566778183,"87":0.14272132515907288,"88":0.15720072388648987,"89":-0.09304886311292648,"90":0.13924844563007355,"91":0.05555768683552742,"92":-0.057178135961294174,"93":0.0847710445523262,"94":-0.08259469270706177,"95":-0.10278043150901794,"96":0.04529764503240585,"97":-0.10310961306095123,"98":-0.1354895979166031,"99":0.20031678676605225,"100":0.20565247535705566,"101":0.101891428232193,"102":0.1883852779865265,"103":-0.08247461915016174,"104":0.1709423065185547,"105":-0.12545070052146912,"106":0.06487574428319931,"107":-0.0038666664622724056,"108":0.05631396174430847,"109":0.07381851226091385,"110":0.06965692341327667,"111":0.18837644159793854,"112":0.15588463842868805,"113":0.10791543126106262,"114":-0.07407969236373901,"115":0.21349728107452393,"116":0.12354078143835068,"117":-0.17244349420070648,"118":0.12244459986686707,"119":-0.14595693349838257,"120":0.17276044189929962,"121":-0.15258115530014038,"122":0.13418757915496826,"123":-0.008945333771407604,"124":0.017268721014261246,"125":0.020136481150984764,"126":-0.03589678928256035,"127":0.036570724099874496,"128":-0.12547729909420013,"129":-0.07145192474126816,"130":0.0620715469121933,"131":-0.1037634015083313,"132":0.18613427877426147,"133":-0.17441318929195404,"134":0.09765531122684479,"135":-0.10932008922100067,"136":0.16179613769054413,"137":0.09181289374828339,"138":0.19457076489925385,"139":-0.08953648805618286,"140":0.005783757194876671,"141":0.07995685935020447,"142":-0.056726787239313126,"143":-0.029769929125905037,"144":-0.022405793890357018,"145":-0.09598061442375183,"146":-0.02595069445669651,"147":0.08450624346733093,"148":-0.13222414255142212,"149":-0.13250303268432617,"150":0.1611158847808838,"151":-0.15360385179519653,"152":-0.11875195056200027,"153":-0.037488825619220734,"154":-0.1629236340522766,"155":-0.08459147810935974,"156":-0.043581705540418625,"157":0.152904212474823,"158":0.13926652073860168,"159":0.03809209540486336,"160":0.12512697279453278,"161":0.1458609253168106,"162":0.1903596669435501,"163":0.17959751188755035,"164":-0.12292653322219849,"165":-0.021399008110165596,"166":-0.08472485840320587,"167":-0.041986916214227676,"168":-0.13231174647808075,"169":0.21255160868167877,"170":-0.0005758535698987544,"171":-0.13212823867797852,"172":0.12839607894420624,"173":-0.0637163519859314,"174":0.1834767609834671,"175":-0.07901027053594589,"176":0.0799228698015213,"177":-0.12228837609291077,"178":0.005338579416275024,"179":0.14513345062732697,"180":-0.11326632648706436,"181":0.04931733012199402,"182":-0.14432786405086517,"183":-0.04535236582159996,"184":0.12529757618904114,"185":0.09800286591053009,"186":0.17907482385635376,"187":0.0676313042640686,"188":0.07548557221889496,"189":0.1283818930387497,"190":-0.0664440244436264,"191":-0.11511152237653732,"192":-0.029370136559009552,"193":0.03756500408053398,"194":0.06978499889373779,"195":0.1053294762969017,"196":-0.014272364787757397,"197":-0.00901190098375082,"198":0.08824793994426727,"199":0.200317844748497,"200":0.16413497924804688,"201":-0.17372314631938934,"202":0.0331503264605999,"203":0.12475181370973587,"204":-0.15089263021945953,"205":-0.07571159303188324,"206":-0.0993233248591423,"207":-0.14835131168365479,"208":-0.09558948874473572,"209":0.07635915279388428,"210":0.01628180779516697,"211":0.07963324338197708,"212":0.1033334881067276,"213":-0.05052848532795906,"214":-0.11113937199115753,"215":0.09879029542207718,"216":0.016431093215942383,"217":0.018269836902618408,"218":0.007685063406825066,"219":0.18673588335514069,"220":0.07815344631671906,"221":0.022282160818576813,"222":0.14859144389629364,"223":0.17579951882362366,"224":0.1144477128982544,"225":-0.025154175236821175,"226":-0.0903192088007927,"227":0.05226310342550278,"228":0.06477364152669907}},"4":{"bias":0.1808699667453766,"weights":{"0":-0.04296361282467842,"1":-0.03030592016875744,"2":0.001022622687742114,"3":-0.11399072408676147,"4":0.05929519981145859,"5":-0.2136056274175644,"6":0.1380239576101303,"7":-0.20288680493831635,"8":-0.13857923448085785,"9":-0.18998394906520844,"10":-0.20639975368976593,"11":-0.0478643923997879,"12":-0.15017324686050415,"13":0.12612636387348175,"14":0.0659295842051506,"15":-0.16015364229679108,"16":-0.14228594303131104,"17":-0.09503793716430664,"18":-0.22642101347446442,"19":-0.09941030293703079,"20":0.09962358325719833,"21":0.16069507598876953,"22":-0.10365694761276245,"23":0.08639122545719147,"24":-0.02867761440575123,"25":0.15330278873443604,"26":0.13266989588737488,"27":-0.12592390179634094,"28":0.061642102897167206,"29":-0.03614361584186554,"30":-0.1052914634346962,"31":0.05880751460790634,"32":-0.1622508317232132,"33":-0.1528559774160385,"34":-0.10039490461349487,"35":0.16347871720790863,"36":0.1039913073182106,"37":0.004883842077106237,"38":-0.01430601254105568,"39":-0.1738942414522171,"40":0.07752295583486557,"41":-0.029186243191361427,"42":0.09815565496683121,"43":-0.16874663531780243,"44":-0.21596582233905792,"45":-0.095281220972538,"46":-0.059201810508966446,"47":0.1083403006196022,"48":-0.22714737057685852,"49":0.11158084124326706,"50":0.12355862557888031,"51":-0.04712215065956116,"52":0.021084042266011238,"53":-0.21245400607585907,"54":-0.01124780997633934,"55":-0.092151939868927,"56":-0.1811303049325943,"57":0.10563527792692184,"58":0.13491621613502502,"59":-0.08134676516056061,"60":-0.10718048363924026,"61":-0.10725270211696625,"62":0.04586513340473175,"63":0.0957103744149208,"64":0.14598238468170166,"65":-0.10638097673654556,"66":0.07140776515007019,"67":-0.05176818370819092,"68":0.1097617968916893,"69":-0.07836339622735977,"70":-0.07503077387809753,"71":0.16618508100509644,"72":-0.1701866090297699,"73":0.03829050809144974,"74":0.00382225657813251,"75":-0.06431465595960617,"76":-0.18354831635951996,"77":-0.05072399601340294,"78":-0.003270377404987812,"79":-0.12233325839042664,"80":-0.16283878684043884,"81":0.0568060576915741,"82":0.11559871584177017,"83":-0.1953943818807602,"84":0.042489245533943176,"85":-0.18200066685676575,"86":-0.22443991899490356,"87":-0.23313334584236145,"88":0.07457483559846878,"89":-0.0017396390903741121,"90":0.08470308035612106,"91":-0.03469211608171463,"92":0.052462123334407806,"93":0.04202776402235031,"94":-0.21511223912239075,"95":0.08596095442771912,"96":-0.07060418277978897,"97":0.13190655410289764,"98":0.10359285026788712,"99":-0.17286072671413422,"100":-0.17409223318099976,"101":-0.11468560248613358,"102":-0.07224489748477936,"103":-0.19380256533622742,"104":0.05178811401128769,"105":-0.01909344457089901,"106":-0.23041260242462158,"107":-0.18349680304527283,"108":-0.051098305732011795,"109":0.04765472561120987,"110":-0.14574719965457916,"111":0.1475381851196289,"112":0.15193793177604675,"113":-0.2139345407485962,"114":-0.23006878793239594,"115":0.1608797311782837,"116":-0.03924579918384552,"117":0.16485881805419922,"118":-0.1762959063053131,"119":0.05078063905239105,"120":0.12686586380004883,"121":0.10466065257787704,"122":-0.11625220626592636,"123":0.14565330743789673,"124":-0.08737626671791077,"125":0.13046589493751526,"126":0.06802254170179367,"127":0.14662952721118927,"128":-0.06274694949388504,"129":0.12887078523635864,"130":0.06756457686424255,"131":-0.19713731110095978,"132":-0.09121387451887131,"133":-0.206506609916687,"134":-0.1964840441942215,"135":-0.015441706404089928,"136":-0.13726702332496643,"137":-0.01186884194612503,"138":-0.07788766175508499,"139":-0.21037337183952332,"140":-0.0016634196508675814,"141":0.05949140340089798,"142":0.1649368405342102,"143":-0.025577344000339508,"144":0.14783687889575958,"145":-0.1137518584728241,"146":-0.11835993081331253,"147":-0.020777560770511627,"148":-0.018472805619239807,"149":0.1426796317100525,"150":-0.08737456053495407,"151":-0.14365603029727936,"152":0.08830392360687256,"153":0.10314207524061203,"154":-0.14006727933883667,"155":0.04728775471448898,"156":-0.09267470240592957,"157":0.05094931274652481,"158":-0.07179830223321915,"159":0.11563091725111008,"160":-0.14009906351566315,"161":0.055515557527542114,"162":0.04387758672237396,"163":0.0881449356675148,"164":-0.05216752365231514,"165":0.03554799407720566,"166":-0.14299198985099792,"167":-0.1538076400756836,"168":-0.04785027727484703,"169":0.10723284631967545,"170":0.00029407881083898246,"171":-0.17067775130271912,"172":0.1540074348449707,"173":-0.2044716626405716,"174":-0.10913871228694916,"175":-0.10160019248723984,"176":0.1452079862356186,"177":0.03629148006439209,"178":-0.14615759253501892,"179":-0.14742907881736755,"180":0.1025732085108757,"181":-0.1457579880952835,"182":-0.14789731800556183,"183":0.10439056903123856,"184":-0.11059913784265518,"185":0.0993170514702797,"186":0.05328304320573807,"187":-0.1805334836244583,"188":0.10239612311124802,"189":0.12586750090122223,"190":0.032374098896980286,"191":0.13970178365707397,"192":0.07478360831737518,"193":0.06332530826330185,"194":-0.05284244939684868,"195":-0.08441352844238281,"196":0.12828309834003448,"197":0.12356051802635193,"198":-0.1746799796819687,"199":0.06808881461620331,"200":-0.10858158022165298,"201":0.15741167962551117,"202":-0.16265201568603516,"203":0.12149849534034729,"204":-0.21599481999874115,"205":0.15724657475948334,"206":-0.2200535088777542,"207":-0.1484268307685852,"208":-0.0947030708193779,"209":0.0867345929145813,"210":-0.07198169827461243,"211":-0.20764221251010895,"212":-0.07741762697696686,"213":0.1364516317844391,"214":0.005887010600417852,"215":-0.11238938570022583,"216":-0.18722423911094666,"217":-0.060431238263845444,"218":-0.04806402698159218,"219":-0.10854677110910416,"220":0.1297888457775116,"221":0.023724863305687904,"222":-0.049691662192344666,"223":0.06348057836294174,"224":0.023183712735772133,"225":-0.009440540336072445,"226":-0.1286754310131073,"227":-0.15882763266563416,"228":-0.09094960242509842}},"5":{"bias":0.016661502420902252,"weights":{"0":0.04573678597807884,"1":-0.11796034872531891,"2":0.19306999444961548,"3":-0.1882389634847641,"4":-0.19999022781848907,"5":0.09887168556451797,"6":0.02101573348045349,"7":-0.054645467549562454,"8":-0.14894188940525055,"9":0.026770848780870438,"10":-0.17423346638679504,"11":0.17359641194343567,"12":0.11252037435770035,"13":-0.13471664488315582,"14":-0.1710723638534546,"15":0.15657997131347656,"16":-0.06088635325431824,"17":0.08907697349786758,"18":0.1624317765235901,"19":-0.12990747392177582,"20":0.1533498615026474,"21":0.15055570006370544,"22":-0.19772468507289886,"23":-0.19008268415927887,"24":-0.17790508270263672,"25":0.027265727519989014,"26":-0.13253910839557648,"27":-0.04947967454791069,"28":0.19842611253261566,"29":0.12934669852256775,"30":-0.060850001871585846,"31":-0.04494602605700493,"32":-0.16886749863624573,"33":0.12433880567550659,"34":0.17836375534534454,"35":-0.1460261344909668,"36":0.04333345964550972,"37":-0.030514327809214592,"38":-0.09489370882511139,"39":-0.07126490026712418,"40":-0.02630874142050743,"41":-0.18434134125709534,"42":-0.13315074145793915,"43":-0.01761060394346714,"44":0.09409307688474655,"45":-0.01609012857079506,"46":-0.18127499520778656,"47":0.0524270124733448,"48":-0.15076930820941925,"49":-0.010773732326924801,"50":0.141967311501503,"51":0.02693229541182518,"52":0.17826780676841736,"53":0.004662718158215284,"54":-0.05214937403798103,"55":0.0865185558795929,"56":0.08478439599275589,"57":-0.05241785943508148,"58":0.03763018921017647,"59":0.18541215360164642,"60":0.010640672408044338,"61":0.01679312065243721,"62":0.18603253364562988,"63":-0.05611355975270271,"64":0.05530986562371254,"65":-0.0814879760146141,"66":0.06280018389225006,"67":0.06495451927185059,"68":0.08174309134483337,"69":0.12522898614406586,"70":-0.0017542216228321195,"71":-0.163477823138237,"72":-0.18128269910812378,"73":0.15133313834667206,"74":0.049458663910627365,"75":-0.09210707247257233,"76":0.07183712720870972,"77":-0.014777599833905697,"78":0.007999393157660961,"79":-0.0401187539100647,"80":-0.18015307188034058,"81":-0.014753795228898525,"82":0.13290202617645264,"83":0.023666007444262505,"84":-0.09590541571378708,"85":-0.025546841323375702,"86":-0.05314931645989418,"87":-0.07553450763225555,"88":-0.14456094801425934,"89":-0.1801273673772812,"90":-0.10779425501823425,"91":-0.19187045097351074,"92":-0.1773408055305481,"93":-0.16277889907360077,"94":0.09734993427991867,"95":-0.1486479490995407,"96":0.06289958953857422,"97":-0.12264759838581085,"98":-0.062133654952049255,"99":0.10931691527366638,"100":0.12342747300863266,"101":-0.19112682342529297,"102":0.17894764244556427,"103":-0.044680941849946976,"104":-0.07677432894706726,"105":-0.1470252424478531,"106":-0.13457153737545013,"107":0.13464707136154175,"108":-0.11150560528039932,"109":-0.14701315760612488,"110":-0.13364212214946747,"111":-0.011085760779678822,"112":-0.048080384731292725,"113":0.17562203109264374,"114":0.10520043224096298,"115":0.13739317655563354,"116":-0.02659624256193638,"117":-0.0013369853841140866,"118":-0.18406027555465698,"119":-0.049191124737262726,"120":0.10643179714679718,"121":0.14867998659610748,"122":0.06436104327440262,"123":-0.11152958869934082,"124":-0.09095440059900284,"125":-0.1861908882856369,"126":0.13738086819648743,"127":0.04749361798167229,"128":0.028103061020374298,"129":-0.13750430941581726,"130":0.04548097401857376,"131":-0.04394233226776123,"132":0.16564317047595978,"133":0.17306429147720337,"134":-0.009227866306900978,"135":0.11415054649114609,"136":0.02562677673995495,"137":-0.011903245002031326,"138":-0.045357003808021545,"139":0.03796028345823288,"140":-0.1190996989607811,"141":0.15274974703788757,"142":-0.14339955151081085,"143":0.06478531658649445,"144":0.023501496762037277,"145":-0.0105849988758564,"146":0.06806037575006485,"147":0.06576059758663177,"148":-0.0025096083991229534,"149":0.11011182516813278,"150":0.1549167037010193,"151":-0.08712209016084671,"152":-0.1511247307062149,"153":-0.15851102769374847,"154":0.03983377292752266,"155":-0.06236736848950386,"156":-0.1103787049651146,"157":0.16757358610630035,"158":-0.18066535890102386,"159":0.16278396546840668,"160":0.15985412895679474,"161":-0.02011372148990631,"162":-0.1458204984664917,"163":0.0503300316631794,"164":0.05084044113755226,"165":0.055092327296733856,"166":0.14104747772216797,"167":0.14225712418556213,"168":-0.1977338343858719,"169":0.02474016323685646,"170":-0.053923167288303375,"171":-0.06667505204677582,"172":-0.0754002258181572,"173":-0.024754637852311134,"174":0.10157278180122375,"175":0.05081643536686897,"176":-0.007868347689509392,"177":-0.03742724657058716,"178":0.02177528664469719,"179":-0.05414821207523346,"180":-0.0809500440955162,"181":0.05818762630224228,"182":-0.07458466291427612,"183":-0.17763154208660126,"184":-0.16545063257217407,"185":-0.18606872856616974,"186":0.09723782539367676,"187":-0.06764645129442215,"188":-0.1412867158651352,"189":0.1260327249765396,"190":0.1082221195101738,"191":-0.08307833969593048,"192":0.11096899211406708,"193":0.08133549988269806,"194":0.10005555301904678,"195":-0.12429384887218475,"196":0.07075393199920654,"197":-0.0022485642693936825,"198":-0.016236040741205215,"199":0.10568514466285706,"200":-0.04121865704655647,"201":0.18712399899959564,"202":-0.1655958890914917,"203":-0.12498196214437485,"204":0.04878438264131546,"205":-0.0904829278588295,"206":-0.10020401328802109,"207":-0.11460969597101212,"208":-0.15357530117034912,"209":0.005974474363029003,"210":0.12453030049800873,"211":0.16765917837619781,"212":0.028815563768148422,"213":-0.17353202402591705,"214":0.13719633221626282,"215":-0.10668797045946121,"216":0.0483233667910099,"217":-0.11832612752914429,"218":-0.11566445231437683,"219":0.10861458629369736,"220":-0.1655154973268509,"221":-0.14342355728149414,"222":-0.1216585710644722,"223":-0.14423713088035583,"224":-0.006418425124138594,"225":0.11923807114362717,"226":-0.1429380178451538,"227":-0.12513048946857452,"228":0.1388370841741562}},"6":{"bias":0.011462113820016384,"weights":{"0":-0.12156159430742264,"1":-0.08219366520643234,"2":0.16328957676887512,"3":-0.057640381157398224,"4":0.17446456849575043,"5":-0.2155514657497406,"6":0.051222287118434906,"7":-0.039276737719774246,"8":0.11646385490894318,"9":-0.20367254316806793,"10":0.15786680579185486,"11":-0.13598878681659698,"12":0.092142753303051,"13":0.11417429149150848,"14":-0.13762187957763672,"15":0.0784279927611351,"16":-0.16833142936229706,"17":0.020505404099822044,"18":-0.1154751256108284,"19":0.13518881797790527,"20":0.03718513622879982,"21":-0.08279550075531006,"22":0.08883999288082123,"23":0.0870368629693985,"24":-0.1671019345521927,"25":0.009404373355209827,"26":-0.07003278285264969,"27":0.019757205620408058,"28":-0.21451111137866974,"29":-0.10512041300535202,"30":0.0670245885848999,"31":0.1151522845029831,"32":-0.08094831556081772,"33":0.057101137936115265,"34":0.05132792145013809,"35":0.12783978879451752,"36":-0.06089941784739494,"37":0.10691869258880615,"38":0.09402715414762497,"39":-0.04722985252737999,"40":0.08060626685619354,"41":-0.013028047047555447,"42":-0.007652136031538248,"43":-0.1973414570093155,"44":0.09382766485214233,"45":-0.1476321965456009,"46":-0.019979005679488182,"47":0.04539444297552109,"48":-0.22001488506793976,"49":0.09566867351531982,"50":0.0009530310053378344,"51":-0.06938861310482025,"52":-0.18869338929653168,"53":0.042260557413101196,"54":0.13189098238945007,"55":-0.10553883761167526,"56":-0.046908047050237656,"57":0.018884198740124702,"58":-0.013620179146528244,"59":0.014933589845895767,"60":0.14405207335948944,"61":-0.199100062251091,"62":0.1309475153684616,"63":-0.13771723210811615,"64":-0.1213136613368988,"65":0.010365446098148823,"66":0.12079346179962158,"67":-0.1263854056596756,"68":0.056454941630363464,"69":0.02779911644756794,"70":0.13915738463401794,"71":0.056769296526908875,"72":-0.0568750761449337,"73":-0.11004799604415894,"74":0.07548151165246964,"75":-0.12243413180112839,"76":0.0656367689371109,"77":0.08674418181180954,"78":-0.11148110032081604,"79":-0.21370619535446167,"80":-0.05615534260869026,"81":-0.13023819029331207,"82":-0.13017705082893372,"83":-0.09997142851352692,"84":-0.17340776324272156,"85":0.14586609601974487,"86":0.17498306930065155,"87":-0.19436675310134888,"88":0.14171969890594482,"89":0.09287700802087784,"90":-0.22039231657981873,"91":-0.18177877366542816,"92":0.07500842213630676,"93":0.02614949829876423,"94":-0.18654772639274597,"95":0.05919048935174942,"96":-0.2132634073495865,"97":-0.1421816498041153,"98":-0.008639127016067505,"99":0.11233559250831604,"100":0.030776433646678925,"101":-0.09276406466960907,"102":-0.0809892788529396,"103":0.07229384034872055,"104":-0.07948555797338486,"105":0.1426575481891632,"106":0.11292237043380737,"107":0.13113798201084137,"108":-0.018030676990747452,"109":-0.2234475463628769,"110":0.0028999666683375835,"111":-0.1422155499458313,"112":-0.109037384390831,"113":-0.07289347052574158,"114":0.026607902720570564,"115":-0.16369672119617462,"116":-0.18639825284481049,"117":-0.1878957897424698,"118":0.019119853153824806,"119":-0.08768222481012344,"120":-0.03207718953490257,"121":0.1348285675048828,"122":0.04399140179157257,"123":0.006438856944441795,"124":0.061594828963279724,"125":-0.09271174669265747,"126":0.04702591150999069,"127":0.15664330124855042,"128":0.0936136469244957,"129":-0.11760345846414566,"130":-0.14491921663284302,"131":-0.20866170525550842,"132":0.018623394891619682,"133":-0.056536149233579636,"134":-0.2185896933078766,"135":-0.06064911186695099,"136":-0.20510275661945343,"137":-0.18703417479991913,"138":0.07531040906906128,"139":-0.09764810651540756,"140":0.1672532707452774,"141":-0.17201313376426697,"142":-0.17513974010944366,"143":-0.12358035147190094,"144":-0.016042262315750122,"145":0.02731725387275219,"146":0.050559259951114655,"147":-0.20177923142910004,"148":-0.14272771775722504,"149":-0.053316064178943634,"150":-0.11272572726011276,"151":0.07251200824975967,"152":-0.014979565516114235,"153":-0.06745050847530365,"154":0.0710848718881607,"155":0.10959084331989288,"156":-0.1805627942085266,"157":-0.07208766788244247,"158":-0.14252306520938873,"159":0.0574251189827919,"160":0.008261111564934254,"161":-0.04041774943470955,"162":-0.07450182735919952,"163":-0.17191539704799652,"164":0.011573747731745243,"165":-0.11548341810703278,"166":0.03819116950035095,"167":-0.017967039719223976,"168":0.16743691265583038,"169":0.10101431608200073,"170":-0.1352740377187729,"171":0.12707892060279846,"172":0.13943761587142944,"173":-0.13593535125255585,"174":0.0023719794116914272,"175":0.16052743792533875,"176":0.017119525000452995,"177":0.04634043574333191,"178":-0.21383096277713776,"179":0.05706325173377991,"180":-0.1879197061061859,"181":0.15321864187717438,"182":-0.04540171101689339,"183":-0.2099875807762146,"184":-0.08725704252719879,"185":0.13674460351467133,"186":-0.003985040355473757,"187":0.15746280550956726,"188":0.04755251854658127,"189":-0.04226190969347954,"190":0.11478324234485626,"191":-0.13248956203460693,"192":-0.0038255457766354084,"193":0.036858733743429184,"194":-0.03202790021896362,"195":-0.06292933225631714,"196":0.1080668568611145,"197":0.09837555140256882,"198":-0.0073849898763000965,"199":-0.1096222922205925,"200":0.05829295516014099,"201":0.11578500270843506,"202":-0.0049674236215651035,"203":-0.10144113004207611,"204":-0.0320933535695076,"205":0.1691196858882904,"206":0.12051732838153839,"207":0.16056708991527557,"208":0.02412334643304348,"209":0.14545704424381256,"210":-0.0787620022892952,"211":-0.18249352276325226,"212":-0.12911543250083923,"213":-0.10688630491495132,"214":0.07212787866592407,"215":0.028060274198651314,"216":0.16118180751800537,"217":0.13763242959976196,"218":-0.10082599520683289,"219":0.0005179878789931536,"220":-0.06658732146024704,"221":-0.09250452369451523,"222":0.021747877821326256,"223":-0.04038657620549202,"224":-0.1840745210647583,"225":-0.11690618097782135,"226":0.016902849078178406,"227":-0.1796548217535019,"228":-0.03863149508833885}},"7":{"bias":-0.12517471611499786,"weights":{"0":0.15149946510791779,"1":0.15152552723884583,"2":-0.12637369334697723,"3":-0.19829785823822021,"4":-0.11735189706087112,"5":-0.08395861089229584,"6":0.035191070288419724,"7":0.008515540510416031,"8":-0.07167419046163559,"9":0.08787411451339722,"10":-0.12597227096557617,"11":-0.06968675553798676,"12":-0.15151447057724,"13":0.07626354694366455,"14":0.1635465919971466,"15":0.12050233781337738,"16":-0.06772793084383011,"17":-0.16973039507865906,"18":-0.11609943211078644,"19":-0.17479409277439117,"20":-0.17123959958553314,"21":-0.001503980834968388,"22":0.12971282005310059,"23":-0.09296073019504547,"24":0.012267831712961197,"25":-0.1738491803407669,"26":-0.02237115241587162,"27":-0.11126930266618729,"28":-0.020247358828783035,"29":0.14792832732200623,"30":-0.01851949840784073,"31":0.12300743907690048,"32":-0.19155335426330566,"33":-0.031613875180482864,"34":-0.18121889233589172,"35":0.09957072138786316,"36":-0.1981206238269806,"37":-0.13385289907455444,"38":0.12318485230207443,"39":0.18650102615356445,"40":0.037204559892416,"41":0.171914741396904,"42":0.04076187312602997,"43":0.11253003031015396,"44":-0.1390172839164734,"45":0.026145905256271362,"46":0.049202367663383484,"47":-0.17788065969944,"48":-0.055331531912088394,"49":0.09281384199857712,"50":0.10571838915348053,"51":0.024058347567915916,"52":0.06972488760948181,"53":-0.06955359131097794,"54":0.18713510036468506,"55":-0.0860648974776268,"56":0.09181444346904755,"57":0.1762351393699646,"58":-0.1495790332555771,"59":-0.07574771344661713,"60":-0.20001950860023499,"61":0.09148057550191879,"62":-0.013392379507422447,"63":-0.08541782945394516,"64":0.13081680238246918,"65":0.1971205472946167,"66":-0.16388052701950073,"67":-0.07447061687707901,"68":-0.07524756342172623,"69":-0.18284562230110168,"70":0.06458496302366257,"71":0.19781091809272766,"72":-0.1396821290254593,"73":-0.10593825578689575,"74":-0.1991623193025589,"75":-0.14526087045669556,"76":-0.15302374958992004,"77":0.07150641828775406,"78":-0.04076402261853218,"79":0.0758587196469307,"80":-0.08290349692106247,"81":0.026382049545645714,"82":0.1191968098282814,"83":0.059661589562892914,"84":-0.0012153566349297762,"85":0.004548599943518639,"86":0.10108117759227753,"87":-0.18597769737243652,"88":0.04957720264792442,"89":0.1642693281173706,"90":0.09410706162452698,"91":0.02558467537164688,"92":-0.04675930365920067,"93":-0.10389254987239838,"94":0.19925068318843842,"95":-0.19461360573768616,"96":0.05664811655879021,"97":0.16085290908813477,"98":0.06033368781208992,"99":-0.18685169517993927,"100":0.030889250338077545,"101":-0.07245099544525146,"102":0.19675655663013458,"103":-0.13519030809402466,"104":0.1545465737581253,"105":0.033233001828193665,"106":0.16487209498882294,"107":0.055747803300619125,"108":0.11580976843833923,"109":-0.12606920301914215,"110":-0.12072251737117767,"111":-0.06355863809585571,"112":-0.024695347994565964,"113":0.1710692048072815,"114":-0.09688415378332138,"115":-0.01923169568181038,"116":0.01884629763662815,"117":-0.1396860033273697,"118":0.1037127673625946,"119":-0.1629045605659485,"120":0.13551205396652222,"121":0.16109561920166016,"122":-0.1636970341205597,"123":0.0911259651184082,"124":-0.02583801932632923,"125":0.09155863523483276,"126":-0.15990284085273743,"127":-0.011892090551555157,"128":-0.056952204555273056,"129":-0.05897863954305649,"130":0.146555095911026,"131":0.040980953723192215,"132":0.013200287707149982,"133":-0.006161533761769533,"134":0.08959202468395233,"135":-0.026057099923491478,"136":0.010097598657011986,"137":0.07421436905860901,"138":-0.17378181219100952,"139":-0.11024738103151321,"140":-0.16816622018814087,"141":-0.023957863450050354,"142":0.09794937074184418,"143":0.061696857213974,"144":-0.15860456228256226,"145":-0.15632636845111847,"146":0.051285188645124435,"147":-0.1518682986497879,"148":0.04453200474381447,"149":0.02864578552544117,"150":-0.11080539226531982,"151":0.13211853802204132,"152":-0.14692889153957367,"153":0.1358758807182312,"154":0.18525274097919464,"155":-0.08002065867185593,"156":0.19550995528697968,"157":0.1644664704799652,"158":-0.04021343216300011,"159":-0.07653467357158661,"160":0.01844378374516964,"161":0.060858748853206635,"162":0.1550479680299759,"163":-0.1143595352768898,"164":0.10241016745567322,"165":0.09731626510620117,"166":-0.18410198390483856,"167":-0.04129129275679588,"168":-0.11646199971437454,"169":0.057961881160736084,"170":-0.02208520472049713,"171":-0.10083774477243423,"172":-0.10668596625328064,"173":-0.17768171429634094,"174":-0.12666544318199158,"175":0.17946289479732513,"176":0.17401225864887238,"177":0.10446354746818542,"178":0.13837037980556488,"179":-0.1923404335975647,"180":-0.19421446323394775,"181":-0.180623859167099,"182":-0.048901256173849106,"183":-0.08975416421890259,"184":0.011208740994334221,"185":-0.0002967607288155705,"186":-0.05322035402059555,"187":0.08994794636964798,"188":-0.16176943480968475,"189":-0.11425662785768509,"190":0.10623309016227722,"191":-0.07193654030561447,"192":-0.11517279595136642,"193":0.07687465846538544,"194":-0.10446450859308243,"195":-0.03248944878578186,"196":-0.060715507715940475,"197":-0.13763484358787537,"198":0.08504965901374817,"199":0.1291014850139618,"200":0.017240304499864578,"201":-0.013589957728981972,"202":0.10750293731689453,"203":-0.05884296074509621,"204":-0.04159735143184662,"205":0.04371834546327591,"206":0.15893858671188354,"207":-0.03967457637190819,"208":-0.09074284881353378,"209":-0.008162354119122028,"210":0.18129770457744598,"211":-0.04046321287751198,"212":-0.008015784434974194,"213":0.013025914318859577,"214":-0.1815725713968277,"215":0.1744520515203476,"216":0.054125163704156876,"217":0.07487587630748749,"218":-0.19615694880485535,"219":0.17919491231441498,"220":0.17552830278873444,"221":-0.14227789640426636,"222":0.09234799444675446,"223":-0.14995619654655457,"224":-0.018267076462507248,"225":0.0661148950457573,"226":0.09250451624393463,"227":-0.028441475704312325,"228":0.1664428561925888}},"8":{"bias":-0.04091237857937813,"weights":{"0":-0.19705501198768616,"1":-0.18325674533843994,"2":-0.15385854244232178,"3":-0.07004112750291824,"4":-0.10821638256311417,"5":0.047631844878196716,"6":0.02993733435869217,"7":-0.0027520840521901846,"8":0.14184294641017914,"9":-0.031575728207826614,"10":0.07795168459415436,"11":-0.12131249159574509,"12":0.08274094015359879,"13":0.07966300845146179,"14":0.1516377180814743,"15":0.05314386636018753,"16":0.15740785002708435,"17":-0.03372244909405708,"18":-0.10696657747030258,"19":-0.12323279678821564,"20":-0.20003658533096313,"21":-0.22047875821590424,"22":-0.01026227418333292,"23":0.06511562317609787,"24":0.020655715838074684,"25":-0.15043005347251892,"26":-0.11945801228284836,"27":-0.22268207371234894,"28":0.12377982586622238,"29":0.11997026950120926,"30":-0.18923647701740265,"31":-0.03197455778717995,"32":0.15348809957504272,"33":0.12571068108081818,"34":0.01663958840072155,"35":0.1294071525335312,"36":-0.13827373087406158,"37":-0.03949391841888428,"38":-0.042047739028930664,"39":-0.03591834381222725,"40":0.08308568596839905,"41":-0.1402629315853119,"42":-0.10906528681516647,"43":0.12597225606441498,"44":-0.06587536633014679,"45":-0.1284000426530838,"46":-0.05139541253447533,"47":-0.09867382049560547,"48":0.12809264659881592,"49":0.11706802994012833,"50":0.11090254038572311,"51":0.1154874637722969,"52":-0.23697344958782196,"53":-0.11902843415737152,"54":-0.12155161052942276,"55":0.145410418510437,"56":0.10804041475057602,"57":0.05633979290723801,"58":-0.2008766233921051,"59":-0.17659185826778412,"60":-0.1932367980480194,"61":-0.17547442018985748,"62":-0.07609303295612335,"63":-0.01796700432896614,"64":-0.22647613286972046,"65":0.06439248472452164,"66":-0.13814465701580048,"67":-0.1671968251466751,"68":-0.19577187299728394,"69":0.048101380467414856,"70":-0.07168275862932205,"71":-0.09608500450849533,"72":-0.20161616802215576,"73":-0.2333969622850418,"74":-0.16536840796470642,"75":0.1034158244729042,"76":0.011850222945213318,"77":0.04936400055885315,"78":-0.05233469605445862,"79":-0.1883164346218109,"80":-0.014088773168623447,"81":0.0076191420666873455,"82":0.11195436865091324,"83":0.07051084190607071,"84":0.12773554027080536,"85":-0.05041390284895897,"86":0.05097212642431259,"87":-0.11541914939880371,"88":-0.08620138466358185,"89":-0.03145185485482216,"90":0.02759765088558197,"91":-0.12771694362163544,"92":0.12852349877357483,"93":0.06048804521560669,"94":0.11243654042482376,"95":0.13288332521915436,"96":0.12454111129045486,"97":-0.037679772824048996,"98":0.1194719597697258,"99":0.005687721073627472,"100":0.061920613050460815,"101":0.1502060741186142,"102":-0.2105858027935028,"103":-0.08176581561565399,"104":-0.09902386367321014,"105":0.12981827557086945,"106":0.0002257935848319903,"107":-0.12239987403154373,"108":0.00970264058560133,"109":-0.18922896683216095,"110":-0.18203820288181305,"111":-0.20111815631389618,"112":0.06795822083950043,"113":0.10291803628206253,"114":0.017485184594988823,"115":0.11384158581495285,"116":0.034239426255226135,"117":-0.08957935869693756,"118":-0.21602767705917358,"119":0.1333593875169754,"120":0.08933144062757492,"121":0.10828886181116104,"122":0.011614937335252762,"123":-0.060388777405023575,"124":-0.05179569497704506,"125":-0.11937057971954346,"126":0.13835051655769348,"127":-0.1655748039484024,"128":-0.12260013073682785,"129":0.005396496504545212,"130":-0.07210373133420944,"131":0.023983241990208626,"132":-0.149261012673378,"133":-0.14694300293922424,"134":0.1564515382051468,"135":-0.19399552047252655,"136":-0.0953354686498642,"137":0.11142802983522415,"138":0.08853577822446823,"139":-0.023876046761870384,"140":0.10381216555833817,"141":0.0840434804558754,"142":0.0639004111289978,"143":-0.146516352891922,"144":-0.07489318400621414,"145":-0.003171693067997694,"146":-0.11390518397092819,"147":0.09910517185926437,"148":-0.046019356697797775,"149":-0.03241279721260071,"150":-0.056606490164995193,"151":-0.10747811943292618,"152":-0.07478301227092743,"153":0.10452600568532944,"154":0.1322701871395111,"155":0.09199205785989761,"156":0.01677575148642063,"157":-0.20089977979660034,"158":-0.12606334686279297,"159":-0.08878124505281448,"160":-0.01767360046505928,"161":0.121812604367733,"162":0.08704132586717606,"163":0.10437502712011337,"164":0.05043252557516098,"165":0.04702839255332947,"166":0.14785797894001007,"167":-0.007530688773840666,"168":0.09722023457288742,"169":0.16026589274406433,"170":0.04633048176765442,"171":-0.17563438415527344,"172":0.08956176787614822,"173":0.023259269073605537,"174":-0.14112219214439392,"175":-0.17273949086666107,"176":0.015316789038479328,"177":-0.17171956598758698,"178":0.008034716360270977,"179":-0.1525036245584488,"180":-0.18024715781211853,"181":-0.18696415424346924,"182":0.11465958505868912,"183":0.08499568700790405,"184":0.042421549558639526,"185":-0.15792860090732574,"186":-0.10901922732591629,"187":-0.024844978004693985,"188":-0.07492757588624954,"189":0.010180565528571606,"190":-0.16476736962795258,"191":-0.11943882703781128,"192":-0.186277374625206,"193":0.0920519307255745,"194":-0.03269823640584946,"195":-0.1260492354631424,"196":-0.23548032343387604,"197":-0.06816833466291428,"198":0.14004451036453247,"199":-0.08306745439767838,"200":-0.013783452101051807,"201":0.11933756619691849,"202":-0.2075970470905304,"203":-0.07734023034572601,"204":-0.005563832353800535,"205":0.009007102809846401,"206":0.15132467448711395,"207":-0.054148949682712555,"208":-0.1947692483663559,"209":-0.01397451851516962,"210":0.014975042082369328,"211":0.05104704201221466,"212":0.05670513957738876,"213":-0.12464980036020279,"214":-0.09598613530397415,"215":0.04626331478357315,"216":-0.02889545075595379,"217":0.06930842250585556,"218":0.15548330545425415,"219":-0.22633589804172516,"220":-0.15243279933929443,"221":-0.2009333074092865,"222":-0.14369717240333557,"223":-0.14565527439117432,"224":-0.09434475004673004,"225":0.1258019208908081,"226":-0.15886975824832916,"227":-0.09127906709909439,"228":-0.06325609982013702}},"9":{"bias":-0.09224198758602142,"weights":{"0":-0.05846652761101723,"1":0.13560646772384644,"2":0.022315001115202904,"3":0.10266262292861938,"4":0.01741398312151432,"5":0.1737545281648636,"6":0.03349180892109871,"7":-0.058513570576906204,"8":-0.11540485173463821,"9":0.039849430322647095,"10":0.18896400928497314,"11":-0.1046794205904007,"12":0.02277437411248684,"13":0.11603650450706482,"14":-0.0787295401096344,"15":-0.09480883926153183,"16":0.16700305044651031,"17":-0.06313924491405487,"18":0.17312966287136078,"19":0.10212451219558716,"20":-0.19500946998596191,"21":0.015446005389094353,"22":0.1737104058265686,"23":-0.06662219762802124,"24":-0.17081931233406067,"25":0.008590255863964558,"26":0.19871832430362701,"27":0.027649328112602234,"28":-0.13571418821811676,"29":-0.10990815609693527,"30":0.15167227387428284,"31":-0.024463973939418793,"32":0.12967775762081146,"33":-0.15562085807323456,"34":0.15160305798053741,"35":0.05710822716355324,"36":-0.026340099051594734,"37":0.17962957918643951,"38":0.000968240958172828,"39":0.029454734176397324,"40":0.13461004197597504,"41":-0.12546759843826294,"42":-0.124651238322258,"43":0.01197861973196268,"44":0.0446358285844326,"45":0.08313703536987305,"46":0.06571292877197266,"47":-0.08687686920166016,"48":0.10488153249025345,"49":-0.12707626819610596,"50":-0.05454065278172493,"51":0.11163473129272461,"52":-0.11607763916254044,"53":-0.05609852820634842,"54":0.06385239958763123,"55":-0.13639327883720398,"56":0.1939345896244049,"57":0.14073136448860168,"58":0.09173504263162613,"59":0.04938269406557083,"60":0.18612001836299896,"61":0.17158497869968414,"62":-0.009939337149262428,"63":0.09621106833219528,"64":-0.1801530122756958,"65":0.15088053047657013,"66":-0.1790226846933365,"67":0.12661153078079224,"68":-0.11088991910219193,"69":-0.1780397593975067,"70":0.11969718337059021,"71":0.1572345644235611,"72":0.11686357855796814,"73":0.13454681634902954,"74":0.06931737810373306,"75":0.15507934987545013,"76":-0.18435604870319366,"77":-0.06268639117479324,"78":0.05547935888171196,"79":-0.10021008551120758,"80":0.09924890100955963,"81":0.11569306999444962,"82":0.08051719516515732,"83":0.07069407403469086,"84":0.05533038079738617,"85":0.05980783700942993,"86":0.11454573273658752,"87":-0.07574136555194855,"88":0.14304934442043304,"89":-0.18791422247886658,"90":-0.14594098925590515,"91":0.04438237473368645,"92":0.15108901262283325,"93":-0.02448558248579502,"94":-0.19330881536006927,"95":-0.11545611917972565,"96":-0.05039568990468979,"97":-0.1457367092370987,"98":-0.056479498744010925,"99":-0.060973260551691055,"100":-0.06077171489596367,"101":-0.0920896977186203,"102":-0.18487675487995148,"103":-0.16605894267559052,"104":-0.06864502280950546,"105":-0.11130350828170776,"106":-0.03249020874500275,"107":0.19944603741168976,"108":0.20094643533229828,"109":-0.129648357629776,"110":-0.1691790074110031,"111":0.07297609001398087,"112":-0.11149274557828903,"113":0.03929783031344414,"114":0.09989108145236969,"115":-0.13221107423305511,"116":0.09614675492048264,"117":0.042740315198898315,"118":0.06663677841424942,"119":-0.039355553686618805,"120":0.18479333817958832,"121":-0.18889519572257996,"122":0.19051751494407654,"123":-0.14811769127845764,"124":0.034054435789585114,"125":0.03424876183271408,"126":0.17221210896968842,"127":0.1176484003663063,"128":0.11550585180521011,"129":-0.11492399871349335,"130":0.06120017543435097,"131":0.018926644697785378,"132":-0.08028333634138107,"133":0.13038986921310425,"134":0.05329344794154167,"135":0.03533438965678215,"136":0.07759369164705276,"137":-0.02074071578681469,"138":0.015655117109417915,"139":0.163392573595047,"140":-0.020185884088277817,"141":-0.0481548048555851,"142":0.1322525441646576,"143":0.07963436841964722,"144":-0.02690109610557556,"145":-0.15108710527420044,"146":-0.14414557814598083,"147":-0.18791557848453522,"148":0.10275271534919739,"149":-0.01000741682946682,"150":0.05298859253525734,"151":0.14631745219230652,"152":-0.10114730149507523,"153":0.030955450609326363,"154":0.08397454023361206,"155":-0.02849056012928486,"156":-0.04358978942036629,"157":-0.08404060453176498,"158":-0.09814784675836563,"159":-0.09143178164958954,"160":0.10692377388477325,"161":0.12075431644916534,"162":0.16529202461242676,"163":0.011175700463354588,"164":-0.010266751982271671,"165":-0.029972026124596596,"166":-0.13203203678131104,"167":0.06290318071842194,"168":-0.03367689251899719,"169":0.09692336618900299,"170":0.04563387110829353,"171":-0.03443858027458191,"172":0.1533263623714447,"173":-0.06387010961771011,"174":-0.11564955115318298,"175":-0.17736098170280457,"176":-0.08866753429174423,"177":-0.040105756372213364,"178":-0.19171792268753052,"179":0.007893355563282967,"180":-0.005307078827172518,"181":-0.05500063672661781,"182":-0.07251333445310593,"183":-0.09392214566469193,"184":0.1383075714111328,"185":0.019233649596571922,"186":0.1600690633058548,"187":-0.1079714223742485,"188":0.016835235059261322,"189":-0.15333451330661774,"190":-0.027900712564587593,"191":-0.029576802626252174,"192":0.13591738045215607,"193":0.09578059613704681,"194":-0.11996989697217941,"195":0.07702089101076126,"196":-0.1765635758638382,"197":-0.05802547559142113,"198":0.05172598361968994,"199":0.10669558495283127,"200":0.04537293687462807,"201":0.01679891161620617,"202":0.008140703663229942,"203":0.030349250882864,"204":0.10288460552692413,"205":0.185205340385437,"206":0.19501204788684845,"207":-0.06246986612677574,"208":0.03944585844874382,"209":0.1376810222864151,"210":0.16384221613407135,"211":0.08255071192979813,"212":0.19656583666801453,"213":0.10728573799133301,"214":0.030002223327755928,"215":-0.17837627232074738,"216":0.13954418897628784,"217":-0.11585082858800888,"218":-0.19367673993110657,"219":-0.12074799835681915,"220":-0.108247309923172,"221":0.07864592969417572,"222":-0.0553213395178318,"223":0.07076546549797058,"224":-0.17329227924346924,"225":-0.09952248632907867,"226":0.044610362499952316,"227":0.03253313526511192,"228":-0.09197192639112473}},"10":{"bias":0.07114619016647339,"weights":{"0":-0.09807530045509338,"1":-0.02025461196899414,"2":-0.08698150515556335,"3":-0.04641180858016014,"4":-0.0922405794262886,"5":-0.1361246258020401,"6":0.03822312876582146,"7":0.03656032681465149,"8":-0.041061315685510635,"9":0.0012055245460942388,"10":0.03331427276134491,"11":0.05391320958733559,"12":-0.08673709630966187,"13":0.006773090455681086,"14":-0.055708300322294235,"15":0.0006063455366529524,"16":0.1257147192955017,"17":-0.11706133186817169,"18":-0.14524158835411072,"19":0.10888464003801346,"20":0.17138150334358215,"21":-0.17723052203655243,"22":0.020510200411081314,"23":-0.027069730684161186,"24":0.12024840712547302,"25":-0.0646805539727211,"26":-0.010109681636095047,"27":0.07685619592666626,"28":-0.14338576793670654,"29":0.11918337643146515,"30":0.15079949796199799,"31":-0.025873053818941116,"32":-0.03461173549294472,"33":-0.06269698590040207,"34":0.1871483474969864,"35":-0.09169016778469086,"36":0.10455264896154404,"37":-0.07702368497848511,"38":0.01510726846754551,"39":-0.05239633470773697,"40":-0.17287690937519073,"41":0.05479709059000015,"42":-0.18198806047439575,"43":-0.022579170763492584,"44":0.006622041575610638,"45":0.17793652415275574,"46":0.06791891157627106,"47":0.07706822454929352,"48":0.025264833122491837,"49":0.15622131526470184,"50":0.12230798602104187,"51":-0.17562685906887054,"52":0.05447215959429741,"53":-0.08810324966907501,"54":0.199360653758049,"55":-0.05400944873690605,"56":-0.043932944536209106,"57":-0.0907120630145073,"58":0.1181587427854538,"59":-0.029471419751644135,"60":-0.1945299506187439,"61":-0.02704789489507675,"62":-0.06845423579216003,"63":-0.011484627611935139,"64":-0.07756742835044861,"65":0.12228696048259735,"66":-0.027401380240917206,"67":0.023894472047686577,"68":-0.18705667555332184,"69":0.1017298772931099,"70":-0.19864003360271454,"71":0.15114763379096985,"72":-0.13152863085269928,"73":0.041558776050806046,"74":-0.05197508633136749,"75":-0.044437479227781296,"76":0.11177343130111694,"77":-0.07165677845478058,"78":-0.1552933305501938,"79":0.0797487199306488,"80":-0.09295732527971268,"81":-0.15731316804885864,"82":-0.1809537708759308,"83":-0.034238290041685104,"84":0.15964798629283905,"85":0.11800307035446167,"86":-0.013610521331429482,"87":-0.027093376964330673,"88":0.03368866443634033,"89":-0.05709800869226456,"90":0.06244903802871704,"91":-0.1700640171766281,"92":0.01568763330578804,"93":0.0629294216632843,"94":-0.1436859369277954,"95":0.1474672257900238,"96":0.11690600961446762,"97":-0.09358815848827362,"98":-0.028173092752695084,"99":0.07516088336706161,"100":0.15164785087108612,"101":-0.1046736016869545,"102":-0.1783425211906433,"103":-0.012560761533677578,"104":-0.10133081674575806,"105":0.006329971831291914,"106":0.09011296927928925,"107":-0.08970597386360168,"108":0.04181014746427536,"109":0.09136109054088593,"110":0.026017706841230392,"111":0.026983454823493958,"112":0.15760189294815063,"113":0.0499659925699234,"114":0.11565550416707993,"115":-0.08188866823911667,"116":0.18350209295749664,"117":-0.0895274206995964,"118":-0.03735242411494255,"119":-0.14157289266586304,"120":0.0742461308836937,"121":0.148245170712471,"122":0.11471546441316605,"123":0.17443710565567017,"124":-0.12908823788166046,"125":0.03953312709927559,"126":0.03535810858011246,"127":0.06927546858787537,"128":0.11883748322725296,"129":0.19338950514793396,"130":-0.10322750359773636,"131":0.09189724922180176,"132":0.00967604760080576,"133":0.16947899758815765,"134":-0.14257200062274933,"135":-0.18597140908241272,"136":0.03426840528845787,"137":-0.03924180194735527,"138":0.09389360249042511,"139":0.023221001029014587,"140":-0.12283778935670853,"141":-0.056349605321884155,"142":0.13047198951244354,"143":0.11385686695575714,"144":0.10941148549318314,"145":-0.1765054613351822,"146":-0.020182978361845016,"147":-0.19387860596179962,"148":-0.11940260976552963,"149":0.1850065290927887,"150":-0.17947854101657867,"151":-0.0763302817940712,"152":0.0885060727596283,"153":0.06532438844442368,"154":-0.08861780911684036,"155":-0.11137264221906662,"156":-0.13142268359661102,"157":0.17774945497512817,"158":-0.09776406735181808,"159":0.10339846462011337,"160":-0.020866183564066887,"161":-0.09084992855787277,"162":-0.07696299999952316,"163":0.17754404246807098,"164":-0.11385706812143326,"165":0.026908475905656815,"166":-0.012199165299534798,"167":-0.12331055849790573,"168":-0.18435637652873993,"169":0.1874876469373703,"170":0.1622994989156723,"171":0.15698005259037018,"172":0.03818800672888756,"173":0.07758691906929016,"174":0.14052748680114746,"175":0.008458459749817848,"176":-0.153689444065094,"177":0.07703827321529388,"178":-0.17164979875087738,"179":-0.13258199393749237,"180":-0.1222773864865303,"181":0.07475358247756958,"182":-0.13561205565929413,"183":0.08834727853536606,"184":-0.1337457150220871,"185":-0.1749216616153717,"186":-0.06090512499213219,"187":0.06686162203550339,"188":-0.03951428458094597,"189":0.19845309853553772,"190":-0.09424615651369095,"191":0.16554078459739685,"192":-0.021168971434235573,"193":0.1631118208169937,"194":0.16101841628551483,"195":0.1698809266090393,"196":0.035820480436086655,"197":-0.08021921664476395,"198":-0.07829730957746506,"199":0.04294396564364433,"200":0.019117625430226326,"201":-0.09206991642713547,"202":0.12476177513599396,"203":0.087713822722435,"204":0.17555959522724152,"205":0.038549330085515976,"206":0.18389162421226501,"207":0.025755751878023148,"208":-0.05290018394589424,"209":-0.16791397333145142,"210":-0.13197603821754456,"211":0.14052534103393555,"212":-0.16917510330677032,"213":0.07357527315616608,"214":-0.021373393014073372,"215":-0.025806158781051636,"216":-0.14496302604675293,"217":-0.008942740969359875,"218":-0.14432542026042938,"219":0.022466586902737617,"220":-0.1393774300813675,"221":-0.13507215678691864,"222":-0.07201635837554932,"223":0.06842565536499023,"224":-0.06348174065351486,"225":0.09026388078927994,"226":0.03698068484663963,"227":-0.06534165143966675,"228":0.1674039512872696}},"11":{"bias":-0.1583738625049591,"weights":{"0":-0.12584532797336578,"1":0.18895451724529266,"2":-0.18125474452972412,"3":0.026136841624975204,"4":0.11624767631292343,"5":0.11880221962928772,"6":-0.012165862135589123,"7":0.0033021015115082264,"8":0.17961706221103668,"9":-0.14679250121116638,"10":-0.16106845438480377,"11":0.132173091173172,"12":0.13680754601955414,"13":0.06118449196219444,"14":-0.12186465412378311,"15":-0.04798238351941109,"16":0.1262471079826355,"17":-0.14642482995986938,"18":-0.12250502407550812,"19":-0.14477196335792542,"20":0.16858403384685516,"21":-0.14515265822410583,"22":-0.1633232831954956,"23":0.01957942731678486,"24":0.09802047163248062,"25":0.19911323487758636,"26":-0.03309018537402153,"27":-0.12714335322380066,"28":0.0033740748185664415,"29":-0.020206933841109276,"30":0.13597863912582397,"31":-0.0815591961145401,"32":0.012314310297369957,"33":-0.009568430483341217,"34":-0.16739532351493835,"35":0.04978473111987114,"36":0.04974892735481262,"37":-0.09340356290340424,"38":0.08429925888776779,"39":-0.13480572402477264,"40":-0.02078147977590561,"41":-0.1185198575258255,"42":-0.06214574724435806,"43":0.1936531662940979,"44":-0.16355369985103607,"45":0.0676201581954956,"46":0.1456177830696106,"47":-0.018004655838012695,"48":0.12755073606967926,"49":-0.11179608106613159,"50":-0.11455105245113373,"51":0.1914420872926712,"52":-0.050078149884939194,"53":0.1509285569190979,"54":0.07262339442968369,"55":0.1730799376964569,"56":-0.18000957369804382,"57":0.08939732611179352,"58":-0.09895496070384979,"59":-0.047753363847732544,"60":0.19258424639701843,"61":-0.14156001806259155,"62":0.09951311349868774,"63":0.035391174256801605,"64":-0.04056090489029884,"65":0.1395946890115738,"66":-0.1750822365283966,"67":0.1657264232635498,"68":-0.05288223177194595,"69":0.17410050332546234,"70":-0.13216625154018402,"71":-0.07597166299819946,"72":0.12358815968036652,"73":0.013045772910118103,"74":-0.1512017697095871,"75":0.0015294337645173073,"76":-0.18647298216819763,"77":0.1298370063304901,"78":-0.15923289954662323,"79":0.161163330078125,"80":-0.1458209604024887,"81":0.05908659100532532,"82":-0.054834362119436264,"83":0.08427189290523529,"84":0.10939813405275345,"85":0.1561291664838791,"86":-0.10913794487714767,"87":0.15606705844402313,"88":0.00904489029198885,"89":0.11682483553886414,"90":0.10491934418678284,"91":0.05137949436903,"92":-0.11368761211633682,"93":-0.02981012500822544,"94":-0.03586133196949959,"95":0.16407369077205658,"96":-0.16476210951805115,"97":0.04506918415427208,"98":-0.1465827375650406,"99":-0.15093043446540833,"100":-0.14099393784999847,"101":0.19429917633533478,"102":-0.19362512230873108,"103":0.009878694079816341,"104":-0.19409474730491638,"105":-0.042717237025499344,"106":-0.13373848795890808,"107":0.10870151221752167,"108":0.144126296043396,"109":-0.1356992870569229,"110":0.035612624138593674,"111":-0.08427568525075912,"112":0.0002599489816930145,"113":0.1645917445421219,"114":-0.1159510463476181,"115":0.023509956896305084,"116":-0.01981874369084835,"117":-0.15600624680519104,"118":0.1923733949661255,"119":-0.059457484632730484,"120":0.08175429701805115,"121":0.17494946718215942,"122":-0.06847397238016129,"123":-0.049407973885536194,"124":-0.024269716814160347,"125":0.08388738334178925,"126":0.04179190844297409,"127":0.17204181849956512,"128":-0.1541449874639511,"129":-0.16874542832374573,"130":-0.12571869790554047,"131":0.07426130026578903,"132":0.04295496270060539,"133":-0.09783328324556351,"134":0.02877933345735073,"135":-0.10148236900568008,"136":0.1736103892326355,"137":-0.13340382277965546,"138":-0.15232564508914948,"139":0.1926639825105667,"140":-0.12562760710716248,"141":0.14162251353263855,"142":0.11672626435756683,"143":0.19797705113887787,"144":-0.09960133582353592,"145":-0.07116322219371796,"146":-0.052424218505620956,"147":-0.1953631490468979,"148":0.026580756530165672,"149":0.0263572596013546,"150":-0.14645016193389893,"151":-0.16115006804466248,"152":0.16607022285461426,"153":0.05971687659621239,"154":-0.022668786346912384,"155":0.027562858536839485,"156":0.1706288605928421,"157":-0.015487928874790668,"158":0.07532760500907898,"159":0.030369995161890984,"160":-0.13098680973052979,"161":-0.18657884001731873,"162":0.09782551229000092,"163":-0.1830756664276123,"164":0.02452404610812664,"165":0.1051894798874855,"166":0.18480445444583893,"167":-0.1398540586233139,"168":0.11334065347909927,"169":0.041851118206977844,"170":0.04145330563187599,"171":-0.02466447465121746,"172":-0.09400391578674316,"173":0.02527153491973877,"174":-0.19297383725643158,"175":0.1415238380432129,"176":-0.02671547420322895,"177":0.15126657485961914,"178":0.13960981369018555,"179":-0.0414850227534771,"180":0.10193730890750885,"181":-0.18481209874153137,"182":0.0887923315167427,"183":0.19284915924072266,"184":0.184357687830925,"185":-0.000031841689633438364,"186":-0.19148439168930054,"187":-0.15447501838207245,"188":-0.03211302310228348,"189":0.0674167275428772,"190":0.008552566170692444,"191":0.18250754475593567,"192":-0.10993033647537231,"193":0.05945736542344093,"194":0.17387962341308594,"195":0.008269093930721283,"196":0.10234763473272324,"197":0.08896957337856293,"198":-0.016285929828882217,"199":0.1271524578332901,"200":0.16729722917079926,"201":-0.13731686770915985,"202":0.055250030010938644,"203":-0.07978323847055435,"204":-0.10372865945100784,"205":0.1558283120393753,"206":-0.07677329331636429,"207":-0.19724953174591064,"208":-0.038446858525276184,"209":-0.009855947457253933,"210":0.057084280997514725,"211":-0.15468737483024597,"212":0.007284482475370169,"213":-0.19261793792247772,"214":0.19849716126918793,"215":-0.004146325867623091,"216":-0.11465936154127121,"217":-0.17026826739311218,"218":-0.011117278598248959,"219":-0.1943553388118744,"220":0.12825380265712738,"221":0.15289850533008575,"222":-0.06633098423480988,"223":0.15675024688243866,"224":-0.09373026341199875,"225":-0.036538634449243546,"226":-0.014999008737504482,"227":-0.07857561111450195,"228":-0.002188363578170538}},"12":{"bias":-0.12117074429988861,"weights":{"0":-0.002697313204407692,"1":0.007035779766738415,"2":-0.09868010133504868,"3":-0.10142427682876587,"4":0.0002891561889555305,"5":-0.11567862331867218,"6":0.13912463188171387,"7":0.01747468113899231,"8":0.16675333678722382,"9":-0.186928853392601,"10":-0.00624528294429183,"11":-0.09098808467388153,"12":0.034272920340299606,"13":0.00342398788779974,"14":0.011398405767977238,"15":0.05850924924015999,"16":-0.10838894546031952,"17":-0.06872300058603287,"18":-0.19116362929344177,"19":-0.091598279774189,"20":-0.03907657042145729,"21":-0.18142186105251312,"22":-0.12790770828723907,"23":0.0069166128523647785,"24":-0.11194135993719101,"25":0.19648036360740662,"26":0.15845967829227448,"27":-0.010135545395314693,"28":-0.05529485642910004,"29":-0.16668975353240967,"30":0.11870694905519485,"31":-0.00619124248623848,"32":-0.13422775268554688,"33":0.1247139647603035,"34":-0.15339183807373047,"35":-0.028886931017041206,"36":0.19202904403209686,"37":-0.05766025930643082,"38":-0.012636104598641396,"39":-0.12421925365924835,"40":-0.009433634579181671,"41":-0.12463438510894775,"42":-0.15441526472568512,"43":0.09063450247049332,"44":-0.13490533828735352,"45":0.16868668794631958,"46":-0.14293336868286133,"47":0.021442802622914314,"48":-0.02565734274685383,"49":0.1037093997001648,"50":-0.019872767850756645,"51":0.13111770153045654,"52":0.005080634728074074,"53":-0.09086862951517105,"54":-0.18390832841396332,"55":-0.03526964411139488,"56":0.1198573037981987,"57":-0.1901863068342209,"58":-0.08988302201032639,"59":-0.02159338817000389,"60":0.03387036547064781,"61":0.1941950023174286,"62":-0.0561688132584095,"63":0.1487247496843338,"64":-0.009337596595287323,"65":0.029688803479075432,"66":-0.16120974719524384,"67":-0.14107821881771088,"68":0.09816551208496094,"69":0.010917731560766697,"70":-0.13870343565940857,"71":-0.05414113402366638,"72":0.04335852339863777,"73":-0.012844635173678398,"74":-0.062001775950193405,"75":0.0034092136193066835,"76":-0.09043625742197037,"77":-0.05420031026005745,"78":-0.11546959728002548,"79":0.10322949290275574,"80":0.09048379212617874,"81":-0.04740103706717491,"82":-0.01655612140893936,"83":-0.03248681128025055,"84":-0.1377062201499939,"85":0.17805923521518707,"86":0.050193533301353455,"87":-0.17336158454418182,"88":0.13941417634487152,"89":-0.02440688945353031,"90":0.12067726254463196,"91":-0.010500483214855194,"92":-0.10415630787611008,"93":0.01365047786384821,"94":-0.1402159333229065,"95":0.04146631062030792,"96":-0.007985854521393776,"97":-0.16844776272773743,"98":-0.028786057606339455,"99":0.08333927392959595,"100":0.04079865291714668,"101":-0.03085022233426571,"102":0.010230647400021553,"103":0.10883878916501999,"104":-0.10701974481344223,"105":0.03651079162955284,"106":0.1290026158094406,"107":-0.08894333243370056,"108":-0.1875743567943573,"109":0.06827375292778015,"110":-0.10269783437252045,"111":0.007321576587855816,"112":-0.10036299377679825,"113":0.03023269958794117,"114":0.017871659249067307,"115":0.07482415437698364,"116":-0.19294606149196625,"117":0.08030905574560165,"118":-0.12203340977430344,"119":0.02988617867231369,"120":-0.15428315103054047,"121":0.16008462011814117,"122":0.006709611043334007,"123":0.17240414023399353,"124":0.0840059295296669,"125":-0.13790787756443024,"126":0.0717434510588646,"127":-0.0580342561006546,"128":-0.14909356832504272,"129":0.0863146036863327,"130":-0.1820221096277237,"131":-0.13727404177188873,"132":0.09009821712970734,"133":-0.04053118824958801,"134":0.09759795665740967,"135":-0.12009875476360321,"136":-0.11677459627389908,"137":-0.07594263553619385,"138":-0.07562863081693649,"139":0.08125100284814835,"140":0.10615422576665878,"141":0.08699657022953033,"142":0.16518773138523102,"143":0.1614573895931244,"144":-0.0834786519408226,"145":-0.13747543096542358,"146":0.19010694324970245,"147":-0.18218158185482025,"148":0.07601050287485123,"149":0.06453997641801834,"150":-0.01622629165649414,"151":0.1273891180753708,"152":0.1848679631948471,"153":0.05591679364442825,"154":-0.06923972070217133,"155":0.0514177568256855,"156":-0.13382692635059357,"157":-0.17768515646457672,"158":0.11182812601327896,"159":0.08565904200077057,"160":-0.1485367864370346,"161":0.043310921639204025,"162":-0.1284942477941513,"163":-0.10195039212703705,"164":-0.17406079173088074,"165":-0.16999271512031555,"166":0.15319961309432983,"167":-0.14931824803352356,"168":-0.19222863018512726,"169":0.19758464395999908,"170":0.0646740272641182,"171":-0.0157718975096941,"172":-0.08830719441175461,"173":-0.06449780613183975,"174":-0.11514579504728317,"175":-0.12998896837234497,"176":0.13002987205982208,"177":0.09295833110809326,"178":0.035121746361255646,"179":-0.021286429837346077,"180":0.0814443826675415,"181":-0.11074502766132355,"182":-0.12220100313425064,"183":0.1939074844121933,"184":-0.19399936497211456,"185":0.015935368835926056,"186":0.00043613588786683977,"187":-0.1621890366077423,"188":-0.19882449507713318,"189":0.10090383142232895,"190":0.1782504916191101,"191":0.12071041017770767,"192":-0.07839332520961761,"193":0.04466939717531204,"194":-0.12683652341365814,"195":-0.17856383323669434,"196":-0.10172361880540848,"197":-0.18590210378170013,"198":0.1623745709657669,"199":0.13974158465862274,"200":0.019178004935383797,"201":-0.09966427087783813,"202":-0.05707893893122673,"203":0.16813918948173523,"204":-0.024463681504130363,"205":-0.0479106679558754,"206":0.04639521241188049,"207":0.09957575798034668,"208":0.11227997392416,"209":0.06574839353561401,"210":-0.046049971133470535,"211":0.1313742846250534,"212":-0.12417925894260406,"213":0.08206890523433685,"214":-0.15048998594284058,"215":0.04935920983552933,"216":0.015448546037077904,"217":-0.06550198048353195,"218":-0.12567782402038574,"219":-0.1154860258102417,"220":0.19854630529880524,"221":0.15364797413349152,"222":-0.06981972604990005,"223":0.10337328910827637,"224":-0.059518542140722275,"225":-0.14421531558036804,"226":0.18881915509700775,"227":-0.12767882645130157,"228":-0.03887670859694481}},"13":{"bias":-0.1588079035282135,"weights":{"0":0.13506630063056946,"1":-0.15213383734226227,"2":-0.1303778439760208,"3":0.02381649613380432,"4":0.01072276197373867,"5":0.12825724482536316,"6":-0.1207483783364296,"7":-0.05258319154381752,"8":-0.16052836179733276,"9":0.015852704644203186,"10":0.10592371970415115,"11":0.031823836266994476,"12":0.15189200639724731,"13":-0.027844512835144997,"14":0.01761544495820999,"15":0.0691266730427742,"16":-0.16721795499324799,"17":0.1556619107723236,"18":-0.12777657806873322,"19":0.13424408435821533,"20":-0.012977012433111668,"21":0.13633422553539276,"22":-0.11395705491304398,"23":0.1925751268863678,"24":-0.02425246685743332,"25":-0.09171251952648163,"26":-0.14940431714057922,"27":0.18747039139270782,"28":-0.003449538256973028,"29":0.14332976937294006,"30":-0.03952346742153168,"31":-0.08529476821422577,"32":-0.13328266143798828,"33":0.07967609912157059,"34":0.008527876809239388,"35":0.10613946616649628,"36":0.08893143385648727,"37":-0.1362590193748474,"38":-0.1550999879837036,"39":-0.138824462890625,"40":-0.16890914738178253,"41":0.08907335996627808,"42":0.09897786378860474,"43":0.13758046925067902,"44":-0.1844625324010849,"45":0.07451473921537399,"46":-0.16382895410060883,"47":-0.17170950770378113,"48":-0.09970075637102127,"49":-0.07584749907255173,"50":0.0075154840014874935,"51":0.19848830997943878,"52":-0.11815085262060165,"53":-0.15663836896419525,"54":0.16292811930179596,"55":-0.043753594160079956,"56":0.13051742315292358,"57":-0.05456049367785454,"58":0.026584703475236893,"59":0.17590974271297455,"60":0.06575241684913635,"61":-0.046693600714206696,"62":-0.042494386434555054,"63":-0.18033979833126068,"64":-0.18924927711486816,"65":-0.16500939428806305,"66":-0.1404639035463333,"67":-0.09816929697990417,"68":-0.17804954946041107,"69":-0.1206597238779068,"70":-0.12238864600658417,"71":0.14574739336967468,"72":-0.08814656734466553,"73":-0.05665471777319908,"74":0.17745418846607208,"75":-0.06480727344751358,"76":-0.1885196715593338,"77":-0.14580674469470978,"78":0.15386764705181122,"79":0.02528025209903717,"80":0.1942233443260193,"81":-0.007910181768238544,"82":0.19989846646785736,"83":0.09766839444637299,"84":-0.11468581855297089,"85":-0.12175986915826797,"86":0.10810063034296036,"87":-0.19428983330726624,"88":0.15143969655036926,"89":-0.13348378241062164,"90":-0.1957072764635086,"91":-0.08836367726325989,"92":-0.014846290461719036,"93":0.09238740056753159,"94":-0.1445523351430893,"95":-0.008393265306949615,"96":0.07737727463245392,"97":0.004920925945043564,"98":-0.04444890096783638,"99":-0.1260526180267334,"100":-0.197853684425354,"101":0.09824084490537643,"102":0.14634111523628235,"103":-0.1218075305223465,"104":0.09839770942926407,"105":-0.14767278730869293,"106":-0.1093018651008606,"107":0.19299200177192688,"108":-0.17914943397045135,"109":-0.03861631825566292,"110":-0.16927103698253632,"111":-0.18112950026988983,"112":0.010783771984279156,"113":0.17682203650474548,"114":0.06791394203901291,"115":0.09147275984287262,"116":0.18084493279457092,"117":-0.14941057562828064,"118":0.11381684243679047,"119":-0.06972748786211014,"120":0.03035638853907585,"121":0.008237327449023724,"122":-0.18220771849155426,"123":-0.19334684312343597,"124":-0.15222424268722534,"125":0.13953964412212372,"126":-0.15959879755973816,"127":0.054579123854637146,"128":0.11171159893274307,"129":-0.08455722779035568,"130":-0.07279245555400848,"131":0.1452416032552719,"132":0.1399865448474884,"133":0.07450614869594574,"134":0.061812624335289,"135":0.0028659524396061897,"136":0.061993759125471115,"137":-0.041026126593351364,"138":0.1314426213502884,"139":-0.09220016747713089,"140":0.16487623751163483,"141":-0.10795415192842484,"142":-0.004174642264842987,"143":-0.11331191658973694,"144":-0.09714685380458832,"145":0.19332249462604523,"146":-0.02448764257133007,"147":-0.007087251637130976,"148":0.18564888834953308,"149":0.1191716343164444,"150":0.02454807050526142,"151":0.15927879512310028,"152":-0.0694066658616066,"153":-0.14439931511878967,"154":-0.14546754956245422,"155":0.13270477950572968,"156":-0.0005785165703855455,"157":-0.1711050570011139,"158":-0.02744816057384014,"159":-0.0572795607149601,"160":0.09747347235679626,"161":-0.19558419287204742,"162":-0.1693345010280609,"163":0.062113579362630844,"164":0.20066998898983002,"165":-0.1831364780664444,"166":0.02538776956498623,"167":-0.08225283771753311,"168":-0.11072443425655365,"169":0.09179675579071045,"170":0.16013382375240326,"171":-0.1620674431324005,"172":-0.1568603813648224,"173":0.015787417069077492,"174":0.15332826972007751,"175":0.12318269163370132,"176":-0.0792168527841568,"177":0.10621648281812668,"178":0.1677982658147812,"179":-0.1322251707315445,"180":0.11322971433401108,"181":0.039979103952646255,"182":-0.1261487454175949,"183":-0.12402966618537903,"184":-0.10041052848100662,"185":-0.04086877405643463,"186":-0.19416099786758423,"187":-0.16930928826332092,"188":0.040808919817209244,"189":-0.043715767562389374,"190":-0.128890722990036,"191":-0.17986154556274414,"192":-0.08410342037677765,"193":0.0005915100337006152,"194":-0.07369057089090347,"195":-0.006856332998722792,"196":0.07934743165969849,"197":0.17716668546199799,"198":-0.0629786029458046,"199":-0.12824968993663788,"200":-0.0872778445482254,"201":0.07711387425661087,"202":-0.08562442660331726,"203":0.19208265841007233,"204":0.15531526505947113,"205":-0.16928136348724365,"206":0.08766546845436096,"207":-0.07995970547199249,"208":-0.06816211342811584,"209":-0.09480267018079758,"210":-0.12859393656253815,"211":-0.029656309634447098,"212":-0.03395522013306618,"213":0.19255177676677704,"214":0.031529501080513,"215":0.10002582520246506,"216":-0.03780525177717209,"217":-0.031735118478536606,"218":0.18073976039886475,"219":0.0941450446844101,"220":-0.017007043585181236,"221":-0.03769465163350105,"222":-0.000021689298591809347,"223":-0.11458632349967957,"224":0.12846390902996063,"225":-0.16680334508419037,"226":0.00852207187563181,"227":0.11485230177640915,"228":0.07185808569192886}},"14":{"bias":-0.032388895750045776,"weights":{"0":-0.06370724737644196,"1":0.1696489006280899,"2":-0.12120862305164337,"3":-0.10572067648172379,"4":0.11385104805231094,"5":0.11387830227613449,"6":0.020980937406420708,"7":0.1911405622959137,"8":-0.02854081615805626,"9":-0.011780131608247757,"10":-0.08049514144659042,"11":-0.06531838327646255,"12":-0.09100475162267685,"13":-0.0816754400730133,"14":-0.11651787906885147,"15":0.03788149356842041,"16":-0.15790604054927826,"17":-0.050935909152030945,"18":0.15704281628131866,"19":0.1623517870903015,"20":-0.01848897896707058,"21":0.0062277596443891525,"22":-0.035276684910058975,"23":-0.18326331675052643,"24":0.18830996751785278,"25":-0.18275415897369385,"26":0.17488740384578705,"27":-0.16546325385570526,"28":-0.1592676043510437,"29":-0.08060112595558167,"30":-0.04642234370112419,"31":-0.03885265067219734,"32":-0.1389019638299942,"33":0.03712797909975052,"34":-0.16752299666404724,"35":-0.17341385781764984,"36":-0.055315420031547546,"37":-0.12379280477762222,"38":0.003692192491143942,"39":-0.10771942883729935,"40":0.1696772426366806,"41":-0.05777275934815407,"42":0.06854517757892609,"43":0.11645203828811646,"44":-0.11342190951108932,"45":-0.11010263115167618,"46":0.12398964911699295,"47":0.05228147283196449,"48":0.11648362874984741,"49":0.08290130645036697,"50":0.04848020151257515,"51":0.11233709752559662,"52":0.0744570791721344,"53":0.1383359134197235,"54":-0.14375552535057068,"55":-0.15319113433361053,"56":0.19842641055583954,"57":-0.15114718675613403,"58":0.014239192940294743,"59":0.06633360683917999,"60":-0.007721337489783764,"61":0.04644536226987839,"62":-0.01834501512348652,"63":0.10576290637254715,"64":0.09281674772500992,"65":0.0013599967351183295,"66":0.09735526144504547,"67":-0.08852533251047134,"68":0.08488354086875916,"69":-0.08175449818372726,"70":0.07338457554578781,"71":-0.13662603497505188,"72":0.035002317279577255,"73":-0.03552042692899704,"74":-0.008088250644505024,"75":-0.10147044062614441,"76":0.019381878897547722,"77":-0.19357192516326904,"78":0.1410067081451416,"79":0.001928202691487968,"80":-0.17029014229774475,"81":0.03853343427181244,"82":-0.07963020354509354,"83":0.11610934138298035,"84":-0.08716096729040146,"85":-0.15233881771564484,"86":-0.0461394302546978,"87":-0.1422809660434723,"88":-0.0038930580485612154,"89":-0.13523408770561218,"90":-0.11106836795806885,"91":-0.16996920108795166,"92":0.11838868260383606,"93":0.1495058834552765,"94":-0.12532593309879303,"95":-0.12162809073925018,"96":0.11654414981603622,"97":0.12577202916145325,"98":-0.19318272173404694,"99":-0.14884622395038605,"100":-0.12769407033920288,"101":0.1444576382637024,"102":0.12938961386680603,"103":0.05055897682905197,"104":-0.14598901569843292,"105":0.09179198741912842,"106":0.01775433123111725,"107":-0.14616307616233826,"108":-0.1492069810628891,"109":-0.07215426117181778,"110":-0.17625774443149567,"111":-0.10757459700107574,"112":0.002139512449502945,"113":0.023511379957199097,"114":-0.15305465459823608,"115":0.07268594950437546,"116":0.1857111006975174,"117":-0.18795591592788696,"118":-0.17036055028438568,"119":-0.140134796500206,"120":0.035517558455467224,"121":-0.010870756581425667,"122":-0.18490922451019287,"123":-0.15198750793933868,"124":-0.08282532542943954,"125":-0.1949175000190735,"126":-0.027166368439793587,"127":0.13093046844005585,"128":-0.10768134146928787,"129":0.014984311535954475,"130":-0.19636784493923187,"131":-0.19626069068908691,"132":-0.06569655239582062,"133":0.07054039090871811,"134":-0.13853974640369415,"135":0.03976414352655411,"136":0.014514411799609661,"137":0.14547669887542725,"138":0.03668148070573807,"139":0.10376748442649841,"140":0.04463249444961548,"141":0.14363515377044678,"142":-0.1604030430316925,"143":0.1498854160308838,"144":0.07942703366279602,"145":-0.18009981513023376,"146":-0.10580526292324066,"147":0.12483043968677521,"148":-0.0873524472117424,"149":-0.18411464989185333,"150":0.07818469405174255,"151":0.04031657427549362,"152":-0.03652314469218254,"153":-0.04612676054239273,"154":-0.03416772186756134,"155":-0.13301678001880646,"156":0.09066743403673172,"157":0.16300353407859802,"158":0.15907928347587585,"159":0.15550924837589264,"160":-0.0452975258231163,"161":-0.09002945572137833,"162":-0.08666310459375381,"163":0.13074351847171783,"164":0.0893770232796669,"165":0.06416342407464981,"166":-0.06417480111122131,"167":-0.05864374712109566,"168":0.053741373121738434,"169":-0.07990137487649918,"170":0.021078746765851974,"171":-0.02159435674548149,"172":-0.14715425670146942,"173":-0.04026740789413452,"174":0.14212317764759064,"175":-0.15988807380199432,"176":-0.0844825878739357,"177":-0.15542447566986084,"178":-0.13161836564540863,"179":-0.047124721109867096,"180":0.11754962801933289,"181":-0.11954853683710098,"182":0.03712427616119385,"183":0.041539113968610764,"184":-0.15299546718597412,"185":0.01774490997195244,"186":0.16672615706920624,"187":-0.1332264095544815,"188":0.1300383061170578,"189":0.13571685552597046,"190":-0.11055611819028854,"191":-0.17647337913513184,"192":0.18726927042007446,"193":-0.17204168438911438,"194":0.07497221976518631,"195":-0.07122800499200821,"196":-0.03512924164533615,"197":-0.049785517156124115,"198":0.05273996666073799,"199":0.07542631775140762,"200":0.050863850861787796,"201":0.17980314791202545,"202":0.0707370936870575,"203":-0.09800971299409866,"204":-0.1501285433769226,"205":-0.14541999995708466,"206":0.11061932891607285,"207":0.14846271276474,"208":0.12967543303966522,"209":-0.13198406994342804,"210":0.19465427100658417,"211":0.041405435651540756,"212":0.0681983157992363,"213":-0.09251990914344788,"214":-0.18741312623023987,"215":-0.06033538654446602,"216":0.013475247658789158,"217":0.11775508522987366,"218":0.06321193277835846,"219":-0.1853240728378296,"220":-0.15382573008537292,"221":0.17424389719963074,"222":-0.04818233475089073,"223":-0.14052416384220123,"224":0.11751913279294968,"225":-0.13658443093299866,"226":-0.1639203131198883,"227":0.13686466217041016,"228":0.08329931646585464}},"15":{"bias":0.19815360009670258,"weights":{"0":0.17403389513492584,"1":0.17868933081626892,"2":0.17711253464221954,"3":0.07251156866550446,"4":0.2583824098110199,"5":0.05673874914646149,"6":0.029469668865203857,"7":-0.005387063138186932,"8":-0.07172234356403351,"9":0.08214063197374344,"10":0.01227110531181097,"11":0.2560374140739441,"12":0.10432980954647064,"13":-0.09183979034423828,"14":-0.01591300591826439,"15":0.21878792345523834,"16":0.0967753455042839,"17":-0.06457912921905518,"18":0.03270290046930313,"19":0.05095302313566208,"20":0.14058466255664825,"21":-0.11594299226999283,"22":0.05929649621248245,"23":-0.028695058077573776,"24":0.07313790917396545,"25":0.2563800513744354,"26":0.07111003249883652,"27":0.20152443647384644,"28":-0.07220013439655304,"29":0.13259392976760864,"30":-0.09969574213027954,"31":-0.029160041362047195,"32":0.2390502393245697,"33":0.0728374570608139,"34":0.021087786182761192,"35":0.02395692840218544,"36":0.2635151147842407,"37":0.011773346923291683,"38":0.2504299283027649,"39":0.002795311389490962,"40":-0.09359286725521088,"41":0.1595333218574524,"42":-0.05784500762820244,"43":0.14611929655075073,"44":-0.06464682519435883,"45":0.010380413383245468,"46":-0.09422241151332855,"47":-0.04348262771964073,"48":0.1236068606376648,"49":0.09028451144695282,"50":0.08527859300374985,"51":0.2591502070426941,"52":0.14262793958187103,"53":0.17059741914272308,"54":0.0029381762724369764,"55":0.25387829542160034,"56":0.08420249819755554,"57":-0.014697352424263954,"58":0.1725212186574936,"59":0.11313597112894058,"60":-0.07054245471954346,"61":0.0006538802990689874,"62":0.13725386559963226,"63":-0.04164811596274376,"64":0.19914886355400085,"65":0.006648841314017773,"66":0.22430117428302765,"67":0.15271145105361938,"68":0.06329622119665146,"69":0.20856785774230957,"70":0.2419050633907318,"71":0.23226533830165863,"72":0.2084452360868454,"73":-0.06462858617305756,"74":0.15856969356536865,"75":0.009851288050413132,"76":0.11471901834011078,"77":-0.034596506506204605,"78":0.21902653574943542,"79":0.21208588778972626,"80":-0.12025381624698639,"81":0.04529578983783722,"82":0.09873151779174805,"83":0.08390244096517563,"84":0.17870073020458221,"85":0.164060577750206,"86":0.07832347601652145,"87":0.16578809916973114,"88":-0.11203628033399582,"89":0.13578994572162628,"90":-0.11203276365995407,"91":-0.021145258098840714,"92":0.1726585179567337,"93":0.2389489710330963,"94":0.25288909673690796,"95":0.0981292650103569,"96":0.17142005264759064,"97":-0.11719561368227005,"98":-0.09249436855316162,"99":0.2271573692560196,"100":0.18770243227481842,"101":0.07902035862207413,"102":-0.029393423348665237,"103":0.09212951362133026,"104":0.12305911630392075,"105":0.08294256031513214,"106":0.08194592595100403,"107":0.06902045756578445,"108":0.26800093054771423,"109":0.1537155956029892,"110":0.24788543581962585,"111":-0.11075154691934586,"112":0.22555795311927795,"113":-0.0077543132938444614,"114":0.04190434515476227,"115":-0.12251102924346924,"116":0.1243690624833107,"117":0.20519579946994781,"118":-0.09008297324180603,"119":0.13194839656352997,"120":0.23286837339401245,"121":-0.08988191187381744,"122":0.08520737290382385,"123":0.13628900051116943,"124":-0.013810010626912117,"125":0.06824997812509537,"126":-0.0904248058795929,"127":0.0031744937878102064,"128":0.060631562024354935,"129":0.14116685092449188,"130":0.20562732219696045,"131":0.24113306403160095,"132":0.01632690615952015,"133":0.016756607219576836,"134":-0.09403032064437866,"135":0.12534376978874207,"136":0.09868036210536957,"137":-0.020656872540712357,"138":-0.024526234716176987,"139":0.14730991423130035,"140":0.13665808737277985,"141":0.004524233750998974,"142":-0.014386216178536415,"143":0.25852087140083313,"144":0.25840550661087036,"145":0.03943859785795212,"146":-0.1255549043416977,"147":0.20010055601596832,"148":0.2459777444601059,"149":0.08888643980026245,"150":0.04774368554353714,"151":-0.0030188963282853365,"152":0.09799258410930634,"153":0.11006148159503937,"154":0.2460680902004242,"155":0.25471529364585876,"156":0.253264456987381,"157":0.13331861793994904,"158":-0.12244150042533875,"159":0.1376393586397171,"160":0.04539240151643753,"161":0.21783867478370667,"162":-0.01949404552578926,"163":0.22786420583724976,"164":-0.12082047760486603,"165":0.19919808208942413,"166":0.26003292202949524,"167":0.23006227612495422,"168":0.2164333015680313,"169":0.10098881274461746,"170":0.0460817776620388,"171":-0.04853019118309021,"172":0.02507629618048668,"173":0.20452164113521576,"174":0.0800759345293045,"175":0.2366204708814621,"176":-0.12404174357652664,"177":0.04843764752149582,"178":-0.12212949991226196,"179":0.20341552793979645,"180":0.03974953293800354,"181":-0.04996665567159653,"182":0.249386265873909,"183":0.2104063332080841,"184":0.09532617032527924,"185":0.0841788575053215,"186":0.14900033175945282,"187":0.23760920763015747,"188":0.14982382953166962,"189":0.2098156064748764,"190":0.2034086138010025,"191":-0.097054123878479,"192":0.10515909641981125,"193":0.11695100367069244,"194":-0.1257605105638504,"195":0.1811663955450058,"196":0.06455684453248978,"197":-0.12607227265834808,"198":0.21860912442207336,"199":-0.0006262765382416546,"200":0.11120052635669708,"201":0.24831955134868622,"202":-0.0419473834335804,"203":0.22299663722515106,"204":-0.05429067462682724,"205":0.10074227303266525,"206":0.16292449831962585,"207":-0.1235547661781311,"208":-0.1118597760796547,"209":-0.05720050260424614,"210":0.23670019209384918,"211":0.07403218001127243,"212":0.23590578138828278,"213":-0.10734879970550537,"214":0.01033717766404152,"215":0.26278185844421387,"216":-0.04423961415886879,"217":-0.05159718543291092,"218":0.1357821822166443,"219":0.1293829381465912,"220":0.12588617205619812,"221":0.261294960975647,"222":0.07018332928419113,"223":-0.05276317149400711,"224":0.22514131665229797,"225":0.20044970512390137,"226":0.02014254406094551,"227":0.3443988561630249,"228":-0.026867249980568886}},"16":{"bias":0.06584171205759048,"weights":{"0":-0.04773635044693947,"1":0.055758778005838394,"2":0.09115103632211685,"3":0.03169163689017296,"4":0.20457975566387177,"5":-0.15194085240364075,"6":0.18770942091941833,"7":-0.09591207653284073,"8":0.16084083914756775,"9":-0.015700383111834526,"10":-0.09504125267267227,"11":0.08751098811626434,"12":-0.021844586357474327,"13":0.09391097724437714,"14":-0.1197810247540474,"15":0.09641310572624207,"16":-0.1230800673365593,"17":-0.08005447685718536,"18":0.048108793795108795,"19":0.1330879181623459,"20":-0.00039164102054201066,"21":-0.15433810651302338,"22":0.0885339304804802,"23":-0.15050821006298065,"24":-0.057117149233818054,"25":0.13266205787658691,"26":0.008852886036038399,"27":0.05298307538032532,"28":0.07833097875118256,"29":0.10437258332967758,"30":0.01844310387969017,"31":0.08821961283683777,"32":-0.1078285202383995,"33":-0.14148706197738647,"34":0.1904941350221634,"35":-0.0354430228471756,"36":-0.08298154175281525,"37":0.12671507894992828,"38":-0.15865477919578552,"39":0.13172416388988495,"40":0.04862562194466591,"41":0.0963788628578186,"42":-0.07057255506515503,"43":-0.08490943908691406,"44":0.18514923751354218,"45":-0.09984513372182846,"46":0.1546962708234787,"47":0.20175142586231232,"48":0.08353494107723236,"49":0.054806847125291824,"50":-0.10952482372522354,"51":-0.09076740592718124,"52":-0.08415306359529495,"53":0.00611948361620307,"54":-0.1571946144104004,"55":-0.11015699058771133,"56":0.23266609013080597,"57":-0.11750854551792145,"58":0.08255665749311447,"59":-0.04416467249393463,"60":0.02160768397152424,"61":-0.03307642042636871,"62":0.15358273684978485,"63":-0.12366560846567154,"64":0.1250123828649521,"65":0.04253885895013809,"66":0.09201627969741821,"67":0.09811494499444962,"68":-0.03659769147634506,"69":0.0763784870505333,"70":0.2170105129480362,"71":0.021641066297888756,"72":0.20400142669677734,"73":0.1295093595981598,"74":0.0654572919011116,"75":0.18047823011875153,