{"sizes":[404,20,20,1],"layers":[{"0":{},"1":{},"2":{},"3":{},"4":{},"5":{},"6":{},"7":{},"8":{},"9":{},"10":{},"11":{},"12":{},"13":{},"14":{},"15":{},"16":{},"17":{},"18":{},"19":{},"20":{},"21":{},"22":{},"23":{},"24":{},"25":{},"26":{},"27":{},"28":{},"29":{},"30":{},"31":{},"32":{},"33":{},"34":{},"35":{},"36":{},"37":{},"38":{},"39":{},"40":{},"41":{},"42":{},"43":{},"44":{},"45":{},"46":{},"47":{},"48":{},"49":{},"50":{},"51":{},"52":{},"53":{},"54":{},"55":{},"56":{},"57":{},"58":{},"59":{},"60":{},"61":{},"62":{},"63":{},"64":{},"65":{},"66":{},"67":{},"68":{},"69":{},"70":{},"71":{},"72":{},"73":{},"74":{},"75":{},"76":{},"77":{},"78":{},"79":{},"80":{},"81":{},"82":{},"83":{},"84":{},"85":{},"86":{},"87":{},"88":{},"89":{},"90":{},"91":{},"92":{},"93":{},"94":{},"95":{},"96":{},"97":{},"98":{},"99":{},"100":{},"101":{},"102":{},"103":{},"104":{},"105":{},"106":{},"107":{},"108":{},"109":{},"110":{},"111":{},"112":{},"113":{},"114":{},"115":{},"116":{},"117":{},"118":{},"119":{},"120":{},"121":{},"122":{},"123":{},"124":{},"125":{},"126":{},"127":{},"128":{},"129":{},"130":{},"131":{},"132":{},"133":{},"134":{},"135":{},"136":{},"137":{},"138":{},"139":{},"140":{},"141":{},"142":{},"143":{},"144":{},"145":{},"146":{},"147":{},"148":{},"149":{},"150":{},"151":{},"152":{},"153":{},"154":{},"155":{},"156":{},"157":{},"158":{},"159":{},"160":{},"161":{},"162":{},"163":{},"164":{},"165":{},"166":{},"167":{},"168":{},"169":{},"170":{},"171":{},"172":{},"173":{},"174":{},"175":{},"176":{},"177":{},"178":{},"179":{},"180":{},"181":{},"182":{},"183":{},"184":{},"185":{},"186":{},"187":{},"188":{},"189":{},"190":{},"191":{},"192":{},"193":{},"194":{},"195":{},"196":{},"197":{},"198":{},"199":{},"200":{},"201":{},"202":{},"203":{},"204":{},"205":{},"206":{},"207":{},"208":{},"209":{},"210":{},"211":{},"212":{},"213":{},"214":{},"215":{},"216":{},"217":{},"218":{},"219":{},"220":{},"221":{},"222":{},"223":{},"224":{},"225":{},"226":{},"227":{},"228":{},"229":{},"230":{},"231":{},"232":{},"233":{},"234":{},"235":{},"236":{},"237":{},"238":{},"239":{},"240":{},"241":{},"242":{},"243":{},"244":{},"245":{},"246":{},"247":{},"248":{},"249":{},"250":{},"251":{},"252":{},"253":{},"254":{},"255":{},"256":{},"257":{},"258":{},"259":{},"260":{},"261":{},"262":{},"263":{},"264":{},"265":{},"266":{},"267":{},"268":{},"269":{},"270":{},"271":{},"272":{},"273":{},"274":{},"275":{},"276":{},"277":{},"278":{},"279":{},"280":{},"281":{},"282":{},"283":{},"284":{},"285":{},"286":{},"287":{},"288":{},"289":{},"290":{},"291":{},"292":{},"293":{},"294":{},"295":{},"296":{},"297":{},"298":{},"299":{},"300":{},"301":{},"302":{},"303":{},"304":{},"305":{},"306":{},"307":{},"308":{},"309":{},"310":{},"311":{},"312":{},"313":{},"314":{},"315":{},"316":{},"317":{},"318":{},"319":{},"320":{},"321":{},"322":{},"323":{},"324":{},"325":{},"326":{},"327":{},"328":{},"329":{},"330":{},"331":{},"332":{},"333":{},"334":{},"335":{},"336":{},"337":{},"338":{},"339":{},"340":{},"341":{},"342":{},"343":{},"344":{},"345":{},"346":{},"347":{},"348":{},"349":{},"350":{},"351":{},"352":{},"353":{},"354":{},"355":{},"356":{},"357":{},"358":{},"359":{},"360":{},"361":{},"362":{},"363":{},"364":{},"365":{},"366":{},"367":{},"368":{},"369":{},"370":{},"371":{},"372":{},"373":{},"374":{},"375":{},"376":{},"377":{},"378":{},"379":{},"380":{},"381":{},"382":{},"383":{},"384":{},"385":{},"386":{},"387":{},"388":{},"389":{},"390":{},"391":{},"392":{},"393":{},"394":{},"395":{},"396":{},"397":{},"398":{},"399":{},"400":{},"401":{},"402":{},"403":{}},{"0":{"bias":0.06977642327547073,"weights":{"0":0.008941899985074997,"1":0.17372630536556244,"2":-0.008295825682580471,"3":-0.07950133085250854,"4":-0.1424667239189148,"5":0.19796589016914368,"6":-0.19306321442127228,"7":-0.05620449781417847,"8":-0.05707866698503494,"9":0.02980184555053711,"10":-0.11935334652662277,"11":0.04584238678216934,"12":-0.12748681008815765,"13":-0.05759814381599426,"14":0.1915709376335144,"15":0.07204265892505646,"16":-0.030870340764522552,"17":0.1956045776605606,"18":-0.046214308589696884,"19":-0.052544549107551575,"20":-0.06491128355264664,"21":0.16527806222438812,"22":0.06038248538970947,"23":-0.07625071704387665,"24":0.17800010740756989,"25":0.06106570363044739,"26":0.016967637464404106,"27":0.18967895209789276,"28":0.018919529393315315,"29":0.09645217657089233,"30":-0.15451423823833466,"31":-0.16942057013511658,"32":-0.0917573869228363,"33":0.17209476232528687,"34":-0.1139758974313736,"35":0.08669687807559967,"36":-0.15575863420963287,"37":0.13532844185829163,"38":-0.026352284476161003,"39":-0.19711031019687653,"40":-0.17562177777290344,"41":-0.015367064625024796,"42":0.09064637124538422,"43":-0.025810297578573227,"44":0.020585933700203896,"45":-0.03642268106341362,"46":0.16452717781066895,"47":-0.017996693029999733,"48":-0.18877509236335754,"49":-0.03754681721329689,"50":0.06497232615947723,"51":-0.13279388844966888,"52":-0.14236697554588318,"53":-0.18108117580413818,"54":-0.18718811869621277,"55":-0.18088656663894653,"56":-0.12794199585914612,"57":0.16656222939491272,"58":-0.15083475410938263,"59":-0.17744213342666626,"60":-0.1972772181034088,"61":0.10111835598945618,"62":-0.12375590205192566,"63":-0.17523439228534698,"64":0.11327548325061798,"65":-0.16448071599006653,"66":0.05199947580695152,"67":-0.057382915169000626,"68":-0.07167139649391174,"69":0.08873209357261658,"70":0.13832533359527588,"71":0.05818352475762367,"72":-0.1281842589378357,"73":-0.12496253103017807,"74":0.09877890348434448,"75":0.05890444666147232,"76":0.16317720711231232,"77":-0.052974849939346313,"78":0.1763416826725006,"79":-0.14645887911319733,"80":-0.1497790366411209,"81":0.08688047528266907,"82":-0.13237208127975464,"83":-0.14355748891830444,"84":0.018415018916130066,"85":-0.15285052359104156,"86":-0.14831072092056274,"87":-0.13871169090270996,"88":-0.14946532249450684,"89":-0.10933197289705276,"90":-0.07079733163118362,"91":-0.09433744847774506,"92":-0.02411794662475586,"93":-0.04712754860520363,"94":0.15594467520713806,"95":0.1341610550880432,"96":-0.1847396045923233,"97":0.10139235109090805,"98":0.17463506758213043,"99":-0.14837646484375,"100":-0.08264455199241638,"101":0.1868138313293457,"102":-0.10421507805585861,"103":-0.023794976994395256,"104":0.09435538947582245,"105":0.06598597019910812,"106":-0.17552493512630463,"107":0.17247861623764038,"108":0.08580904453992844,"109":-0.0220657866448164,"110":0.10134211927652359,"111":0.018628299236297607,"112":-0.1484786570072174,"113":-0.06303265690803528,"114":0.06074472889304161,"115":0.16158661246299744,"116":0.09761577844619751,"117":0.0926278829574585,"118":0.009410557337105274,"119":0.007886453531682491,"120":-0.11258774250745773,"121":0.1454990804195404,"122":-0.0033242979552596807,"123":-0.05493932589888573,"124":0.18454988300800323,"125":-0.12059205770492554,"126":0.12887242436408997,"127":-0.15321916341781616,"128":-0.15704341232776642,"129":0.17471934854984283,"130":0.09278694540262222,"131":-0.20007479190826416,"132":-0.04719838500022888,"133":0.1300898939371109,"134":0.18257078528404236,"135":0.043912623077631,"136":0.13866420090198517,"137":-0.1902114748954773,"138":0.06068744510412216,"139":-0.06731449067592621,"140":0.11726792901754379,"141":0.08226068317890167,"142":-0.08910537511110306,"143":0.18920327723026276,"144":0.17977261543273926,"145":-0.15719585120677948,"146":0.08325430750846863,"147":0.04381370544433594,"148":-0.006896836683154106,"149":-0.1517975628376007,"150":0.06393785774707794,"151":0.14302167296409607,"152":-0.12680867314338684,"153":0.12570147216320038,"154":0.09366366267204285,"155":-0.16593629121780396,"156":-0.0684814602136612,"157":-0.19690817594528198,"158":0.08075616508722305,"159":0.06021623685956001,"160":-0.04363059625029564,"161":0.08994635939598083,"162":-0.13175690174102783,"163":-0.17588365077972412,"164":-0.16664884984493256,"165":0.19339950382709503,"166":0.05839063972234726,"167":-0.09504799544811249,"168":-0.12645059823989868,"169":0.19795913994312286,"170":0.031120628118515015,"171":0.045282553881406784,"172":0.1489553600549698,"173":0.02995983138680458,"174":0.09292755275964737,"175":-0.08740580081939697,"176":-0.15473076701164246,"177":0.13948501646518707,"178":0.0530560165643692,"179":-0.1857246458530426,"180":0.03039863519370556,"181":-0.007456394378095865,"182":0.028494367375969887,"183":0.09096964448690414,"184":0.03461989387869835,"185":-0.022342128679156303,"186":0.05894286558032036,"187":0.11963577568531036,"188":0.07309196144342422,"189":0.19612854719161987,"190":0.1005275547504425,"191":0.12070858478546143,"192":-0.012802991084754467,"193":-0.058544036000967026,"194":-0.08961212635040283,"195":0.10705341398715973,"196":-0.006182218436151743,"197":-0.018806777894496918,"198":0.15699738264083862,"199":0.11622216552495956,"200":-0.17153280973434448,"201":0.1755940020084381,"202":-0.044120337814092636,"203":-0.1706986129283905,"204":0.09159641712903976,"205":0.14654052257537842,"206":-0.06547126919031143,"207":-0.15778163075447083,"208":-0.004276592750102282,"209":0.11946382373571396,"210":-0.17012034356594086,"211":-0.012617680244147778,"212":0.07212913781404495,"213":-0.17870141565799713,"214":0.026189731433987617,"215":0.015077806077897549,"216":0.0000619418642600067,"217":0.18669679760932922,"218":-0.061004724353551865,"219":-0.07722439616918564,"220":-0.13335257768630981,"221":-0.10095585137605667,"222":0.047854337841272354,"223":0.11455341428518295,"224":-0.19696158170700073,"225":0.17659801244735718,"226":-0.11231470853090286,"227":-0.05102967843413353,"228":-0.1804611086845398,"229":0.01793019101023674,"230":-0.006700038444250822,"231":-0.1212344691157341,"232":0.149706169962883,"233":0.089745432138443,"234":0.10101979970932007,"235":-0.06966288387775421,"236":0.08188454061746597,"237":-0.08015751838684082,"238":-0.04857791215181351,"239":-0.19098156690597534,"240":-0.13885104656219482,"241":-0.13553506135940552,"242":0.08866166323423386,"243":-0.12376870959997177,"244":-0.04392099007964134,"245":0.09891417622566223,"246":0.05469578504562378,"247":0.1160857304930687,"248":0.13470134139060974,"249":-0.10381320118904114,"250":0.04524323716759682,"251":0.19595809280872345,"252":-0.06711599230766296,"253":0.05043056607246399,"254":0.10001413524150848,"255":0.19766812026500702,"256":0.15390640497207642,"257":0.11481933295726776,"258":-0.0007139945519156754,"259":0.18883733451366425,"260":0.12105334550142288,"261":0.1536513864994049,"262":-0.11841471493244171,"263":0.17672611773014069,"264":-0.08443563431501389,"265":0.05592602863907814,"266":-0.17389267683029175,"267":0.06925147771835327,"268":0.008867569267749786,"269":-0.04094601795077324,"270":-0.08764010667800903,"271":-0.08076881617307663,"272":0.02309916727244854,"273":-0.03264955058693886,"274":-0.13710282742977142,"275":-0.13074609637260437,"276":-0.016612280160188675,"277":0.09528243541717529,"278":0.13869278132915497,"279":-0.11347994208335876,"280":0.11170291900634766,"281":0.14640553295612335,"282":0.05217994004487991,"283":0.04637651517987251,"284":-0.03577358275651932,"285":0.0496734194457531,"286":-0.10821635276079178,"287":-0.09560339897871017,"288":-0.015646737068891525,"289":-0.06485036015510559,"290":0.05496983230113983,"291":0.12813395261764526,"292":-0.09997942298650742,"293":-0.1732754111289978,"294":-0.1659010499715805,"295":0.07661625742912292,"296":-0.004080958664417267,"297":-0.06318692862987518,"298":-0.012567741796374321,"299":-0.14659751951694489,"300":-0.16855710744857788,"301":0.14473219215869904,"302":0.14395876228809357,"303":-0.19922737777233124,"304":0.18920156359672546,"305":-0.0064767347648739815,"306":0.04455576092004776,"307":0.05440106987953186,"308":-0.08464255183935165,"309":-0.1240241602063179,"310":0.11320709437131882,"311":0.1163080707192421,"312":-0.09067987650632858,"313":-0.16489405930042267,"314":0.03465640917420387,"315":0.08046208322048187,"316":0.12267354130744934,"317":-0.06761735677719116,"318":0.004443356301635504,"319":-0.07279137521982193,"320":0.127393439412117,"321":0.10018167644739151,"322":-0.08159264922142029,"323":-0.10223507881164551,"324":-0.10073525458574295,"325":-0.10615778714418411,"326":-0.11514145135879517,"327":-0.12716680765151978,"328":-0.11405011266469955,"329":-0.16147355735301971,"330":-0.01528987567871809,"331":0.03216011822223663,"332":-0.0795510858297348,"333":-0.11289723962545395,"334":0.11785642057657242,"335":0.02993989922106266,"336":0.059304144233465195,"337":0.11992292106151581,"338":0.18824906647205353,"339":0.024251380935311317,"340":0.18272718787193298,"341":0.1474888026714325,"342":-0.08830074220895767,"343":0.12114837765693665,"344":-0.14117538928985596,"345":0.17764011025428772,"346":-0.18731234967708588,"347":0.04545232653617859,"348":0.1894083470106125,"349":-0.14429792761802673,"350":0.05455571040511131,"351":0.15789972245693207,"352":0.12038533389568329,"353":0.1531437337398529,"354":-0.1628647893667221,"355":0.06349311023950577,"356":0.05559314414858818,"357":0.00554924551397562,"358":-0.1399139165878296,"359":0.09075871109962463,"360":0.1936919391155243,"361":-0.1942244917154312,"362":0.08328951895236969,"363":0.022799605503678322,"364":-0.0694686695933342,"365":0.15804257988929749,"366":0.05670132488012314,"367":-0.0804210677742958,"368":0.15571251511573792,"369":0.01850743778049946,"370":-0.10541128367185593,"371":0.15901930630207062,"372":-0.02069876901805401,"373":0.10873082280158997,"374":0.14508622884750366,"375":0.04579725116491318,"376":-0.07743465155363083,"377":0.18450970947742462,"378":0.0578809529542923,"379":0.042113106697797775,"380":-0.08092571049928665,"381":-0.07316841930150986,"382":0.14611606299877167,"383":-0.12572874128818512,"384":0.1432734727859497,"385":0.06825456768274307,"386":-0.04590453952550888,"387":-0.006321415770798922,"388":0.03298812732100487,"389":-0.08772152662277222,"390":-0.1266011893749237,"391":-0.027150491252541542,"392":0.04383053630590439,"393":-0.13247992098331451,"394":0.13593177497386932,"395":-0.14263013005256653,"396":-0.06882292777299881,"397":-0.05438043922185898,"398":0.020510371774435043,"399":-0.04842747002840042,"400":0.029154444113373756,"401":0.029075955972075462,"402":-0.15221227705478668,"403":-0.07155315577983856}},"1":{"bias":-0.028613433241844177,"weights":{"0":-0.11952224373817444,"1":0.08683943748474121,"2":-0.024775315076112747,"3":-0.057883359491825104,"4":0.18853402137756348,"5":-0.07512868940830231,"6":0.1364334672689438,"7":0.10592642426490784,"8":0.14623960852622986,"9":-0.02185576595366001,"10":0.17840172350406647,"11":0.1533408761024475,"12":-0.18100105226039886,"13":-0.0211287010461092,"14":0.03677653148770332,"15":0.08788181841373444,"16":0.17221924662590027,"17":0.18981236219406128,"18":0.11288878321647644,"19":-0.17364957928657532,"20":0.1965867429971695,"21":0.18382714688777924,"22":0.05978778749704361,"23":-0.011130411177873611,"24":-0.027349917218089104,"25":0.08800376951694489,"26":-0.1644807606935501,"27":0.16674980521202087,"28":-0.0978664681315422,"29":-0.15855494141578674,"30":0.11837376654148102,"31":0.12344245612621307,"32":-0.19882763922214508,"33":0.19977104663848877,"34":-0.10423556715250015,"35":-0.19058533012866974,"36":-0.07611750066280365,"37":0.000987076316960156,"38":-0.02274523861706257,"39":0.15305063128471375,"40":0.1590367555618286,"41":-0.04882733151316643,"42":0.11916473507881165,"43":0.15317775309085846,"44":0.19577956199645996,"45":-0.09922068566083908,"46":-0.17501801252365112,"47":-0.1154811829328537,"48":-0.13479141891002655,"49":-0.17613042891025543,"50":-0.16889099776744843,"51":0.17185604572296143,"52":-0.041286855936050415,"53":0.08569752424955368,"54":0.02753744274377823,"55":0.08635303378105164,"56":0.014346491545438766,"57":-0.1943334937095642,"58":0.05657016485929489,"59":0.04853846877813339,"60":0.046321067959070206,"61":0.013244257308542728,"62":-0.1396072804927826,"63":0.19595792889595032,"64":0.02629363164305687,"65":0.1685899794101715,"66":0.008124962449073792,"67":-0.003185402834787965,"68":-0.018068458884954453,"69":-0.016309455037117004,"70":0.1396784782409668,"71":0.07825131714344025,"72":-0.09932369738817215,"73":-0.02396516501903534,"74":0.12508754432201385,"75":-0.07405339181423187,"76":-0.04043171927332878,"77":-0.15828856825828552,"78":-0.1554226279258728,"79":-0.0913718193769455,"80":-0.10018610954284668,"81":0.14900624752044678,"82":-0.10359173268079758,"83":-0.14061447978019714,"84":0.18694742023944855,"85":-0.08214377611875534,"86":-0.18447592854499817,"87":0.08296498656272888,"88":-0.03514380753040314,"89":0.053269218653440475,"90":-0.16849829256534576,"91":-0.1905146986246109,"92":-0.051092106848955154,"93":-0.19744503498077393,"94":0.09488872438669205,"95":0.04951762780547142,"96":-0.095344677567482,"97":0.015417687594890594,"98":0.006904019042849541,"99":-0.08882839232683182,"100":-0.06843055039644241,"101":-0.13977281749248505,"102":0.17468060553073883,"103":0.04137459024786949,"104":-0.14423173666000366,"105":-0.16604189574718475,"106":-0.1481173187494278,"107":0.1314200907945633,"108":-0.05479952692985535,"109":0.15634649991989136,"110":0.17558890581130981,"111":0.05212673172354698,"112":-0.15386144816875458,"113":-0.14742501080036163,"114":0.15771521627902985,"115":0.15957772731781006,"116":-0.09812933951616287,"117":-0.005213449243456125,"118":0.06128939613699913,"119":-0.15150249004364014,"120":-0.12627866864204407,"121":-0.10025995969772339,"122":-0.16483211517333984,"123":0.050771117210388184,"124":-0.18390560150146484,"125":-0.03296658769249916,"126":0.1461382806301117,"127":0.06385438144207001,"128":-0.020833725109696388,"129":-0.16327406466007233,"130":-0.07262686640024185,"131":0.1322692632675171,"132":0.16996774077415466,"133":0.1343400776386261,"134":-0.10392579436302185,"135":-0.12903788685798645,"136":-0.15482190251350403,"137":0.1342845857143402,"138":-0.12401498854160309,"139":0.07767578214406967,"140":0.04251378774642944,"141":0.19285275042057037,"142":-0.13505160808563232,"143":-0.11494255810976028,"144":0.022183958441019058,"145":-0.16851156949996948,"146":-0.13752354681491852,"147":-0.18349376320838928,"148":-0.11872449517250061,"149":-0.03178964555263519,"150":0.12493948638439178,"151":-0.08732077479362488,"152":0.11944808810949326,"153":0.13958710432052612,"154":0.14312174916267395,"155":0.1555040180683136,"156":0.0970468819141388,"157":0.12804102897644043,"158":-0.002908960683271289,"159":0.10052422434091568,"160":0.02317085862159729,"161":-0.02810456044971943,"162":-0.05678163096308708,"163":0.026439480483531952,"164":-0.18952910602092743,"165":-0.11113471537828445,"166":0.14038923382759094,"167":0.18001645803451538,"168":0.08645708858966827,"169":0.17743174731731415,"170":-0.18315555155277252,"171":-0.02553587034344673,"172":0.1289674937725067,"173":0.03917970508337021,"174":-0.11902187764644623,"175":-0.020823927596211433,"176":-0.029302161186933517,"177":0.04089158773422241,"178":-0.033955007791519165,"179":0.0521373488008976,"180":-0.01947845332324505,"181":0.1037692204117775,"182":-0.13924270868301392,"183":-0.13692817091941833,"184":-0.052434153854846954,"185":-0.19794732332229614,"186":-0.13203585147857666,"187":0.04366988316178322,"188":-0.06670309603214264,"189":-0.14591467380523682,"190":-0.01463379804044962,"191":0.1914345771074295,"192":-0.17683914303779602,"193":0.1857241988182068,"194":0.11133565753698349,"195":0.06742089241743088,"196":0.035650093108415604,"197":0.010129558853805065,"198":0.10526517033576965,"199":0.017077190801501274,"200":-0.1334085762500763,"201":-0.07471118867397308,"202":-0.12100226432085037,"203":0.04928107187151909,"204":0.05071473494172096,"205":0.1981160044670105,"206":-0.04514988511800766,"207":-0.1729457676410675,"208":0.1849961280822754,"209":-0.1556490957736969,"210":0.15294647216796875,"211":-0.1388133466243744,"212":-0.023237166926264763,"213":0.12261755019426346,"214":-0.14472712576389313,"215":0.13261692225933075,"216":-0.15565307438373566,"217":-0.030109623447060585,"218":0.06618617475032806,"219":-0.12719151377677917,"220":0.09576502442359924,"221":0.027064897119998932,"222":0.16464291512966156,"223":-0.06737757474184036,"224":-0.12635335326194763,"225":0.06189128756523132,"226":0.12905146181583405,"227":0.06940533220767975,"228":-0.011971184983849525,"229":0.0914890468120575,"230":-0.14312033355236053,"231":0.0413627028465271,"232":-0.19329097867012024,"233":-0.09495653957128525,"234":-0.08626943826675415,"235":-0.19186753034591675,"236":0.12777675688266754,"237":0.18735629320144653,"238":0.05005839839577675,"239":-0.010664905421435833,"240":-0.1702333688735962,"241":-0.13288424909114838,"242":0.11871130019426346,"243":0.04335732012987137,"244":-0.18327534198760986,"245":0.14349304139614105,"246":-0.16826072335243225,"247":-0.11083865910768509,"248":-0.08362702280282974,"249":0.16219434142112732,"250":-0.18113748729228973,"251":-0.01587323285639286,"252":-0.00879522692412138,"253":0.188934326171875,"254":0.03377528861165047,"255":0.025928951799869537,"256":0.1530209183692932,"257":0.08164416253566742,"258":-0.15412689745426178,"259":-0.01611493155360222,"260":-0.14907574653625488,"261":0.116472028195858,"262":0.07935171574354172,"263":-0.08644924312829971,"264":-0.13312743604183197,"265":0.159823477268219,"266":-0.1681288331747055,"267":-0.04714784771203995,"268":-0.14848339557647705,"269":0.14772772789001465,"270":0.03805604577064514,"271":-0.16422118246555328,"272":-0.07010956108570099,"273":-0.13264793157577515,"274":0.015442809090018272,"275":0.10167895257472992,"276":0.14592058956623077,"277":-0.18514074385166168,"278":0.1643814891576767,"279":-0.13122381269931793,"280":-0.17337903380393982,"281":0.11344651877880096,"282":0.10610082000494003,"283":0.13013970851898193,"284":0.1269872486591339,"285":-0.06563815474510193,"286":-0.0004358034348115325,"287":0.000875507015734911,"288":0.16703900694847107,"289":-0.055336225777864456,"290":0.13265544176101685,"291":0.12933431565761566,"292":-0.17578895390033722,"293":-0.18039335310459137,"294":0.07792297005653381,"295":-0.019921723753213882,"296":-0.009826009161770344,"297":-0.0456848219037056,"298":-0.05588116496801376,"299":0.14467793703079224,"300":-0.14107643067836761,"301":-0.13490574061870575,"302":0.11067463457584381,"303":-0.18056339025497437,"304":-0.03747820109128952,"305":0.16872121393680573,"306":-0.14709201455116272,"307":0.11577162891626358,"308":-0.11850602179765701,"309":0.16387301683425903,"310":0.03110615164041519,"311":0.03393341973423958,"312":0.06256356090307236,"313":-0.13817182183265686,"314":-0.18157237768173218,"315":-0.1036418229341507,"316":0.06836254149675369,"317":0.15235137939453125,"318":-0.06968627125024796,"319":0.1952100545167923,"320":0.19822031259536743,"321":0.02207591012120247,"322":-0.10714170336723328,"323":0.03602644056081772,"324":-0.18182434141635895,"325":0.13979727029800415,"326":-0.028018781915307045,"327":0.1553768813610077,"328":-0.11597833782434464,"329":0.08822647482156754,"330":0.05704155191779137,"331":0.009707121178507805,"332":-0.045604098588228226,"333":-0.09349128603935242,"334":-0.1144939661026001,"335":0.12519049644470215,"336":0.08249466866254807,"337":-0.09886526316404343,"338":-0.10541627556085587,"339":0.01245326828211546,"340":0.03662257269024849,"341":0.0542902797460556,"342":0.06525669246912003,"343":-0.15259841084480286,"344":0.17401903867721558,"345":-0.04964006692171097,"346":-0.11619509756565094,"347":0.047549422830343246,"348":-0.09806858003139496,"349":0.16531874239444733,"350":0.13131548464298248,"351":-0.1765906661748886,"352":-0.006867581512778997,"353":0.12495370954275131,"354":0.019976038485765457,"355":0.032465338706970215,"356":-0.1759806126356125,"357":0.03600076958537102,"358":0.12774069607257843,"359":0.1922292560338974,"360":-0.038294076919555664,"361":-0.14825916290283203,"362":0.15139375627040863,"363":0.07344707101583481,"364":0.14539538323879242,"365":-0.1605176478624344,"366":0.10279704630374908,"367":-0.005983339156955481,"368":-0.15730096399784088,"369":-0.0153312087059021,"370":-0.015392198227345943,"371":-0.19000990688800812,"372":0.17598795890808105,"373":-0.011545911431312561,"374":-0.09114234894514084,"375":-0.1671835035085678,"376":-0.12635481357574463,"377":-0.09426921606063843,"378":-0.1349659115076065,"379":-0.061948198825120926,"380":0.050937358289957047,"381":-0.14975035190582275,"382":0.03545887768268585,"383":0.12606275081634521,"384":0.18949906527996063,"385":0.1930716633796692,"386":-0.06086529791355133,"387":-0.004096717573702335,"388":0.15014180541038513,"389":-0.011327614076435566,"390":0.006889184936881065,"391":-0.19078198075294495,"392":0.05811746045947075,"393":0.1800982803106308,"394":0.11978767067193985,"395":-0.11327950656414032,"396":-0.1536983996629715,"397":-0.07450790703296661,"398":-0.1771429181098938,"399":0.07241492718458176,"400":-0.06413568556308746,"401":-0.08410930633544922,"402":-0.09592529386281967,"403":-0.17573021352291107}},"2":{"bias":-0.17565731704235077,"weights":{"0":0.008653655648231506,"1":-0.08287014067173004,"2":0.034911323338747025,"3":0.01349418144673109,"4":-0.047323454171419144,"5":-0.12241619825363159,"6":-0.05342430621385574,"7":0.010929364711046219,"8":-0.056583717465400696,"9":-0.1312253177165985,"10":0.04928004741668701,"11":0.06443671882152557,"12":0.16764315962791443,"13":-0.019944362342357635,"14":0.1286020427942276,"15":0.06114010512828827,"16":0.11438330262899399,"17":0.1633179634809494,"18":-0.1720380038022995,"19":-0.1383255571126938,"20":0.11523648351430893,"21":-0.04199237748980522,"22":0.10921666771173477,"23":-0.1755387932062149,"24":-0.1741342842578888,"25":-0.0627971664071083,"26":0.14218665659427643,"27":0.13387294113636017,"28":-0.03294621780514717,"29":-0.11535630375146866,"30":-0.17551405727863312,"31":-0.13126146793365479,"32":0.1612393707036972,"33":-0.060937002301216125,"34":0.11493290215730667,"35":-0.017472922801971436,"36":-0.1621168702840805,"37":0.06684143096208572,"38":0.07499530166387558,"39":-0.11840733885765076,"40":0.012799891643226147,"41":0.04064818471670151,"42":0.11310561746358871,"43":-0.07288578897714615,"44":0.11764639616012573,"45":-0.06374803930521011,"46":-0.0181301087141037,"47":-0.027195658534765244,"48":-0.1443246752023697,"49":0.11801256239414215,"50":-0.17304401099681854,"51":-0.19045770168304443,"52":0.16003917157649994,"53":0.009599125944077969,"54":0.09187709540128708,"55":-0.11510069668292999,"56":-0.16509784758090973,"57":-0.02759074978530407,"58":-0.012232411652803421,"59":0.0005919819814153016,"60":-0.023108800873160362,"61":0.17833773791790009,"62":-0.08292526751756668,"63":0.18477416038513184,"64":0.02960130199790001,"65":-0.08206884562969208,"66":0.07087917625904083,"67":-0.07373373955488205,"68":-0.03348489850759506,"69":-0.04960654675960541,"70":-0.028961334377527237,"71":-0.058700136840343475,"72":0.004845564253628254,"73":0.06458882987499237,"74":-0.015139918774366379,"75":0.12485373020172119,"76":0.15820108354091644,"77":0.13523706793785095,"78":-0.10856413096189499,"79":-0.11546379327774048,"80":-0.15570862591266632,"81":-0.08945668488740921,"82":-0.03957613185048103,"83":0.060207024216651917,"84":0.12142904847860336,"85":0.10026329010725021,"86":0.15926480293273926,"87":-0.023597892373800278,"88":-0.07494767755270004,"89":-0.18030087649822235,"90":0.033820100128650665,"91":-0.07366553694009781,"92":-0.036785151809453964,"93":-0.08378773927688599,"94":0.0007596197538077831,"95":-0.018873117864131927,"96":-0.18997442722320557,"97":-0.18438543379306793,"98":0.14018064737319946,"99":0.1775304228067398,"100":-0.09918668121099472,"101":-0.16739334166049957,"102":0.10594026744365692,"103":-0.06185460463166237,"104":-0.09112614393234253,"105":-0.002222997136414051,"106":-0.08632486313581467,"107":-0.11006154865026474,"108":-0.1021614670753479,"109":0.0517578162252903,"110":0.075385183095932,"111":-0.04459553211927414,"112":-0.08607612550258636,"113":0.19834454357624054,"114":0.0770089402794838,"115":-0.17034101486206055,"116":0.13604755699634552,"117":-0.005489942617714405,"118":-0.10132360458374023,"119":0.07427313923835754,"120":0.19752252101898193,"121":0.11695490032434464,"122":-0.0806339830160141,"123":0.145941823720932,"124":-0.037292513996362686,"125":0.046728577464818954,"126":-0.15972907841205597,"127":-0.14834889769554138,"128":0.10601971298456192,"129":0.14969651401042938,"130":0.10332350432872772,"131":0.1229931116104126,"132":0.10912209749221802,"133":-0.100971519947052,"134":0.015749037265777588,"135":-0.07227028906345367,"136":-0.08472111821174622,"137":0.10568643361330032,"138":0.14309380948543549,"139":-0.10561720281839371,"140":0.17429989576339722,"141":0.1718849539756775,"142":0.10163925588130951,"143":-0.07134531438350677,"144":-0.1767665147781372,"145":0.10224632918834686,"146":0.10216500610113144,"147":0.06258947402238846,"148":0.1052754670381546,"149":-0.04067782685160637,"150":-0.04914086312055588,"151":-0.02314874716103077,"152":-0.16941425204277039,"153":0.1296776682138443,"154":0.16654950380325317,"155":0.12893599271774292,"156":-0.07127147912979126,"157":-0.14261040091514587,"158":0.08767426759004593,"159":-0.02461908385157585,"160":0.026039155200123787,"161":-0.04289146140217781,"162":0.07011588662862778,"163":0.12468462437391281,"164":0.05489739403128624,"165":0.0017445345874875784,"166":-0.06723932921886444,"167":-0.01377224549651146,"168":-0.014034349471330643,"169":0.015861347317695618,"170":0.16421562433242798,"171":0.14555639028549194,"172":0.14105769991874695,"173":0.01682226173579693,"174":-0.022180696949362755,"175":0.1669033318758011,"176":-0.08823040127754211,"177":-0.10774517059326172,"178":-0.17133712768554688,"179":-0.03947388008236885,"180":0.03228318318724632,"181":0.13867735862731934,"182":-0.08454808592796326,"183":0.07052651792764664,"184":0.04190173000097275,"185":-0.07159367203712463,"186":0.10733926296234131,"187":0.14941197633743286,"188":-0.08629065006971359,"189":-0.061876311898231506,"190":-0.0030956899281591177,"191":0.14083559811115265,"192":-0.00999419018626213,"193":0.09337183833122253,"194":-0.04186565428972244,"195":-0.1168724074959755,"196":0.0684046670794487,"197":0.12886689603328705,"198":0.14028584957122803,"199":0.15105101466178894,"200":-0.19421817362308502,"201":-0.09277085214853287,"202":0.14864517748355865,"203":-0.08932990580797195,"204":-0.10579222440719604,"205":0.06660576164722443,"206":-0.08162198960781097,"207":-0.19927950203418732,"208":0.12391577661037445,"209":0.03491571173071861,"210":-0.06377063691616058,"211":-0.022191883996129036,"212":-0.13711011409759521,"213":-0.00467394245788455,"214":0.07224870473146439,"215":0.010708627291023731,"216":-0.08249764889478683,"217":-0.19695575535297394,"218":0.13159842789173126,"219":0.15581446886062622,"220":0.09202824532985687,"221":0.0872691348195076,"222":-0.11595825105905533,"223":-0.03174065798521042,"224":-0.03596997633576393,"225":-0.04464998096227646,"226":0.00793909840285778,"227":-0.1199236586689949,"228":0.0572272427380085,"229":0.14475619792938232,"230":-0.12440922856330872,"231":0.04542424529790878,"232":0.15449652075767517,"233":-0.053613726049661636,"234":0.010971237905323505,"235":0.13213026523590088,"236":-0.017078381031751633,"237":-0.13285449147224426,"238":0.07846080511808395,"239":-0.19314487278461456,"240":0.1040843203663826,"241":-0.152899831533432,"242":-0.18643061816692352,"243":0.11692877858877182,"244":0.14632053673267365,"245":-0.19060473144054413,"246":-0.17498891055583954,"247":0.16010873019695282,"248":0.002941469196230173,"249":-0.08547073602676392,"250":-0.03324968367815018,"251":0.02195669338107109,"252":0.1624213308095932,"253":-0.08374040573835373,"254":0.0944938063621521,"255":0.13783076405525208,"256":0.19029280543327332,"257":-0.11687105894088745,"258":0.07947239279747009,"259":-0.07317247986793518,"260":-0.0014255979331210256,"261":-0.17978937923908234,"262":0.038259901106357574,"263":0.12921705842018127,"264":-0.027894601225852966,"265":0.00038108849548734725,"266":-0.05367235466837883,"267":0.03554709255695343,"268":-0.15117822587490082,"269":-0.1479814499616623,"270":-0.021981768310070038,"271":0.162444606423378,"272":-0.011387170292437077,"273":-0.008680258877575397,"274":0.18954946100711823,"275":0.0592055544257164,"276":0.16495631635189056,"277":-0.1308596283197403,"278":-0.11183291673660278,"279":-0.009844101965427399,"280":-0.04507610574364662,"281":-0.04159228503704071,"282":-0.17705069482326508,"283":-0.18925775587558746,"284":0.006544589065015316,"285":-0.048422008752822876,"286":0.045772481709718704,"287":0.010868831537663937,"288":-0.1399020552635193,"289":0.1981673687696457,"290":-0.1407647579908371,"291":-0.14819978177547455,"292":0.1735466867685318,"293":-0.02746659703552723,"294":0.024168314412236214,"295":-0.00014010044105816633,"296":0.062042657285928726,"297":-0.11494798958301544,"298":-0.03992917761206627,"299":-0.1857173889875412,"300":0.0007986346608959138,"301":-0.00632084533572197,"302":-0.19350510835647583,"303":-0.061654288321733475,"304":0.13521404564380646,"305":0.030327148735523224,"306":-0.1360076665878296,"307":-0.13153783977031708,"308":-0.006076417863368988,"309":-0.11975714564323425,"310":-0.11767792701721191,"311":0.17419327795505524,"312":-0.0033504622988402843,"313":-0.07674213498830795,"314":-0.1553564816713333,"315":-0.17202076315879822,"316":-0.03813773766160011,"317":-0.0216839499771595,"318":-0.02750442549586296,"319":0.0011521466076374054,"320":0.15798865258693695,"321":0.10015350580215454,"322":0.006225460208952427,"323":-0.11749029904603958,"324":0.16095484793186188,"325":-0.03167231008410454,"326":-0.07572988420724869,"327":-0.11321564018726349,"328":-0.06742780655622482,"329":-0.014563232660293579,"330":-0.1921781599521637,"331":0.16180811822414398,"332":0.15247119963169098,"333":0.12772059440612793,"334":0.17176297307014465,"335":-0.100159652531147,"336":-0.10981133580207825,"337":-0.1286955624818802,"338":0.1581714004278183,"339":-0.04397644102573395,"340":0.15835243463516235,"341":-0.15626704692840576,"342":0.18614012002944946,"343":-0.031452178955078125,"344":0.06610813736915588,"345":0.13526947796344757,"346":-0.1359780728816986,"347":-0.022014563903212547,"348":-0.06054067239165306,"349":-0.17892159521579742,"350":-0.17199519276618958,"351":-0.1053224429488182,"352":0.1483001857995987,"353":-0.11749359965324402,"354":0.10071524977684021,"355":0.027677366510033607,"356":-0.10060706734657288,"357":0.07635548710823059,"358":-0.11555084586143494,"359":-0.1964445263147354,"360":0.03352601081132889,"361":0.022774577140808105,"362":0.08840783685445786,"363":0.16619980335235596,"364":-0.06797704845666885,"365":-0.055552154779434204,"366":-0.11973553895950317,"367":-0.02160045877099037,"368":-0.19801528751850128,"369":-0.17108136415481567,"370":0.0769614428281784,"371":-0.10156137496232986,"372":-0.14376676082611084,"373":-0.05118973180651665,"374":-0.011493469588458538,"375":-0.052921049296855927,"376":-0.04319575056433678,"377":-0.11750911176204681,"378":-0.15444160997867584,"379":0.12853646278381348,"380":0.0781148374080658,"381":0.006136669311672449,"382":0.11415128409862518,"383":-0.06736871600151062,"384":0.08423250168561935,"385":-0.1466376781463623,"386":-0.007101314142346382,"387":0.039920490235090256,"388":0.020231403410434723,"389":-0.0640501007437706,"390":0.11585105210542679,"391":0.02988944575190544,"392":-0.04985103756189346,"393":-0.041350506246089935,"394":-0.04743899777531624,"395":0.00863005593419075,"396":0.129709854722023,"397":0.15173427760601044,"398":0.11796056479215622,"399":-0.18370313942432404,"400":0.16862191259860992,"401":0.007646598387509584,"402":-0.1642269492149353,"403":-0.15026643872261047}},"3":{"bias":-0.07976651191711426,"weights":{"0":-0.15057368576526642,"1":0.0024928925558924675,"2":-0.06206216663122177,"3":-0.16301921010017395,"4":-0.08472062647342682,"5":0.1639188975095749,"6":-0.18843752145767212,"7":-0.03208861127495766,"8":-0.1785915642976761,"9":0.100600965321064,"10":-0.010737329721450806,"11":-0.01663796789944172,"12":0.11942427605390549,"13":-0.03523232042789459,"14":-0.10848436504602432,"15":0.09453122317790985,"16":0.02710670419037342,"17":0.18377023935317993,"18":0.12030322849750519,"19":-0.02599218301475048,"20":-0.16307587921619415,"21":-0.03179415315389633,"22":0.07734078168869019,"23":0.024409638717770576,"24":0.16338950395584106,"25":0.08779668807983398,"26":0.06347323209047318,"27":-0.0176862683147192,"28":-0.1832316517829895,"29":0.060106463730335236,"30":0.18053221702575684,"31":-0.01428576372563839,"32":0.0958203673362732,"33":-0.06321055442094803,"34":0.15469686686992645,"35":-0.027421850711107254,"36":-0.09763627499341965,"37":-0.13042978942394257,"38":-0.12913459539413452,"39":0.1236986517906189,"40":-0.18871869146823883,"41":-0.013916452415287495,"42":-0.09002383053302765,"43":0.05616357550024986,"44":-0.006038223393261433,"45":0.1867186278104782,"46":0.0005064927390776575,"47":0.1540534496307373,"48":-0.047522637993097305,"49":-0.1294247806072235,"50":-0.01301306951791048,"51":-0.17997682094573975,"52":0.14910396933555603,"53":-0.09574729204177856,"54":-0.1213964968919754,"55":-0.03393938019871712,"56":-0.04464317858219147,"57":0.10091183334589005,"58":0.09519585967063904,"59":0.030662180855870247,"60":-0.05600849911570549,"61":0.1512341946363449,"62":-0.061128418892621994,"63":-0.007325868587940931,"64":-0.14300642907619476,"65":0.1005830317735672,"66":0.1741752177476883,"67":-0.05695043131709099,"68":0.05894356966018677,"69":-0.06738948076963425,"70":-0.1630985289812088,"71":-0.0274514090269804,"72":0.1445463001728058,"73":0.1549258530139923,"74":0.11553232371807098,"75":-0.05660570040345192,"76":0.01086257491260767,"77":0.044657640159130096,"78":-0.02575148455798626,"79":-0.13197647035121918,"80":0.04500662907958031,"81":-0.12928374111652374,"82":0.06872674822807312,"83":-0.05418416112661362,"84":0.1228441447019577,"85":0.03724335879087448,"86":0.1989738941192627,"87":0.16783881187438965,"88":0.18670381605625153,"89":0.01507242489606142,"90":0.0825124979019165,"91":0.11586786061525345,"92":-0.017553338780999184,"93":-0.05587216466665268,"94":-0.06485487520694733,"95":-0.00433880090713501,"96":0.1343657523393631,"97":-0.18165087699890137,"98":0.11295290291309357,"99":-0.1264476180076599,"100":-0.1774505376815796,"101":0.14330849051475525,"102":0.11783172935247421,"103":0.09928002208471298,"104":0.04831648990511894,"105":0.0032930842135101557,"106":0.0047678267583251,"107":-0.011691630817949772,"108":0.14973291754722595,"109":-0.00018143572378903627,"110":-0.10702496767044067,"111":0.16606514155864716,"112":0.04399537667632103,"113":-0.05848733335733414,"114":-0.014358999207615852,"115":-0.18464979529380798,"116":0.188709557056427,"117":0.08737172931432724,"118":-0.18182706832885742,"119":0.1067778542637825,"120":0.009481810964643955,"121":-0.027647390961647034,"122":-0.07564078271389008,"123":0.09400847554206848,"124":-0.1970774084329605,"125":-0.06521032750606537,"126":-0.18800748884677887,"127":-0.17682087421417236,"128":0.13911470770835876,"129":0.16886812448501587,"130":-0.14744926989078522,"131":0.18356190621852875,"132":0.04569051042199135,"133":0.10251671820878983,"134":0.09130489826202393,"135":-0.0519651398062706,"136":-0.04283999651670456,"137":-0.09076748043298721,"138":0.1658524125814438,"139":-0.050374556332826614,"140":0.0679575651884079,"141":-0.00009954140841728076,"142":0.16550889611244202,"143":0.1092870831489563,"144":-0.10639259219169617,"145":-0.037803635001182556,"146":0.02421402931213379,"147":-0.02715669944882393,"148":0.12005989253520966,"149":0.05023588612675667,"150":-0.13972628116607666,"151":-0.05888902768492699,"152":0.10576482117176056,"153":0.05690376088023186,"154":-0.061592359095811844,"155":0.04845838621258736,"156":-0.16722358763217926,"157":0.09331625699996948,"158":-0.11900684237480164,"159":-0.03972802311182022,"160":0.1840905398130417,"161":-0.03129641339182854,"162":0.18596942722797394,"163":0.0874156504869461,"164":-0.04017972573637962,"165":-0.02205825224518776,"166":0.06614293158054352,"167":-0.09029018878936768,"168":0.11681310832500458,"169":-0.19972874224185944,"170":-0.18120965361595154,"171":-0.05262072756886482,"172":-0.040085334330797195,"173":0.013194973580539227,"174":-0.1909439116716385,"175":0.07498322427272797,"176":0.0701969712972641,"177":-0.007657632697373629,"178":-0.05190299451351166,"179":0.11395856738090515,"180":0.16253505647182465,"181":-0.07975181192159653,"182":0.19869527220726013,"183":-0.026292165741324425,"184":0.11184801161289215,"185":0.11700194329023361,"186":0.15712758898735046,"187":-0.04583226516842842,"188":-0.07324614375829697,"189":0.12363367527723312,"190":-0.19899046421051025,"191":-0.06917310506105423,"192":0.17656195163726807,"193":-0.06891600787639618,"194":0.1342415064573288,"195":0.1895693987607956,"196":0.07488669455051422,"197":0.07181114703416824,"198":-0.08360835164785385,"199":0.11579902470111847,"200":0.10448983311653137,"201":0.05665558576583862,"202":-0.01025690883398056,"203":-0.05884325131773949,"204":0.17566151916980743,"205":-0.13713406026363373,"206":-0.043250665068626404,"207":-0.10276632010936737,"208":-0.15821604430675507,"209":-0.07813604176044464,"210":-0.1622621715068817,"211":-0.05912068486213684,"212":-0.033439818769693375,"213":0.12317514419555664,"214":-0.013449229300022125,"215":0.13321271538734436,"216":-0.15303801000118256,"217":0.1350354552268982,"218":0.0839826911687851,"219":0.016026591882109642,"220":-0.07214190065860748,"221":-0.021189549937844276,"222":-0.0628180056810379,"223":0.03633536398410797,"224":-0.08765499293804169,"225":-0.18831652402877808,"226":-0.0016639489913359284,"227":0.19177313148975372,"228":-0.10859987139701843,"229":-0.19642707705497742,"230":0.16093291342258453,"231":0.111393041908741,"232":-0.13925224542617798,"233":-0.02556002140045166,"234":-0.0794001892209053,"235":0.14873874187469482,"236":0.0117955282330513,"237":-0.04244547709822655,"238":-0.13325025141239166,"239":0.04480813071131706,"240":-0.1949087530374527,"241":0.09110184758901596,"242":0.1581386774778366,"243":0.03832462057471275,"244":0.08829905092716217,"245":-0.16458474099636078,"246":-0.11677867919206619,"247":-0.17284579575061798,"248":-0.034894004464149475,"249":0.14283697307109833,"250":0.06418390572071075,"251":0.1259952038526535,"252":-0.18564531207084656,"253":-0.1722365915775299,"254":-0.032258953899145126,"255":0.0074527449905872345,"256":-0.15648671984672546,"257":-0.19427993893623352,"258":-0.16205234825611115,"259":-0.05914321541786194,"260":-0.09054333716630936,"261":-0.08558779209852219,"262":-0.06795823574066162,"263":-0.03924630209803581,"264":-0.13205453753471375,"265":0.19694161415100098,"266":-0.15142184495925903,"267":0.1306399703025818,"268":-0.0068957326002418995,"269":-0.05180376023054123,"270":-0.05535504221916199,"271":0.04743443801999092,"272":-0.0666448175907135,"273":-0.1948731690645218,"274":-0.11734629422426224,"275":0.044453512877225876,"276":-0.1873190850019455,"277":-0.04466800391674042,"278":-0.17420564591884613,"279":0.14311935007572174,"280":-0.19779179990291595,"281":0.030263720080256462,"282":-0.16745072603225708,"283":0.16219888627529144,"284":-0.1094214916229248,"285":0.031047698110342026,"286":0.09398912638425827,"287":-0.13561274111270905,"288":0.04706950485706329,"289":0.0652814581990242,"290":0.1897309273481369,"291":-0.007257553748786449,"292":0.022089960053563118,"293":0.08165638893842697,"294":-0.07292098551988602,"295":-0.05346432328224182,"296":-0.05174262821674347,"297":-0.1549382507801056,"298":0.020912962034344673,"299":-0.055917561054229736,"300":-0.1498241424560547,"301":-0.03590981289744377,"302":-0.10384543240070343,"303":0.14060862362384796,"304":-0.12834034860134125,"305":-0.003661382244899869,"306":-0.11937746405601501,"307":0.032301004976034164,"308":0.03973192721605301,"309":0.16281354427337646,"310":0.03912605345249176,"311":0.052322737872600555,"312":-0.08492597937583923,"313":-0.12486717104911804,"314":-0.1660771369934082,"315":-0.07149101048707962,"316":-0.044922277331352234,"317":0.1561335176229477,"318":-0.07271625846624374,"319":0.08014684170484543,"320":0.03374990075826645,"321":-0.13098254799842834,"322":-0.057292114943265915,"323":0.00010843842756003141,"324":-0.11193255335092545,"325":0.16904744505882263,"326":0.006031670141965151,"327":-0.12520736455917358,"328":0.044104717671871185,"329":0.041041985154151917,"330":-0.031099215149879456,"331":0.12583209574222565,"332":0.15520024299621582,"333":0.08561171591281891,"334":0.0320669524371624,"335":0.18319231271743774,"336":0.10771704465150833,"337":0.009500161744654179,"338":-0.19696861505508423,"339":-0.06064089015126228,"340":0.07244899868965149,"341":0.13135723769664764,"342":-0.18330763280391693,"343":-0.06226415932178497,"344":-0.0023941772524267435,"345":0.06800816208124161,"346":0.046322647482156754,"347":0.05301804840564728,"348":-0.01029880903661251,"349":0.029097197577357292,"350":-0.15326561033725739,"351":0.16551680862903595,"352":0.016810184344649315,"353":0.11512823402881622,"354":-0.171233132481575,"355":0.07855305075645447,"356":0.09069119393825531,"357":-0.16618438065052032,"358":-0.09404405951499939,"359":-0.07564243674278259,"360":-0.10895644128322601,"361":-0.17299702763557434,"362":0.060446787625551224,"363":0.0016083522932603955,"364":-0.10915640741586685,"365":0.15067660808563232,"366":-0.038457732647657394,"367":0.044820405542850494,"368":-0.18714666366577148,"369":0.1892504096031189,"370":0.1650802195072174,"371":0.11060311645269394,"372":-0.1269007921218872,"373":-0.07596652209758759,"374":-0.06843423843383789,"375":-0.16948547959327698,"376":0.11446221172809601,"377":0.19341962039470673,"378":0.010238947346806526,"379":0.1744435876607895,"380":-0.16818729043006897,"381":-0.09089263528585434,"382":0.0112570496276021,"383":0.007947209291160107,"384":0.13550366461277008,"385":-0.040361590683460236,"386":-0.06454023718833923,"387":0.07285213470458984,"388":0.1074180006980896,"389":-0.09464125335216522,"390":-0.05542397126555443,"391":-0.12079444527626038,"392":0.14031432569026947,"393":-0.15120545029640198,"394":0.13803204894065857,"395":0.039667919278144836,"396":-0.1498335301876068,"397":-0.07054577022790909,"398":-0.07153115421533585,"399":-0.03853632137179375,"400":0.018031921237707138,"401":0.15575896203517914,"402":0.017533622682094574,"403":-0.05323201045393944}},"4":{"bias":-0.1534496545791626,"weights":{"0":0.16027212142944336,"1":-0.1380491703748703,"2":0.13265274465084076,"3":-0.1407177448272705,"4":-0.06820360571146011,"5":0.15171486139297485,"6":-0.0929948166012764,"7":-0.05405939742922783,"8":-0.024041982367634773,"9":0.14371919631958008,"10":0.0450979508459568,"11":-0.001491622650064528,"12":-0.048252735286951065,"13":-0.1555209457874298,"14":-0.12753655016422272,"15":-0.15171997249126434,"16":0.03839506581425667,"17":-0.15053902566432953,"18":0.15634144842624664,"19":0.0738930031657219,"20":-0.11437371373176575,"21":-0.07814060151576996,"22":0.14865650236606598,"23":0.14125275611877441,"24":0.12226829677820206,"25":0.062072087079286575,"26":0.101173534989357,"27":0.0015264489920809865,"28":0.04681136831641197,"29":0.133454367518425,"30":-0.16688649356365204,"31":0.10873597860336304,"32":0.015624341554939747,"33":0.11778327077627182,"34":0.11924136430025101,"35":-0.05981694906949997,"36":-0.05323575437068939,"37":-0.1683426946401596,"38":0.01621139608323574,"39":0.09137313812971115,"40":0.10875607281923294,"41":0.06039521470665932,"42":-0.11993769556283951,"43":-0.08366075903177261,"44":-0.0936419814825058,"45":-0.1798561066389084,"46":0.052213720977306366,"47":0.06515348702669144,"48":0.01146717183291912,"49":0.11407151073217392,"50":0.039630595594644547,"51":-0.18002459406852722,"52":0.0033964591566473246,"53":0.15205468237400055,"54":-0.14161089062690735,"55":-0.15507858991622925,"56":0.03229077532887459,"57":0.07834794372320175,"58":0.06662143766880035,"59":-0.13766002655029297,"60":-0.0918179601430893,"61":0.0016133291646838188,"62":-0.0872519463300705,"63":-0.12720529735088348,"64":0.1591770052909851,"65":0.011311015114188194,"66":-0.05876903235912323,"67":-0.10237042605876923,"68":0.005368965677917004,"69":-0.06022106483578682,"70":-0.0028207479044795036,"71":-0.08186545222997665,"72":0.11968155950307846,"73":-0.07643389701843262,"74":0.1537867933511734,"75":0.048050250858068466,"76":0.018545255064964294,"77":-0.13781113922595978,"78":0.1123872920870781,"79":0.14068107306957245,"80":-0.16933485865592957,"81":0.04452662914991379,"82":0.0005783417727798223,"83":0.1698281466960907,"84":-0.1688571274280548,"85":-0.07316244393587112,"86":0.006337037310004234,"87":0.19272710382938385,"88":0.1428709179162979,"89":0.14545157551765442,"90":0.18888038396835327,"91":0.08912437409162521,"92":0.07570592314004898,"93":-0.13703098893165588,"94":-0.05454942584037781,"95":0.12196706235408783,"96":-0.11400556564331055,"97":-0.11843756586313248,"98":-0.13243652880191803,"99":0.1905602663755417,"100":-0.03796178847551346,"101":-0.10081484168767929,"102":-0.13350287079811096,"103":0.029378004372119904,"104":-0.09721087664365768,"105":-0.17801731824874878,"106":-0.147366464138031,"107":-0.18129612505435944,"108":0.12020479887723923,"109":-0.1711803525686264,"110":0.08106846362352371,"111":0.09968182444572449,"112":-0.1017131581902504,"113":-0.06025097891688347,"114":0.017403671517968178,"115":-0.08493341505527496,"116":0.11348124593496323,"117":-0.0032961859833449125,"118":-0.19939163327217102,"119":-0.017688168212771416,"120":0.11464793235063553,"121":0.11870025098323822,"122":-0.06630683690309525,"123":0.11235900223255157,"124":0.12276524305343628,"125":0.13464653491973877,"126":0.09197553247213364,"127":-0.09446828067302704,"128":-0.12692487239837646,"129":0.0727221816778183,"130":-0.19093932211399078,"131":0.13784752786159515,"132":0.19390690326690674,"133":-0.11029575765132904,"134":-0.029326623305678368,"135":-0.09801196306943893,"136":-0.02501736395061016,"137":-0.1292598396539688,"138":-0.05285732075572014,"139":0.02488246187567711,"140":0.022296037524938583,"141":-0.042351335287094116,"142":0.009333872236311436,"143":-0.01831013336777687,"144":0.18580710887908936,"145":0.07902425527572632,"146":0.14491258561611176,"147":0.15732328593730927,"148":-0.15577372908592224,"149":0.03656361252069473,"150":-0.08022306114435196,"151":0.009568469598889351,"152":0.16717037558555603,"153":-0.05777193605899811,"154":-0.11910539120435715,"155":0.10474561899900436,"156":-0.06416492164134979,"157":-0.1605134904384613,"158":0.007462277542799711,"159":0.09645450860261917,"160":0.08890477567911148,"161":-0.04180164262652397,"162":-0.1298128217458725,"163":-0.08410799503326416,"164":-0.16162389516830444,"165":-0.004261479713022709,"166":-0.16769719123840332,"167":0.008764117024838924,"168":0.05848700553178787,"169":0.17485564947128296,"170":0.08968973159790039,"171":0.026585059240460396,"172":-0.164433553814888,"173":0.10161242634057999,"174":-0.01480947993695736,"175":-0.12148181349039078,"176":-0.07402205467224121,"177":-0.03975382819771767,"178":0.11651796102523804,"179":-0.0823681429028511,"180":0.061822161078453064,"181":0.04597371444106102,"182":-0.03653643652796745,"183":0.02944561094045639,"184":-0.008053313009440899,"185":0.1894780546426773,"186":-0.18371738493442535,"187":0.16145138442516327,"188":0.10360831022262573,"189":-0.04091434180736542,"190":-0.04576675593852997,"191":0.19320562481880188,"192":0.040606725960969925,"193":-0.18626050651073456,"194":-0.07902450114488602,"195":-0.11854886263608932,"196":-0.10754424333572388,"197":-0.16566964983940125,"198":0.0443122461438179,"199":0.09198632836341858,"200":-0.08665375411510468,"201":-0.0006400858983397484,"202":-0.13331149518489838,"203":0.05992221087217331,"204":0.03557976335287094,"205":-0.023151995614171028,"206":-0.15762634575366974,"207":0.12411703914403915,"208":-0.14502322673797607,"209":-0.0720665380358696,"210":-0.12719322741031647,"211":-0.07275781035423279,"212":-0.022506892681121826,"213":0.1262100338935852,"214":-0.019478511065244675,"215":-0.10695020109415054,"216":-0.021604357287287712,"217":0.07070805877447128,"218":-0.1378994733095169,"219":0.13834814727306366,"220":0.06668657064437866,"221":0.018960919231176376,"222":-0.12672853469848633,"223":-0.17573146522045135,"224":0.17543576657772064,"225":0.03209223970770836,"226":-0.012897146865725517,"227":0.16662143170833588,"228":0.1387827843427658,"229":0.07581278681755066,"230":-0.08655966818332672,"231":-0.12535661458969116,"232":-0.06759555637836456,"233":-0.0918632447719574,"234":-0.1719759702682495,"235":-0.1359669268131256,"236":-0.19429261982440948,"237":0.12039774656295776,"238":-0.11438476294279099,"239":-0.14291156828403473,"240":0.06280151009559631,"241":-0.0959906354546547,"242":-0.01795288361608982,"243":0.11613167822360992,"244":0.04898921027779579,"245":-0.1809009313583374,"246":0.012219225987792015,"247":-0.05932493880391121,"248":-0.056333962827920914,"249":0.01860892027616501,"250":0.1652580201625824,"251":-0.11168874055147171,"252":-0.0579313188791275,"253":0.16853000223636627,"254":0.16382864117622375,"255":0.17314107716083527,"256":-0.06931378692388535,"257":0.07937417924404144,"258":-0.0580802746117115,"259":-0.11172646284103394,"260":0.02777274139225483,"261":0.13436982035636902,"262":-0.1424792855978012,"263":-0.1387140452861786,"264":-0.11017397791147232,"265":0.14756985008716583,"266":0.1247272938489914,"267":-0.0514945462346077,"268":0.17673663794994354,"269":0.006997817661613226,"270":0.08089928328990936,"271":-0.030321042984724045,"272":0.002529085148125887,"273":0.14308811724185944,"274":0.09757424145936966,"275":-0.17827880382537842,"276":0.09444650262594223,"277":0.12998297810554504,"278":-0.1259714961051941,"279":0.11203963309526443,"280":0.18536259233951569,"281":0.05090760812163353,"282":0.07653221487998962,"283":-0.0955674797296524,"284":0.036256227642297745,"285":-0.17093724012374878,"286":0.02879786305129528,"287":0.17028120160102844,"288":0.0826861560344696,"289":0.17511630058288574,"290":0.005274548660963774,"291":0.17904749512672424,"292":-0.09346721321344376,"293":-0.1919173002243042,"294":0.03231086581945419,"295":-0.1855788230895996,"296":0.07989706844091415,"297":0.09968668967485428,"298":0.1431339830160141,"299":0.008671609684824944,"300":-0.18912231922149658,"301":0.1919083595275879,"302":-0.19265125691890717,"303":0.1530570685863495,"304":0.09985033422708511,"305":-0.1757161170244217,"306":-0.1667061597108841,"307":-0.055386558175086975,"308":-0.1074381172657013,"309":0.029733601957559586,"310":-0.1518961638212204,"311":-0.08947993069887161,"312":0.14797483384609222,"313":0.05416439473628998,"314":0.055260952562093735,"315":-0.17945553362369537,"316":-0.11357563734054565,"317":0.022748662158846855,"318":0.16650216281414032,"319":0.16936717927455902,"320":0.09478404372930527,"321":-0.1236245408654213,"322":0.1415042132139206,"323":0.051682084798812866,"324":0.08021896332502365,"325":0.05099930614233017,"326":-0.1359366476535797,"327":0.1354062408208847,"328":-0.019382556900382042,"329":-0.08153748512268066,"330":-0.12969696521759033,"331":-0.04329865798354149,"332":0.010395978577435017,"333":0.05651981756091118,"334":0.04265643656253815,"335":-0.03641018643975258,"336":-0.06996694207191467,"337":0.0971134603023529,"338":0.022884933277964592,"339":0.008579607121646404,"340":0.18288782238960266,"341":-0.19895333051681519,"342":0.10307576507329941,"343":-0.13736529648303986,"344":0.08666244149208069,"345":-0.08637511730194092,"346":0.011767963878810406,"347":0.06419782340526581,"348":0.007895197719335556,"349":0.09225687384605408,"350":-0.06166432797908783,"351":-0.10233332961797714,"352":-0.08466354757547379,"353":-0.129771888256073,"354":-0.008631237782537937,"355":-0.055074598640203476,"356":-0.033088721334934235,"357":-0.05085757374763489,"358":0.14443792402744293,"359":-0.13727763295173645,"360":0.17674612998962402,"361":-0.12791882455348969,"362":0.1070745438337326,"363":-0.06777063012123108,"364":-0.09386730939149857,"365":0.03846577927470207,"366":-0.12765057384967804,"367":-0.1686699092388153,"368":0.17030289769172668,"369":0.04632474109530449,"370":-0.15582504868507385,"371":-0.13288868963718414,"372":0.01907009817659855,"373":0.074407197535038,"374":-0.13874103128910065,"375":-0.07793524116277695,"376":0.10142762959003448,"377":0.18666790425777435,"378":-0.15267397463321686,"379":-0.06661394983530045,"380":0.04368891566991806,"381":-0.17297136783599854,"382":0.014232329092919827,"383":0.0139086889103055,"384":-0.1838030070066452,"385":-0.18838949501514435,"386":-0.001897545182146132,"387":0.06161976233124733,"388":-0.15838207304477692,"389":0.16589578986167908,"390":-0.043878182768821716,"391":0.1541365534067154,"392":0.09940175712108612,"393":0.18713928759098053,"394":-0.07060626149177551,"395":-0.05284300819039345,"396":0.045653555542230606,"397":-0.10251076519489288,"398":-0.16771498322486877,"399":0.0025135697796940804,"400":-0.00770124327391386,"401":0.0738280639052391,"402":0.10276322066783905,"403":-0.18237349390983582}},"5":{"bias":0.14544013142585754,"weights":{"0":0.15821890532970428,"1":-0.00022179842926561832,"2":0.009423777461051941,"3":-0.0015860459534451365,"4":-0.16359438002109528,"5":0.16458529233932495,"6":-0.2054520696401596,"7":0.017364872619509697,"8":-0.04837968200445175,"9":-0.132058784365654,"10":-0.048013679683208466,"11":0.023839090019464493,"12":0.024449292570352554,"13":0.07384645938873291,"14":0.03321055322885513,"15":-0.18022367358207703,"16":-0.05113162472844124,"17":0.10657680034637451,"18":0.06153162196278572,"19":-0.05847052484750748,"20":0.033802226185798645,"21":-0.06806071102619171,"22":0.12482801079750061,"23":-0.014398270286619663,"24":0.11534374207258224,"25":-0.12506835162639618,"26":-0.081453338265419,"27":-0.017124993726611137,"28":0.08551076799631119,"29":-0.16174627840518951,"30":-0.11090467870235443,"31":0.07750643789768219,"32":0.14274731278419495,"33":-0.2042962610721588,"34":-0.04868541285395622,"35":0.13941806554794312,"36":-0.19142059981822968,"37":0.058166179805994034,"38":0.01195474248379469,"39":0.0273355171084404,"40":-0.13362890481948853,"41":-0.18527908623218536,"42":-0.1168309673666954,"43":-0.17132404446601868,"44":0.1455262303352356,"45":0.07800425589084625,"46":-0.0949787050485611,"47":-0.13775062561035156,"48":-0.11235588043928146,"49":-0.047215644270181656,"50":-0.090510293841362,"51":0.10539963841438293,"52":-0.07736079394817352,"53":0.15382175147533417,"54":0.03675687685608864,"55":0.04344857856631279,"56":0.0019948401022702456,"57":-0.022371118888258934,"58":0.07579313963651657,"59":0.15361739695072174,"60":0.12985464930534363,"61":-0.1689324826002121,"62":0.006707427091896534,"63":0.1043468490242958,"64":0.16326092183589935,"65":-0.10472943633794785,"66":0.07751666009426117,"67":-0.11915858834981918,"68":-0.0016534598544239998,"69":0.08732885867357254,"70":-0.1823127418756485,"71":0.14545723795890808,"72":0.0501842238008976,"73":0.12969884276390076,"74":-0.049995891749858856,"75":0.13666938245296478,"76":-0.03445284813642502,"77":-0.0827600434422493,"78":-0.0860428735613823,"79":0.14991067349910736,"80":-0.07447298616170883,"81":0.05790561065077782,"82":0.11526528000831604,"83":-0.19676651060581207,"84":-0.00958983600139618,"85":-0.22615571320056915,"86":-0.19353742897510529,"87":0.1098536029458046,"88":0.07522781193256378,"89":-0.1953168511390686,"90":0.04310806840658188,"91":-0.08813531696796417,"92":0.009206998161971569,"93":-0.0017025962006300688,"94":-0.06321031600236893,"95":-0.12275433540344238,"96":0.1697249412536621,"97":-0.03581433743238449,"98":0.15454739332199097,"99":0.054239604622125626,"100":0.061425693333148956,"101":-0.04868245869874954,"102":-0.22467902302742004,"103":0.0644199326634407,"104":-0.18639038503170013,"105":-0.04586297273635864,"106":0.1270299106836319,"107":0.022031983360648155,"108":0.09309431910514832,"109":0.06250989437103271,"110":0.07903071492910385,"111":0.07941441982984543,"112":0.011219533160328865,"113":0.12537693977355957,"114":-0.10807450860738754,"115":-0.182929128408432,"116":0.16088466346263885,"117":-0.17180529236793518,"118":0.1115717962384224,"119":-0.048027776181697845,"120":0.023685846477746964,"121":0.004118226934224367,"122":-0.18250568211078644,"123":-0.0025910004042088985,"124":-0.08234976977109909,"125":-0.0282711423933506,"126":0.01355608832091093,"127":0.08494041860103607,"128":0.1010051742196083,"129":-0.22563768923282623,"130":-0.15439271926879883,"131":0.1263778805732727,"132":-0.09162379056215286,"133":-0.0445730984210968,"134":0.07200884819030762,"135":-0.18984165787696838,"136":-0.06194063648581505,"137":-0.00186863262206316,"138":0.09126950055360794,"139":-0.06305790692567825,"140":0.082999587059021,"141":0.1532106250524521,"142":-0.00450685853138566,"143":0.017945779487490654,"144":0.07473191618919373,"145":-0.17345239222049713,"146":-0.05846784636378288,"147":-0.09424285590648651,"148":-0.08035091310739517,"149":-0.040969118475914,"150":0.09125320613384247,"151":0.01012339536100626,"152":0.08713576942682266,"153":0.11728907376527786,"154":-0.15132884681224823,"155":-0.145773783326149,"156":0.11749319732189178,"157":0.16487719118595123,"158":0.01144908182322979,"159":-0.20368331670761108,"160":0.06103138625621796,"161":0.14559784531593323,"162":-0.15118063986301422,"163":0.03714447841048241,"164":-0.029820231720805168,"165":0.1687832921743393,"166":-0.13946503400802612,"167":0.11657311022281647,"168":-0.19244743883609772,"169":0.06279399991035461,"170":0.16108740866184235,"171":-0.029497697949409485,"172":-0.08364011347293854,"173":0.051300738006830215,"174":-0.06582820415496826,"175":0.12040119618177414,"176":0.1332053244113922,"177":-0.10524686425924301,"178":-0.09949662536382675,"179":-0.16242419183254242,"180":-0.033133745193481445,"181":-0.0017712166300043464,"182":-0.10410483926534653,"183":-0.08096179366111755,"184":-0.1871567964553833,"185":0.16964580118656158,"186":-0.000599717372097075,"187":-0.06879696995019913,"188":-0.013124612160027027,"189":0.07681285589933395,"190":-0.214136004447937,"191":-0.22592495381832123,"192":0.11899350583553314,"193":0.16648651659488678,"194":-0.07501106709241867,"195":-0.22396107017993927,"196":0.1101856380701065,"197":0.08110634982585907,"198":-0.039508987218141556,"199":0.06377116590738297,"200":-0.10157536715269089,"201":-0.09951294958591461,"202":0.15709029138088226,"203":0.02772228978574276,"204":-0.19014601409435272,"205":-0.08670186251401901,"206":-0.15232399106025696,"207":-0.07446571439504623,"208":0.05044601857662201,"209":0.06525561958551407,"210":0.072146937251091,"211":0.02759604901075363,"212":-0.1770908385515213,"213":0.1491718590259552,"214":-0.10746956616640091,"215":-0.058520786464214325,"216":0.07235240191221237,"217":-0.07542987912893295,"218":0.11823464184999466,"219":-0.02191695012152195,"220":0.014306364580988884,"221":-0.11419463902711868,"222":0.12464608997106552,"223":-0.17076337337493896,"224":-0.21068361401557922,"225":-0.16310274600982666,"226":0.0454292893409729,"227":-0.06602820754051208,"228":-0.1537705659866333,"229":-0.10219310969114304,"230":0.11973933130502701,"231":-0.22656607627868652,"232":-0.13574886322021484,"233":-0.11945763975381851,"234":0.05637231469154358,"235":0.1654030829668045,"236":0.06781339645385742,"237":0.03609314188361168,"238":0.05689369887113571,"239":-0.06263445317745209,"240":-0.18697740137577057,"241":0.13633973896503448,"242":0.05926923826336861,"243":-0.05964400991797447,"244":0.05561603978276253,"245":-0.012853717431426048,"246":-0.17362335324287415,"247":0.08753006905317307,"248":-0.046365752816200256,"249":0.05072503164410591,"250":0.15984006226062775,"251":-0.17479093372821808,"252":-0.09236042946577072,"253":0.05083762854337692,"254":0.16771799325942993,"255":-0.0634268969297409,"256":0.14628556370735168,"257":0.15041860938072205,"258":-0.06402597576379776,"259":-0.02508929930627346,"260":-0.06144749000668526,"261":0.027355732396245003,"262":-0.16386932134628296,"263":-0.015558987855911255,"264":-0.16626235842704773,"265":-0.16851817071437836,"266":-0.07954428344964981,"267":-0.11419383436441422,"268":-0.02944163605570793,"269":0.17035171389579773,"270":0.10585512965917587,"271":-0.1418912559747696,"272":-0.1253422498703003,"273":-0.17008750140666962,"274":-0.21797937154769897,"275":0.0850166380405426,"276":0.07895094901323318,"277":-0.01165958121418953,"278":0.021580005064606667,"279":-0.09343447536230087,"280":0.1327141523361206,"281":0.15045414865016937,"282":-0.22027301788330078,"283":-0.03491877764463425,"284":-0.1825346052646637,"285":-0.09163053333759308,"286":-0.039211638271808624,"287":0.10960114747285843,"288":0.1341303288936615,"289":-0.10330034792423248,"290":0.14912617206573486,"291":-0.016421329230070114,"292":-0.16778452694416046,"293":-0.15403074026107788,"294":-0.06837453693151474,"295":0.03261873498558998,"296":0.06582406908273697,"297":-0.056970223784446716,"298":-0.21817849576473236,"299":0.09966584295034409,"300":0.040425319224596024,"301":-0.043741025030612946,"302":-0.00499904016032815,"303":-0.1713123321533203,"304":0.14798226952552795,"305":-0.023134076967835426,"306":0.12007924169301987,"307":-0.1691390722990036,"308":-0.0832381397485733,"309":0.11099140346050262,"310":0.07861575484275818,"311":-0.010511666536331177,"312":-0.1537054181098938,"313":0.07950130850076675,"314":-0.07483690232038498,"315":0.0849885419011116,"316":-0.05099691078066826,"317":-0.10073217004537582,"318":-0.08246097713708878,"319":0.1444903314113617,"320":0.028168631717562675,"321":-0.14663653075695038,"322":-0.14458337426185608,"323":-0.012697565369307995,"324":-0.2037903219461441,"325":-0.03194732591509819,"326":-0.17249096930027008,"327":-0.042601753026247025,"328":-0.1661740094423294,"329":0.030524015426635742,"330":-0.036948833614587784,"331":0.1046556606888771,"332":-0.20291388034820557,"333":0.0006095959106460214,"334":-0.13976307213306427,"335":-0.07507121562957764,"336":-0.12411036342382431,"337":0.028015771880745888,"338":-0.17417410016059875,"339":-0.1629534661769867,"340":-0.05345597118139267,"341":0.16040056943893433,"342":-0.12701629102230072,"343":0.04709474369883537,"344":-0.02727617137134075,"345":0.1577845960855484,"346":-0.18808862566947937,"347":-0.13874021172523499,"348":0.0032048227731138468,"349":0.014927520416676998,"350":0.1340552717447281,"351":-0.13765458762645721,"352":-0.02784835547208786,"353":-0.00496453233063221,"354":-0.18335938453674316,"355":-0.13276538252830505,"356":0.15660592913627625,"357":-0.11390341818332672,"358":0.15035904943943024,"359":-0.12886369228363037,"360":-0.053791310638189316,"361":-0.07523991912603378,"362":-0.21596425771713257,"363":-0.17506709694862366,"364":-0.1007457971572876,"365":0.07290596514940262,"366":0.14567138254642487,"367":-0.09053650498390198,"368":-0.05877542123198509,"369":0.1262124478816986,"370":-0.10921217501163483,"371":0.041258394718170166,"372":-0.2045995593070984,"373":0.11469271034002304,"374":-0.0136923398822546,"375":0.046633560210466385,"376":0.08821264654397964,"377":-0.08967015147209167,"378":0.012300561182200909,"379":-0.15376877784729004,"380":-0.12139954417943954,"381":0.10773147642612457,"382":-0.17021532356739044,"383":-0.1969231814146042,"384":0.13554850220680237,"385":0.15099726617336273,"386":-0.19158490002155304,"387":-0.1927398443222046,"388":-0.22086189687252045,"389":0.09425808489322662,"390":0.10709649324417114,"391":0.04531380906701088,"392":-0.12508688867092133,"393":-0.1694743037223816,"394":-0.20311526954174042,"395":0.07821580022573471,"396":0.11732110381126404,"397":-0.16818417608737946,"398":-0.0637255609035492,"399":-0.00018515005649533123,"400":0.09343849122524261,"401":0.08686043322086334,"402":0.08832885324954987,"403":-0.06145709007978439}},"6":{"bias":-0.06718606501817703,"weights":{"0":-0.14254151284694672,"1":0.12812240421772003,"2":-0.051978640258312225,"3":0.1261773556470871,"4":-0.006804861128330231,"5":-0.08743751794099808,"6":-0.1654709279537201,"7":-0.13572685420513153,"8":-0.06279999017715454,"9":-0.01891767792403698,"10":0.05384349077939987,"11":0.1586257517337799,"12":-0.11031261831521988,"13":0.10516353696584702,"14":-0.03952953964471817,"15":-0.0036614597775042057,"16":-0.05173946171998978,"17":-0.1520557552576065,"18":-0.031298790127038956,"19":-0.08124171942472458,"20":-0.040924519300460815,"21":-0.08207771927118301,"22":-0.17863237857818604,"23":0.16666752099990845,"24":0.09185763448476791,"25":-0.05191840976476669,"26":-0.05701431259512901,"27":-0.11855202168226242,"28":-0.06950432062149048,"29":-0.11197595298290253,"30":0.0011752780992537737,"31":0.028520336374640465,"32":-0.06504747271537781,"33":0.16656431555747986,"34":0.042574506253004074,"35":-0.022649182006716728,"36":-0.018240490928292274,"37":-0.1874695122241974,"38":0.19919796288013458,"39":0.0413522832095623,"40":-0.02032083459198475,"41":-0.09325214475393295,"42":-0.1959071308374405,"43":-0.03507978469133377,"44":0.003748465096578002,"45":0.14334028959274292,"46":-0.158956378698349,"47":0.1893702745437622,"48":-0.012976247817277908,"49":-0.1620417833328247,"50":-0.12428130954504013,"51":-0.1257503479719162,"52":0.1863243579864502,"53":-0.06801542639732361,"54":0.1827283501625061,"55":-0.1190696656703949,"56":0.0549209900200367,"57":0.17237620055675507,"58":-0.04763004183769226,"59":-0.0006691006128676236,"60":0.16362442076206207,"61":0.010309225879609585,"62":0.19493117928504944,"63":0.04905314743518829,"64":-0.15676294267177582,"65":-0.03806211054325104,"66":-0.14209917187690735,"67":0.04427805915474892,"68":0.18806833028793335,"69":-0.19475401937961578,"70":-0.12561090290546417,"71":0.05369313061237335,"72":-0.0546160452067852,"73":-0.05532681196928024,"74":-0.1855892688035965,"75":0.07917878776788712,"76":-0.1708201915025711,"77":0.1332635134458542,"78":0.1072872057557106,"79":0.05870506167411804,"80":-0.1585565060377121,"81":0.09001429378986359,"82":-0.017483588308095932,"83":-0.006113770417869091,"84":0.1303899735212326,"85":-0.00950569100677967,"86":0.11724451929330826,"87":-0.1888485997915268,"88":0.039011210203170776,"89":-0.09488065540790558,"90":0.0016524608945474029,"91":0.18264463543891907,"92":0.11684858053922653,"93":-0.13182739913463593,"94":-0.1649082750082016,"95":-0.07875418663024902,"96":0.10896574705839157,"97":0.19068211317062378,"98":0.20118282735347748,"99":0.20017553865909576,"100":-0.16605868935585022,"101":-0.10001692920923233,"102":0.10227975249290466,"103":0.1386788785457611,"104":-0.19476507604122162,"105":0.05983364209532738,"106":0.18226318061351776,"107":-0.11558244377374649,"108":-0.023118136450648308,"109":0.11488126963376999,"110":-0.038963060826063156,"111":-0.049656592309474945,"112":-0.06809326261281967,"113":-0.04761253297328949,"114":0.0928836315870285,"115":-0.10838425159454346,"116":-0.031755898147821426,"117":-0.0619015172123909,"118":0.1829756200313568,"119":0.033415406942367554,"120":0.19305241107940674,"121":-0.039626576006412506,"122":-0.02510237693786621,"123":-0.12536150217056274,"124":0.010569926351308823,"125":-0.07283718883991241,"126":-0.10646112263202667,"127":-0.15243303775787354,"128":-0.09038644284009933,"129":-0.005535782780498266,"130":-0.13922275602817535,"131":0.06266628950834274,"132":-0.10010793060064316,"133":0.013125278986990452,"134":0.09963706135749817,"135":0.06388044357299805,"136":-0.170458123087883,"137":0.12150612473487854,"138":0.1646731048822403,"139":-0.1097518801689148,"140":-0.16557732224464417,"141":0.1319025158882141,"142":-0.08958027511835098,"143":-0.031711842864751816,"144":0.07916317135095596,"145":0.13715887069702148,"146":-0.036270733922719955,"147":-0.16267159581184387,"148":-0.08497729897499084,"149":-0.016619373112916946,"150":-0.12615743279457092,"151":-0.07172119617462158,"152":0.1931232213973999,"153":0.05216739699244499,"154":-0.035992179065942764,"155":0.13387614488601685,"156":-0.06643104553222656,"157":0.010830068960785866,"158":-0.1300070583820343,"159":0.09085170179605484,"160":0.09357969462871552,"161":-0.11161817610263824,"162":0.14544588327407837,"163":0.1458352953195572,"164":0.14181332290172577,"165":-0.14243032038211823,"166":0.12424781173467636,"167":-0.07088211923837662,"168":-0.16222307085990906,"169":-0.04618971049785614,"170":-0.00680045410990715,"171":0.15735048055648804,"172":-0.16492384672164917,"173":-0.09776828438043594,"174":0.07467483729124069,"175":0.15877889096736908,"176":-0.016442665830254555,"177":0.02719004452228546,"178":-0.13416962325572968,"179":0.038698822259902954,"180":-0.18405072391033173,"181":-0.06151723116636276,"182":-0.10594314336776733,"183":0.1020464301109314,"184":0.06752055883407593,"185":-0.006393728777766228,"186":-0.08610427379608154,"187":-0.10313893109560013,"188":0.12321268022060394,"189":0.025883929803967476,"190":-0.009571600705385208,"191":0.14680732786655426,"192":0.028182337060570717,"193":0.09961024671792984,"194":0.023171452805399895,"195":-0.04791746661067009,"196":-0.11471938341856003,"197":-0.1334557831287384,"198":0.01969931833446026,"199":0.12897156178951263,"200":-0.10171391814947128,"201":0.11875436455011368,"202":0.14271977543830872,"203":0.18108707666397095,"204":0.19216516613960266,"205":-0.09932957589626312,"206":-0.06805349141359329,"207":0.09488102793693542,"208":-0.04825986921787262,"209":-0.05952996760606766,"210":-0.07327478379011154,"211":0.09793658554553986,"212":-0.07630149275064468,"213":-0.10313329845666885,"214":0.12194355577230453,"215":0.1770949810743332,"216":0.1645069718360901,"217":-0.1024838462471962,"218":0.01054853294044733,"219":0.0730966255068779,"220":-0.17661480605602264,"221":-0.019175980240106583,"222":0.11548580974340439,"223":0.09071493148803711,"224":0.16438591480255127,"225":0.01668442413210869,"226":-0.045470818877220154,"227":-0.18450281023979187,"228":0.0719987004995346,"229":0.08732248097658157,"230":0.08067665249109268,"231":-0.03884582221508026,"232":-0.057396840304136276,"233":0.14991992712020874,"234":-0.08105666190385818,"235":0.12430744618177414,"236":0.011503075249493122,"237":0.13126158714294434,"238":0.10386456549167633,"239":0.09200133383274078,"240":-0.18587543070316315,"241":-0.02337607368826866,"242":0.10349170118570328,"243":-0.11956603825092316,"244":0.02622198313474655,"245":-0.1438439041376114,"246":0.0670035257935524,"247":0.08861289918422699,"248":-0.1484372764825821,"249":-0.008728391490876675,"250":0.19217459857463837,"251":-0.07554808259010315,"252":-0.08415839821100235,"253":-0.13670887053012848,"254":-0.00578860379755497,"255":-0.009489627555012703,"256":0.09342081844806671,"257":-0.149308443069458,"258":0.061851684004068375,"259":-0.12642745673656464,"260":-0.16959260404109955,"261":-0.16756175458431244,"262":0.084832102060318,"263":0.08142617344856262,"264":-0.11127008497714996,"265":0.03279643505811691,"266":0.06725504994392395,"267":-0.143523171544075,"268":-0.1653617024421692,"269":0.20246312022209167,"270":-0.0927552804350853,"271":-0.18103156983852386,"272":0.07135308533906937,"273":0.20281489193439484,"274":0.16113248467445374,"275":0.06435742229223251,"276":0.09135974198579788,"277":0.0423087440431118,"278":0.005559208802878857,"279":0.1689993441104889,"280":0.03805720433592796,"281":-0.011059815064072609,"282":0.1070493683218956,"283":-0.040447644889354706,"284":0.09327279031276703,"285":0.0679643452167511,"286":-0.11123195290565491,"287":-0.06782548129558563,"288":0.15161879360675812,"289":0.10750186443328857,"290":0.05939236283302307,"291":-0.1698434203863144,"292":0.07302546501159668,"293":-0.04935050383210182,"294":-0.08505342900753021,"295":-0.12095067650079727,"296":-0.006154072470963001,"297":0.10943865776062012,"298":-0.039687350392341614,"299":0.12211496382951736,"300":0.02690708264708519,"301":-0.16833622753620148,"302":0.09132593125104904,"303":0.04749715328216553,"304":0.0013306504115462303,"305":-0.06278029829263687,"306":-0.0843806192278862,"307":-0.04466550797224045,"308":0.11506912857294083,"309":-0.012148033827543259,"310":0.11411401629447937,"311":0.12467671185731888,"312":0.12998192012310028,"313":0.012131918221712112,"314":0.046044331043958664,"315":0.059866033494472504,"316":-0.12912382185459137,"317":-0.08043994009494781,"318":-0.1061808243393898,"319":-0.08495928347110748,"320":-0.009898658841848373,"321":0.1727464199066162,"322":-0.01298696268349886,"323":-0.19472256302833557,"324":-0.05285891145467758,"325":-0.19028182327747345,"326":0.008369444869458675,"327":0.1592954844236374,"328":0.19688764214515686,"329":-0.031368304044008255,"330":0.16125363111495972,"331":-0.04335607960820198,"332":0.08207647502422333,"333":-0.192259281873703,"334":0.15991947054862976,"335":0.13665100932121277,"336":0.13785317540168762,"337":-0.18006902933120728,"338":0.14462605118751526,"339":-0.10405222326517105,"340":-0.13697868585586548,"341":0.191161647439003,"342":0.07688501477241516,"343":0.04292383790016174,"344":0.06900985538959503,"345":-0.1308903694152832,"346":0.14248362183570862,"347":0.08674900233745575,"348":0.20251519978046417,"349":-0.038803309202194214,"350":-0.03998973220586777,"351":-0.1821361631155014,"352":0.09681624174118042,"353":-0.05322308838367462,"354":0.10888943076133728,"355":-0.09872525930404663,"356":0.01825823448598385,"357":0.1510360687971115,"358":-0.06069052219390869,"359":-0.14008291065692902,"360":0.18924148380756378,"361":0.16595448553562164,"362":0.1906096637248993,"363":0.12800970673561096,"364":0.11601219326257706,"365":0.17005601525306702,"366":0.04859849438071251,"367":-0.0032799062319099903,"368":-0.1739930808544159,"369":-0.011517567560076714,"370":0.09604257345199585,"371":-0.12346810847520828,"372":0.10806122422218323,"373":-0.04375005513429642,"374":0.152589350938797,"375":0.1750999242067337,"376":-0.18075546622276306,"377":0.07805489003658295,"378":0.14569136500358582,"379":0.06773369759321213,"380":-0.012268776074051857,"381":0.1854044646024704,"382":0.039730798453092575,"383":-0.13141396641731262,"384":0.049396220594644547,"385":0.1918596625328064,"386":-0.09805824607610703,"387":-0.005506802815943956,"388":-0.1431608945131302,"389":0.0819510892033577,"390":-0.16564308106899261,"391":-0.17056332528591156,"392":0.01956125907599926,"393":-0.11930453032255173,"394":-0.1729191243648529,"395":-0.1709197610616684,"396":0.16630983352661133,"397":-0.18782635033130646,"398":-0.15929251909255981,"399":0.17121033370494843,"400":0.11684047430753708,"401":0.007858243770897388,"402":-0.06443805992603302,"403":-0.13332605361938477}},"7":{"bias":-0.019775113090872765,"weights":{"0":-0.024149460718035698,"1":-0.07614251226186752,"2":0.0082772858440876,"3":0.17330776154994965,"4":0.16210295259952545,"5":-0.037975165992975235,"6":0.013565587811172009,"7":0.10932711511850357,"8":0.0271767508238554,"9":-0.12032891064882278,"10":0.13600192964076996,"11":0.0686226487159729,"12":-0.18866057693958282,"13":-0.12902697920799255,"14":-0.10432849824428558,"15":-0.1990274339914322,"16":0.012191238813102245,"17":0.10710994899272919,"18":0.19230373203754425,"19":-0.02984767034649849,"20":-0.1980338990688324,"21":-0.15475842356681824,"22":-0.13971106708049774,"23":-0.03343123942613602,"24":-0.12363670021295547,"25":0.1399064064025879,"26":-0.058091726154088974,"27":-0.03202929347753525,"28":-0.12714748084545135,"29":-0.19989673793315887,"30":0.09456345438957214,"31":-0.08214970678091049,"32":0.10606124252080917,"33":0.08738654106855392,"34":0.023225942626595497,"35":0.11450588703155518,"36":-0.020645128563046455,"37":-0.15508435666561127,"38":0.06347264349460602,"39":-0.041414808481931686,"40":0.0804201290011406,"41":0.03465605527162552,"42":0.03470766544342041,"43":0.02497459016740322,"44":0.1439748853445053,"45":-0.06150626763701439,"46":0.1905544102191925,"47":-0.20007719099521637,"48":-0.15288615226745605,"49":0.10894317924976349,"50":-0.11104746907949448,"51":0.103170245885849,"52":0.07859618961811066,"53":0.18456344306468964,"54":-0.02327314019203186,"55":-0.18143589794635773,"56":0.0713592916727066,"57":-0.007099984213709831,"58":-0.19077923893928528,"59":0.022788846865296364,"60":-0.04953299090266228,"61":0.03125901147723198,"62":-0.16912974417209625,"63":-0.0214280653744936,"64":-0.11117475479841232,"65":0.14054560661315918,"66":-0.11137174069881439,"67":0.16289031505584717,"68":0.1538027822971344,"69":-0.11409249156713486,"70":-0.1299409419298172,"71":0.07837282866239548,"72":-0.017094813287258148,"73":0.14268858730793,"74":-0.19328106939792633,"75":-0.18593640625476837,"76":-0.09648731350898743,"77":-0.12581773102283478,"78":0.06492210924625397,"79":-0.1269807070493698,"80":0.05827823281288147,"81":0.05790787562727928,"82":-0.07389284670352936,"83":0.13443124294281006,"84":-0.05862732231616974,"85":-0.1313754767179489,"86":0.19714568555355072,"87":0.10267063230276108,"88":-0.11233993619680405,"89":-0.003832925343886018,"90":-0.1149221658706665,"91":0.14367695152759552,"92":-0.1120469942688942,"93":-0.12500248849391937,"94":0.1961081176996231,"95":-0.1180761456489563,"96":-0.0880952775478363,"97":-0.006350222043693066,"98":0.08079685270786285,"99":-0.025776462629437447,"100":0.09670983999967575,"101":-0.17796996235847473,"102":0.12591266632080078,"103":0.19428689777851105,"104":-0.09873814880847931,"105":0.06929688155651093,"106":0.04344640299677849,"107":0.05371762439608574,"108":0.17704792320728302,"109":0.01837765797972679,"110":-0.19178222119808197,"111":-0.0616309680044651,"112":-0.015861140564084053,"113":-0.07578729838132858,"114":0.10161089897155762,"115":-0.07036494463682175,"116":0.05334082245826721,"117":0.19073419272899628,"118":-0.07014287263154984,"119":0.1418134719133377,"120":0.11021780967712402,"121":0.09465521574020386,"122":0.032778315246105194,"123":-0.1647268533706665,"124":0.13922414183616638,"125":0.1238866001367569,"126":0.1649092435836792,"127":-0.11398225277662277,"128":-0.19840137660503387,"129":-0.08189116418361664,"130":-0.09803026169538498,"131":-0.11930655688047409,"132":0.09119784086942673,"133":-0.11835230141878128,"134":0.03369975462555885,"135":-0.18035106360912323,"136":0.18040192127227783,"137":0.027977796271443367,"138":-0.01552154403179884,"139":-0.09744301438331604,"140":0.05063001438975334,"141":-0.0029085027053952217,"142":0.1602068543434143,"143":-0.19705960154533386,"144":-0.1555931270122528,"145":0.09215052425861359,"146":-0.016479268670082092,"147":0.04644954949617386,"148":0.10283653438091278,"149":-0.03694292902946472,"150":0.1713494211435318,"151":-0.10545355826616287,"152":0.18578922748565674,"153":0.03039916604757309,"154":-0.15653236210346222,"155":0.11130913347005844,"156":0.1909472793340683,"157":-0.11844051629304886,"158":0.003779629012569785,"159":-0.13703711330890656,"160":-0.06528706848621368,"161":0.15059730410575867,"162":0.12914861738681793,"163":-0.1755550652742386,"164":0.04201919212937355,"165":-0.021618623286485672,"166":-0.1759915053844452,"167":-0.18344555795192719,"168":-0.013796139508485794,"169":-0.08925779908895493,"170":0.0115350391715765,"171":0.02697477675974369,"172":-0.018313022330403328,"173":0.05814724043011665,"174":0.005891225300729275,"175":-0.04119833558797836,"176":-0.04675215855240822,"177":-0.193287655711174,"178":-0.09852724522352219,"179":-0.11642926931381226,"180":-0.1280803680419922,"181":0.1388363093137741,"182":-0.08003464341163635,"183":0.1787743717432022,"184":-0.17998871207237244,"185":0.16137489676475525,"186":-0.04245985299348831,"187":-0.16696518659591675,"188":-0.0680004432797432,"189":0.11088467389345169,"190":-0.0248626247048378,"191":0.019106892868876457,"192":-0.11520395427942276,"193":0.11382566392421722,"194":-0.013479823246598244,"195":-0.16540248692035675,"196":0.15049827098846436,"197":0.18412567675113678,"198":0.1198323518037796,"199":-0.18104766309261322,"200":-0.13694894313812256,"201":0.025380810722708702,"202":0.1343778371810913,"203":-0.021767718717455864,"204":-0.012695272453129292,"205":-0.13575904071331024,"206":-0.18852050602436066,"207":-0.1438053548336029,"208":0.0004200953699182719,"209":-0.056060850620269775,"210":-0.18163394927978516,"211":0.042976073920726776,"212":-0.1789385974407196,"213":-0.01575981080532074,"214":-0.12548017501831055,"215":-0.049412962049245834,"216":0.03940482437610626,"217":0.06985826790332794,"218":-0.05457456409931183,"219":0.16885046660900116,"220":-0.14606651663780212,"221":0.15712995827198029,"222":0.003307649167254567,"223":-0.02295004203915596,"224":-0.03843940049409866,"225":-0.031165022403001785,"226":0.14464838802814484,"227":0.016025982797145844,"228":-0.14562135934829712,"229":0.1983804702758789,"230":0.12922757863998413,"231":0.17696867883205414,"232":0.0605110228061676,"233":0.12338661402463913,"234":-0.005461709573864937,"235":0.08280639350414276,"236":0.024136804044246674,"237":-0.11411325633525848,"238":0.04991958290338516,"239":0.15474607050418854,"240":-0.08587265014648438,"241":0.14503666758537292,"242":-0.004416797775775194,"243":-0.04857750982046127,"244":-0.05346468463540077,"245":0.10847636312246323,"246":0.10256218165159225,"247":0.05371667072176933,"248":-0.09780126065015793,"249":-0.027839692309498787,"250":0.15540935099124908,"251":0.15051323175430298,"252":-0.04876215010881424,"253":-0.02426033839583397,"254":-0.08452637493610382,"255":0.11913774162530899,"256":0.11473550647497177,"257":0.06709451973438263,"258":0.12847332656383514,"259":-0.001252836431376636,"260":0.0638793334364891,"261":-0.09081362932920456,"262":0.1774013340473175,"263":0.0067670769058167934,"264":-0.08276286721229553,"265":0.16326892375946045,"266":0.1643397957086563,"267":-0.12270242720842361,"268":0.17577074468135834,"269":-0.0417654924094677,"270":-0.059177737683057785,"271":-0.1559373438358307,"272":0.1700526922941208,"273":-0.065601646900177,"274":-0.0811220109462738,"275":0.1900923103094101,"276":0.18947450816631317,"277":-0.19299498200416565,"278":0.08435460925102234,"279":0.13319836556911469,"280":0.16575920581817627,"281":0.19541870057582855,"282":-0.15878883004188538,"283":0.15077757835388184,"284":0.1524275243282318,"285":-0.037773508578538895,"286":0.015248680487275124,"287":0.02620171383023262,"288":0.05876786261796951,"289":-0.14278645813465118,"290":0.01322976965457201,"291":0.03657838702201843,"292":0.07262462377548218,"293":0.09539157897233963,"294":0.09477810561656952,"295":0.06473446637392044,"296":0.04155904799699783,"297":-0.07916545122861862,"298":0.1661749631166458,"299":0.1684853732585907,"300":-0.10851950198411942,"301":-0.11140085756778717,"302":0.1632995456457138,"303":-0.18619808554649353,"304":-0.13823014497756958,"305":0.00882249791175127,"306":-0.06832452863454819,"307":-0.09737240523099899,"308":0.07327421009540558,"309":-0.09501345455646515,"310":-0.19712449610233307,"311":0.05829693377017975,"312":-0.011304710991680622,"313":-0.15414318442344666,"314":-0.008000592701137066,"315":-0.10787922888994217,"316":-0.17299465835094452,"317":0.10539446771144867,"318":0.08782858401536942,"319":0.0962090939283371,"320":-0.08424661308526993,"321":-0.14588582515716553,"322":0.12671656906604767,"323":0.10379395633935928,"324":-0.0035801799967885017,"325":-0.18619269132614136,"326":0.1209188923239708,"327":-0.1991092413663864,"328":0.14163273572921753,"329":-0.009401045739650726,"330":0.12451938539743423,"331":-0.16442525386810303,"332":-0.09327912330627441,"333":0.19920766353607178,"334":-0.16490648686885834,"335":-0.0900784358382225,"336":-0.18248321115970612,"337":0.03883177414536476,"338":-0.10534507781267166,"339":-0.02255295030772686,"340":0.14027608931064606,"341":0.18613219261169434,"342":0.11583559215068817,"343":0.13449163734912872,"344":-0.1583644300699234,"345":0.14294250309467316,"346":-0.05090976506471634,"347":0.09593562036752701,"348":0.04021477326750755,"349":0.1269531100988388,"350":0.10539823025465012,"351":-0.03034958988428116,"352":-0.035005319863557816,"353":0.12900753319263458,"354":-0.14852425456047058,"355":0.014478500001132488,"356":0.19188375771045685,"357":0.029858531430363655,"358":0.07151542603969574,"359":-0.19793325662612915,"360":-0.05359181389212608,"361":0.019484857097268105,"362":-0.1835474967956543,"363":-0.08853279799222946,"364":-0.06967467069625854,"365":-0.00169906928204,"366":-0.01218526903539896,"367":0.014134828932583332,"368":-0.13139332830905914,"369":-0.14666835963726044,"370":0.057547036558389664,"371":-0.08144336938858032,"372":-0.17786066234111786,"373":0.04464036971330643,"374":0.029345443472266197,"375":-0.12112785875797272,"376":-0.16647396981716156,"377":0.038924142718315125,"378":0.057055626064538956,"379":-0.10360752791166306,"380":0.1277729570865631,"381":0.16969922184944153,"382":0.011584985069930553,"383":-0.16097001731395721,"384":-0.06748993694782257,"385":-0.06728142499923706,"386":-0.13022680580615997,"387":-0.16871638596057892,"388":0.1871316283941269,"389":-0.03713468462228775,"390":-0.108911894261837,"391":0.12845228612422943,"392":0.04188926890492439,"393":0.10454387962818146,"394":-0.011739990673959255,"395":-0.17234602570533752,"396":0.10722798109054565,"397":0.18894271552562714,"398":0.026962151750922203,"399":0.052477866411209106,"400":0.19527606666088104,"401":-0.14069943130016327,"402":-0.04078852757811546,"403":0.14143066108226776}},"8":{"bias":0.015612902119755745,"weights":{"0":-0.03300146013498306,"1":-0.02781020663678646,"2":0.0196208618581295,"3":0.10890422016382217,"4":0.14060267806053162,"5":0.13171349465847015,"6":0.04014930501580238,"7":0.01461605355143547,"8":0.014026577584445477,"9":0.08458006381988525,"10":0.07518208771944046,"11":0.15095701813697815,"12":0.09307403117418289,"13":0.21447749435901642,"14":0.01115341205149889,"15":0.1410117745399475,"16":0.06109922006726265,"17":-0.06650125980377197,"18":-0.16022102534770966,"19":0.12510721385478973,"20":-0.008565780706703663,"21":-0.12102796137332916,"22":-0.1636437475681305,"23":-0.08223509043455124,"24":-0.07818003743886948,"25":0.005357456859201193,"26":0.03384383022785187,"27":-0.0790090262889862,"28":0.09346933662891388,"29":0.016792617738246918,"30":0.015194321982562542,"31":0.026447542011737823,"32":-0.10863475501537323,"33":0.05588972195982933,"34":0.02150137349963188,"35":-0.10214821249246597,"36":-0.10134393721818924,"37":0.1910151243209839,"38":0.2167154848575592,"39":0.09548436850309372,"40":0.12504276633262634,"41":-0.1536162793636322,"42":-0.045217446982860565,"43":-0.1469273865222931,"44":0.04047815129160881,"45":-0.017159203067421913,"46":0.22365747392177582,"47":0.124915711581707,"48":0.06621678918600082,"49":0.040297508239746094,"50":0.2131846696138382,"51":0.06024928763508797,"52":0.01628061942756176,"53":-0.09105978161096573,"54":0.1614501029253006,"55":0.2245151698589325,"56":0.10265181213617325,"57":-0.058224160224199295,"58":0.20758041739463806,"59":0.02119981311261654,"60":0.0847010537981987,"61":0.17828737199306488,"62":0.08312917500734329,"63":-0.06539680808782578,"64":0.2070375382900238,"65":-0.04878242686390877,"66":0.012463012710213661,"67":-0.16638852655887604,"68":-0.14009062945842743,"69":0.13225743174552917,"70":0.12369716167449951,"71":-0.03743224963545799,"72":-0.17077329754829407,"73":0.03944413363933563,"74":-0.12820878624916077,"75":0.0721922218799591,"76":0.2255634218454361,"77":0.17352890968322754,"78":0.12951958179473877,"79":-0.08839505165815353,"80":0.19634269177913666,"81":-0.15271984040737152,"82":0.034076277166604996,"83":0.03238623961806297,"84":-0.034616973251104355,"85":0.08478499203920364,"86":-0.13649356365203857,"87":-0.07083028554916382,"88":0.00786683801561594,"89":0.11126585304737091,"90":0.1674061268568039,"91":-0.14863359928131104,"92":-0.031292665749788284,"93":0.019825439900159836,"94":-0.007310130633413792,"95":0.11933331191539764,"96":0.1940182000398636,"97":-0.003769930452108383,"98":-0.0008983551524579525,"99":0.16868683695793152,"100":0.04974810779094696,"101":-0.05272058770060539,"102":-0.10012345761060715,"103":-0.06486661732196808,"104":-0.1357755959033966,"105":-0.09293119609355927,"106":0.14939332008361816,"107":0.18451307713985443,"108":-0.12018254399299622,"109":0.19952340424060822,"110":0.10510632395744324,"111":0.10996183007955551,"112":0.15165966749191284,"113":0.08217108249664307,"114":-0.14438581466674805,"115":-0.15782970190048218,"116":-0.15278194844722748,"117":0.07771678268909454,"118":-0.0195907074958086,"119":0.18040339648723602,"120":-0.12664727866649628,"121":0.1307414174079895,"122":0.036979131400585175,"123":-0.12054596841335297,"124":0.19834685325622559,"125":-0.16747938096523285,"126":0.01476870384067297,"127":-0.09952820837497711,"128":0.13967320322990417,"129":-0.10909099876880646,"130":-0.01631242036819458,"131":-0.12103334814310074,"132":0.0016178921796381474,"133":0.0719679445028305,"134":-0.092402882874012,"135":0.08119075000286102,"136":-0.0252769086509943,"137":-0.004422464873641729,"138":0.07914893329143524,"139":-0.11686713248491287,"140":0.1267908215522766,"141":0.13827277719974518,"142":0.011254753917455673,"143":0.1477639526128769,"144":-0.1549357771873474,"145":0.19146795570850372,"146":-0.13906127214431763,"147":-0.17010265588760376,"148":-0.023536959663033485,"149":0.07873443514108658,"150":0.06265916675329208,"151":0.10222943872213364,"152":0.18112634122371674,"153":0.16708503663539886,"154":0.020233677700161934,"155":-0.1062183603644371,"156":0.07175427675247192,"157":-0.05621245875954628,"158":-0.03196880221366882,"159":-0.05329485982656479,"160":0.07420702278614044,"161":-0.0348358228802681,"162":-0.16191300749778748,"163":0.04934271052479744,"164":0.2206626534461975,"165":0.20594915747642517,"166":0.06913818418979645,"167":0.2136848270893097,"168":0.06369811296463013,"169":0.09443817287683487,"170":-0.11199331283569336,"171":0.12727108597755432,"172":-0.07953833043575287,"173":-0.052297208458185196,"174":-0.006497668568044901,"175":0.1812206208705902,"176":-0.062440767884254456,"177":0.0722503736615181,"178":-0.01540057547390461,"179":-0.11217042058706284,"180":-0.07866697758436203,"181":-0.16490787267684937,"182":0.15861071646213531,"183":0.21196044981479645,"184":0.1722191870212555,"185":0.05810606852173805,"186":-0.07115328311920166,"187":0.018024319782853127,"188":-0.07629901170730591,"189":-0.15572018921375275,"190":0.17469725012779236,"191":-0.11716245859861374,"192":-0.006341147236526012,"193":0.0456281378865242,"194":-0.062086962163448334,"195":0.16126501560211182,"196":0.16007569432258606,"197":0.13461469113826752,"198":-0.09830715507268906,"199":-0.12601222097873688,"200":0.004586773458868265,"201":0.08526558429002762,"202":-0.0732816830277443,"203":0.22496025264263153,"204":-0.16008047759532928,"205":0.22496342658996582,"206":0.18876516819000244,"207":-0.14948424696922302,"208":-0.05484572798013687,"209":-0.04789301007986069,"210":-0.058887310326099396,"211":-0.007443844806402922,"212":0.22271792590618134,"213":0.06701105833053589,"214":0.015432227402925491,"215":0.18329672515392303,"216":-0.007816452533006668,"217":0.2082928866147995,"218":0.020413385704159737,"219":-0.012424217537045479,"220":0.05502064898610115,"221":0.07441864907741547,"222":0.05727517604827881,"223":0.08702577650547028,"224":0.1055552139878273,"225":0.20684008300304413,"226":-0.07503059506416321,"227":-0.13193324208259583,"228":-0.061311181634664536,"229":-0.13169965147972107,"230":0.14240585267543793,"231":0.204220250248909,"232":0.1545681655406952,"233":-0.07523377984762192,"234":-0.0983714759349823,"235":0.14746689796447754,"236":-0.07609674334526062,"237":-0.1460556834936142,"238":0.07083441317081451,"239":0.04914236441254616,"240":-0.15810424089431763,"241":0.05783500149846077,"242":0.05786801874637604,"243":-0.04859106242656708,"244":-0.11085968464612961,"245":-0.11884458363056183,"246":0.18874090909957886,"247":0.1822207123041153,"248":-0.08264095336198807,"249":0.10747139900922775,"250":0.1920740008354187,"251":0.04088784009218216,"252":-0.16441689431667328,"253":-0.1633751094341278,"254":-0.040006354451179504,"255":-0.09622485190629959,"256":-0.17079222202301025,"257":0.05186627060174942,"258":-0.02827356569468975,"259":0.07031799852848053,"260":-0.05952145531773567,"261":0.20903460681438446,"262":0.15800084173679352,"263":0.03449173644185066,"264":0.1753033548593521,"265":0.07348088175058365,"266":-0.006613952107727528,"267":-0.07496151328086853,"268":0.11003275960683823,"269":0.047973304986953735,"270":-0.10598902404308319,"271":0.17557917535305023,"272":0.11057267338037491,"273":0.16985127329826355,"274":-0.12739838659763336,"275":0.0860813707113266,"276":0.11356309801340103,"277":0.1826515942811966,"278":0.049816831946372986,"279":-0.08722149580717087,"280":-0.03491364046931267,"281":0.014932563528418541,"282":-0.11628518253564835,"283":0.02817678079009056,"284":0.19456611573696136,"285":0.005384836345911026,"286":0.008048093877732754,"287":0.13901305198669434,"288":0.04012767970561981,"289":0.2149435132741928,"290":0.1274971067905426,"291":-0.11555703729391098,"292":0.0847725048661232,"293":-0.11849426478147507,"294":0.019786803051829338,"295":0.06295885890722275,"296":0.12358947843313217,"297":-0.0947844460606575,"298":0.056506671011447906,"299":-0.05653390660881996,"300":-0.055189844220876694,"301":0.019827522337436676,"302":-0.10667430609464645,"303":0.19399867951869965,"304":-0.08153153210878372,"305":-0.16019999980926514,"306":-0.05028550699353218,"307":0.06773419678211212,"308":0.09988435357809067,"309":0.03708825260400772,"310":0.03360992297530174,"311":0.20663626492023468,"312":0.1671636402606964,"313":0.014717519283294678,"314":0.10153120011091232,"315":0.15677054226398468,"316":-0.003582629142329097,"317":-0.012540716677904129,"318":-0.05708892643451691,"319":-0.052864257246255875,"320":0.1328486204147339,"321":-0.014675858430564404,"322":0.00814078375697136,"323":0.110210120677948,"324":0.08857587724924088,"325":0.054681941866874695,"326":0.11733391880989075,"327":-0.06590536236763,"328":0.1417258083820343,"329":0.003427637042477727,"330":-0.014883855357766151,"331":-0.13358639180660248,"332":0.1962137073278427,"333":0.07295840978622437,"334":-0.07682114839553833,"335":0.036780379712581635,"336":0.14673250913619995,"337":-0.16398249566555023,"338":0.0031114108860492706,"339":0.13283197581768036,"340":0.18485252559185028,"341":-0.05218684300780296,"342":-0.08424723893404007,"343":0.0551481693983078,"344":-0.017657214775681496,"345":0.0650290697813034,"346":0.16347825527191162,"347":0.18916620314121246,"348":0.02640385739505291,"349":-0.01761416345834732,"350":0.005435156170278788,"351":-0.11189199984073639,"352":-0.02165652997791767,"353":0.0165984146296978,"354":0.093112513422966,"355":0.009234864264726639,"356":0.044912200421094894,"357":0.13581085205078125,"358":0.03829970955848694,"359":-0.029322413727641106,"360":0.05648021772503853,"361":0.0691625103354454,"362":0.1997195929288864,"363":-0.13839659094810486,"364":0.05020050331950188,"365":0.07972337305545807,"366":0.01261855661869049,"367":0.021968422457575798,"368":0.15763895213603973,"369":0.08361232280731201,"370":-0.08859401196241379,"371":-0.1444789320230484,"372":-0.009135421365499496,"373":-0.05608326196670532,"374":-0.1697193831205368,"375":0.010198571719229221,"376":0.08240281045436859,"377":0.13972869515419006,"378":0.18068090081214905,"379":0.09624693542718887,"380":0.07767695188522339,"381":0.22306470572948456,"382":0.012096157297492027,"383":0.07563810795545578,"384":0.17076541483402252,"385":0.02399568445980549,"386":0.21933412551879883,"387":0.21611201763153076,"388":-0.05895853042602539,"389":-0.034406404942274094,"390":-0.12397192418575287,"391":-0.09728022664785385,"392":-0.15435713529586792,"393":-0.016566332429647446,"394":0.12055707722902298,"395":0.1410364806652069,"396":0.10426456481218338,"397":0.17443303763866425,"398":0.1678828001022339,"399":0.045797862112522125,"400":0.0054498640820384026,"401":-0.1666397601366043,"402":-0.018031548708677292,"403":-0.17674314975738525}},"9":{"bias":-0.0987987294793129,"weights":{"0":0.065500408411026,"1":0.15091979503631592,"2":-0.053176701068878174,"3":0.04215749725699425,"4":-0.19498206675052643,"5":-0.07813776284456253,"6":0.06089182570576668,"7":-0.07915569096803665,"8":-0.21169717609882355,"9":-0.10975383967161179,"10":0.11385142058134079,"11":0.10962992161512375,"12":0.12965679168701172,"13":0.1659986525774002,"14":-0.02930072322487831,"15":0.03106227144598961,"16":-0.17241986095905304,"17":-0.012144054286181927,"18":0.15685038268566132,"19":0.09561198949813843,"20":0.10515148192644119,"21":-0.1293027251958847,"22":-0.10813766717910767,