{"sizes":[229,20,20,1],"layers":[{"0":{},"1":{},"2":{},"3":{},"4":{},"5":{},"6":{},"7":{},"8":{},"9":{},"10":{},"11":{},"12":{},"13":{},"14":{},"15":{},"16":{},"17":{},"18":{},"19":{},"20":{},"21":{},"22":{},"23":{},"24":{},"25":{},"26":{},"27":{},"28":{},"29":{},"30":{},"31":{},"32":{},"33":{},"34":{},"35":{},"36":{},"37":{},"38":{},"39":{},"40":{},"41":{},"42":{},"43":{},"44":{},"45":{},"46":{},"47":{},"48":{},"49":{},"50":{},"51":{},"52":{},"53":{},"54":{},"55":{},"56":{},"57":{},"58":{},"59":{},"60":{},"61":{},"62":{},"63":{},"64":{},"65":{},"66":{},"67":{},"68":{},"69":{},"70":{},"71":{},"72":{},"73":{},"74":{},"75":{},"76":{},"77":{},"78":{},"79":{},"80":{},"81":{},"82":{},"83":{},"84":{},"85":{},"86":{},"87":{},"88":{},"89":{},"90":{},"91":{},"92":{},"93":{},"94":{},"95":{},"96":{},"97":{},"98":{},"99":{},"100":{},"101":{},"102":{},"103":{},"104":{},"105":{},"106":{},"107":{},"108":{},"109":{},"110":{},"111":{},"112":{},"113":{},"114":{},"115":{},"116":{},"117":{},"118":{},"119":{},"120":{},"121":{},"122":{},"123":{},"124":{},"125":{},"126":{},"127":{},"128":{},"129":{},"130":{},"131":{},"132":{},"133":{},"134":{},"135":{},"136":{},"137":{},"138":{},"139":{},"140":{},"141":{},"142":{},"143":{},"144":{},"145":{},"146":{},"147":{},"148":{},"149":{},"150":{},"151":{},"152":{},"153":{},"154":{},"155":{},"156":{},"157":{},"158":{},"159":{},"160":{},"161":{},"162":{},"163":{},"164":{},"165":{},"166":{},"167":{},"168":{},"169":{},"170":{},"171":{},"172":{},"173":{},"174":{},"175":{},"176":{},"177":{},"178":{},"179":{},"180":{},"181":{},"182":{},"183":{},"184":{},"185":{},"186":{},"187":{},"188":{},"189":{},"190":{},"191":{},"192":{},"193":{},"194":{},"195":{},"196":{},"197":{},"198":{},"199":{},"200":{},"201":{},"202":{},"203":{},"204":{},"205":{},"206":{},"207":{},"208":{},"209":{},"210":{},"211":{},"212":{},"213":{},"214":{},"215":{},"216":{},"217":{},"218":{},"219":{},"220":{},"221":{},"222":{},"223":{},"224":{},"225":{},"226":{},"227":{},"228":{}},{"0":{"bias":0.12193402647972107,"weights":{"0":-0.19333402812480927,"1":0.13932985067367554,"2":-0.04247516393661499,"3":0.07805956155061722,"4":-0.01808186061680317,"5":0.15768682956695557,"6":0.15389662981033325,"7":0.16207873821258545,"8":-0.058470383286476135,"9":0.0003985317889600992,"10":0.092629574239254,"11":0.03872592747211456,"12":-0.10885158181190491,"13":-0.015366115607321262,"14":-0.037488073110580444,"15":-0.14738906919956207,"16":0.19062913954257965,"17":-0.09646262973546982,"18":-0.0008128262124955654,"19":-0.06001560389995575,"20":-0.12348996102809906,"21":-0.12171868234872818,"22":0.15750695765018463,"23":0.11351313441991806,"24":0.033122316002845764,"25":-0.059035539627075195,"26":-0.12412634491920471,"27":-0.01686604507267475,"28":0.04950462281703949,"29":0.08103547990322113,"30":-0.0014313602587208152,"31":0.09732034057378769,"32":-0.1127757802605629,"33":-0.09132780134677887,"34":-0.14765799045562744,"35":-0.08029042184352875,"36":0.1943940818309784,"37":-0.09513592720031738,"38":0.1757664978504181,"39":0.12711641192436218,"40":0.13544629514217377,"41":-0.18715989589691162,"42":0.06316566467285156,"43":-0.0829630121588707,"44":-0.18552404642105103,"45":-0.15923145413398743,"46":-0.11582683771848679,"47":-0.14011150598526,"48":0.12009641528129578,"49":-0.1854957938194275,"50":0.1112062931060791,"51":-0.09459128975868225,"52":0.14519940316677094,"53":0.11845551431179047,"54":0.14235703647136688,"55":0.11999982595443726,"56":-0.19884581863880157,"57":-0.0672907680273056,"58":-0.08927402645349503,"59":-0.12160559743642807,"60":-0.10048767179250717,"61":-0.18729613721370697,"62":-0.10638737678527832,"63":-0.04963154345750809,"64":0.0826474130153656,"65":0.04000009223818779,"66":-0.13417543470859528,"67":-0.013784471899271011,"68":-0.08893940597772598,"69":0.16072280704975128,"70":-0.10183610767126083,"71":0.10268910229206085,"72":-0.09671791642904282,"73":0.04875916615128517,"74":-0.198408305644989,"75":0.022737661376595497,"76":-0.13644272089004517,"77":0.19460728764533997,"78":-0.11105374991893768,"79":-0.016301404684782028,"80":-0.08999474346637726,"81":-0.15720123052597046,"82":0.07022911310195923,"83":-0.006081548985093832,"84":-0.06145835295319557,"85":0.11836585402488708,"86":0.0479452908039093,"87":-0.17624671757221222,"88":0.19670015573501587,"89":0.18385469913482666,"90":-0.13070175051689148,"91":0.16640779376029968,"92":0.016267135739326477,"93":0.10255995392799377,"94":0.181726336479187,"95":0.07298998534679413,"96":-0.03228115290403366,"97":-0.04567791894078255,"98":-0.12906043231487274,"99":0.07487371563911438,"100":0.005544639658182859,"101":0.14085505902767181,"102":0.09225081652402878,"103":0.00963105633854866,"104":0.11426031589508057,"105":-0.14916430413722992,"106":-0.0959799587726593,"107":0.0011971046915277839,"108":0.0397924967110157,"109":-0.030423272401094437,"110":0.008397374302148819,"111":0.0965498834848404,"112":-0.11055906116962433,"113":0.009526705369353294,"114":0.028352316468954086,"115":-0.007883838377892971,"116":-0.11988209933042526,"117":0.1785988211631775,"118":0.03035619668662548,"119":0.054942537099123,"120":-0.13696514070034027,"121":0.07930272072553635,"122":0.13199672102928162,"123":0.05885295942425728,"124":-0.15368469059467316,"125":0.19247303903102875,"126":-0.12853439152240753,"127":-0.15339763462543488,"128":0.03542765974998474,"129":-0.15029267966747284,"130":0.18253664672374725,"131":-0.039252471178770065,"132":0.17319035530090332,"133":-0.1271476149559021,"134":-0.06598751246929169,"135":-0.12846200168132782,"136":-0.1834825575351715,"137":-0.023053213953971863,"138":0.08400796353816986,"139":-0.1947130709886551,"140":-0.03622372820973396,"141":0.014422481879591942,"142":-0.09677829593420029,"143":-0.05839553475379944,"144":0.19840404391288757,"145":-0.04069415479898453,"146":-0.18844608962535858,"147":-0.07532477378845215,"148":-0.1812463402748108,"149":-0.1688569039106369,"150":-0.16482602059841156,"151":0.1215377002954483,"152":0.1844072937965393,"153":-0.02784641832113266,"154":0.06327875703573227,"155":-0.17402592301368713,"156":0.010336905717849731,"157":0.17842374742031097,"158":-0.08215763419866562,"159":-0.022323541343212128,"160":0.1567840278148651,"161":-0.1820300966501236,"162":-0.1536276489496231,"163":-0.06627234071493149,"164":-0.188501238822937,"165":0.10915086418390274,"166":-0.01713942363858223,"167":-0.039547886699438095,"168":-0.13253048062324524,"169":0.1350589096546173,"170":-0.048370588570833206,"171":0.03722860664129257,"172":0.02601606212556362,"173":-0.017913151532411575,"174":-0.1674376279115677,"175":0.17415404319763184,"176":0.09707000851631165,"177":-0.0990528091788292,"178":-0.09887398779392242,"179":0.061304107308387756,"180":0.175218403339386,"181":-0.16911163926124573,"182":-0.10168975591659546,"183":0.14718319475650787,"184":0.03292863443493843,"185":-0.10998435318470001,"186":0.09119090437889099,"187":-0.04959508776664734,"188":0.1546940952539444,"189":-0.13064303994178772,"190":-0.04088093712925911,"191":-0.07051889598369598,"192":0.025952761992812157,"193":-0.18528619408607483,"194":-0.1936931163072586,"195":0.1297050416469574,"196":-0.1888199895620346,"197":-0.15357595682144165,"198":0.17284435033798218,"199":0.02858487330377102,"200":-0.06713595986366272,"201":-0.17717957496643066,"202":-0.16499194502830505,"203":-0.16225430369377136,"204":-0.08744646608829498,"205":0.1628604531288147,"206":0.05866849422454834,"207":-0.003846037434414029,"208":0.08811068534851074,"209":0.024871323257684708,"210":-0.021002262830734253,"211":-0.10783304274082184,"212":-0.008406623266637325,"213":-0.06624000519514084,"214":-0.009889787994325161,"215":-0.028585616499185562,"216":0.05554947257041931,"217":0.14538557827472687,"218":0.188941091299057,"219":0.06694430857896805,"220":-0.05973431095480919,"221":0.19976848363876343,"222":-0.03374148905277252,"223":-0.1587129682302475,"224":-0.1289018988609314,"225":-0.08910191804170609,"226":-0.11679989099502563,"227":0.14273998141288757,"228":0.15091970562934875}},"1":{"bias":-0.1145489513874054,"weights":{"0":0.18694889545440674,"1":0.04816192016005516,"2":-0.1312176138162613,"3":0.10428909212350845,"4":-0.009678520262241364,"5":0.18065673112869263,"6":-0.16175508499145508,"7":0.09589594602584839,"8":-0.13526353240013123,"9":0.15967507660388947,"10":-0.028037840500473976,"11":-0.14248880743980408,"12":0.072052963078022,"13":-0.031153736636042595,"14":0.16124668717384338,"15":0.19004856050014496,"16":0.13149313628673553,"17":0.1876513510942459,"18":-0.06773903965950012,"19":-0.08486293256282806,"20":0.13492292165756226,"21":-0.1002238392829895,"22":0.0690952017903328,"23":0.1677999049425125,"24":-0.16893428564071655,"25":-0.13946855068206787,"26":-0.195236474275589,"27":-0.12380791455507278,"28":-0.1908484697341919,"29":0.05683190003037453,"30":-0.017055755481123924,"31":0.08742909878492355,"32":-0.1342107504606247,"33":-0.00014624309551436454,"34":-0.07773498445749283,"35":-0.18099457025527954,"36":-0.04450413957238197,"37":-0.15662206709384918,"38":-0.026552753522992134,"39":-0.029506394639611244,"40":-0.1445758193731308,"41":0.024111948907375336,"42":0.17865319550037384,"43":0.06891454756259918,"44":-0.17961765825748444,"45":-0.026296580210328102,"46":-0.10497554391622543,"47":-0.08467570692300797,"48":0.10001324862241745,"49":-0.12271490693092346,"50":-0.08158300817012787,"51":-0.16580630838871002,"52":-0.18246938288211823,"53":-0.06200096756219864,"54":-0.05633949860930443,"55":-0.16162951290607452,"56":0.15694032609462738,"57":-0.04216744750738144,"58":0.002993970410898328,"59":0.11075127124786377,"60":0.09670241922140121,"61":0.02023646980524063,"62":-0.16120490431785583,"63":-0.06944296509027481,"64":-0.16493061184883118,"65":-0.1582207977771759,"66":0.06394990533590317,"67":0.0820099487900734,"68":0.06301750242710114,"69":-0.07943673431873322,"70":-0.06715260446071625,"71":0.19833123683929443,"72":0.19198466837406158,"73":0.005151779390871525,"74":-0.15222230553627014,"75":-0.1699512004852295,"76":0.08802938461303711,"77":0.048772718757390976,"78":0.15922629833221436,"79":-0.0656542256474495,"80":0.049251094460487366,"81":-0.032350193709135056,"82":-0.07835818827152252,"83":-0.07443277537822723,"84":0.07984484732151031,"85":-0.052585501223802567,"86":-0.07919111847877502,"87":-0.11935046315193176,"88":-0.053624462336301804,"89":-0.11808928102254868,"90":0.14156487584114075,"91":-0.052032507956027985,"92":-0.10521352291107178,"93":0.15143917500972748,"94":0.1831749826669693,"95":-0.0046458919532597065,"96":-0.1416718065738678,"97":-0.057800501585006714,"98":-0.12282342463731766,"99":0.130814328789711,"100":0.18805265426635742,"101":0.17850440740585327,"102":-0.12474498897790909,"103":-0.17265881597995758,"104":-0.13056083023548126,"105":0.13751302659511566,"106":-0.10823231935501099,"107":0.002197335474193096,"108":-0.17613421380519867,"109":0.05264439061284065,"110":0.027481943368911743,"111":0.06197713688015938,"112":0.07729200273752213,"113":0.09449226409196854,"114":0.028165893629193306,"115":0.10165625065565109,"116":-0.14241449534893036,"117":0.1173541322350502,"118":-0.16904670000076294,"119":0.10590369999408722,"120":0.01096428744494915,"121":-0.12475863844156265,"122":-0.13263869285583496,"123":-0.16332708299160004,"124":0.012476429343223572,"125":-0.003897705813869834,"126":0.14044807851314545,"127":0.11805704981088638,"128":-0.16307978332042694,"129":0.06796753406524658,"130":0.1879878044128418,"131":0.18280604481697083,"132":0.06727535277605057,"133":0.0814819410443306,"134":0.07830066978931427,"135":0.05664167180657387,"136":0.13512484729290009,"137":-0.18446385860443115,"138":-0.18298493325710297,"139":0.17425477504730225,"140":-0.1661473661661148,"141":-0.04819031432271004,"142":0.006071063224226236,"143":-0.1703016459941864,"144":-0.17071399092674255,"145":0.041683755815029144,"146":-0.09285483509302139,"147":-0.1488766223192215,"148":0.10053510963916779,"149":-0.1258203089237213,"150":-0.07719225436449051,"151":0.11438318341970444,"152":-0.11517585813999176,"153":-0.19744180142879486,"154":0.047487370669841766,"155":0.029290292412042618,"156":-0.004007603973150253,"157":-0.008594154380261898,"158":-0.1767009049654007,"159":0.04676680266857147,"160":-0.06691582500934601,"161":-0.05874220281839371,"162":-0.014526193961501122,"163":-0.03223138302564621,"164":0.19586867094039917,"165":0.10121721774339676,"166":-0.08609159290790558,"167":-0.13363996148109436,"168":0.009478151798248291,"169":-0.13861727714538574,"170":-0.1896965503692627,"171":0.14167216420173645,"172":-0.0010242603020742536,"173":0.16651837527751923,"174":0.04312404990196228,"175":-0.0501626580953598,"176":-0.032534826546907425,"177":0.17445285618305206,"178":0.104865163564682,"179":-0.14315983653068542,"180":0.14513349533081055,"181":0.05840812623500824,"182":0.055181488394737244,"183":0.0117908651009202,"184":-0.09700729697942734,"185":0.01799124851822853,"186":0.17521442472934723,"187":0.09601950645446777,"188":-0.11415589600801468,"189":0.1661394089460373,"190":-0.19113121926784515,"191":0.039025336503982544,"192":-0.025090355426073074,"193":-0.0761088952422142,"194":-0.19386859238147736,"195":-0.01908147893846035,"196":0.04633159190416336,"197":0.07360076159238815,"198":0.09027834981679916,"199":0.10401349514722824,"200":0.06639669090509415,"201":0.007195053156465292,"202":-0.12146659940481186,"203":0.040611300617456436,"204":-0.05434202775359154,"205":0.0549778938293457,"206":-0.1782744973897934,"207":0.19658684730529785,"208":-0.10944929718971252,"209":0.19409415125846863,"210":0.198150172829628,"211":0.07891924679279327,"212":0.1642971932888031,"213":-0.1893177032470703,"214":0.10947850346565247,"215":0.04035678878426552,"216":0.04322671517729759,"217":-0.08255288749933243,"218":0.07877527177333832,"219":-0.08558592200279236,"220":-0.07839729636907578,"221":0.05291731283068657,"222":-0.025994455441832542,"223":0.010974954813718796,"224":0.07506759464740753,"225":-0.17277251183986664,"226":-0.08159925788640976,"227":-0.035791702568531036,"228":-0.14090000092983246}},"2":{"bias":-0.12452208995819092,"weights":{"0":0.137160986661911,"1":-0.12669987976551056,"2":-0.14259091019630432,"3":-0.12161672860383987,"4":0.1318228542804718,"5":0.16513516008853912,"6":-0.00289507070556283,"7":0.08314847946166992,"8":0.0301140695810318,"9":-0.053590260446071625,"10":0.17123223841190338,"11":0.12993016839027405,"12":-0.01926412805914879,"13":0.023837676271796227,"14":-0.19426359236240387,"15":-0.15497161448001862,"16":0.12489118427038193,"17":-0.07095054537057877,"18":0.19640092551708221,"19":-0.05874587967991829,"20":-0.06173061206936836,"21":-0.048252884298563004,"22":-0.0758075937628746,"23":0.06006494164466858,"24":0.1298653930425644,"25":-0.07164640724658966,"26":-0.18780386447906494,"27":0.0927746370434761,"28":-0.1558026820421219,"29":-0.11444501578807831,"30":-0.14704778790473938,"31":-0.1498827189207077,"32":-0.17546093463897705,"33":0.12391867488622665,"34":0.19401010870933533,"35":0.14436443150043488,"36":0.017256930470466614,"37":-0.1974157840013504,"38":0.11146277189254761,"39":-0.1174849197268486,"40":0.1936134248971939,"41":0.11777878552675247,"42":-0.17733538150787354,"43":-0.09300550818443298,"44":-0.12139076739549637,"45":-0.11325028538703918,"46":-0.10731028020381927,"47":0.1887025535106659,"48":-0.19567398726940155,"49":-0.1772925704717636,"50":-0.023443425074219704,"51":-0.0660788044333458,"52":-0.12308183312416077,"53":0.06650034338235855,"54":0.12187317758798599,"55":-0.05481933802366257,"56":-0.0762341320514679,"57":-0.013177692890167236,"58":0.11455430090427399,"59":0.1064772680401802,"60":-0.10699210315942764,"61":0.1930011808872223,"62":-0.1489332765340805,"63":0.17803813517093658,"64":0.0101656224578619,"65":-0.062049124389886856,"66":-0.08513285219669342,"67":-0.16066229343414307,"68":0.15232568979263306,"69":0.14642687141895294,"70":0.15750353038311005,"71":0.10333764553070068,"72":-0.11773965507745743,"73":0.07093136012554169,"74":-0.05425318330526352,"75":-0.02601267583668232,"76":0.1681080013513565,"77":0.178020179271698,"78":-0.07714877277612686,"79":-0.10007862001657486,"80":0.09958381205797195,"81":0.034089528024196625,"82":0.1253778636455536,"83":-0.04433805122971535,"84":-0.1770470291376114,"85":0.12722332775592804,"86":0.056701384484767914,"87":0.12991087138652802,"88":-0.15199798345565796,"89":0.13170208036899567,"90":-0.005343386437743902,"91":0.13034911453723907,"92":-0.02385118044912815,"93":0.11185158789157867,"94":-0.1315346658229828,"95":0.10055758059024811,"96":-0.16160860657691956,"97":0.018671952188014984,"98":0.056705500930547714,"99":0.025826353579759598,"100":0.0018291276646777987,"101":0.09006568789482117,"102":0.16179214417934418,"103":-0.007565440144389868,"104":-0.1443963199853897,"105":0.06356492638587952,"106":-0.08392497152090073,"107":-0.11378489434719086,"108":0.0629940927028656,"109":0.08892790973186493,"110":-0.17070525884628296,"111":0.12990665435791016,"112":0.16774651408195496,"113":-0.19136111438274384,"114":-0.11159300804138184,"115":0.0017173568485304713,"116":-0.07556618750095367,"117":-0.037703901529312134,"118":0.07399598509073257,"119":-0.11357879638671875,"120":-0.01611625961959362,"121":-0.10111211240291595,"122":0.09498566389083862,"123":-0.01603655144572258,"124":0.05780225992202759,"125":-0.007990148849785328,"126":-0.0922432541847229,"127":0.07112929224967957,"128":-0.17625704407691956,"129":-0.12651193141937256,"130":-0.10800300538539886,"131":-0.0590839609503746,"132":0.09453729540109634,"133":-0.05483616143465042,"134":-0.1366264522075653,"135":0.10612870007753372,"136":0.1538306027650833,"137":0.056430332362651825,"138":0.012922095134854317,"139":-0.19244502484798431,"140":-0.16611163318157196,"141":0.18731170892715454,"142":-0.12432347238063812,"143":0.15480491518974304,"144":-0.0837256982922554,"145":0.18743175268173218,"146":0.14047499001026154,"147":0.09332253783941269,"148":0.06055150181055069,"149":-0.09691588580608368,"150":0.0448557510972023,"151":-0.0016653814818710089,"152":0.09470950812101364,"153":-0.12813127040863037,"154":-0.05304365232586861,"155":0.1914278119802475,"156":0.03629104420542717,"157":0.0773843303322792,"158":0.01832517795264721,"159":-0.16560587286949158,"160":-0.06537573784589767,"161":-0.19570530951023102,"162":-0.1597193330526352,"163":-0.15986497700214386,"164":-0.13691814243793488,"165":-0.004343712702393532,"166":-0.1671866625547409,"167":-0.14363880455493927,"168":-0.07814498245716095,"169":-0.17749767005443573,"170":0.18155771493911743,"171":-0.09816877543926239,"172":-0.10708266496658325,"173":-0.05656183138489723,"174":-0.06321433186531067,"175":0.08213366568088531,"176":0.1032724678516388,"177":-0.10627449303865433,"178":0.0002704026410356164,"179":-0.13115642964839935,"180":0.07875939458608627,"181":-0.048200204968452454,"182":0.14903020858764648,"183":0.145244300365448,"184":0.025960473343729973,"185":0.15930390357971191,"186":0.07913831621408463,"187":-0.06264183670282364,"188":-0.019294967874884605,"189":-0.11872988194227219,"190":0.1987515687942505,"191":-0.044900812208652496,"192":0.03134318068623543,"193":-0.08361080288887024,"194":-0.04389941692352295,"195":-0.007121567148715258,"196":-0.03910846635699272,"197":0.0019436297006905079,"198":0.16891853511333466,"199":0.023731732740998268,"200":-0.1510840505361557,"201":-0.11590324342250824,"202":0.014861056581139565,"203":-0.05733078345656395,"204":-0.003236593911424279,"205":0.05831588804721832,"206":-0.13988682627677917,"207":-0.09691565483808517,"208":0.08061998337507248,"209":0.1309194713830948,"210":0.10694321990013123,"211":-0.14306151866912842,"212":-0.07173299044370651,"213":0.14303520321846008,"214":0.18583491444587708,"215":0.08311136066913605,"216":0.11568161100149155,"217":0.0869395062327385,"218":-0.16178564727306366,"219":-0.10248707234859467,"220":-0.10713915526866913,"221":-0.059719864279031754,"222":0.15846887230873108,"223":0.00036859989631921053,"224":0.08147259056568146,"225":-0.0034871031530201435,"226":-0.15481498837471008,"227":0.17740094661712646,"228":0.09798485785722733}},"3":{"bias":-0.14013798534870148,"weights":{"0":-0.03719237074255943,"1":0.017633413895964622,"2":-0.05347376689314842,"3":-0.09063538163900375,"4":-0.04767811298370361,"5":-0.04589615762233734,"6":-0.16792330145835876,"7":-0.19367308914661407,"8":-0.017528316006064415,"9":-0.018166059628129005,"10":0.18546602129936218,"11":-0.13739396631717682,"12":-0.04402848333120346,"13":0.07605697959661484,"14":0.11220643669366837,"15":-0.04083915054798126,"16":-0.195388525724411,"17":-0.1254773885011673,"18":0.05118504911661148,"19":0.17490419745445251,"20":-0.0019389245426282287,"21":0.01060915645211935,"22":-0.08375321328639984,"23":0.1658424586057663,"24":0.13444919884204865,"25":0.14846879243850708,"26":-0.0021659531630575657,"27":0.16763654351234436,"28":-0.016234442591667175,"29":0.04713502898812294,"30":0.17766617238521576,"31":-0.0043219090439379215,"32":0.18562544882297516,"33":-0.09758518636226654,"34":0.12587770819664001,"35":0.07995063811540604,"36":-0.025035396218299866,"37":-0.030479751527309418,"38":0.042590390890836716,"39":0.017427468672394753,"40":-0.16706298291683197,"41":0.16156242787837982,"42":-0.1354607194662094,"43":0.17438340187072754,"44":-0.11740338057279587,"45":0.06491215527057648,"46":-0.1829330027103424,"47":0.13632915914058685,"48":0.06126680225133896,"49":-0.09389194846153259,"50":0.10171806067228317,"51":-0.11388589441776276,"52":-0.04133350029587746,"53":0.12804651260375977,"54":-0.051630884408950806,"55":-0.1518351137638092,"56":-0.17216452956199646,"57":-0.02131769061088562,"58":-0.004105281084775925,"59":-0.16677811741828918,"60":0.0270982775837183,"61":0.11859434843063354,"62":0.0962853655219078,"63":-0.1058516874909401,"64":-0.021216288208961487,"65":-0.06760529428720474,"66":0.12483754754066467,"67":-0.06525813043117523,"68":0.015751700848340988,"69":0.017241567373275757,"70":-0.12722444534301758,"71":0.034183405339717865,"72":0.1071586087346077,"73":-0.024261362850666046,"74":0.1646442860364914,"75":0.17419975996017456,"76":-0.19121712446212769,"77":0.05319393426179886,"78":-0.1511741280555725,"79":0.17633512616157532,"80":-0.19941028952598572,"81":-0.03968187794089317,"82":-0.023436062037944794,"83":-0.10278026014566422,"84":-0.11786529421806335,"85":0.08031900972127914,"86":-0.024087801575660706,"87":0.03458544984459877,"88":0.1751125156879425,"89":-0.1917673647403717,"90":0.016108069568872452,"91":0.04595699533820152,"92":0.014626912772655487,"93":0.08835326880216599,"94":-0.0009774478385224938,"95":-0.003920773044228554,"96":-0.0643528625369072,"97":0.11082074046134949,"98":0.11333111673593521,"99":0.16990071535110474,"100":-0.17650626599788666,"101":-0.08244425803422928,"102":-0.13261102139949799,"103":-0.11563652008771896,"104":-0.1386517435312271,"105":-0.11806436628103256,"106":-0.028714943677186966,"107":0.06345964968204498,"108":0.14499367773532867,"109":0.08668897300958633,"110":-0.11954449862241745,"111":-0.19045758247375488,"112":-0.17908276617527008,"113":0.05223238468170166,"114":0.008897831663489342,"115":0.15766064822673798,"116":-0.08514779061079025,"117":-0.05961846932768822,"118":0.052453458309173584,"119":-0.09019408375024796,"120":-0.18985363841056824,"121":-0.17942935228347778,"122":0.03782704472541809,"123":0.13032443821430206,"124":0.093971848487854,"125":-0.0024805497378110886,"126":0.05032125487923622,"127":0.004695250187069178,"128":0.19654503464698792,"129":0.03696899116039276,"130":-0.15522094070911407,"131":-0.013644356280565262,"132":0.12552818655967712,"133":-0.010118186473846436,"134":0.13369965553283691,"135":-0.19178147614002228,"136":0.058779794722795486,"137":0.07161921262741089,"138":-0.17956441640853882,"139":-0.13495726883411407,"140":0.000522834830917418,"141":-0.19772794842720032,"142":-0.17786698043346405,"143":0.11892582476139069,"144":-0.17956511676311493,"145":0.001284878933802247,"146":-0.056590594351291656,"147":-0.15197253227233887,"148":-0.1164504736661911,"149":-0.17772898077964783,"150":-0.0384855680167675,"151":0.144132599234581,"152":0.005015960428863764,"153":-0.11671755462884903,"154":0.09541888535022736,"155":-0.04289470985531807,"156":0.10215096920728683,"157":0.11808453500270844,"158":0.03421357274055481,"159":0.04600578173995018,"160":0.13676485419273376,"161":-0.17847764492034912,"162":-0.0005854261107742786,"163":0.11946366727352142,"164":0.04103407263755798,"165":0.010921518318355083,"166":0.17739269137382507,"167":0.1736757606267929,"168":0.1251208335161209,"169":0.12303542345762253,"170":0.1197834387421608,"171":-0.0037876786664128304,"172":-0.032552607357501984,"173":0.18818546831607819,"174":-0.09189622849225998,"175":0.172722727060318,"176":0.19988508522510529,"177":-0.016743483021855354,"178":0.16241951286792755,"179":0.1270398646593094,"180":-0.12415365129709244,"181":-0.1580207198858261,"182":0.15380412340164185,"183":-0.07335426658391953,"184":-0.1616370528936386,"185":-0.15860974788665771,"186":0.015064080245792866,"187":0.11273515969514847,"188":-0.14351117610931396,"189":-0.03178562968969345,"190":-0.13524077832698822,"191":-0.16458474099636078,"192":0.028233755379915237,"193":-0.09705010056495667,"194":-0.020159419625997543,"195":0.19032299518585205,"196":0.14509840309619904,"197":0.07000908255577087,"198":-0.16964051127433777,"199":0.027873385697603226,"200":0.12339788675308228,"201":-0.08518912643194199,"202":0.1306157410144806,"203":-0.16155260801315308,"204":-0.07089995592832565,"205":-0.12256182730197906,"206":-0.0771842747926712,"207":-0.06572111696004868,"208":0.1257786750793457,"209":0.018257340416312218,"210":0.010685410350561142,"211":-0.020489182323217392,"212":-0.16213363409042358,"213":0.19229257106781006,"214":0.014009499922394753,"215":0.1127290204167366,"216":-0.16723975539207458,"217":-0.038129083812236786,"218":0.19112153351306915,"219":0.16797979176044464,"220":-0.05781424045562744,"221":0.11871110647916794,"222":-0.1803397685289383,"223":0.05353369563817978,"224":0.1314937174320221,"225":0.01808043010532856,"226":-0.19758111238479614,"227":0.05444255843758583,"228":-0.0709734559059143}},"4":{"bias":-0.016318632289767265,"weights":{"0":-0.17945408821105957,"1":0.054085079580545425,"2":-0.17115411162376404,"3":0.019398948177695274,"4":0.10010625422000885,"5":-0.1987830549478531,"6":0.04401398450136185,"7":-0.1001521497964859,"8":0.11125916987657547,"9":0.1481541246175766,"10":0.11603809148073196,"11":-0.18845205008983612,"12":0.027603065595030785,"13":-0.18821267783641815,"14":0.11671018600463867,"15":0.0038118762895464897,"16":0.06008661165833473,"17":-0.1894320249557495,"18":0.04918705299496651,"19":0.052666593343019485,"20":0.01489725336432457,"21":-0.12316135317087173,"22":-0.18804392218589783,"23":-0.19336606562137604,"24":-0.1283292919397354,"25":-0.1305643767118454,"26":-0.02810210920870304,"27":0.040326397866010666,"28":0.14426031708717346,"29":-0.1760253757238388,"30":-0.06055830046534538,"31":0.1488327980041504,"32":0.09411714971065521,"33":-0.10780030488967896,"34":-0.17203445732593536,"35":-0.15563610196113586,"36":-0.04211759939789772,"37":-0.18043680489063263,"38":0.04182117432355881,"39":-0.006244688760489225,"40":-0.03287768363952637,"41":0.057197801768779755,"42":0.19671966135501862,"43":-0.0645299106836319,"44":-0.13566039502620697,"45":0.13864877820014954,"46":0.15304125845432281,"47":0.07225261628627777,"48":-0.14734792709350586,"49":0.12799549102783203,"50":0.17358364164829254,"51":-0.19674548506736755,"52":0.15019811689853668,"53":-0.013915431685745716,"54":0.1771063506603241,"55":0.1557074636220932,"56":0.003483880776911974,"57":-0.16413764655590057,"58":-0.041772015392780304,"59":-0.028153887018561363,"60":-0.00828566588461399,"61":0.14034412801265717,"62":-0.16872046887874603,"63":-0.16150374710559845,"64":0.02837410196661949,"65":-0.023357266560196877,"66":0.13293340802192688,"67":0.06481248885393143,"68":-0.034305743873119354,"69":-0.0417092926800251,"70":0.09965448081493378,"71":0.19227822124958038,"72":-0.007063800934702158,"73":-0.18022188544273376,"74":0.08234445005655289,"75":-0.0007669290062040091,"76":-0.1636907011270523,"77":0.13073956966400146,"78":0.08183924108743668,"79":0.14801496267318726,"80":-0.0776933804154396,"81":0.06585697084665298,"82":-0.19554142653942108,"83":0.1324370950460434,"84":-0.04108848795294762,"85":-0.05909598618745804,"86":-0.026808209717273712,"87":-0.15048910677433014,"88":0.18577657639980316,"89":-0.0010103692766278982,"90":0.039677977561950684,"91":0.003269197652116418,"92":0.06320066004991531,"93":0.0002179562725359574,"94":0.1948702037334442,"95":0.04097593575716019,"96":-0.0011439929949119687,"97":-0.0025124538224190474,"98":-0.13743872940540314,"99":0.08324922621250153,"100":0.060387641191482544,"101":-0.0019524915842339396,"102":0.14485643804073334,"103":-0.005327381193637848,"104":0.14317429065704346,"105":-0.06404171884059906,"106":-0.04894464090466499,"107":-0.1897139698266983,"108":-0.12716054916381836,"109":0.13249632716178894,"110":-0.10709547251462936,"111":-0.00857310276478529,"112":0.12776480615139008,"113":0.15091806650161743,"114":0.029006820172071457,"115":-0.13189901411533356,"116":-0.12417928129434586,"117":0.11533410102128983,"118":0.1399596929550171,"119":0.010573059320449829,"120":0.0958322286605835,"121":0.07884545624256134,"122":0.17917025089263916,"123":-0.0005570724024437368,"124":0.18180109560489655,"125":-0.061623744666576385,"126":-0.023158712312579155,"127":-0.11361704766750336,"128":0.19401487708091736,"129":-0.019497113302350044,"130":0.14971980452537537,"131":-0.1343366652727127,"132":-0.1520787924528122,"133":0.08357805758714676,"134":-0.1299450844526291,"135":0.12567412853240967,"136":0.1161339059472084,"137":-0.008249612525105476,"138":-0.1591121107339859,"139":-0.09605144709348679,"140":-0.12831270694732666,"141":0.19370852410793304,"142":-0.09736660867929459,"143":0.03247631713747978,"144":-0.10255172103643417,"145":-0.046110302209854126,"146":0.18521206080913544,"147":-0.12512068450450897,"148":-0.06279603391885757,"149":-0.12032859027385712,"150":0.0016171886818483472,"151":-0.09176342189311981,"152":-0.08015431463718414,"153":0.13709990680217743,"154":0.015400533564388752,"155":0.07049964368343353,"156":0.057830337435007095,"157":-0.045586347579956055,"158":0.07864516228437424,"159":0.00598882744088769,"160":-0.11825581640005112,"161":-0.15218816697597504,"162":-0.11947855353355408,"163":-0.08834939450025558,"164":0.05134487524628639,"165":0.07653343677520752,"166":-0.04419396445155144,"167":0.007842649705708027,"168":-0.10169503837823868,"169":0.013396228663623333,"170":0.031723663210868835,"171":-0.12642116844654083,"172":-0.1317272037267685,"173":-0.1340792328119278,"174":0.031961590051651,"175":-0.1715894192457199,"176":0.11819589138031006,"177":0.09953030198812485,"178":0.026140308007597923,"179":0.030772676691412926,"180":-0.12231463193893433,"181":0.07742759585380554,"182":0.16476066410541534,"183":0.17028261721134186,"184":-0.14428764581680298,"185":0.150704488158226,"186":0.03256490081548691,"187":-0.1297200620174408,"188":-0.14134912192821503,"189":-0.11640144139528275,"190":0.03155574947595596,"191":-0.05240533873438835,"192":-0.09763029962778091,"193":-0.1268291473388672,"194":-0.14426369965076447,"195":0.17356598377227783,"196":-0.09088430553674698,"197":0.03896850720047951,"198":0.12851348519325256,"199":-0.09030138701200485,"200":-0.007455986924469471,"201":-0.05533302202820778,"202":0.04228443279862404,"203":0.18230658769607544,"204":-0.09081880748271942,"205":0.12315636873245239,"206":-0.01140434667468071,"207":0.11339166015386581,"208":-0.017007077112793922,"209":-0.1620667427778244,"210":0.005324529018253088,"211":0.10883933305740356,"212":0.17118407785892487,"213":0.12687979638576508,"214":0.11880157887935638,"215":-0.02436504140496254,"216":0.16952162981033325,"217":0.003204661188647151,"218":0.10308973491191864,"219":0.17708027362823486,"220":0.07623167335987091,"221":-0.19104133546352386,"222":-0.10004495829343796,"223":0.07293041050434113,"224":-0.06667307019233704,"225":0.1831674724817276,"226":-0.19863153994083405,"227":0.1049950122833252,"228":0.0880967378616333}},"5":{"bias":0.011934651993215084,"weights":{"0":0.1944657266139984,"1":0.18178294599056244,"2":0.07785411924123764,"3":-0.15127506852149963,"4":0.1491726040840149,"5":-0.1964103877544403,"6":-0.05817313492298126,"7":-0.17489328980445862,"8":0.0738879144191742,"9":0.08708865940570831,"10":-0.1965930312871933,"11":0.11861035227775574,"12":-0.10853217542171478,"13":-0.007345516234636307,"14":-0.1254076361656189,"15":-0.023425878956913948,"16":0.09809824824333191,"17":-0.08741803467273712,"18":-0.1053415983915329,"19":-0.0957331582903862,"20":0.12389609962701797,"21":0.020815804600715637,"22":-0.047589752823114395,"23":0.06224215403199196,"24":0.003791488939896226,"25":0.010415894910693169,"26":-0.08711916208267212,"27":0.11695113033056259,"28":0.07930045574903488,"29":0.10105474293231964,"30":-0.03708747401833534,"31":0.19304503500461578,"32":0.060739949345588684,"33":0.1129055991768837,"34":-0.13519981503486633,"35":0.045338571071624756,"36":0.03463463857769966,"37":-0.04224950075149536,"38":0.007550267968326807,"39":-0.191268652677536,"40":0.14495782554149628,"41":0.08166015893220901,"42":-0.19485335052013397,"43":-0.06257744878530502,"44":0.018844855949282646,"45":0.04108685255050659,"46":-0.14807461202144623,"47":0.09320209175348282,"48":0.18348462879657745,"49":0.057632479816675186,"50":0.1586073935031891,"51":-0.1396988183259964,"52":0.02007855847477913,"53":0.07311004400253296,"54":0.19356681406497955,"55":-0.10698067396879196,"56":0.19374606013298035,"57":-0.15897251665592194,"58":-0.033228591084480286,"59":0.023582879453897476,"60":-0.0059891073033213615,"61":-0.16893133521080017,"62":0.1271471083164215,"63":-0.11805400252342224,"64":0.1855861246585846,"65":0.1633150428533554,"66":-0.08496885001659393,"67":-0.11729137599468231,"68":0.07161930203437805,"69":-0.055838584899902344,"70":-0.002308166353031993,"71":-0.1539410948753357,"72":-0.14524531364440918,"73":0.1887209713459015,"74":0.09727086126804352,"75":0.09181758761405945,"76":0.13778738677501678,"77":-0.05873563885688782,"78":0.007021716795861721,"79":-0.09750638902187347,"80":0.07981006801128387,"81":0.13457873463630676,"82":-0.012143071740865707,"83":-0.09078504890203476,"84":-0.10125463455915451,"85":0.02633526176214218,"86":0.11772329360246658,"87":0.022702902555465698,"88":-0.1548752784729004,"89":-0.18886084854602814,"90":-0.10625302046537399,"91":0.030783237889409065,"92":0.05669339746236801,"93":0.06487493962049484,"94":0.011961722746491432,"95":0.07362779229879379,"96":0.008184940554201603,"97":0.1266447752714157,"98":-0.026877310127019882,"99":-0.13580670952796936,"100":0.04009730741381645,"101":0.004706620704382658,"102":-0.01583545096218586,"103":0.17346292734146118,"104":0.1012171134352684,"105":0.0005418715882115066,"106":-0.1751106232404709,"107":0.15907788276672363,"108":0.05706848204135895,"109":-0.0734141618013382,"110":0.007663372438400984,"111":0.007321630138903856,"112":0.19954964518547058,"113":-0.00035524286795407534,"114":-0.12075022608041763,"115":0.11446280032396317,"116":0.0329253263771534,"117":0.002773937303572893,"118":0.16601194441318512,"119":0.12684153020381927,"120":0.04162611439824104,"121":-0.1765655279159546,"122":-0.12300387769937515,"123":-0.05480330437421799,"124":0.12928947806358337,"125":0.03735985979437828,"126":-0.17193983495235443,"127":-0.07675784826278687,"128":-0.06975498795509338,"129":-0.07425321638584137,"130":-0.18213103711605072,"131":-0.17211712896823883,"132":-0.13939212262630463,"133":0.17052656412124634,"134":0.12808196246623993,"135":-0.0013266721507534385,"136":-0.17754331231117249,"137":0.03095293417572975,"138":0.10281303524971008,"139":0.1292722374200821,"140":0.08066203445196152,"141":-0.052357740700244904,"142":0.005987448617815971,"143":0.19042499363422394,"144":0.11279099434614182,"145":-0.13375215232372284,"146":-0.032094892114400864,"147":-0.17162582278251648,"148":-0.04781778156757355,"149":0.16005778312683105,"150":-0.14064808189868927,"151":-0.17566223442554474,"152":-0.14409802854061127,"153":0.16854743659496307,"154":0.15079966187477112,"155":0.03642238304018974,"156":-0.0702008605003357,"157":0.12039103358983994,"158":-0.13322027027606964,"159":-0.11224208772182465,"160":-0.020834840834140778,"161":0.0352230928838253,"162":-0.01732981950044632,"163":0.1844845861196518,"164":0.1943342089653015,"165":-0.11011859774589539,"166":-0.07002910226583481,"167":0.15341776609420776,"168":-0.1992991417646408,"169":-0.12538407742977142,"170":-0.165223628282547,"171":-0.09527362138032913,"172":-0.010479082353413105,"173":-0.011761058121919632,"174":-0.005757021252065897,"175":0.011555933393537998,"176":-0.19413049519062042,"177":0.1731579750776291,"178":-0.03912421315908432,"179":-0.01609073020517826,"180":0.07889506220817566,"181":0.004719267599284649,"182":-0.03793228790163994,"183":0.13602611422538757,"184":-0.13269364833831787,"185":0.02044326439499855,"186":0.008748721331357956,"187":-0.18952424824237823,"188":-0.03373030200600624,"189":-0.05254754424095154,"190":0.04393094405531883,"191":-0.19031421840190887,"192":0.10198371112346649,"193":0.12117061018943787,"194":0.05753578990697861,"195":-0.011139601469039917,"196":0.1066824421286583,"197":-0.14418475329875946,"198":-0.10122815519571304,"199":-0.04782126471400261,"200":-0.08157873153686523,"201":-0.06856908649206161,"202":0.1514904946088791,"203":-0.06303007155656815,"204":-0.02853413112461567,"205":-0.006033491808921099,"206":-0.08030921965837479,"207":0.03158175200223923,"208":-0.1845988631248474,"209":-0.09917041659355164,"210":0.04620574787259102,"211":0.10466758161783218,"212":-0.04748588055372238,"213":0.037274546921253204,"214":0.1513848602771759,"215":-0.028592389076948166,"216":-0.022741025313735008,"217":-0.10666844248771667,"218":0.012803495861589909,"219":-0.17481085658073425,"220":-0.09664858877658844,"221":-0.014560878276824951,"222":-0.18774324655532837,"223":-0.047802574932575226,"224":-0.14953309297561646,"225":0.07218842208385468,"226":-0.06553220748901367,"227":-0.07502266019582748,"228":0.15050725638866425}},"6":{"bias":0.06476595252752304,"weights":{"0":-0.108640655875206,"1":0.058321062475442886,"2":-0.1643417477607727,"3":0.025566190481185913,"4":0.012578634545207024,"5":0.1894247829914093,"6":-0.19441261887550354,"7":0.07847762107849121,"8":-0.0661633312702179,"9":0.02706555463373661,"10":-0.025671908631920815,"11":-0.1257215142250061,"12":-0.1689199060201645,"13":-0.04126953333616257,"14":0.12374845147132874,"15":0.067325159907341,"16":0.16006715595722198,"17":0.11997733265161514,"18":0.05473713576793671,"19":-0.17766690254211426,"20":0.14131155610084534,"21":-0.0022244290448725224,"22":0.03546348586678505,"23":0.025417540222406387,"24":0.19169151782989502,"25":0.10062552988529205,"26":-0.003730784635990858,"27":-0.07641792297363281,"28":-0.10842134058475494,"29":0.028007658198475838,"30":0.0677756518125534,"31":-0.19783256947994232,"32":0.19396357238292694,"33":0.15291303396224976,"34":0.029150066897273064,"35":-0.11356296390295029,"36":0.19597287476062775,"37":0.07026532292366028,"38":-0.14010953903198242,"39":0.05134432390332222,"40":0.06666550040245056,"41":-0.030893299728631973,"42":0.12546131014823914,"43":-0.165413036942482,"44":0.06873521953821182,"45":0.0018719047075137496,"46":-0.12488678097724915,"47":-0.08392731100320816,"48":0.06718850880861282,"49":-0.06936332583427429,"50":-0.004203517455607653,"51":0.1915886551141739,"52":0.15233410894870758,"53":-0.1266097128391266,"54":0.14413577318191528,"55":0.11338161677122116,"56":0.008643430657684803,"57":-0.046044133603572845,"58":0.19877107441425323,"59":0.18345047533512115,"60":0.07946185022592545,"61":-0.11479119956493378,"62":-0.06913711130619049,"63":0.07414504140615463,"64":-0.04233383387327194,"65":-0.11635226756334305,"66":-0.05088073015213013,"67":0.18323370814323425,"68":-0.004154534079134464,"69":0.005698585417121649,"70":-0.17927195131778717,"71":0.011033248156309128,"72":-0.06308490037918091,"73":-0.1297997683286667,"74":-0.03288868069648743,"75":0.06957365572452545,"76":0.07972025871276855,"77":0.19247201085090637,"78":-0.060089483857154846,"79":-0.0512268953025341,"80":0.12323538213968277,"81":0.12476392090320587,"82":-0.13475438952445984,"83":0.1545499861240387,"84":-0.14986734092235565,"85":-0.004490028601139784,"86":-0.013871959410607815,"87":-0.16918231546878815,"88":0.1766970306634903,"89":-0.17973743379116058,"90":-0.025045452639460564,"91":0.12179336696863174,"92":0.053183432668447495,"93":0.1044471487402916,"94":0.09378798305988312,"95":-0.023643657565116882,"96":0.022229965776205063,"97":0.192948117852211,"98":0.023836178705096245,"99":-0.008124828338623047,"100":-0.11320775002241135,"101":-0.00038438738556578755,"102":0.16185851395130157,"103":0.05380076915025711,"104":-0.06103750318288803,"105":0.14685793220996857,"106":-0.14099766314029694,"107":0.1600605547428131,"108":0.020444391295313835,"109":-0.04059028998017311,"110":-0.19122371077537537,"111":0.1633460372686386,"112":0.08727697283029556,"113":0.015715206041932106,"114":0.013355504721403122,"115":0.03359339386224747,"116":-0.03181307390332222,"117":-0.13642677664756775,"118":0.07462027668952942,"119":-0.08274395763874054,"120":0.03463483601808548,"121":-0.10730259120464325,"122":0.12119242548942566,"123":-0.04154949262738228,"124":0.1668413132429123,"125":0.03490864112973213,"126":-0.14135850965976715,"127":0.15747831761837006,"128":0.07135174423456192,"129":-0.0619870163500309,"130":-0.02953103743493557,"131":0.0005004203994758427,"132":-0.057146698236465454,"133":-0.06841793656349182,"134":0.01742178574204445,"135":0.09073315560817719,"136":0.16774626076221466,"137":-0.016629846766591072,"138":-0.1303027719259262,"139":0.009500827640295029,"140":-0.0685676783323288,"141":-0.026440173387527466,"142":0.030031180009245872,"143":-0.08826687186956406,"144":-0.08224191516637802,"145":-0.06271229684352875,"146":-0.08881893754005432,"147":0.1497325301170349,"148":-0.0489036850631237,"149":-0.04370083659887314,"150":0.04977990686893463,"151":-0.03370164707303047,"152":-0.005653901491314173,"153":0.057029686868190765,"154":-0.08144541829824448,"155":-0.13867397606372833,"156":-0.18459898233413696,"157":0.16326145827770233,"158":-0.054875340312719345,"159":-0.07266626507043839,"160":0.05583509802818298,"161":-0.09439489990472794,"162":0.08189132809638977,"163":-0.04920949414372444,"164":0.1661054790019989,"165":-0.1047293171286583,"166":-0.0684073194861412,"167":0.10107036679983139,"168":-0.16296322643756866,"169":0.14338555932044983,"170":0.004666198045015335,"171":0.012621123343706131,"172":-0.07777522504329681,"173":-0.09850656986236572,"174":0.16291458904743195,"175":0.009599823504686356,"176":0.13322140276432037,"177":-0.0901138037443161,"178":0.15779581665992737,"179":-0.11359991878271103,"180":-0.06389948725700378,"181":0.002679426921531558,"182":0.17215393483638763,"183":-0.13735142350196838,"184":0.13143551349639893,"185":-0.11352609097957611,"186":0.13591623306274414,"187":-0.19913001358509064,"188":0.157264843583107,"189":0.19155281782150269,"190":0.1632911115884781,"191":0.13091905415058136,"192":-0.0371069610118866,"193":-0.05734887346625328,"194":-0.10508488118648529,"195":0.03989114612340927,"196":-0.06534401327371597,"197":-0.18358971178531647,"198":-0.10833077132701874,"199":0.03194023296236992,"200":-0.0831369161605835,"201":-0.06332439184188843,"202":-0.14905205368995667,"203":0.039950206875801086,"204":0.14709484577178955,"205":-0.1898352950811386,"206":0.17245858907699585,"207":-0.01871311292052269,"208":-0.08040133118629456,"209":-0.05228492617607117,"210":-0.12312223017215729,"211":0.15830138325691223,"212":-0.0248311385512352,"213":-0.14375655353069305,"214":-0.18510709702968597,"215":0.07129348814487457,"216":-0.08210355043411255,"217":-0.015729732811450958,"218":0.0560719333589077,"219":0.11097018420696259,"220":-0.11699210852384567,"221":0.11979304254055023,"222":-0.1234464943408966,"223":0.1320631057024002,"224":0.019732138141989708,"225":-0.19394972920417786,"226":0.06847819685935974,"227":-0.13898113369941711,"228":0.0774245336651802}},"7":{"bias":-0.11567287147045135,"weights":{"0":-0.06358504295349121,"1":0.15527518093585968,"2":0.13675685226917267,"3":-0.11919582635164261,"4":0.13522876799106598,"5":0.07890060544013977,"6":-0.03498964384198189,"7":-0.15163664519786835,"8":-0.19260770082473755,"9":-0.1481274515390396,"10":-0.15414349734783173,"11":0.15643636882305145,"12":0.10046346485614777,"13":-0.16220079362392426,"14":-0.09848134219646454,"15":0.13827691972255707,"16":-0.005441565997898579,"17":0.13464686274528503,"18":-0.1515132337808609,"19":-0.1346455216407776,"20":0.14648589491844177,"21":-0.1345696598291397,"22":0.1432718187570572,"23":-0.1664338856935501,"24":0.12088385224342346,"25":-0.1904716193675995,"26":-0.08130881935358047,"27":-0.07193863391876221,"28":-0.0617528073489666,"29":0.16979968547821045,"30":-0.09626717865467072,"31":0.03166720271110535,"32":-0.0857534259557724,"33":0.13119876384735107,"34":0.15538978576660156,"35":0.14714476466178894,"36":-0.002742806216701865,"37":0.08605315536260605,"38":0.07030577957630157,"39":0.045985374599695206,"40":-0.004271689336746931,"41":-0.13748763501644135,"42":-0.06261570006608963,"43":-0.19842104613780975,"44":0.011962978169322014,"45":-0.08417368680238724,"46":-0.18205080926418304,"47":-0.008652499876916409,"48":0.011708047240972519,"49":-0.09578665345907211,"50":-0.09573043882846832,"51":-0.09877615422010422,"52":0.023942261934280396,"53":-0.16132786870002747,"54":-0.1208723932504654,"55":0.08595333993434906,"56":-0.1014098972082138,"57":-0.18159276247024536,"58":-0.04503592476248741,"59":0.031035136431455612,"60":-0.06611015647649765,"61":-0.03841576352715492,"62":-0.11850277334451675,"63":0.15226352214813232,"64":-0.025434495881199837,"65":0.014163622632622719,"66":0.165630042552948,"67":-0.18367065489292145,"68":-0.09634768962860107,"69":0.127817764878273,"70":0.15865077078342438,"71":-0.08634432405233383,"72":0.18855062127113342,"73":-0.05130009725689888,"74":0.0929994136095047,"75":0.15624837577342987,"76":0.08882185071706772,"77":-0.11453651636838913,"78":-0.05507737025618553,"79":-0.17009122669696808,"80":-0.08657339960336685,"81":-0.03299887850880623,"82":0.18923279643058777,"83":-0.06541316211223602,"84":-0.07585060596466064,"85":-0.13541001081466675,"86":-0.04958242550492287,"87":0.004723509773612022,"88":0.17792236804962158,"89":0.1294165700674057,"90":0.008179204538464546,"91":-0.07129039615392685,"92":0.19815853238105774,"93":-0.07015269249677658,"94":-0.041054680943489075,"95":0.0645478293299675,"96":-0.059688013046979904,"97":0.09117353707551956,"98":0.023427361622452736,"99":0.15283147990703583,"100":0.09863822162151337,"101":0.17829225957393646,"102":0.06122161075472832,"103":0.04580532759428024,"104":-0.15318067371845245,"105":-0.0020024438854306936,"106":0.17410707473754883,"107":-0.14854662120342255,"108":-0.0005286739324219525,"109":0.15421795845031738,"110":-0.05702630430459976,"111":0.12893126904964447,"112":-0.18363919854164124,"113":0.09509487450122833,"114":0.10348808765411377,"115":-0.19391129910945892,"116":-0.01155159156769514,"117":0.16563329100608826,"118":0.10085441172122955,"119":0.12410743534564972,"120":-0.1350538432598114,"121":0.1268935203552246,"122":0.13787589967250824,"123":-0.026057571172714233,"124":-0.19983859360218048,"125":-0.07810178399085999,"126":-0.10120704025030136,"127":-0.027223387733101845,"128":-0.016791274771094322,"129":-0.18381384015083313,"130":-0.12071509659290314,"131":0.010347764007747173,"132":-0.1679747998714447,"133":-0.18338771164417267,"134":-0.14687365293502808,"135":-0.17763540148735046,"136":0.15948478877544403,"137":0.1835891455411911,"138":0.08435329794883728,"139":0.04539269581437111,"140":0.199180006980896,"141":0.09437571465969086,"142":0.0604030005633831,"143":0.17497850954532623,"144":0.18643425405025482,"145":-0.15870361030101776,"146":-0.12230183184146881,"147":-0.08038978278636932,"148":0.033610448241233826,"149":-0.06053045019507408,"150":0.035542409867048264,"151":-0.1941889375448227,"152":0.045059751719236374,"153":-0.14425969123840332,"154":0.012398754246532917,"155":-0.11692044138908386,"156":0.13762050867080688,"157":0.00504284305498004,"158":0.17281009256839752,"159":-0.1919126957654953,"160":0.011699403636157513,"161":-0.1442003846168518,"162":0.16455526649951935,"163":-0.010482577607035637,"164":-0.14553695917129517,"165":0.017416730523109436,"166":-0.11208861321210861,"167":-0.05968344956636429,"168":0.00971019733697176,"169":0.02897755242884159,"170":0.10016964375972748,"171":0.005399841349571943,"172":-0.09951280802488327,"173":-0.0720917209982872,"174":-0.04904055595397949,"175":0.1440577656030655,"176":0.1809205561876297,"177":-0.08813202381134033,"178":0.015320638194680214,"179":0.03855239972472191,"180":0.1519555151462555,"181":-0.07900764793157578,"182":0.05816897749900818,"183":0.11236952990293503,"184":-0.07710040360689163,"185":-0.09981216490268707,"186":-0.10105148702859879,"187":0.10710141062736511,"188":0.053727343678474426,"189":0.10093409568071365,"190":-0.04852009564638138,"191":-0.06905286759138107,"192":0.0044524394907057285,"193":-0.11087919771671295,"194":0.020053163170814514,"195":-0.05530822277069092,"196":0.0744251012802124,"197":0.1012926921248436,"198":-0.14693039655685425,"199":0.04681837186217308,"200":0.16003718972206116,"201":0.11199279129505157,"202":0.06294061988592148,"203":0.13810846209526062,"204":-0.046386945992708206,"205":-0.035895511507987976,"206":-0.03431954234838486,"207":-0.02057638205587864,"208":-0.1867244988679886,"209":0.1771153062582016,"210":-0.10765452682971954,"211":0.15158763527870178,"212":0.1875469982624054,"213":0.01805969513952732,"214":0.0662420466542244,"215":-0.14081966876983643,"216":-0.13133558630943298,"217":-0.023066727444529533,"218":0.027478443458676338,"219":-0.015790650621056557,"220":-0.19595244526863098,"221":-0.005282269790768623,"222":0.027498135343194008,"223":0.0034684266429394484,"224":0.10143355280160904,"225":0.09137744456529617,"226":0.013052992522716522,"227":0.17228911817073822,"228":0.002068095840513706}},"8":{"bias":-0.159377783536911,"weights":{"0":-0.1833897978067398,"1":0.057558655738830566,"2":-0.10890553891658783,"3":0.04164689779281616,"4":-0.16591183841228485,"5":-0.1069570928812027,"6":-0.009852316230535507,"7":-0.052438199520111084,"8":0.04116518795490265,"9":0.04315584897994995,"10":0.02821626327931881,"11":0.042998362332582474,"12":0.1632964015007019,"13":-0.03622379153966904,"14":-0.007217918522655964,"15":0.030539119616150856,"16":-0.16788245737552643,"17":-0.18946707248687744,"18":-0.10254234075546265,"19":0.16317065060138702,"20":0.08153269439935684,"21":0.14373920857906342,"22":-0.1404593586921692,"23":-0.0068783238530159,"24":0.12118877470493317,"25":-0.1728038787841797,"26":0.06387656927108765,"27":0.1479165107011795,"28":-0.13403759896755219,"29":-0.08839166909456253,"30":0.186710387468338,"31":-0.06541497260332108,"32":-0.03305041417479515,"33":-0.15465731918811798,"34":-0.13578151166439056,"35":0.02541750855743885,"36":-0.1952713429927826,"37":-0.1027538999915123,"38":-0.042769160121679306,"39":0.09173168987035751,"40":-0.16767141222953796,"41":-0.07383841276168823,"42":-0.07198083400726318,"43":-0.14798064529895782,"44":0.08858153969049454,"45":0.15645122528076172,"46":0.11786998808383942,"47":-0.18846946954727173,"48":0.04134049266576767,"49":-0.15409021079540253,"50":-0.06962764263153076,"51":0.13454672694206238,"52":0.026936210691928864,"53":-0.033091794699430466,"54":-0.022663885727524757,"55":-0.017677797004580498,"56":-0.004749355372041464,"57":0.024383248761296272,"58":0.1480313390493393,"59":0.19108740985393524,"60":0.1177508682012558,"61":-0.18091151118278503,"62":-0.16087663173675537,"63":-0.055166635662317276,"64":-0.14069120585918427,"65":-0.046227362006902695,"66":-0.031012913212180138,"67":-0.13231942057609558,"68":-0.14705561101436615,"69":0.010292480699717999,"70":0.11636810004711151,"71":0.02937166951596737,"72":0.03020399436354637,"73":0.04830207675695419,"74":0.11288831382989883,"75":0.038318440318107605,"76":-0.1966467946767807,"77":-0.08887822926044464,"78":-0.008597638458013535,"79":0.011649033986032009,"80":-0.00012613263970706612,"81":0.029670413583517075,"82":0.1425386518239975,"83":0.16120406985282898,"84":-0.1999584287405014,"85":0.11953714489936829,"86":-0.044512324035167694,"87":-0.06983568519353867,"88":-0.04347263276576996,"89":-0.023815268650650978,"90":0.19600415229797363,"91":0.07280942797660828,"92":0.1681690514087677,"93":0.06295136362314224,"94":0.09882599860429764,"95":-0.11706975847482681,"96":0.057649675756692886,"97":0.18483950197696686,"98":-0.0876767486333847,"99":-0.0027619325555860996,"100":0.11381963640451431,"101":-0.12261078506708145,"102":-0.19023115932941437,"103":0.1658027470111847,"104":-0.022376885637640953,"105":0.12901873886585236,"106":0.1839016079902649,"107":0.0032325212378054857,"108":0.053008951246738434,"109":0.09246990829706192,"110":-0.09639609605073929,"111":0.1572088599205017,"112":-0.17489224672317505,"113":0.11967432498931885,"114":0.05378185957670212,"115":-0.012622992508113384,"116":-0.17442457377910614,"117":-0.0078009977005422115,"118":0.08773117512464523,"119":-0.05400796979665756,"120":-0.05983292683959007,"121":0.08467686921358109,"122":0.0013842890039086342,"123":-0.014439411461353302,"124":-0.06492327153682709,"125":0.12974700331687927,"126":0.1180005893111229,"127":-0.1284506469964981,"128":0.13007107377052307,"129":-0.1490173637866974,"130":-0.18072187900543213,"131":-0.0657622441649437,"132":0.1905243843793869,"133":-0.016591867431998253,"134":0.18101325631141663,"135":-0.050231289118528366,"136":-0.03694389387965202,"137":0.008320988155901432,"138":-0.16632114350795746,"139":0.022254765033721924,"140":0.04957802593708038,"141":0.02045830525457859,"142":0.10957462340593338,"143":-0.1264343410730362,"144":0.024680284783244133,"145":-0.12863850593566895,"146":-0.08994156867265701,"147":0.14148709177970886,"148":-0.1398109793663025,"149":0.17926913499832153,"150":-0.177247554063797,"151":-0.15650711953639984,"152":0.11107710003852844,"153":0.16040825843811035,"154":0.0009388515027239919,"155":0.10282393544912338,"156":0.024740835651755333,"157":-0.14085988700389862,"158":-0.19850300252437592,"159":-0.12153439223766327,"160":-0.03471986576914787,"161":0.1324884593486786,"162":0.07780102640390396,"163":0.17901098728179932,"164":0.08761052787303925,"165":0.007556915283203125,"166":-0.17543800175189972,"167":0.012092700228095055,"168":-0.05959395319223404,"169":0.015778133645653725,"170":-0.15191413462162018,"171":-0.1555764526128769,"172":-0.09976109862327576,"173":-0.09410728514194489,"174":-0.16102977097034454,"175":0.14255528151988983,"176":-0.020707955583930016,"177":-0.04967517405748367,"178":-0.11811210960149765,"179":-0.058514554053545,"180":0.11036749184131622,"181":-0.18770182132720947,"182":0.03704352304339409,"183":0.07972810417413712,"184":0.06387867778539658,"185":0.1605602204799652,"186":0.006309917196631432,"187":-0.07191687822341919,"188":0.04149121791124344,"189":-0.13733364641666412,"190":-0.023673253133893013,"191":0.04940400272607803,"192":-0.09546546638011932,"193":0.13341741263866425,"194":-0.038410820066928864,"195":0.04274875670671463,"196":0.03231477737426758,"197":-0.057659100741147995,"198":0.192003533244133,"199":-0.09792424738407135,"200":0.07054504752159119,"201":0.17743892967700958,"202":0.15834136307239532,"203":0.09512528032064438,"204":-0.07913270592689514,"205":-0.09251856803894043,"206":-0.06363685429096222,"207":-0.015221431851387024,"208":-0.12276404350996017,"209":-0.16961243748664856,"210":-0.0662575215101242,"211":0.18428392708301544,"212":0.104905866086483,"213":0.17471812665462494,"214":0.08167432993650436,"215":-0.06918267160654068,"216":0.01569143310189247,"217":0.11457090079784393,"218":0.12724612653255463,"219":-0.08191734552383423,"220":-0.09360827505588531,"221":0.041033677756786346,"222":-0.02698228694498539,"223":-0.07880249619483948,"224":0.18984895944595337,"225":0.10991119593381882,"226":-0.08758755028247833,"227":-0.0088118901476264,"228":-0.05950961634516716}},"9":{"bias":-0.00793064758181572,"weights":{"0":-0.18807852268218994,"1":0.16289649903774261,"2":0.18761864304542542,"3":0.18297640979290009,"4":0.03857565298676491,"5":-0.0974118635058403,"6":-0.07989232987165451,"7":0.04836356267333031,"8":-0.10206548869609833,"9":0.0833350196480751,"10":0.03689270466566086,"11":-0.13699929416179657,"12":-0.19871282577514648,"13":-0.030376045033335686,"14":-0.11105285584926605,"15":0.14542967081069946,"16":-0.1458667814731598,"17":-0.11428124457597733,"18":0.0017881327075883746,"19":-0.0831979438662529,"20":0.016489911824464798,"21":0.08686056733131409,"22":0.15615151822566986,"23":-0.1957845240831375,"24":-0.15450090169906616,"25":-0.11092440038919449,"26":-0.157547265291214,"27":-0.15123037993907928,"28":-0.08979638665914536,"29":0.15082097053527832,"30":-0.10062898695468903,"31":0.1600850522518158,"32":-0.05056817829608917,"33":-0.06403058022260666,"34":-0.1954685002565384,"35":-0.03781924396753311,"36":0.07920991629362106,"37":-0.178349107503891,"38":-0.1339351385831833,"39":0.09801334142684937,"40":-0.1908724308013916,"41":-0.10169665515422821,"42":-0.0855652317404747,"43":0.011253604665398598,"44":0.11189494282007217,"45":-0.06832309067249298,"46":0.06480944901704788,"47":0.14160069823265076,"48":0.1761140376329422,"49":0.14063511788845062,"50":-0.16389071941375732,"51":-0.1232767105102539,"52":-0.13044464588165283,"53":0.0669482871890068,"54":0.048120398074388504,"55":-0.16242925822734833,"56":0.005521519109606743,"57":-0.1399775743484497,"58":-0.12790051102638245,"59":0.12523657083511353,"60":0.13555249571800232,"61":0.1568698137998581,"62":-0.09392157942056656,"63":-0.0037580658681690693,"64":-0.057244688272476196,"65":0.19629818201065063,"66":0.13029919564723969,"67":0.17242619395256042,"68":-0.11312562227249146,"69":0.12798883020877838,"70":-0.1723170429468155,"71":0.036850620061159134,"72":-0.16714516282081604,"73":-0.03909502178430557,"74":-0.1674250215291977,"75":-0.16888557374477386,"76":-0.03066510148346424,"77":-0.1096809059381485,"78":-0.0027172300033271313,"79":-0.18094755709171295,"80":0.005470306612551212,"81":-0.19357143342494965,"82":-0.16190196573734283,"83":0.19774247705936432,"84":0.12116516381502151,"85":-0.0528285838663578,"86":-0.09156933426856995,"87":0.11414631456136703,"88":0.05108228325843811,"89":0.14310190081596375,"90":0.07430748641490936,"91":-0.16307994723320007,"92":-0.006043497007340193,"93":0.12735070288181305,"94":0.004872938152402639,"95":0.10175030678510666,"96":-0.13842256367206573,"97":0.16187065839767456,"98":-0.10080551356077194,"99":-0.0016432731645181775,"100":-0.12830889225006104,"101":-0.038152482360601425,"102":-0.18408305943012238,"103":0.18006563186645508,"104":0.1156991720199585,"105":0.18800845742225647,"106":0.11905074119567871,"107":0.12449868023395538,"108":-0.0025585051625967026,"109":-0.10837583243846893,"110":0.19727009534835815,"111":-0.02355913817882538,"112":-0.18433785438537598,"113":-0.10722627490758896,"114":0.16233029961585999,"115":0.013158372603356838,"116":0.18938326835632324,"117":-0.10200434178113937,"118":0.17434389889240265,"119":0.06842935085296631,"120":0.13838569819927216,"121":0.11081080883741379,"122":-0.08936620503664017,"123":0.0303595382720232,"124":0.01019541546702385,"125":-0.08816917985677719,"126":0.007071660831570625,"127":-0.06594950705766678,"128":0.19185245037078857,"129":0.16108828783035278,"130":-0.12614955008029938,"131":-0.1733608990907669,"132":0.006647643633186817,"133":0.14044126868247986,"134":-0.11202897131443024,"135":-0.040701210498809814,"136":0.10074973106384277,"137":0.07990244776010513,"138":0.19824263453483582,"139":0.06232268363237381,"140":0.06004757806658745,"141":-0.08567962795495987,"142":-0.16163940727710724,"143":0.1611941158771515,"144":-0.023084908723831177,"145":0.05529684200882912,"146":-0.09607584029436111,"147":-0.1530357003211975,"148":0.07220590114593506,"149":-0.14840984344482422,"150":-0.19446107745170593,"151":0.18143722414970398,"152":-0.1980653554201126,"153":-0.02025764435529709,"154":-0.1941796839237213,"155":0.19816060364246368,"156":0.038335662335157394,"157":-0.1404101401567459,"158":0.010550674982368946,"159":0.026768753305077553,"160":-0.07822740823030472,"161":0.1205182820558548,"162":0.10552968084812164,"163":0.06173279508948326,"164":-0.12730079889297485,"165":0.19504313170909882,"166":0.12308428436517715,"167":0.1281793713569641,"168":-0.04645247384905815,"169":0.1940866857767105,"170":-0.03695943206548691,"171":-0.0001103085232898593,"172":0.12185730040073395,"173":-0.056348059326410294,"174":-0.12157624959945679,"175":-0.030773386359214783,"176":0.029340533539652824,"177":-0.05820663273334503,"178":0.09244567900896072,"179":-0.12664736807346344,"180":-0.0671592503786087,"181":0.18374282121658325,"182":-0.1202780157327652,"183":0.07990730553865433,"184":0.13493238389492035,"185":-0.08328740298748016,"186":-0.18718725442886353,"187":-0.11695889383554459,"188":-0.1787089705467224,"189":-0.04710344225168228,"190":-0.10723650455474854,"191":-0.10400325059890747,"192":-0.17472662031650543,"193":-0.12305103242397308,"194":-0.10948383808135986,"195":0.11190063506364822,"196":0.04277630150318146,"197":-0.08827805519104004,"198":0.15700767934322357,"199":0.1271766573190689,"200":-0.10741940140724182,"201":-0.11204436421394348,"202":-0.15777510404586792,"203":0.176452174782753,"204":0.06589886546134949,"205":-0.009217264130711555,"206":0.18574267625808716,"207":-0.026839222759008408,"208":-0.10788241028785706,"209":0.14547549188137054,"210":-0.02176305465400219,"211":-0.013486633077263832,"212":0.16429349780082703,"213":-0.1140122264623642,"214":-0.12124194949865341,"215":0.09473022818565369,"216":0.14605501294136047,"217":0.11151977628469467,"218":-0.058985695242881775,"219":0.19391363859176636,"220":0.1194525957107544,"221":-0.11038752645254135,"222":-0.032703984528779984,"223":0.022653156891465187,"224":0.19952458143234253,"225":-0.19727672636508942,"226":-0.020581750199198723,"227":0.03444913029670715,"228":0.1488669067621231}},"10":{"bias":-0.06106968969106674,"weights":{"0":-0.1370677351951599,"1":0.1672249287366867,"2":-0.05569937825202942,"3":0.08191418647766113,"4":-0.06144493818283081,"5":0.10420920699834824,"6":-0.0586281381547451,"7":-0.18387199938297272,"8":-0.039691802114248276,"9":0.13316451013088226,"10":0.09286206215620041,"11":-0.14585661888122559,"12":0.13928456604480743,"13":-0.07397323846817017,"14":0.11835858970880508,"15":0.04172234982252121,"16":0.052253980189561844,"17":0.09620516747236252,"18":0.16625475883483887,"19":0.0900411531329155,"20":-0.1862388402223587,"21":-0.09930218756198883,"22":-0.10833519697189331,"23":0.03549554944038391,"24":-0.17276522517204285,"25":-0.17184118926525116,"26":-0.12556210160255432,"27":0.16975800693035126,"28":-0.03824189305305481,"29":-0.032460298389196396,"30":0.06908963620662689,"31":0.00455620139837265,"32":0.06451127678155899,"33":-0.10926280915737152,"34":-0.12707969546318054,"35":0.08192291855812073,"36":-0.08588876575231552,"37":-0.1351184993982315,"38":-0.027402477338910103,"39":-0.01085114199668169,"40":-0.17342689633369446,"41":0.17804951965808868,"42":0.058529164642095566,"43":-0.1421826034784317,"44":-0.17573633790016174,"45":-0.19637936353683472,"46":0.18764883279800415,"47":0.06994850933551788,"48":-0.10166183859109879,"49":0.013289080001413822,"50":-0.08969071507453918,"51":-0.046188801527023315,"52":0.02452639490365982,"53":-0.01904783584177494,"54":-0.1460692435503006,"55":0.1571444869041443,"56":0.1568339318037033,"57":-0.18167294561862946,"58":0.10456026345491409,"59":-0.14022603631019592,"60":0.07636602222919464,"61":0.0823991522192955,"62":0.16190844774246216,"63":-0.07364431023597717,"64":-0.16303694248199463,"65":0.03412652760744095,"66":-0.07706750929355621,"67":0.10899550467729568,"68":0.06331747025251389,"69":-0.025186756625771523,"70":0.16303391754627228,"71":-0.08452227711677551,"72":0.17462635040283203,"73":-0.009281720966100693,"74":0.14499105513095856,"75":0.12355183064937592,"76":0.18419639766216278,"77":-0.10619895905256271,"78":-0.02360469661653042,"79":0.17897164821624756,"80":0.1882162094116211,"81":0.10511663556098938,"82":0.05463041365146637,"83":-0.007068999577313662,"84":0.01098177395761013,"85":0.06365025788545609,"86":0.026914633810520172,"87":-0.1703299880027771,"88":0.11804954707622528,"89":-0.19675779342651367,"90":-0.10572479665279388,"91":-0.1990332007408142,"92":-0.06541658937931061,"93":-0.09303905814886093,"94":-0.014552024193108082,"95":-0.19588716328144073,"96":0.17156852781772614,"97":0.0415617972612381,"98":-0.13284245133399963,"99":0.0739210695028305,"100":-0.03368883952498436,"101":-0.17969390749931335,"102":0.040887124836444855,"103":-0.09554997086524963,"104":0.14928916096687317,"105":-0.07122763991355896,"106":-0.13749714195728302,"107":-0.14577387273311615,"108":0.07205956429243088,"109":-0.061769578605890274,"110":0.010515334084630013,"111":-0.1483386904001236,"112":-0.019511453807353973,"113":-0.19045625627040863,"114":-0.051713112741708755,"115":-0.07774604111909866,"116":0.05001075565814972,"117":-0.19069474935531616,"118":-0.09329040348529816,"119":-0.16592159867286682,"120":-0.12221437692642212,"121":0.13650555908679962,"122":0.06408096849918365,"123":0.022333335131406784,"124":0.058818791061639786,"125":-0.08981695026159286,"126":-0.04842681810259819,"127":-0.1474517285823822,"128":0.07403779774904251,"129":-0.06724795699119568,"130":0.14730365574359894,"131":-0.15394598245620728,"132":-0.07946085184812546,"133":-0.12818950414657593,"134":-0.1315428465604782,"135":0.17287904024124146,"136":0.029920270666480064,"137":0.05312405526638031,"138":0.10089132189750671,"139":0.030196869745850563,"140":-0.13002891838550568,"141":-0.17889481782913208,"142":0.1508963257074356,"143":-0.00607334403321147,"144":-0.10484873503446579,"145":-0.027704473584890366,"146":0.16940458118915558,"147":0.026238635182380676,"148":-0.04835338518023491,"149":-0.021829063072800636,"150":0.16348156332969666,"151":0.12725064158439636,"152":-0.002094621304422617,"153":-0.06126176938414574,"154":0.08546023815870285,"155":-0.09491971135139465,"156":-0.06918260455131531,"157":0.14987212419509888,"158":0.06246017664670944,"159":0.1766149252653122,"160":-0.12336558848619461,"161":0.12218708544969559,"162":0.16364139318466187,"163":-0.020873090252280235,"164":0.11791165173053741,"165":0.041976187378168106,"166":-0.18585535883903503,"167":0.05611396208405495,"168":0.025724761188030243,"169":-0.09589938074350357,"170":-0.08960529416799545,"171":0.01593383587896824,"172":-0.06565731763839722,"173":-0.11390664428472519,"174":-0.1670677661895752,"175":-0.07259025424718857,"176":-0.1509961187839508,"177":-0.12385842204093933,"178":0.1911853700876236,"179":-0.05857088416814804,"180":-0.004251511301845312,"181":-0.05017995834350586,"182":0.042395710945129395,"183":0.12104730308055878,"184":-0.11311734467744827,"185":0.07089264690876007,"186":-0.006749785039573908,"187":-0.19056272506713867,"188":-0.09427633136510849,"189":0.09327496588230133,"190":0.056447673588991165,"191":0.11298166215419769,"192":-0.12908394634723663,"193":0.17783769965171814,"194":-0.1809232234954834,"195":0.14175955951213837,"196":-0.03330713137984276,"197":-0.06857714802026749,"198":0.08785191178321838,"199":-0.14593572914600372,"200":0.06152326986193657,"201":-0.18491731584072113,"202":0.1464388221502304,"203":-0.19910594820976257,"204":-0.1974218189716339,"205":0.06647428125143051,"206":0.17130832374095917,"207":-0.1172751784324646,"208":0.19839994609355927,"209":0.009701176546514034,"210":-0.005750696174800396,"211":0.0058918301947414875,"212":0.0341351181268692,"213":-0.13246197998523712,"214":-0.17422491312026978,"215":0.15059448778629303,"216":0.12237073481082916,"217":-0.17022156715393066,"218":-0.19705824553966522,"219":0.014831189066171646,"220":-0.16473756730556488,"221":0.18175946176052094,"222":0.1905457228422165,"223":0.08147314935922623,"224":-0.13257625699043274,"225":-0.0398041307926178,"226":0.15360002219676971,"227":0.18620316684246063,"228":0.1880275458097458}},"11":{"bias":-0.13702528178691864,"weights":{"0":0.09917975962162018,"1":-0.13876624405384064,"2":-0.007427094969898462,"3":0.17250782251358032,"4":-0.08426046371459961,"5":0.09136258065700531,"6":0.004538554698228836,"7":-0.11672581732273102,"8":0.06473396718502045,"9":-0.12191542237997055,"10":-0.08536196500062943,"11":0.02425541542470455,"12":-0.1216840073466301,"13":0.17297431826591492,"14":-0.0154641754925251,"15":-0.19063594937324524,"16":0.14355550706386566,"17":0.19868668913841248,"18":-0.03763040527701378,"19":0.0668843686580658,"20":-0.05003582686185837,"21":0.15688274800777435,"22":-0.1597573161125183,"23":-0.025221100077033043,"24":0.14079166948795319,"25":0.05918145552277565,"26":-0.13174766302108765,"27":0.03976710885763168,"28":0.023615103214979172,"29":0.1441599726676941,"30":-0.1770155429840088,"31":0.09758362174034119,"32":-0.04984601214528084,"33":-0.07541818171739578,"34":0.1817106157541275,"35":0.05388662964105606,"36":-0.16123029589653015,"37":0.13191726803779602,"38":0.09784143418073654,"39":-0.034174155443906784,"40":0.1076199859380722,"41":0.06362799555063248,"42":0.16921557486057281,"43":0.18167182803153992,"44":-0.13101321458816528,"45":-0.08545312285423279,"46":0.13723090291023254,"47":0.08220714330673218,"48":-0.19613729417324066,"49":0.14148512482643127,"50":0.12479475140571594,"51":0.1898336261510849,"52":-0.17174360156059265,"53":-0.18686124682426453,"54":0.16104286909103394,"55":-0.03280435502529144,"56":-0.1357591152191162,"57":-0.1789029985666275,"58":-0.08829673379659653,"59":-0.03757920861244202,"60":0.13839130103588104,"61":-0.04622333124279976,"62":0.08374005556106567,"63":-0.17976592481136322,"64":0.02874966710805893,"65":-0.11558276414871216,"66":0.10709426552057266,"67":-0.1350935399532318,"68":0.02827339991927147,"69":0.03637778386473656,"70":0.02271132729947567,"71":0.19765089452266693,"72":-0.07059933245182037,"73":-0.06136919930577278,"74":-0.09476543217897415,"75":-0.12224523723125458,"76":-0.19985362887382507,"77":0.09404528886079788,"78":-0.018099775537848473,"79":-0.1214761734008789,"80":0.040121570229530334,"81":0.19302736222743988,"82":-0.04571831226348877,"83":0.12545433640480042,"84":-0.024387288838624954,"85":-0.1623363345861435,"86":-0.0093409838154912,"87":0.011356368660926819,"88":0.1768195629119873,"89":0.18774181604385376,"90":-0.07497833669185638,"91":-0.06384613364934921,"92":0.06976228952407837,"93":0.09338290989398956,"94":-0.10174759477376938,"95":0.026073191314935684,"96":0.05765198916196823,"97":0.0074988375417888165,"98":-0.10418766736984253,"99":-0.07377350330352783,"100":-0.02956613153219223,"101":-0.12267253547906876,"102":0.1649356335401535,"103":0.1660134494304657,"104":-0.09215729683637619,"105":0.07338045537471771,"106":-0.16528935730457306,"107":-0.1462687849998474,"108":-0.04610627144575119,"109":0.0961519256234169,"110":-0.06816970556974411,"111":0.053115587681531906,"112":0.13777577877044678,"113":0.1163843497633934,"114":0.15794219076633453,"115":0.18219031393527985,"116":-0.0800304263830185,"117":-0.11535953730344772,"118":-0.12174928933382034,"119":-0.127698615193367,"120":0.10577715933322906,"121":0.01502232626080513,"122":0.1634792685508728,"123":0.030122367665171623,"124":-0.08006385713815689,"125":0.0604931078851223,"126":-0.13435262441635132,"127":-0.059100862592458725,"128":0.05144400894641876,"129":0.15917593240737915,"130":0.11704625934362411,"131":0.17043545842170715,"132":0.11645246297121048,"133":-0.14600519835948944,"134":0.15062275528907776,"135":-0.14499525725841522,"136":-0.09498193114995956,"137":-0.007874603383243084,"138":-0.12011248618364334,"139":0.1969039887189865,"140":-0.1902368813753128,"141":-0.026280926540493965,"142":0.18054229021072388,"143":0.11868268996477127,"144":0.01307106576859951,"145":-0.027617231011390686,"146":-0.034029435366392136,"147":-0.17102272808551788,"148":-0.08062414079904556,"149":0.01541289035230875,"150":0.16304771602153778,"151":0.005969434045255184,"152":0.07146702706813812,"153":0.06929988414049149,"154":0.04822234436869621,"155":-0.12689606845378876,"156":-0.027959592640399933,"157":-0.15476448833942413,"158":-0.10219978541135788,"159":-0.10558406263589859,"160":0.03440700098872185,"161":-0.12664127349853516,"162":-0.17509274184703827,"163":-0.05516452714800835,"164":-0.11082010716199875,"165":0.13057173788547516,"166":0.05008019879460335,"167":0.05801350623369217,"168":-0.007955973036587238,"169":0.12852229177951813,"170":0.034637074917554855,"171":-0.18182885646820068,"172":0.0791517049074173,"173":-0.0005479162209667265,"174":0.12753018736839294,"175":-0.05791346728801727,"176":0.11975184082984924,"177":0.015967566519975662,"178":-0.13089804351329803,"179":-0.1289043128490448,"180":0.17425912618637085,"181":-0.12870396673679352,"182":-0.04737129434943199,"183":-0.12071754783391953,"184":0.19184541702270508,"185":0.17683541774749756,"186":-0.013841871172189713,"187":0.10046020895242691,"188":0.0646205022931099,"189":-0.1359163224697113,"190":-0.1581266224384308,"191":0.19565489888191223,"192":0.028910674154758453,"193":-0.029196377843618393,"194":-0.1428193897008896,"195":-0.06459134817123413,"196":-0.15880872309207916,"197":-0.1545182168483734,"198":-0.009409143589437008,"199":0.04916950687766075,"200":0.09152573347091675,"201":-0.14596039056777954,"202":0.19367282092571259,"203":-0.07070616632699966,"204":0.02952812798321247,"205":-0.14069506525993347,"206":0.17653526365756989,"207":0.036771804094314575,"208":-0.07186523079872131,"209":-0.04648513346910477,"210":-0.08143778145313263,"211":-0.17348934710025787,"212":-0.14592474699020386,"213":0.10178068280220032,"214":-0.18907681107521057,"215":-0.07033407688140869,"216":-0.020535586401820183,"217":-0.00022353848908096552,"218":-0.02733559161424637,"219":-0.02458191104233265,"220":0.12453648447990417,"221":-0.12556736171245575,"222":0.11983509361743927,"223":0.03595011308789253,"224":0.18437473475933075,"225":0.010401944629848003,"226":-0.18109935522079468,"227":0.11399687081575394,"228":-0.09247710555791855}},"12":{"bias":-0.19253289699554443,"weights":{"0":-0.001415360253304243,"1":-0.1484294980764389,"2":-0.16878953576087952,"3":-0.14612366259098053,"4":0.1456679105758667,"5":0.03002246655523777,"6":-0.08495497703552246,"7":-0.02159707061946392,"8":0.041955482214689255,"9":0.14702367782592773,"10":0.07837237417697906,"11":0.12111041694879532,"12":-0.005913694389164448,"13":-0.09949269145727158,"14":0.08761055767536163,"15":0.04612984135746956,"16":0.07599150389432907,"17":-0.1953960508108139,"18":-0.11848875880241394,"19":-0.1115073412656784,"20":-0.09278655797243118,"21":-0.19651156663894653,"22":-0.003653573337942362,"23":-0.029280096292495728,"24":-0.02535761147737503,"25":-0.13703396916389465,"26":-0.027698175981640816,"27":0.11580238491296768,"28":0.006102688144892454,"29":0.19979621469974518,"30":0.19148345291614532,"31":-0.02384679578244686,"32":-0.010838758200407028,"33":0.1821279227733612,"34":-0.1140877828001976,"35":0.05533913895487785,"36":-0.155415877699852,"37":-0.1334974318742752,"38":0.19627109169960022,"39":-0.18242938816547394,"40":-0.13469664752483368,"41":0.1684570014476776,"42":-0.04016118496656418,"43":-0.11435290426015854,"44":-0.013118288479745388,"45":-0.053467437624931335,"46":0.11246442794799805,"47":0.16397395730018616,"48":-0.05842508748173714,"49":0.04308633133769035,"50":0.12671275436878204,"51":0.034072402864694595,"52":-0.04190395772457123,"53":0.1812090277671814,"54":0.1995050460100174,"55":-0.1971617490053177,"56":0.1405278444290161,"57":-0.18943078815937042,"58":0.13686470687389374,"59":0.15620674192905426,"60":-0.019252240657806396,"61":-0.08449128270149231,"62":-0.15321999788284302,"63":0.05127236247062683,"64":0.09436210989952087,"65":-0.0948665514588356,"66":0.08190197497606277,"67":0.13027480244636536,"68":0.18175937235355377,"69":0.13032683730125427,"70":-0.04655517265200615,"71":0.0032682798337191343,"72":0.02529246360063553,"73":-0.07093837857246399,"74":0.03005402907729149,"75":0.03775351867079735,"76":-0.16831766068935394,"77":-0.022051148116588593,"78":0.0036397804506123066,"79":0.1813984215259552,"80":0.09900261461734772,"81":-0.04277300089597702,"82":-0.10757412016391754,"83":-0.06718980520963669,"84":0.06807784736156464,"85":0.1252874881029129,"86":-0.15956547856330872,"87":-0.010580511763691902,"88":-0.10037609934806824,"89":0.12032754719257355,"90":-0.07997024804353714,"91":0.05538337677717209,"92":0.029986314475536346,"93":-0.15421482920646667,"94":-0.17009904980659485,"95":-0.0904194563627243,"96":-0.19716876745224,"97":-0.15987414121627808,"98":0.10943526029586792,"99":0.06680214405059814,"100":-0.16741248965263367,"101":0.1824425607919693,"102":-0.037502042949199677,"103":0.1891687512397766,"104":0.19932638108730316,"105":0.17469266057014465,"106":-0.1501394510269165,"107":-0.1639312505722046,"108":0.15499556064605713,"109":0.1714147925376892,"110":-0.16688649356365204,"111":0.015023955143988132,"112":-0.12161889672279358,"113":-0.11029397696256638,"114":-0.15844757854938507,"115":-0.16370055079460144,"116":-0.038443222641944885,"117":0.16520433127880096,"118":-0.17336925864219666,"119":0.05776621028780937,"120":-0.1313207596540451,"121":0.15045484900474548,"122":0.1541500687599182,"123":0.013376341201364994,"124":0.028803864493966103,"125":0.17965146899223328,"126":0.08775050938129425,"127":0.017276620492339134,"128":-0.15059307217597961,"129":0.09115368872880936,"130":-0.019740501418709755,"131":-0.034597497433423996,"132":-0.12168887257575989,"133":0.07247227430343628,"134":0.1523941159248352,"135":-0.13443991541862488,"136":-0.08168542385101318,"137":0.10708533972501755,"138":-0.04590388387441635,"139":0.03474777936935425,"140":0.15290714800357819,"141":-0.10024711489677429,"142":-0.07386528700590134,"143":-0.16866227984428406,"144":0.0058328695595264435,"145":-0.08062940090894699,"146":-0.13368435204029083,"147":0.1352013349533081,"148":-0.15821214020252228,"149":0.049393411725759506,"150":0.045874398201704025,"151":0.02994234673678875,"152":-0.19093100726604462,"153":0.1879616230726242,"154":-0.023107606917619705,"155":-0.12084232270717621,"156":-0.016499638557434082,"157":0.1399608552455902,"158":0.0627797544002533,"159":-0.09882902354001999,"160":0.034930501133203506,"161":0.13246197998523712,"162":-0.11620128154754639,"163":-0.07201243937015533,"164":0.05438034608960152,"165":0.1628440022468567,"166":-0.14411789178848267,"167":0.12181147187948227,"168":0.07155797630548477,"169":-0.11343318223953247,"170":-0.057735465466976166,"171":0.17590592801570892,"172":-0.19976438581943512,"173":-0.07094720005989075,"174":-0.10597685724496841,"175":-0.07562480121850967,"176":0.1110411211848259,"177":0.050026971846818924,"178":-0.07787036150693893,"179":0.025454651564359665,"180":-0.0367412194609642,"181":-0.13275790214538574,"182":0.10544989258050919,"183":0.1797189563512802,"184":-0.1965962052345276,"185":0.018137184903025627,"186":0.1690763533115387,"187":0.11238159984350204,"188":-0.09204147756099701,"189":-0.10329921543598175,"190":-0.10412436723709106,"191":0.04175876826047897,"192":0.007878000847995281,"193":-0.1860624998807907,"194":-0.023181824013590813,"195":0.13197274506092072,"196":-0.17887136340141296,"197":-0.010201215744018555,"198":-0.1622791886329651,"199":-0.18711113929748535,"200":0.10412267595529556,"201":-0.0203261561691761,"202":0.13436318933963776,"203":0.19176870584487915,"204":0.05971089377999306,"205":-0.005445549730211496,"206":-0.1357383131980896,"207":-0.18684087693691254,"208":-0.08478254824876785,"209":-0.00652657076716423,"210":0.11163759231567383,"211":0.11179976910352707,"212":-0.09931803494691849,"213":-0.19698986411094666,"214":-0.10062923282384872,"215":-0.18718299269676208,"216":0.04906759783625603,"217":-0.15554927289485931,"218":-0.19001945853233337,"219":0.16447380185127258,"220":0.028950072824954987,"221":-0.14025677740573883,"222":-0.01327158696949482,"223":-0.18743883073329926,"224":-0.13358913362026215,"225":-0.013919495046138763,"226":0.029206927865743637,"227":0.19677028059959412,"228":0.10523945093154907}},"13":{"bias":0.07555843144655228,"weights":{"0":0.16878066956996918,"1":0.0018988525262102485,"2":-0.19616511464118958,"3":0.061475854367017746,"4":0.1114143505692482,"5":0.06780057400465012,"6":0.12480350583791733,"7":-0.004799559712409973,"8":-0.11848090589046478,"9":-0.04667133837938309,"10":0.045616619288921356,"11":-0.1998261660337448,"12":-0.1401345580816269,"13":0.04602387920022011,"14":-0.1789366602897644,"15":-0.15354880690574646,"16":0.09373530000448227,"17":-0.13996489346027374,"18":0.14519307017326355,"19":0.1423867791891098,"20":0.04278487712144852,"21":-0.1915135383605957,"22":0.11535158008337021,"23":-0.10377837717533112,"24":0.18196679651737213,"25":-0.06510865688323975,"26":0.10052881389856339,"27":0.09872464090585709,"28":-0.1374911665916443,"29":0.12725411355495453,"30":0.174654021859169,"31":0.17263425886631012,"32":-0.01633417047560215,"33":-0.16981323063373566,"34":-0.1695454865694046,"35":0.08887552469968796,"36":0.1696067899465561,"37":0.05683492124080658,"38":0.19356578588485718,"39":-0.07094620913267136,"40":-0.15178102254867554,"41":0.10989347100257874,"42":-0.1507929563522339,"43":-0.11807550489902496,"44":0.17161236703395844,"45":-0.04183288663625717,"46":0.16406819224357605,"47":-0.062480635941028595,"48":-0.025418421253561974,"49":-0.0013643810525536537,"50":-0.060652878135442734,"51":-0.02186814323067665,"52":-0.16567520797252655,"53":0.05244995281100273,"54":0.03407222405076027,"55":-0.04823967441916466,"56":-0.09817665070295334,"57":-0.17725783586502075,"58":0.10809655487537384,"59":0.030655967071652412,"60":-0.08390118926763535,"61":-0.09530631452798843,"62":-0.11821664124727249,"63":0.03955027461051941,"64":0.07111553847789764,"65":-0.029186280444264412,"66":-0.19579049944877625,"67":0.02682405151426792,"68":0.14693282544612885,"69":-0.19640709459781647,"70":-0.10797200351953506,"71":-0.043427176773548126,"72":0.1984110325574875,"73":-0.07453935593366623,"74":-0.0740387886762619,"75":-0.0017026587156578898,"76":-0.015458159148693085,"77":-0.15189875662326813,"78":-0.17036429047584534,"79":-0.13466596603393555,"80":0.07617081701755524,"81":-0.08704125881195068,"82":-0.06622692197561264,"83":0.04068533703684807,"84":-0.17739704251289368,"85":0.11304297298192978,"86":-0.13972462713718414,"87":-0.0687304437160492,"88":-0.17050138115882874,"89":0.13680590689182281,"90":-0.19185703992843628,"91":-0.18770408630371094,"92":-0.0672738179564476,"93":0.005662840325385332,"94":0.05920704826712608,"95":0.0344809927046299,"96":-0.19185777008533478,"97":-0.05568326637148857,"98":-0.06972049921751022,"99":0.0905483141541481,"100":0.042111705988645554,"101":-0.15414008498191833,"102":-0.1657314896583557,"103":0.1436534821987152,"104":-0.13109424710273743,"105":0.1545521467924118,"106":0.11856774240732193,"107":-0.06428053230047226,"108":-0.0351748913526535,"109":0.09052616357803345,"110":0.08532961457967758,"111":0.095321886241436,"112":0.18826255202293396,"113":0.19652071595191956,"114":-0.07407423853874207,"115":-0.009195268154144287,"116":0.0643814355134964,"117":0.12461527436971664,"118":0.0606776587665081,"119":-0.04269625246524811,"120":-0.01932770386338234,"121":0.16918419301509857,"122":-0.07785730808973312,"123":0.03991854563355446,"124":-0.13108240067958832,"125":0.023992113769054413,"126":0.1313531994819641,"127":-0.09536223113536835,"128":0.11938544362783432,"129":0.0773780345916748,"130":-0.18771125376224518,"131":0.1331910789012909,"132":0.032677195966243744,"133":0.023103227838873863,"134":0.178537979722023,"135":-0.18293754756450653,"136":0.11837289482355118,"137":-0.06422369182109833,"138":0.023100191727280617,"139":0.08509133011102676,"140":-0.02480573207139969,"141":0.1401587873697281,"142":0.07675740122795105,"143":-0.0018010910134762526,"144":-0.07005512714385986,"145":-0.07577350735664368,"146":0.12880171835422516,"147":-0.14845344424247742,"148":0.06998958438634872,"149":-0.016733482480049133,"150":-0.10170575976371765,"151":0.17423070967197418,"152":0.016188066452741623,"153":-0.16716067492961884,"154":0.06042023003101349,"155":0.12653201818466187,"156":-0.11493481695652008,"157":-0.10495129227638245,"158":-0.14586855471134186,"159":-0.03904439136385918,"160":-0.14586535096168518,"161":-0.020888395607471466,"162":-0.04512036591768265,"163":0.11654668301343918,"164":0.12001240253448486,"165":-0.05769941210746765,"166":-0.024762919172644615,"167":0.07046835869550705,"168":0.13340280950069427,"169":0.12324260175228119,"170":-0.10801056027412415,"171":-0.12563340365886688,"172":-0.17548231780529022,"173":0.057285767048597336,"174":-0.10309509187936783,"175":-0.03422088921070099,"176":0.07304871827363968,"177":0.19067201018333435,"178":0.10800708830356598,"179":0.016084762290120125,"180":-0.07618867605924606,"181":0.09202862530946732,"182":-0.0398830771446228,"183":-0.17530716955661774,"184":-0.04935479536652565,"185":-0.17278923094272614,"186":0.09571747481822968,"187":0.004942745435982943,"188":-0.0484267883002758,"189":-0.007957419380545616,"190":0.16891609132289886,"191":-0.19206158816814423,"192":-0.027547990903258324,"193":0.01165028102695942,"194":-0.13735198974609375,"195":0.1311788111925125,"196":-0.05248846486210823,"197":-0.13799555599689484,"198":-0.18380723893642426,"199":0.025617141276597977,"200":0.10810381919145584,"201":-0.131632000207901,"202":-0.11706852167844772,"203":0.013042006641626358,"204":-0.0612475760281086,"205":0.08416625112295151,"206":-0.11559968441724777,"207":-0.06610486656427383,"208":-0.12550999224185944,"209":0.0683414414525032,"210":-0.05706104636192322,"211":0.157231405377388,"212":0.18626680970191956,"213":-0.05844578891992569,"214":0.1855676919221878,"215":0.14344726502895355,"216":-0.08666866272687912,"217":0.1988653838634491,"218":0.15205106139183044,"219":-0.08288823813199997,"220":0.13044898211956024,"221":0.17075735330581665,"222":0.0532752200961113,"223":-0.03726367652416229,"224":-0.11148858815431595,"225":-0.15506675839424133,"226":-0.04433583468198776,"227":-0.15519922971725464,"228":-0.03383062034845352}},"14":{"bias":-0.011630604974925518,"weights":{"0":-0.15831902623176575,"1":0.16792887449264526,"2":0.1844206601381302,"3":-0.05012500286102295,"4":-0.11690480262041092,"5":-0.02022974193096161,"6":0.0008108573383651674,"7":0.06905442476272583,"8":-0.10177455097436905,"9":0.024027787148952484,"10":0.1491989642381668,"11":-0.1697949767112732,"12":-0.019584277644753456,"13":-0.13994118571281433,"14":-0.06095186620950699,"15":-0.1758873164653778,"16":0.09474252909421921,"17":-0.10312037914991379,"18":-0.1894046813249588,"19":0.10215877741575241,"20":-0.1925005316734314,"21":0.052954237908124924,"22":0.011306718923151493,"23":-0.07297084480524063,"24":0.18120768666267395,"25":0.017582574859261513,"26":0.1815723031759262,"27":-0.19489449262619019,"28":-0.010829079896211624,"29":0.1206507459282875,"30":-0.016600392758846283,"31":-0.1600259244441986,"32":0.06671375781297684,"33":-0.11485220491886139,"34":-0.074528269469738,"35":0.024698667228221893,"36":0.16862674057483673,"37":-0.06979136914014816,"38":-0.02452339418232441,"39":-0.03971465304493904,"40":-0.14583684504032135,"41":0.0830269455909729,"42":0.09661169350147247,"43":-0.18443158268928528,"44":0.14454303681850433,"45":-0.15192322432994843,"46":0.12089236080646515,"47":0.07433795183897018,"48":-0.03850165754556656,"49":-0.10322345048189163,"50":-0.09117859601974487,"51":0.08918917924165726,"52":0.01615954004228115,"53":0.1595255583524704,"54":-0.031050676479935646,"55":-0.19764895737171173,"56":-0.023427089676260948,"57":-0.07535572350025177,"58":-0.14524756371974945,"59":0.1902509331703186,"60":0.12212008982896805,"61":0.13967017829418182,"62":0.19781069457530975,"63":-0.10233603417873383,"64":0.1932670772075653,"65":-0.12200582027435303,"66":0.16629642248153687,"67":-0.10705454647541046,"68":-0.14826954901218414,"69":-0.023625390604138374,"70":0.06756111234426498,"71":-0.0030694282613694668,"72":-0.19310201704502106,"73":0.13166017830371857,"74":0.09501568973064423,"75":-0.19046467542648315,"76":0.10301458090543747,"77":-0.03847963735461235,"78":0.10054769366979599,"79":0.009360503405332565,"80":-0.025531979277729988,"81":0.0766829326748848,"82":-0.010840227827429771,"83":-0.07832634449005127,"84":-0.010563664138317108,"85":0.09660789370536804,"86":0.16690847277641296,"87":-0.1766829639673233,"88":-0.08258506655693054,"89":-0.10372806340456009,"90":-0.13271136581897736,"91":0.1017945185303688,"92":-0.060895733535289764,"93":0.08734571188688278,"94":0.19777774810791016,"95":0.16159476339817047,"96":-0.1853560209274292,"97":-0.1434347927570343,"98":0.19973018765449524,"99":0.13916799426078796,"100":0.10433124750852585,"101":-0.07396328449249268,"102":0.06394418329000473,"103":0.04993462935090065,"104":-0.1199890524148941,"105":-0.11489889770746231,"106":0.03937810659408569,"107":0.1275755912065506,"108":-0.08104324340820312,"109":0.08972249925136566,"110":-0.1393383890390396,"111":-0.1751367598772049,"112":-0.07555440068244934,"113":0.13580375909805298,"114":0.1977131962776184,"115":0.10539823770523071,"116":-0.11721902340650558,"117":-0.018873443827033043,"118":-0.04766629636287689,"119":-0.041985537856817245,"120":-0.05488250032067299,"121":-0.17503711581230164,"122":0.12768147885799408,"123":-0.05110565200448036,"124":-0.040489908307790756,"125":-0.15497076511383057,"126":0.14221318066120148,"127":0.0778411328792572,"128":0.02802872471511364,"129":0.1473885327577591,"130":0.16197426617145538,"131":0.030023062601685524,"132":0.17750957608222961,"133":-0.18897606432437897,"134":0.14828507602214813,"135":-0.06701405346393585,"136":0.11340191960334778,"137":0.09443972259759903,"138":-0.06636803597211838,"139":0.08532228320837021,"140":-0.061824981123209,"141":0.14035724103450775,"142":-0.11722633242607117,"143":-0.06397166848182678,"144":0.18085908889770508,"145":-0.1040835753083229,"146":0.023452207446098328,"147":0.13641372323036194,"148":0.14523325860500336,"149":0.06087950989603996,"150":-0.10268557071685791,"151":0.12521375715732574,"152":-0.07845508307218552,"153":0.05142791569232941,"154":0.10011659562587738,"155":-0.1825435310602188,"156":0.1579117327928543,"157":-0.036501944065093994,"158":-0.12455935031175613,"159":0.017792750149965286,"160":-0.015291830524802208,"161":0.006138306576758623,"162":0.09008656442165375,"163":-0.1983242928981781,"164":0.1231439858675003,"165":0.024477696046233177,"166":-0.05593473091721535,"167":-0.10534584522247314,"168":-0.08810660988092422,"169":0.1317700296640396,"170":0.12725266814231873,"171":0.17742960155010223,"172":0.04843853414058685,"173":0.006959347054362297,"174":-0.029560675844550133,"175":-0.020265258848667145,"176":-0.01781746745109558,"177":0.13732342422008514,"178":-0.1669856756925583,"179":0.08047707378864288,"180":0.19591812789440155,"181":-0.16155244410037994,"182":-0.052095700055360794,"183":0.1357155442237854,"184":0.11006499081850052,"185":-0.17226140201091766,"186":-0.11404452472925186,"187":0.11434517055749893,"188":0.17993199825286865,"189":-0.16816164553165436,"190":0.17884641885757446,"191":0.09252133220434189,"192":-0.14921432733535767,"193":0.09589072316884995,"194":0.18561413884162903,"195":-0.0012970460811629891,"196":-0.08859705179929733,"197":-0.1792268007993698,"198":0.02224232628941536,"199":0.06716609001159668,"200":-0.07143303751945496,"201":-0.14340625703334808,"202":0.01862229034304619,"203":0.006830741185694933,"204":-0.05346103757619858,"205":0.08311162143945694,"206":-0.03319147974252701,"207":-0.09116142988204956,"208":0.1731051206588745,"209":-0.10550697147846222,"210":0.10537876933813095,"211":-0.13276110589504242,"212":0.13119205832481384,"213":-0.19619189202785492,"214":-0.16509783267974854,"215":-0.1563424915075302,"216":-0.12762665748596191,"217":-0.039559200406074524,"218":0.1991109848022461,"219":-0.11773894727230072,"220":0.05797499418258667,"221":0.05924307927489281,"222":-0.10967277735471725,"223":0.18162265419960022,"224":0.027830855920910835,"225":0.0635828822851181,"226":0.16687774658203125,"227":-0.1228913888335228,"228":0.014740529470145702}},"15":{"bias":-0.1317499876022339,"weights":{"0":-0.07263010740280151,"1":-0.12203212827444077,"2":0.06005753576755524,"3":0.0036252967547625303,"4":-0.1701226383447647,"5":0.19274361431598663,"6":0.014866671524941921,"7":0.19354870915412903,"8":0.05357842147350311,"9":0.1932082325220108,"10":-0.040022656321525574,"11":-0.10082592815160751,"12":-0.19823728501796722,"13":0.039559997618198395,"14":0.10825447738170624,"15":-0.008445393294095993,"16":-0.16833235323429108,"17":0.0030134667176753283,"18":0.13000056147575378,"19":0.15233777463436127,"20":0.1858990341424942,"21":-0.018614117056131363,"22":0.0991554707288742,"23":-0.18424293398857117,"24":-0.17483152449131012,"25":0.07949298620223999,"26":0.18858210742473602,"27":0.12983375787734985,"28":-0.01684357412159443,"29":-0.04604538157582283,"30":0.1746944785118103,"31":0.1768791824579239,"32":0.010880878195166588,"33":-0.19358189404010773,"34":-0.1693543791770935,"35":0.13237696886062622,"36":-0.1972900778055191,"37":0.1486179530620575,"38":-0.012698914855718613,"39":-0.13916535675525665,"40":0.10785151273012161,"41":-0.1782533824443817,"42":0.039287932217121124,"43":-0.1197371557354927,"44":0.12496598064899445,"45":-0.06721482425928116,"46":0.10680501163005829,"47":0.013489625416696072,"48":0.04115172475576401,"49":-0.01638663373887539,"50":0.16217899322509766,"51":0.06964006274938583,"52":-0.19288215041160583,"53":-0.17385344207286835,"54":0.17398308217525482,"55":-0.10133610665798187,"56":-0.1487121731042862,"57":-0.10922719538211823,"58":-0.029867632314562798,"59":0.07522304356098175,"60":-0.15550577640533447,"61":0.09423237293958664,"62":0.0038678136188536882,"63":0.08298932760953903,"64":0.0416555255651474,"65":-0.1287892758846283,"66":0.15613910555839539,"67":-0.0024412935599684715,"68":-0.15404894948005676,"69":-0.0937759131193161,"70":0.19890397787094116,"71":-0.03966386616230011,"72":0.022518007084727287,"73":-0.03615286946296692,"74":0.14763832092285156,"75":-0.16181962192058563,"76":-0.10009922832250595,"77":-0.13322125375270844,"78":-0.14751766622066498,"79":-0.062455810606479645,"80":0.06140807643532753,"81":0.10746140033006668,"82":0.046256665140390396,"83":-0.0854770839214325,"84":0.09200382977724075,"85":-0.02306522987782955,"86":0.13847260177135468,"87":-0.13644331693649292,"88":-0.03809617832303047,"89":0.021011250093579292,"90":-0.0894034281373024,"91":0.012275020591914654,"92":-0.09312127530574799,"93":-0.0793851986527443,"94":-0.07198617607355118,"95":-0.12464110553264618,"96":-0.153263658285141,"97":-0.029960796236991882,"98":0.19579656422138214,"99":-0.15209101140499115,"100":-0.03544391319155693,"101":0.0791683942079544,"102":-0.16522274911403656,"103":0.04331478849053383,"104":0.03281460329890251,"105":-0.12711849808692932,"106":-0.05586126819252968,"107":0.16827400028705597,"108":0.0011800889624282718,"109":-0.11277510225772858,"110":-0.09312409162521362,"111":0.12572339177131653,"112":0.09266388416290283,"113":0.07691960036754608,"114":-0.0010095806792378426,"115":-0.09251987189054489,"116":-0.12406109273433685,"117":-0.1470370888710022,"118":-0.16269780695438385,"119":-0.07620495557785034,"120":-0.015881095081567764,"121":0.05027017742395401,"122":-0.05000628903508186,"123":0.1772037297487259,"124":-0.19495990872383118,"125":-0.06203551962971687,"126":-0.054431624710559845,"127":0.04837888479232788,"128":-0.17659243941307068,"129":0.027500387281179428,"130":-0.1735292226076126,"131":0.0473688580095768,"132":0.11362703144550323,"133":0.09106311202049255,"134":-0.09385519474744797,"135":-0.1776459962129593,"136":-0.0475933775305748,"137":-0.1251114457845688,"138":-0.1441187709569931,"139":-0.028482744470238686,"140":0.07447312027215958,"141":-0.13629776239395142,"142":0.15064264833927155,"143":-0.08292285352945328,"144":0.14688993990421295,"145":-0.15909627079963684,"146":0.14982135593891144,"147":-0.0688592940568924,"148":0.033398259431123734,"149":0.09156016260385513,"150":0.03265230730175972,"151":-0.022293206304311752,"152":-0.04950344190001488,"153":-0.0933600589632988,"154":0.12750712037086487,"155":-0.0426376573741436,"156":0.1428075134754181,"157":-0.18727022409439087,"158":-0.19132690131664276,"159":0.16871266067028046,"160":0.1330125778913498,"161":-0.1552964150905609,"162":0.09548605978488922,"163":-0.10546604543924332,"164":0.014337779954075813,"165":-0.16052603721618652,"166":0.002862406661733985,"167":-0.13218086957931519,"168":0.046164706349372864,"169":0.04297386109828949,"170":-0.14536413550376892,"171":-0.1511295586824417,"172":-0.07518548518419266,"173":0.15689371526241302,"174":-0.15949805080890656,"175":0.11201547831296921,"176":0.15881095826625824,"177":0.18765787780284882,"178":-0.06505704671144485,"179":-0.10243670642375946,"180":0.018239542841911316,"181":-0.06590866297483444,"182":-0.1352066993713379,"183":-0.029639391228556633,"184":0.07568557560443878,"185":-0.14771659672260284,"186":0.1503579020500183,"187":-0.008905895054340363,"188":-0.048706989735364914,"189":-0.043530531227588654,"190":0.12343689054250717,"191":-0.12784165143966675,"192":-0.18581797182559967,"193":-0.08780980855226517,"194":-0.19638735055923462,"195":-0.07115861773490906,"196":-0.1473933905363083,"197":0.10404262691736221,"198":0.1479535698890686,"199":-0.1937592774629593,"200":0.11405365914106369,"201":0.13772337138652802,"202":0.1327778398990631,"203":-0.09530563652515411,"204":-0.04442114010453224,"205":0.18692749738693237,"206":-0.10559641569852829,"207":0.0877334475517273,"208":-0.12952524423599243,"209":-0.08857231587171555,"210":0.06643804907798767,"211":-0.1735605001449585,"212":0.15127822756767273,"213":-0.14202874898910522,"214":-0.057463016360998154,"215":0.11217091977596283,"216":-0.005699203349649906,"217":0.1728406548500061,"218":-0.17963527143001556,"219":-0.06775626540184021,"220":-0.02581821009516716,"221":0.11125115305185318,"222":-0.19334091246128082,"223":-0.016572484746575356,"224":0.05643725022673607,"225":0.015111199580132961,"226":0.05855504423379898,"227":0.1452638804912567,"228":-0.11001794040203094}},"16":{"bias":0.17092153429985046,"weights":{"0":0.05895385146141052,"1":-0.07945821434259415,"2":0.12084785848855972,"3":-0.13887278735637665,"4":0.09088468551635742,"5":-0.0061627640388906,"6":-0.054758161306381226,"7":0.09672745317220688,"8":-0.008671118877828121,"9":-0.01584692858159542,"10":-0.07210192829370499,"11":-0.11564771085977554,"12":0.13042598962783813,"13":-0.1021842360496521,"14":-0.1321387141942978,"15":-0.11206483840942383,"16":-0.18324768543243408,"17":-0.1126813143491745,"18":-0.1347060352563858,"19":0.11629463732242584,"20":-0.18597015738487244,"21":-0.11552321165800095,"22":-0.03103395365178585,"23":-0.1873878538608551,"24":-0.08349800109863281,"25":-0.19069364666938782,"26":-0.043679580092430115,"27":-0.08613341301679611,"28":0.12931454181671143,"29":0.16546761989593506,"30":-0.16678225994110107,"31":0.02931356243789196,"32":-0.011841128580272198,"33":-0.1991523951292038,"34":-0.13427524268627167,"35":0.16888746619224548,"36":0.04511258006095886,"37":-0.0354585126042366,"38":-0.19867855310440063,"39":-0.12416982650756836,"40":-0.04735224321484566,"41":0.13609807193279266,"42":0.15741415321826935,"43":-0.018213357776403427,"44":-0.014647599309682846,"45":0.0026989963371306658,"46":0.1935386061668396,"47":-0.13201501965522766,"48":-0.132571741938591,"49":-0.009546689689159393,"50":0.1512623429298401,"51":-0.10694258660078049,"52":-0.11180227994918823,"53":0.07083527743816376,"54":-0.07104340940713882,"55":-0.09157685190439224,"56":0.1700865626335144,"57":0.07839788496494293,"58":0.020338214933872223,"59":0.020781051367521286,"60":-0.10406051576137543,"61":-0.17905844748020172,"62":0.05869673192501068,"63":-0.04260772094130516,"64":-0.08484653383493423,"65":0.1569518893957138,"66":0.08761747926473618,"67":0.05355064198374748,